svm_type c_svc
kernel_type linear
nr_class 26
total_sv 2960
rho -3.0791242753043266 -3.9323586602690717 2.7369491948614906 -0.626492148937907 2.206765405499346 7.373745978764718 -1.3501365345189127 2.1919066873274287 4.268243373998641 1.356138463197071 2.5266825663264694 2.106202712219305 1.3204154829672199 3.7958031979450637 3.5902216164653953 1.5194512035458678 1.1228412375109191 1.0303369116692827 -0.3286865789963412 9.606831058476776E-4 0.7133329856469863 -0.7867110813880746 0.030318294138486447 -1.339444478325166 -0.8068387383099662 5.395502715515187 9.073408760715687 1.0299401735440938 1.3368041274695932 3.249020070464621 0.3260892751647371 2.7370436759887324 2.431850077764834 4.043424237455858 1.2820646006858405 1.422406394173704 1.1137656527666449 3.331205734127397 1.948912397257165 1.8455286123937966 3.8984438562778023 2.056824359801196 0.5395436296511529 0.9001775055330488 0.3255275195792412 -0.018213873927823077 0.9256492943352667 1.0823022835679388 0.8995373466562072 5.4940831112691 1.0402699794473178 1.8846078654257876 6.327560057225607 -0.86459371271552 2.262776135515224 4.257618363699906 2.3078551185110596 1.7665415488885579 2.3107486407193623 2.062908341795365 3.643583793992233 2.387946122035724 1.8275886052010144 3.1032856178297985 4.475265590767713 0.5828760161485744 0.6120920598892878 0.4964387230521432 -0.525646814044453 0.24248983679127253 -0.9388990699715196 -0.0658701766029628 -0.5205984515043842 1.6671306323983734 2.653092653912771 -1.1777261561952255 0.49584438550562226 2.2343991765969364 0.5628507150797408 0.012900173634049467 1.442404920130463 1.0355455299946523 3.243969589256048 1.9446703861404029 2.098204620813284 1.1858214662155295 0.2568259244849866 -0.8624436953953432 -0.1966700965645466 -0.11353146865025339 -0.493393751120768 0.13667150676204254 -2.831422030425571 -0.11907363001829734 3.2218235694391013 2.0931031847460853 -0.8173366830176383 1.7257522360516047 1.25696220572625 0.7434296393079195 2.5610081789497627 3.0621549675069843 1.0112432413287031 3.4662850702125385 2.216849797361538 1.3569556907134077 1.9902435444417854 1.5152516809933791 0.09414852889333074 0.625575211614858 1.8300286532043715 -0.6546639915704123 0.4626807638617421 -0.0869207544231403 0.3908543878920127 -3.16124459967837 -2.8122465876108476 -4.310727133233037 -2.361270951859992 -2.6377609155380792 -3.3084093081121195 -5.793811627915794 -3.5853592188848866 -5.203743683709316 -3.655747434529762 -1.906854582894144 -1.9093020456232659 -2.6433160836183722 -2.600189730956977 -3.157651062994479 -2.7906680133289106 -2.7560587002995005 -1.5139774939120636 -1.1608739031770572 -2.637464854118194 -1.833542782161855 1.8775985702277176 0.5543631490076262 -1.8193928700308766 2.73322757036753 2.676791876009836 0.8659216222842822 5.876421037374223 3.226610180693306 -2.4599537698317757 -3.748130731214959 0.3461845730327876 -0.8424346619136814 -1.4676055039736307 -0.1361802153873724 -1.6791288434410234 -0.6135304484925598 -1.5467560689433235 -1.2394471376767897 1.7199387944519484 2.062239558972419 1.415353475502543 2.1027916435116154 2.639409214878967 1.3607768187397695 3.712923993777942 1.9247395381232486 1.1046417785242253 1.6278776231827023 1.7470827327502805 0.2854099424574862 4.305866656846332 0.7408047205227187 -1.15499813706438 0.3120601445449482 -0.16052465817423747 0.9410550533322488 0.21215125194069362 -2.9469601506105962 -0.5918559381925633 3.0577240398107444 -1.6296574231567422 1.7773156373111834 -0.04231339763380452 -1.2743792132401592 -1.0340956438735078 -0.019002968740837664 -3.769054897096823 -0.6985872023542802 -0.2647289490516392 -1.9495957175586907 -1.3955292239820223 -0.9101346741467856 -2.751435440931814 -6.613009114019078 -0.5877549671902741 2.212545078131588 -0.8394970122931662 0.5621775858329581 0.6665410424976681 -0.8730857717701757 -2.538172790602321 -1.3044410740410848 -1.9264700869303357 -1.3915098683951348 -0.07365171051277869 -0.955462853573809 -1.0825308298406016 -0.9343790891076693 -2.8720436151783697 0.5809992229998643 3.595172104615491 1.293717750238279 6.1249409108942245 2.1078574195226167 0.9819364794486192 -1.0671689386640708 0.05622572173423842 -2.624966965562869 -0.21341843980998268 0.17593116304039233 -1.1469815218444457 -0.5188260284371973 -1.2627292079390635 -2.8780299606500086 2.171483904081085 -0.3613801342133141 0.9888602999882754 -1.044911862730187 -0.7515449964796469 -0.39916640637099604 -0.18196752973190933 -2.014073847325631 -1.0434823512925273 -0.2226792965237655 -2.0255974122496667 -1.0468458631606978 -0.30590018649206313 -1.171466656284216 -2.7830860398476713 -3.8478305310655125 -3.097199949840419 -2.00354963376663 -1.890960181273048 -2.3881500897145935 -2.8999002608638937 -2.988111756991333 -1.482635079048952 -2.9485499626321565 -1.3838704325681053 -1.0639444768413324 -3.606918813535595 4.025986991691 1.3273966403781545 -0.36167544599637985 -0.14007127779761236 -0.43617829915294587 -5.296895038731206 -0.3427569628848367 0.02864935460039383 -1.7744343649472119 -0.7986215884910042 -0.9402122852385617 -1.4782180606518616 -3.2983118530928004 -1.9952799922189501 -1.8851448169191856 -4.703709583686993 -4.094814604200299 -2.0989930511338897 -0.45752457018819126 -3.1359804459669913 -1.8925904852178081 -1.4196592530115213 -3.3378027982672465 -1.6129378023952397 -1.294450838665145 -1.0897101018672255 -2.8400909566182206 -1.0231811008569132 0.09693702500499356 -2.5651366617735856 -1.6004139850379202 -0.9580726411624276 -1.7457103711569335 -1.52167259144572 0.03334439156050778 -0.738355631635938 -0.4403587563101331 0.08273941984199663 -0.6694612729955851 -0.4479120741714478 -1.9236695702254551 -0.9536615271060181 0.6894455312775253 -0.7142867821671801 -0.8889862637690418 -0.004707891826683272 -0.7416102477743031 -0.8929542114477316 -4.518213878498376 -1.4573231018300827 -1.2425461840707266 -0.7415903243462776 -0.06115158289133346 -1.2957452897014483 -1.5327790051433858 -0.8388125262873288 -2.0474944271449704 0.702867360302491 0.35885842061733764 -0.7851497125456106 0.5967117564212903 -0.14227559329838463 0.1317295986395009 0.20578435426029001 -1.4296690960840024 -0.8222377068814265 -0.3877355527583205 -1.5457207925418153 -0.7314962877326512 -0.25111308917059205 -0.17749301397466752 -0.44031064673519826 0.42566726819150563 0.3410364564919809 0.798599648695758 -0.11662156426970803 0.03614682759971981 0.2249445535617595
label 14 12 0 13 3 8 6 1 17 2 4 18 11 5 19 24 21 20 25 15 7 9 16 23 22 10
nr_sv 205 72 198 255 85 150 184 70 154 122 259 91 173 66 142 103 50 169 86 100 70 25 13 30 16 72
SV
0.0 0.0 0.0 0.0 0.0 0.0 0.03674186317457708 0.0 0.0 0.0 0.0 0.0 0.0 0.027739638605917702 0.0 0.0 0.0 0.0 0.0 0.0 0.0 0.0 0.0 0.0 0.0 1:0.0 2:0.0 3:0.0 4:0.0 5:0.0 6:1.0 7:1.0 8:0.0 9:0.0 10:0.0 11:0.0 12:0.0 13:1.0 14:1.0 15:1.0 16:0.0 17:0.0 18:0.0 19:0.0 20:0.0 21:1.0 22:0.0 23:0.0 24:0.0 25:0.0 26:0.0 27:0.0 28:1.0 29:1.0 30:1.0 31:1.0 32:0.0 33:0.0 34:0.0 35:0.0 36:1.0 37:0.0 38:0.0 39:1.0 40:0.0 41:0.0 42:0.0 43:1.0 44:1.0 45:0.0 46:0.0 47:1.0 48:1.0 49:0.0 50:0.0 51:1.0 52:0.0 53:0.0 54:0.0 55:0.0 56:1.0 57:0.0 58:1.0 59:1.0 60:0.0 61:0.0 62:0.0 63:0.0 64:1.0 65:0.0 66:1.0 67:0.0 68:0.0 69:0.0 70:0.0 71:0.0 72:1.0 73:0.0 74:1.0 75:0.0 76:0.0 77:0.0 78:0.0 79:0.0 80:1.0 81:1.0 82:1.0 83:0.0 84:0.0 85:0.0 86:0.0 87:0.0 88:1.0 89:1.0 90:0.0 91:0.0 92:0.0 93:0.0 94:0.0 95:1.0 96:1.0 97:1.0 98:0.0 99:0.0 100:0.0 101:0.0 102:0.0 103:1.0 104:0.0 105:1.0 106:0.0 107:0.0 108:0.0 109:0.0 110:1.0 111:1.0 112:0.0 113:1.0 114:0.0 115:0.0 116:0.0 117:1.0 118:1.0 119:0.0 120:0.0 121:1.0 122:1.0 123:1.0 124:1.0 125:1.0 126:0.0 127:0.0 128:0.0 
0.0 0.0 0.0 0.0 0.0 0.0 0.0 0.0 0.0 0.0 0.0 0.0 0.0 0.0 0.0 0.0 0.0 0.0 0.0 0.0 0.0 0.0 2.9649943098736806E-4 0.0 0.0 1:0.0 2:0.0 3:0.0 4:0.0 5:0.0 6:0.0 7:0.0 8:0.0 9:0.0 10:0.0 11:0.0 12:0.0 13:0.0 14:0.0 15:0.0 16:0.0 17:0.0 18:0.0 19:0.0 20:0.0 21:0.0 22:0.0 23:0.0 24:0.0 25:0.0 26:0.0 27:0.0 28:0.0 29:0.0 30:0.0 31:0.0 32:0.0 33:0.0 34:1.0 35:1.0 36:1.0 37:1.0 38:1.0 39:1.0 40:1.0 41:1.0 42:1.0 43:1.0 44:0.0 45:0.0 46:0.0 47:0.0 48:1.0 49:1.0 50:1.0 51:0.0 52:0.0 53:0.0 54:0.0 55:0.0 56:1.0 57:1.0 58:0.0 59:0.0 60:0.0 61:0.0 62:0.0 63:0.0 64:1.0 65:1.0 66:0.0 67:0.0 68:0.0 69:0.0 70:0.0 71:0.0 72:1.0 73:1.0 74:0.0 75:0.0 76:0.0 77:0.0 78:0.0 79:0.0 80:1.0 81:1.0 82:1.0 83:0.0 84:0.0 85:0.0 86:0.0 87:1.0 88:1.0 89:0.0 90:1.0 91:1.0 92:1.0 93:1.0 94:1.0 95:0.0 96:0.0 97:0.0 98:0.0 99:0.0 100:0.0 101:0.0 102:0.0 103:0.0 104:0.0 105:0.0 106:0.0 107:0.0 108:0.0 109:0.0 110:0.0 111:0.0 112:0.0 113:0.0 114:0.0 115:0.0 116:0.0 117:0.0 118:0.0 119:0.0 120:0.0 121:0.0 122:0.0 123:0.0 124:0.0 125:0.0 126:0.0 127:0.0 128:0.0 
0.0 0.0 0.1594554916756121 0.0 0.0 0.035199954609883406 0.0 0.0 0.0 0.0 0.0 0.0 0.0 0.0 0.0 0.0 0.0 0.0 0.07282944026828274 0.0 0.0 0.0 0.0 0.004679682325733316 0.0 1:0.0 2:0.0 3:0.0 4:0.0 5:0.0 6:0.0 7:0.0 8:0.0 9:0.0 10:0.0 11:0.0 12:1.0 13:1.0 14:1.0 15:1.0 16:1.0 17:0.0 18:1.0 19:1.0 20:1.0 21:0.0 22:0.0 23:0.0 24:1.0 25:1.0 26:1.0 27:0.0 28:0.0 29:0.0 30:0.0 31:0.0 32:1.0 33:1.0 34:0.0 35:0.0 36:0.0 37:0.0 38:0.0 39:0.0 40:1.0 41:1.0 42:1.0 43:0.0 44:0.0 45:0.0 46:0.0 47:0.0 48:1.0 49:1.0 50:0.0 51:0.0 52:0.0 53:0.0 54:0.0 55:0.0 56:1.0 57:1.0 58:0.0 59:0.0 60:0.0 61:0.0 62:0.0 63:0.0 64:1.0 65:1.0 66:0.0 67:0.0 68:0.0 69:0.0 70:0.0 71:0.0 72:1.0 73:1.0 74:0.0 75:0.0 76:0.0 77:0.0 78:0.0 79:1.0 80:1.0 81:1.0 82:0.0 83:0.0 84:0.0 85:0.0 86:0.0 87:1.0 88:0.0 89:1.0 90:0.0 91:0.0 92:0.0 93:0.0 94:1.0 95:1.0 96:0.0 97:1.0 98:0.0 99:0.0 100:0.0 101:0.0 102:1.0 103:0.0 104:0.0 105:0.0 106:1.0 107:0.0 108:0.0 109:1.0 110:0.0 111:0.0 112:0.0 113:0.0 114:1.0 115:1.0 116:1.0 117:0.0 118:0.0 119:0.0 120:0.0 121:0.0 122:0.0 123:0.0 124:0.0 125:0.0 126:0.0 127:0.0 128:0.0 
0.0 0.0 0.0 0.0 0.0 0.0 0.0 0.04020831267984493 0.7260583032865595 0.0 0.113863808462664 0.0802265472192921 0.0 0.0 0.0 0.0 0.0 0.0 0.0 0.0 0.0 0.0 0.0 0.0 0.0 1:0.0 2:0.0 3:0.0 4:0.0 5:0.0 6:0.0 7:0.0 8:0.0 9:0.0 10:0.0 11:0.0 12:0.0 13:0.0 14:0.0 15:0.0 16:0.0 17:0.0 18:0.0 19:0.0 20:0.0 21:0.0 22:0.0 23:0.0 24:0.0 25:0.0 26:0.0 27:0.0 28:0.0 29:1.0 30:1.0 31:1.0 32:0.0 33:0.0 34:0.0 35:0.0 36:1.0 37:1.0 38:0.0 39:0.0 40:0.0 41:0.0 42:0.0 43:1.0 44:1.0 45:0.0 46:0.0 47:0.0 48:0.0 49:0.0 50:1.0 51:1.0 52:0.0 53:0.0 54:0.0 55:0.0 56:0.0 57:1.0 58:1.0 59:0.0 60:0.0 61:0.0 62:0.0 63:0.0 64:1.0 65:1.0 66:0.0 67:0.0 68:0.0 69:0.0 70:0.0 71:0.0 72:1.0 73:1.0 74:0.0 75:0.0 76:0.0 77:0.0 78:0.0 79:1.0 80:1.0 81:1.0 82:0.0 83:0.0 84:0.0 85:0.0 86:1.0 87:1.0 88:0.0 89:1.0 90:0.0 91:0.0 92:0.0 93:1.0 94:1.0 95:0.0 96:0.0 97:1.0 98:1.0 99:1.0 100:1.0 101:0.0 102:0.0 103:0.0 104:0.0 105:0.0 106:0.0 107:0.0 108:0.0 109:0.0 110:0.0 111:0.0 112:0.0 113:0.0 114:0.0 115:0.0 116:0.0 117:0.0 118:0.0 119:0.0 120:0.0 121:0.0 122:0.0 123:0.0 124:0.0 125:0.0 126:0.0 127:0.0 128:0.0 
0.0 0.0 0.0 0.0 0.0 0.0 0.0 0.0 0.0 0.0 0.0 0.0 0.0 0.0 0.05036435406197061 0.0 0.0 0.0 0.0 0.0 0.0 0.0 0.0 0.004392144747647348 0.0 1:0.0 2:0.0 3:0.0 4:0.0 5:1.0 6:1.0 7:1.0 8:0.0 9:0.0 10:0.0 11:0.0 12:1.0 13:1.0 14:0.0 15:1.0 16:0.0 17:1.0 18:1.0 19:1.0 20:1.0 21:0.0 22:0.0 23:0.0 24:1.0 25:1.0 26:0.0 27:0.0 28:0.0 29:0.0 30:0.0 31:0.0 32:1.0 33:1.0 34:0.0 35:0.0 36:0.0 37:0.0 38:0.0 39:0.0 40:1.0 41:1.0 42:0.0 43:0.0 44:0.0 45:0.0 46:0.0 47:0.0 48:1.0 49:1.0 50:0.0 51:0.0 52:0.0 53:0.0 54:0.0 55:0.0 56:1.0 57:1.0 58:0.0 59:0.0 60:0.0 61:0.0 62:0.0 63:0.0 64:1.0 65:1.0 66:0.0 67:0.0 68:0.0 69:0.0 70:0.0 71:0.0 72:1.0 73:1.0 74:0.0 75:0.0 76:0.0 77:0.0 78:0.0 79:0.0 80:1.0 81:1.0 82:0.0 83:0.0 84:0.0 85:0.0 86:0.0 87:0.0 88:1.0 89:1.0 90:0.0 91:0.0 92:0.0 93:0.0 94:0.0 95:0.0 96:1.0 97:1.0 98:0.0 99:0.0 100:0.0 101:0.0 102:0.0 103:0.0 104:1.0 105:1.0 106:0.0 107:0.0 108:0.0 109:0.0 110:0.0 111:0.0 112:1.0 113:0.0 114:1.0 115:0.0 116:0.0 117:0.0 118:0.0 119:0.0 120:1.0 121:0.0 122:0.0 123:1.0 124:1.0 125:1.0 126:1.0 127:1.0 128:1.0 
0.0 0.0 0.0 0.0 0.009444980351373925 0.0 0.0 0.0 0.0 0.0 0.0 0.0 0.0 0.0 0.0 0.0 0.0 0.0 0.0 0.0 0.0012137394282543098 0.0 0.0 0.0 0.0 1:0.0 2:0.0 3:0.0 4:0.0 5:0.0 6:0.0 7:0.0 8:0.0 9:0.0 10:0.0 11:0.0 12:0.0 13:0.0 14:0.0 15:0.0 16:0.0 17:0.0 18:0.0 19:0.0 20:0.0 21:0.0 22:0.0 23:0.0 24:0.0 25:0.0 26:0.0 27:0.0 28:0.0 29:0.0 30:0.0 31:0.0 32:0.0 33:0.0 34:0.0 35:1.0 36:1.0 37:1.0 38:1.0 39:1.0 40:1.0 41:0.0 42:0.0 43:1.0 44:0.0 45:0.0 46:0.0 47:0.0 48:1.0 49:0.0 50:0.0 51:1.0 52:0.0 53:0.0 54:0.0 55:0.0 56:1.0 57:1.0 58:0.0 59:0.0 60:0.0 61:0.0 62:0.0 63:0.0 64:1.0 65:1.0 66:0.0 67:0.0 68:0.0 69:0.0 70:0.0 71:0.0 72:1.0 73:1.0 74:0.0 75:0.0 76:0.0 77:0.0 78:0.0 79:0.0 80:1.0 81:1.0 82:0.0 83:0.0 84:0.0 85:0.0 86:0.0 87:0.0 88:1.0 89:1.0 90:1.0 91:1.0 92:1.0 93:1.0 94:1.0 95:1.0 96:1.0 97:0.0 98:0.0 99:0.0 100:0.0 101:0.0 102:0.0 103:0.0 104:0.0 105:0.0 106:0.0 107:0.0 108:0.0 109:0.0 110:0.0 111:0.0 112:0.0 113:0.0 114:0.0 115:0.0 116:0.0 117:0.0 118:0.0 119:0.0 120:0.0 121:0.0 122:0.0 123:0.0 124:0.0 125:0.0 126:0.0 127:0.0 128:0.0 
0.0 0.0 0.0 0.0 0.0 0.0 0.0 0.0 0.0 0.0 0.0 0.0 0.0 0.0 0.0 0.0 0.0 0.0 0.0 0.0 0.0 0.002413917729467844 0.0 0.0 0.0 1:0.0 2:0.0 3:0.0 4:0.0 5:0.0 6:0.0 7:0.0 8:0.0 9:0.0 10:0.0 11:0.0 12:0.0 13:0.0 14:0.0 15:0.0 16:0.0 17:0.0 18:0.0 19:0.0 20:0.0 21:1.0 22:0.0 23:0.0 24:0.0 25:0.0 26:1.0 27:1.0 28:1.0 29:1.0 30:0.0 31:0.0 32:0.0 33:0.0 34:0.0 35:1.0 36:1.0 37:1.0 38:0.0 39:0.0 40:0.0 41:0.0 42:0.0 43:1.0 44:0.0 45:1.0 46:1.0 47:1.0 48:0.0 49:0.0 50:0.0 51:1.0 52:0.0 53:0.0 54:0.0 55:1.0 56:1.0 57:0.0 58:1.0 59:1.0 60:0.0 61:0.0 62:0.0 63:0.0 64:1.0 65:0.0 66:1.0 67:0.0 68:0.0 69:0.0 70:0.0 71:0.0 72:1.0 73:1.0 74:1.0 75:0.0 76:0.0 77:0.0 78:0.0 79:1.0 80:1.0 81:1.0 82:0.0 83:0.0 84:0.0 85:0.0 86:1.0 87:1.0 88:0.0 89:1.0 90:0.0 91:0.0 92:0.0 93:1.0 94:1.0 95:0.0 96:0.0 97:1.0 98:0.0 99:0.0 100:1.0 101:1.0 102:0.0 103:0.0 104:0.0 105:1.0 106:1.0 107:1.0 108:1.0 109:0.0 110:0.0 111:0.0 112:0.0 113:0.0 114:0.0 115:0.0 116:0.0 117:0.0 118:0.0 119:0.0 120:0.0 121:0.0 122:0.0 123:0.0 124:0.0 125:0.0 126:0.0 127:0.0 128:0.0 
0.04715974140986728 0.7054285773164403 0.0 0.02227672740284294 0.041061512632625204 0.0 0.0 0.12902076104608684 0.27907232448268054 1.0 0.0 0.0032466869061875724 0.023394820189393376 0.05782964952979477 0.029413069043375126 0.22276251500381947 0.5124859212861862 0.07197133834957718 0.09745539592491245 0.0 0.0 0.0 0.0 0.0 0.0 1:0.0 2:0.0 3:0.0 4:0.0 5:0.0 6:0.0 7:0.0 8:0.0 9:0.0 10:0.0 11:0.0 12:0.0 13:0.0 14:0.0 15:0.0 16:0.0 17:0.0 18:0.0 19:0.0 20:0.0 21:0.0 22:0.0 23:0.0 24:0.0 25:0.0 26:0.0 27:0.0 28:0.0 29:0.0 30:0.0 31:0.0 32:0.0 33:1.0 34:1.0 35:0.0 36:1.0 37:1.0 38:1.0 39:1.0 40:0.0 41:1.0 42:0.0 43:1.0 44:0.0 45:0.0 46:0.0 47:1.0 48:1.0 49:1.0 50:1.0 51:0.0 52:0.0 53:0.0 54:0.0 55:1.0 56:1.0 57:1.0 58:0.0 59:0.0 60:0.0 61:0.0 62:1.0 63:1.0 64:0.0 65:1.0 66:0.0 67:0.0 68:0.0 69:0.0 70:1.0 71:0.0 72:0.0 73:1.0 74:0.0 75:0.0 76:0.0 77:0.0 78:1.0 79:0.0 80:0.0 81:1.0 82:0.0 83:0.0 84:0.0 85:1.0 86:1.0 87:0.0 88:0.0 89:0.0 90:1.0 91:1.0 92:1.0 93:1.0 94:0.0 95:0.0 96:0.0 97:0.0 98:0.0 99:0.0 100:0.0 101:0.0 102:0.0 103:0.0 104:0.0 105:0.0 106:0.0 107:0.0 108:0.0 109:0.0 110:0.0 111:0.0 112:0.0 113:0.0 114:0.0 115:0.0 116:0.0 117:0.0 118:0.0 119:0.0 120:0.0 121:0.0 122:0.0 123:0.0 124:0.0 125:0.0 126:0.0 127:0.0 128:0.0 
0.49513150266243455 0.3898064621131481 0.9631619306426261 0.0 0.0 0.0 0.016740708508766976 0.0 0.0 0.9796380667845433 0.0 0.0 0.018681800994200127 0.0 0.0 0.0 0.010001027727558641 0.14749815090411877 0.07544063357039675 0.012777601561044218 0.0 0.0 0.0 0.07519460602080003 0.007014289103183466 1:0.0 2:0.0 3:0.0 4:0.0 5:0.0 6:0.0 7:0.0 8:0.0 9:0.0 10:0.0 11:0.0 12:0.0 13:0.0 14:0.0 15:0.0 16:0.0 17:0.0 18:0.0 19:0.0 20:0.0 21:0.0 22:0.0 23:0.0 24:0.0 25:0.0 26:0.0 27:0.0 28:0.0 29:0.0 30:0.0 31:0.0 32:0.0 33:0.0 34:0.0 35:0.0 36:0.0 37:0.0 38:0.0 39:0.0 40:0.0 41:0.0 42:0.0 43:0.0 44:1.0 45:1.0 46:1.0 47:1.0 48:1.0 49:0.0 50:1.0 51:1.0 52:1.0 53:1.0 54:0.0 55:0.0 56:1.0 57:1.0 58:1.0 59:1.0 60:1.0 61:0.0 62:0.0 63:0.0 64:1.0 65:1.0 66:0.0 67:1.0 68:0.0 69:0.0 70:1.0 71:1.0 72:1.0 73:1.0 74:0.0 75:0.0 76:1.0 77:1.0 78:1.0 79:0.0 80:0.0 81:1.0 82:1.0 83:1.0 84:1.0 85:0.0 86:0.0 87:0.0 88:0.0 89:0.0 90:0.0 91:0.0 92:0.0 93:0.0 94:0.0 95:0.0 96:0.0 97:0.0 98:0.0 99:0.0 100:0.0 101:0.0 102:0.0 103:0.0 104:0.0 105:0.0 106:0.0 107:0.0 108:0.0 109:0.0 110:0.0 111:0.0 112:0.0 113:0.0 114:0.0 115:0.0 116:0.0 117:0.0 118:0.0 119:0.0 120:0.0 121:0.0 122:0.0 123:0.0 124:0.0 125:0.0 126:0.0 127:0.0 128:0.0 
0.0 0.0 0.0 0.0 0.0 0.0 0.0 0.0 0.0 0.0 0.0 5.986006997783113E-4 0.0 0.0 0.0 0.0 0.0 0.0 0.0 0.0 0.0 0.0 0.0 0.0 0.021865319369517643 1:0.0 2:0.0 3:1.0 4:0.0 5:0.0 6:0.0 7:0.0 8:0.0 9:0.0 10:1.0 11:1.0 12:0.0 13:0.0 14:0.0 15:0.0 16:0.0 17:0.0 18:1.0 19:1.0 20:1.0 21:1.0 22:1.0 23:0.0 24:0.0 25:0.0 26:1.0 27:0.0 28:0.0 29:0.0 30:1.0 31:1.0 32:0.0 33:1.0 34:1.0 35:0.0 36:0.0 37:0.0 38:0.0 39:1.0 40:0.0 41:1.0 42:0.0 43:0.0 44:0.0 45:0.0 46:0.0 47:1.0 48:0.0 49:1.0 50:0.0 51:0.0 52:0.0 53:0.0 54:0.0 55:0.0 56:1.0 57:1.0 58:0.0 59:0.0 60:0.0 61:0.0 62:0.0 63:0.0 64:1.0 65:1.0 66:0.0 67:0.0 68:0.0 69:0.0 70:0.0 71:0.0 72:1.0 73:1.0 74:0.0 75:0.0 76:0.0 77:0.0 78:0.0 79:1.0 80:1.0 81:1.0 82:0.0 83:0.0 84:0.0 85:0.0 86:0.0 87:1.0 88:0.0 89:1.0 90:0.0 91:0.0 92:0.0 93:0.0 94:0.0 95:1.0 96:0.0 97:1.0 98:0.0 99:0.0 100:0.0 101:0.0 102:0.0 103:1.0 104:0.0 105:1.0 106:0.0 107:0.0 108:0.0 109:0.0 110:1.0 111:1.0 112:0.0 113:1.0 114:1.0 115:0.0 116:0.0 117:0.0 118:1.0 119:0.0 120:0.0 121:0.0 122:1.0 123:1.0 124:1.0 125:1.0 126:0.0 127:0.0 128:0.0 
0.0 0.0 0.0 0.0 0.0 0.0 0.0 0.0 0.02814500077781198 0.0 0.0 0.011137809878056406 0.0 0.0 0.0 0.01978893953368154 0.0 0.0 0.0 0.11773891512490038 0.0 0.0 0.0 0.0 0.0 1:0.0 2:0.0 3:0.0 4:1.0 5:1.0 6:0.0 7:1.0 8:1.0 9:0.0 10:0.0 11:1.0 12:1.0 13:0.0 14:0.0 15:0.0 16:1.0 17:0.0 18:0.0 19:1.0 20:0.0 21:0.0 22:0.0 23:0.0 24:1.0 25:0.0 26:1.0 27:1.0 28:0.0 29:0.0 30:0.0 31:0.0 32:1.0 33:0.0 34:1.0 35:0.0 36:0.0 37:0.0 38:0.0 39:0.0 40:1.0 41:1.0 42:1.0 43:0.0 44:0.0 45:0.0 46:0.0 47:0.0 48:1.0 49:1.0 50:0.0 51:0.0 52:0.0 53:0.0 54:0.0 55:0.0 56:1.0 57:1.0 58:0.0 59:0.0 60:0.0 61:0.0 62:0.0 63:0.0 64:1.0 65:1.0 66:0.0 67:0.0 68:0.0 69:0.0 70:0.0 71:0.0 72:1.0 73:1.0 74:0.0 75:0.0 76:0.0 77:0.0 78:0.0 79:0.0 80:1.0 81:1.0 82:0.0 83:0.0 84:0.0 85:0.0 86:0.0 87:0.0 88:1.0 89:1.0 90:0.0 91:0.0 92:0.0 93:0.0 94:0.0 95:0.0 96:1.0 97:1.0 98:0.0 99:0.0 100:0.0 101:0.0 102:0.0 103:1.0 104:1.0 105:1.0 106:0.0 107:0.0 108:0.0 109:0.0 110:0.0 111:1.0 112:0.0 113:1.0 114:1.0 115:0.0 116:0.0 117:1.0 118:1.0 119:1.0 120:0.0 121:0.0 122:1.0 123:1.0 124:1.0 125:1.0 126:0.0 127:0.0 128:0.0 
0.0 0.0 0.15628647107357999 0.0 0.0 0.0 0.028071147574078966 0.0 0.0 0.0 0.0 0.0 0.0 0.0 0.0 0.0 0.0 0.0 0.017174533569164537 0.0 0.0 0.0 0.0 0.0 0.0 1:1.0 2:1.0 3:1.0 4:1.0 5:1.0 6:1.0 7:1.0 8:0.0 9:1.0 10:0.0 11:1.0 12:0.0 13:0.0 14:1.0 15:0.0 16:0.0 17:1.0 18:1.0 19:0.0 20:0.0 21:0.0 22:0.0 23:1.0 24:0.0 25:0.0 26:1.0 27:0.0 28:0.0 29:0.0 30:0.0 31:1.0 32:0.0 33:1.0 34:1.0 35:0.0 36:0.0 37:0.0 38:0.0 39:0.0 40:1.0 41:1.0 42:0.0 43:0.0 44:0.0 45:0.0 46:0.0 47:0.0 48:1.0 49:1.0 50:0.0 51:0.0 52:0.0 53:0.0 54:0.0 55:0.0 56:1.0 57:1.0 58:0.0 59:0.0 60:0.0 61:0.0 62:0.0 63:0.0 64:1.0 65:1.0 66:0.0 67:0.0 68:0.0 69:0.0 70:0.0 71:0.0 72:1.0 73:1.0 74:0.0 75:0.0 76:0.0 77:0.0 78:0.0 79:0.0 80:1.0 81:1.0 82:0.0 83:0.0 84:0.0 85:0.0 86:0.0 87:0.0 88:1.0 89:1.0 90:0.0 91:0.0 92:0.0 93:0.0 94:0.0 95:0.0 96:1.0 97:1.0 98:0.0 99:0.0 100:0.0 101:0.0 102:0.0 103:1.0 104:1.0 105:1.0 106:0.0 107:0.0 108:0.0 109:0.0 110:0.0 111:1.0 112:0.0 113:1.0 114:0.0 115:0.0 116:0.0 117:0.0 118:1.0 119:1.0 120:0.0 121:1.0 122:1.0 123:1.0 124:1.0 125:1.0 126:1.0 127:0.0 128:0.0 
0.0 0.0 0.0 0.0 0.0 0.0 0.0 0.013254632189653804 0.0 0.0 0.0 0.0 0.0 0.0 0.0 0.0 0.0 0.0 0.0 0.0 0.0 0.0 0.0 0.0 0.0 1:0.0 2:0.0 3:0.0 4:0.0 5:0.0 6:0.0 7:0.0 8:0.0 9:0.0 10:0.0 11:0.0 12:0.0 13:0.0 14:0.0 15:0.0 16:0.0 17:0.0 18:0.0 19:0.0 20:0.0 21:1.0 22:1.0 23:0.0 24:0.0 25:0.0 26:0.0 27:1.0 28:1.0 29:1.0 30:1.0 31:1.0 32:1.0 33:0.0 34:0.0 35:1.0 36:1.0 37:0.0 38:1.0 39:0.0 40:1.0 41:0.0 42:1.0 43:1.0 44:0.0 45:0.0 46:0.0 47:0.0 48:1.0 49:0.0 50:1.0 51:1.0 52:0.0 53:0.0 54:0.0 55:0.0 56:1.0 57:1.0 58:1.0 59:0.0 60:0.0 61:0.0 62:0.0 63:0.0 64:1.0 65:1.0 66:0.0 67:0.0 68:0.0 69:0.0 70:0.0 71:0.0 72:1.0 73:1.0 74:0.0 75:0.0 76:0.0 77:0.0 78:0.0 79:1.0 80:1.0 81:1.0 82:0.0 83:0.0 84:0.0 85:0.0 86:0.0 87:1.0 88:0.0 89:1.0 90:0.0 91:0.0 92:0.0 93:0.0 94:1.0 95:0.0 96:0.0 97:1.0 98:1.0 99:0.0 100:0.0 101:1.0 102:1.0 103:0.0 104:0.0 105:0.0 106:1.0 107:1.0 108:1.0 109:1.0 110:0.0 111:0.0 112:0.0 113:0.0 114:0.0 115:0.0 116:0.0 117:0.0 118:0.0 119:0.0 120:0.0 121:0.0 122:0.0 123:0.0 124:0.0 125:0.0 126:0.0 127:0.0 128:0.0 
0.0 0.0 0.0 0.0 0.0 0.0 0.0 0.0 0.0 0.0 0.0 0.0 0.0 0.0 0.0 0.07519854984944202 0.0 0.0056834181317322605 0.0 0.0 0.0 0.0 0.0 0.0 0.0 1:0.0 2:0.0 3:0.0 4:0.0 5:0.0 6:0.0 7:0.0 8:0.0 9:0.0 10:0.0 11:0.0 12:0.0 13:0.0 14:0.0 15:0.0 16:0.0 17:0.0 18:0.0 19:0.0 20:0.0 21:0.0 22:0.0 23:0.0 24:0.0 25:0.0 26:0.0 27:0.0 28:0.0 29:0.0 30:0.0 31:0.0 32:0.0 33:1.0 34:1.0 35:1.0 36:1.0 37:1.0 38:1.0 39:0.0 40:0.0 41:1.0 42:1.0 43:0.0 44:0.0 45:0.0 46:1.0 47:1.0 48:0.0 49:1.0 50:0.0 51:0.0 52:0.0 53:0.0 54:0.0 55:1.0 56:0.0 57:1.0 58:0.0 59:0.0 60:0.0 61:0.0 62:0.0 63:1.0 64:1.0 65:1.0 66:0.0 67:0.0 68:0.0 69:0.0 70:0.0 71:0.0 72:1.0 73:1.0 74:0.0 75:0.0 76:0.0 77:0.0 78:0.0 79:0.0 80:1.0 81:1.0 82:1.0 83:1.0 84:0.0 85:0.0 86:0.0 87:0.0 88:1.0 89:0.0 90:0.0 91:1.0 92:1.0 93:1.0 94:1.0 95:1.0 96:1.0 97:0.0 98:0.0 99:0.0 100:0.0 101:1.0 102:1.0 103:0.0 104:0.0 105:0.0 106:0.0 107:0.0 108:0.0 109:0.0 110:0.0 111:0.0 112:0.0 113:0.0 114:0.0 115:0.0 116:0.0 117:0.0 118:0.0 119:0.0 120:0.0 121:0.0 122:0.0 123:0.0 124:0.0 125:0.0 126:0.0 127:0.0 128:0.0 
0.0 0.0 0.6510747548957462 0.09739608995244277 0.0 0.0 0.0 0.0 0.0 0.0 0.0 0.0 0.03358263352759893 0.0 0.0 0.0 0.0 0.0 0.0 0.15996523042472383 0.0 0.0 0.0 0.0 0.0 1:0.0 2:0.0 3:0.0 4:0.0 5:0.0 6:0.0 7:0.0 8:0.0 9:0.0 10:0.0 11:0.0 12:0.0 13:0.0 14:0.0 15:0.0 16:0.0 17:1.0 18:1.0 19:1.0 20:1.0 21:1.0 22:1.0 23:1.0 24:1.0 25:1.0 26:0.0 27:0.0 28:0.0 29:0.0 30:0.0 31:0.0 32:1.0 33:1.0 34:1.0 35:0.0 36:0.0 37:0.0 38:0.0 39:0.0 40:1.0 41:1.0 42:1.0 43:0.0 44:0.0 45:0.0 46:0.0 47:0.0 48:1.0 49:0.0 50:1.0 51:0.0 52:0.0 53:0.0 54:0.0 55:0.0 56:1.0 57:0.0 58:1.0 59:0.0 60:0.0 61:0.0 62:0.0 63:0.0 64:1.0 65:1.0 66:1.0 67:0.0 68:0.0 69:0.0 70:0.0 71:0.0 72:1.0 73:1.0 74:0.0 75:0.0 76:0.0 77:0.0 78:0.0 79:0.0 80:1.0 81:1.0 82:0.0 83:0.0 84:0.0 85:0.0 86:0.0 87:0.0 88:1.0 89:1.0 90:0.0 91:0.0 92:0.0 93:0.0 94:0.0 95:1.0 96:0.0 97:1.0 98:1.0 99:0.0 100:0.0 101:0.0 102:1.0 103:1.0 104:0.0 105:0.0 106:1.0 107:1.0 108:1.0 109:1.0 110:1.0 111:0.0 112:0.0 113:0.0 114:0.0 115:0.0 116:0.0 117:0.0 118:0.0 119:0.0 120:0.0 121:0.0 122:0.0 123:0.0 124:0.0 125:0.0 126:0.0 127:0.0 128:0.0 
0.0 0.0 0.0 0.0 0.0 0.0 0.011568975807628295 0.0 0.0 0.0 0.024987810395801162 0.0 0.0 0.0 0.0 0.0 0.0 0.0 0.0 0.0 0.0 0.0 0.0 0.0 0.0 1:0.0 2:1.0 3:1.0 4:1.0 5:1.0 6:1.0 7:1.0 8:0.0 9:1.0 10:1.0 11:0.0 12:0.0 13:0.0 14:0.0 15:1.0 16:1.0 17:1.0 18:0.0 19:0.0 20:0.0 21:0.0 22:0.0 23:0.0 24:1.0 25:1.0 26:0.0 27:0.0 28:0.0 29:0.0 30:0.0 31:0.0 32:1.0 33:0.0 34:1.0 35:0.0 36:0.0 37:0.0 38:0.0 39:0.0 40:1.0 41:1.0 42:1.0 43:0.0 44:0.0 45:0.0 46:0.0 47:0.0 48:1.0 49:1.0 50:0.0 51:0.0 52:0.0 53:0.0 54:0.0 55:0.0 56:1.0 57:1.0 58:0.0 59:0.0 60:0.0 61:0.0 62:0.0 63:0.0 64:1.0 65:1.0 66:0.0 67:0.0 68:0.0 69:0.0 70:0.0 71:0.0 72:1.0 73:1.0 74:0.0 75:0.0 76:0.0 77:0.0 78:0.0 79:0.0 80:1.0 81:1.0 82:0.0 83:0.0 84:0.0 85:0.0 86:0.0 87:1.0 88:1.0 89:1.0 90:0.0 91:0.0 92:0.0 93:0.0 94:0.0 95:1.0 96:0.0 97:1.0 98:0.0 99:0.0 100:0.0 101:0.0 102:1.0 103:1.0 104:0.0 105:1.0 106:0.0 107:0.0 108:0.0 109:0.0 110:1.0 111:0.0 112:0.0 113:1.0 114:1.0 115:0.0 116:0.0 117:1.0 118:1.0 119:0.0 120:0.0 121:0.0 122:1.0 123:1.0 124:1.0 125:1.0 126:0.0 127:0.0 128:0.0 
0.0 0.2308309291819594 0.0 0.0 0.0 0.0 0.0 0.0 0.17668134671714605 0.06947168581196593 0.0 0.0 0.0 0.0 0.0 0.0 0.0 0.0 0.007675899026808029 0.0 0.0 0.0 0.014767802473247878 0.0 0.0 1:0.0 2:0.0 3:0.0 4:0.0 5:0.0 6:0.0 7:0.0 8:0.0 9:0.0 10:0.0 11:0.0 12:0.0 13:1.0 14:1.0 15:1.0 16:1.0 17:0.0 18:0.0 19:0.0 20:1.0 21:1.0 22:0.0 23:0.0 24:1.0 25:0.0 26:0.0 27:0.0 28:1.0 29:0.0 30:0.0 31:0.0 32:1.0 33:0.0 34:0.0 35:0.0 36:1.0 37:1.0 38:1.0 39:1.0 40:1.0 41:0.0 42:0.0 43:1.0 44:1.0 45:1.0 46:0.0 47:0.0 48:1.0 49:0.0 50:0.0 51:1.0 52:1.0 53:0.0 54:0.0 55:0.0 56:1.0 57:0.0 58:0.0 59:1.0 60:1.0 61:0.0 62:0.0 63:1.0 64:0.0 65:0.0 66:1.0 67:1.0 68:0.0 69:0.0 70:0.0 71:1.0 72:0.0 73:1.0 74:1.0 75:0.0 76:0.0 77:0.0 78:1.0 79:1.0 80:0.0 81:1.0 82:0.0 83:0.0 84:0.0 85:0.0 86:1.0 87:0.0 88:0.0 89:1.0 90:0.0 91:0.0 92:0.0 93:0.0 94:1.0 95:0.0 96:0.0 97:1.0 98:0.0 99:0.0 100:0.0 101:1.0 102:1.0 103:0.0 104:0.0 105:1.0 106:0.0 107:0.0 108:1.0 109:1.0 110:0.0 111:0.0 112:0.0 113:1.0 114:1.0 115:1.0 116:1.0 117:0.0 118:0.0 119:0.0 120:0.0 121:0.0 122:0.0 123:0.0 124:0.0 125:0.0 126:0.0 127:0.0 128:0.0 
0.0 0.9723895410243584 0.4613287826763509 0.2852037843029104 0.0 0.5826050621217397 0.0 0.0 0.0 0.05824376990200607 0.0 0.0 0.0 0.02457917463928303 0.17560715546433223 0.0906633501963844 0.05606285845082705 0.09604564726151589 0.08807400197979573 0.04453341515525624 0.0 0.0 0.0505312635368624 0.04380307039601964 0.03636580595609313 1:0.0 2:0.0 3:0.0 4:0.0 5:0.0 6:0.0 7:0.0 8:0.0 9:0.0 10:0.0 11:0.0 12:0.0 13:0.0 14:0.0 15:0.0 16:0.0 17:0.0 18:0.0 19:0.0 20:0.0 21:0.0 22:1.0 23:1.0 24:0.0 25:0.0 26:0.0 27:0.0 28:0.0 29:1.0 30:1.0 31:1.0 32:1.0 33:0.0 34:0.0 35:0.0 36:1.0 37:1.0 38:0.0 39:0.0 40:1.0 41:0.0 42:0.0 43:0.0 44:1.0 45:0.0 46:0.0 47:1.0 48:1.0 49:0.0 50:0.0 51:0.0 52:1.0 53:0.0 54:1.0 55:1.0 56:1.0 57:0.0 58:0.0 59:0.0 60:1.0 61:1.0 62:1.0 63:1.0 64:1.0 65:0.0 66:0.0 67:1.0 68:1.0 69:1.0 70:0.0 71:1.0 72:1.0 73:0.0 74:0.0 75:1.0 76:0.0 77:0.0 78:1.0 79:1.0 80:0.0 81:0.0 82:1.0 83:1.0 84:0.0 85:1.0 86:1.0 87:0.0 88:0.0 89:1.0 90:1.0 91:0.0 92:1.0 93:1.0 94:0.0 95:0.0 96:0.0 97:1.0 98:1.0 99:1.0 100:1.0 101:0.0 102:0.0 103:0.0 104:0.0 105:1.0 106:1.0 107:0.0 108:0.0 109:0.0 110:0.0 111:0.0 112:0.0 113:0.0 114:0.0 115:0.0 116:0.0 117:0.0 118:0.0 119:0.0 120:0.0 121:0.0 122:0.0 123:0.0 124:0.0 125:0.0 126:0.0 127:0.0 128:0.0 
0.0 0.07355940307721201 0.0 0.0 0.0 0.08438347922874308 0.0 0.234887962118002 0.20994314545392964 1.0 0.04148415688374295 0.07558467323621812 0.0030949714914448104 0.0 0.25422701189106245 0.0 0.23675092861260108 0.023182603892555418 0.11223926333435703 0.0 0.022353615168800422 0.0 0.0 0.0 0.0 1:0.0 2:0.0 3:0.0 4:0.0 5:0.0 6:0.0 7:0.0 8:0.0 9:0.0 10:0.0 11:0.0 12:0.0 13:0.0 14:0.0 15:0.0 16:0.0 17:0.0 18:0.0 19:1.0 20:1.0 21:1.0 22:1.0 23:1.0 24:1.0 25:0.0 26:1.0 27:1.0 28:0.0 29:0.0 30:1.0 31:1.0 32:1.0 33:1.0 34:1.0 35:0.0 36:0.0 37:0.0 38:0.0 39:1.0 40:0.0 41:1.0 42:0.0 43:0.0 44:0.0 45:0.0 46:0.0 47:1.0 48:0.0 49:1.0 50:0.0 51:0.0 52:0.0 53:0.0 54:0.0 55:1.0 56:0.0 57:1.0 58:0.0 59:0.0 60:0.0 61:0.0 62:0.0 63:1.0 64:0.0 65:1.0 66:0.0 67:0.0 68:0.0 69:0.0 70:0.0 71:1.0 72:0.0 73:1.0 74:0.0 75:0.0 76:0.0 77:0.0 78:0.0 79:1.0 80:0.0 81:1.0 82:0.0 83:0.0 84:0.0 85:0.0 86:0.0 87:1.0 88:0.0 89:1.0 90:0.0 91:0.0 92:0.0 93:0.0 94:0.0 95:1.0 96:0.0 97:1.0 98:1.0 99:0.0 100:0.0 101:0.0 102:1.0 103:0.0 104:0.0 105:0.0 106:1.0 107:1.0 108:1.0 109:1.0 110:1.0 111:0.0 112:0.0 113:0.0 114:0.0 115:0.0 116:0.0 117:0.0 118:0.0 119:0.0 120:0.0 121:0.0 122:0.0 123:0.0 124:0.0 125:0.0 126:0.0 127:0.0 128:0.0 
0.0 0.0 0.0 0.0 0.0 0.0 0.017716375790326772 0.0 0.0 0.0 0.0 0.0 0.0 0.0 0.0 0.08505141356700013 0.02992486437703816 0.0 0.0 0.0 0.0 0.0 0.0 0.0 0.010427011243133008 1:0.0 2:0.0 3:0.0 4:0.0 5:0.0 6:0.0 7:0.0 8:0.0 9:0.0 10:0.0 11:0.0 12:1.0 13:1.0 14:1.0 15:0.0 16:0.0 17:0.0 18:1.0 19:1.0 20:1.0 21:0.0 22:1.0 23:0.0 24:0.0 25:1.0 26:1.0 27:0.0 28:0.0 29:0.0 30:1.0 31:1.0 32:0.0 33:1.0 34:0.0 35:0.0 36:0.0 37:0.0 38:0.0 39:1.0 40:0.0 41:1.0 42:0.0 43:0.0 44:0.0 45:0.0 46:0.0 47:1.0 48:0.0 49:1.0 50:0.0 51:0.0 52:0.0 53:0.0 54:0.0 55:1.0 56:1.0 57:1.0 58:0.0 59:0.0 60:0.0 61:0.0 62:0.0 63:0.0 64:1.0 65:1.0 66:1.0 67:0.0 68:0.0 69:0.0 70:0.0 71:0.0 72:1.0 73:0.0 74:1.0 75:0.0 76:0.0 77:0.0 78:0.0 79:0.0 80:1.0 81:0.0 82:1.0 83:1.0 84:0.0 85:0.0 86:0.0 87:0.0 88:1.0 89:0.0 90:0.0 91:1.0 92:1.0 93:1.0 94:0.0 95:0.0 96:1.0 97:0.0 98:0.0 99:0.0 100:0.0 101:1.0 102:1.0 103:1.0 104:1.0 105:0.0 106:0.0 107:0.0 108:0.0 109:0.0 110:0.0 111:1.0 112:1.0 113:0.0 114:0.0 115:0.0 116:0.0 117:0.0 118:0.0 119:0.0 120:1.0 121:0.0 122:0.0 123:0.0 124:0.0 125:0.0 126:0.0 127:0.0 128:0.0 
0.0 0.0 0.0 0.0 0.0 0.0 0.0 0.04685802845016504 0.0 0.09617427851486239 0.0 0.0 0.042702427355455735 0.0 0.0 0.014877861026733065 0.0 0.0 0.0 0.0 0.0 0.0 0.0 0.0 0.0019886413050732043 1:0.0 2:0.0 3:0.0 4:0.0 5:0.0 6:0.0 7:0.0 8:0.0 9:0.0 10:0.0 11:0.0 12:0.0 13:0.0 14:0.0 15:0.0 16:0.0 17:0.0 18:0.0 19:0.0 20:0.0 21:0.0 22:0.0 23:0.0 24:0.0 25:0.0 26:0.0 27:0.0 28:0.0 29:0.0 30:0.0 31:0.0 32:0.0 33:0.0 34:1.0 35:1.0 36:1.0 37:1.0 38:1.0 39:1.0 40:0.0 41:1.0 42:1.0 43:0.0 44:0.0 45:0.0 46:0.0 47:1.0 48:1.0 49:1.0 50:0.0 51:0.0 52:0.0 53:0.0 54:0.0 55:0.0 56:1.0 57:1.0 58:0.0 59:0.0 60:0.0 61:0.0 62:0.0 63:0.0 64:1.0 65:1.0 66:1.0 67:0.0 68:0.0 69:0.0 70:0.0 71:0.0 72:1.0 73:0.0 74:1.0 75:1.0 76:0.0 77:0.0 78:0.0 79:0.0 80:1.0 81:0.0 82:0.0 83:1.0 84:1.0 85:1.0 86:0.0 87:0.0 88:1.0 89:0.0 90:0.0 91:0.0 92:0.0 93:1.0 94:1.0 95:0.0 96:1.0 97:0.0 98:0.0 99:0.0 100:0.0 101:0.0 102:0.0 103:0.0 104:0.0 105:0.0 106:0.0 107:0.0 108:0.0 109:0.0 110:0.0 111:0.0 112:0.0 113:0.0 114:0.0 115:0.0 116:0.0 117:0.0 118:0.0 119:0.0 120:0.0 121:0.0 122:0.0 123:0.0 124:0.0 125:0.0 126:0.0 127:0.0 128:0.0 
0.0 0.0 0.0 0.04409596131250631 0.0 0.3027278960144679 0.0 0.0 0.0 0.0 0.0 0.0 0.0 0.0 0.23878715911923037 0.01259343028095147 0.0 0.06738876633666649 0.0 0.0 0.0 0.0 0.0036815033520746876 0.0 0.0 1:0.0 2:0.0 3:0.0 4:0.0 5:0.0 6:0.0 7:0.0 8:0.0 9:0.0 10:0.0 11:0.0 12:0.0 13:0.0 14:0.0 15:0.0 16:0.0 17:0.0 18:0.0 19:1.0 20:1.0 21:0.0 22:0.0 23:0.0 24:0.0 25:0.0 26:1.0 27:1.0 28:1.0 29:1.0 30:1.0 31:0.0 32:0.0 33:1.0 34:1.0 35:0.0 36:0.0 37:0.0 38:1.0 39:1.0 40:0.0 41:1.0 42:1.0 43:1.0 44:0.0 45:0.0 46:0.0 47:1.0 48:0.0 49:0.0 50:1.0 51:0.0 52:0.0 53:0.0 54:0.0 55:1.0 56:1.0 57:0.0 58:1.0 59:0.0 60:0.0 61:0.0 62:0.0 63:0.0 64:1.0 65:0.0 66:1.0 67:0.0 68:0.0 69:0.0 70:0.0 71:0.0 72:1.0 73:0.0 74:1.0 75:0.0 76:0.0 77:0.0 78:0.0 79:0.0 80:1.0 81:0.0 82:1.0 83:0.0 84:0.0 85:0.0 86:0.0 87:0.0 88:1.0 89:0.0 90:1.0 91:0.0 92:0.0 93:0.0 94:0.0 95:0.0 96:1.0 97:0.0 98:1.0 99:1.0 100:0.0 101:0.0 102:0.0 103:1.0 104:1.0 105:0.0 106:0.0 107:1.0 108:1.0 109:1.0 110:1.0 111:1.0 112:0.0 113:0.0 114:0.0 115:0.0 116:0.0 117:0.0 118:0.0 119:0.0 120:0.0 121:0.0 122:0.0 123:0.0 124:0.0 125:0.0 126:0.0 127:0.0 128:0.0 
0.0 0.0 0.0 0.0 0.0 0.21547162152843 0.0 0.0 0.0 0.0 0.0 0.0 0.0 0.0 0.0 0.0 0.0 0.0 0.0 0.0 0.0 0.0 0.0 0.0 0.0 1:0.0 2:0.0 3:0.0 4:0.0 5:0.0 6:0.0 7:0.0 8:0.0 9:0.0 10:0.0 11:0.0 12:0.0 13:0.0 14:1.0 15:0.0 16:0.0 17:0.0 18:0.0 19:0.0 20:0.0 21:0.0 22:1.0 23:1.0 24:0.0 25:0.0 26:0.0 27:0.0 28:0.0 29:0.0 30:0.0 31:1.0 32:0.0 33:0.0 34:0.0 35:0.0 36:1.0 37:1.0 38:1.0 39:1.0 40:1.0 41:0.0 42:0.0 43:1.0 44:1.0 45:0.0 46:0.0 47:0.0 48:1.0 49:0.0 50:1.0 51:1.0 52:0.0 53:0.0 54:0.0 55:0.0 56:1.0 57:0.0 58:1.0 59:0.0 60:0.0 61:0.0 62:0.0 63:0.0 64:1.0 65:1.0 66:0.0 67:0.0 68:0.0 69:0.0 70:0.0 71:0.0 72:1.0 73:1.0 74:0.0 75:0.0 76:0.0 77:0.0 78:0.0 79:0.0 80:1.0 81:1.0 82:0.0 83:0.0 84:0.0 85:0.0 86:0.0 87:1.0 88:1.0 89:1.0 90:0.0 91:0.0 92:0.0 93:0.0 94:1.0 95:1.0 96:0.0 97:1.0 98:0.0 99:0.0 100:0.0 101:1.0 102:1.0 103:0.0 104:0.0 105:1.0 106:0.0 107:0.0 108:1.0 109:1.0 110:0.0 111:0.0 112:0.0 113:1.0 114:1.0 115:1.0 116:1.0 117:0.0 118:0.0 119:0.0 120:0.0 121:0.0 122:0.0 123:0.0 124:0.0 125:0.0 126:0.0 127:0.0 128:0.0 
0.0 0.0 0.0 0.0 0.0 0.5995341981013427 0.0 0.0 0.0 0.0 0.0 0.0 0.0 0.0 0.0 0.0 0.0 0.0 0.0 0.0 0.0 0.0 0.0 0.0 0.0 1:0.0 2:0.0 3:0.0 4:0.0 5:0.0 6:0.0 7:0.0 8:0.0 9:0.0 10:0.0 11:0.0 12:0.0 13:0.0 14:0.0 15:0.0 16:0.0 17:0.0 18:0.0 19:0.0 20:0.0 21:0.0 22:0.0 23:0.0 24:0.0 25:0.0 26:0.0 27:0.0 28:0.0 29:0.0 30:0.0 31:0.0 32:0.0 33:0.0 34:0.0 35:1.0 36:1.0 37:1.0 38:1.0 39:0.0 40:0.0 41:0.0 42:1.0 43:0.0 44:0.0 45:0.0 46:1.0 47:1.0 48:0.0 49:1.0 50:0.0 51:0.0 52:0.0 53:0.0 54:0.0 55:1.0 56:1.0 57:1.0 58:0.0 59:0.0 60:0.0 61:0.0 62:0.0 63:0.0 64:1.0 65:1.0 66:0.0 67:0.0 68:0.0 69:0.0 70:0.0 71:0.0 72:1.0 73:1.0 74:0.0 75:0.0 76:0.0 77:0.0 78:0.0 79:1.0 80:1.0 81:1.0 82:0.0 83:0.0 84:0.0 85:0.0 86:1.0 87:1.0 88:0.0 89:1.0 90:0.0 91:0.0 92:0.0 93:1.0 94:1.0 95:0.0 96:0.0 97:1.0 98:1.0 99:1.0 100:1.0 101:0.0 102:0.0 103:0.0 104:0.0 105:0.0 106:0.0 107:0.0 108:0.0 109:0.0 110:0.0 111:0.0 112:0.0 113:0.0 114:0.0 115:0.0 116:0.0 117:0.0 118:0.0 119:0.0 120:0.0 121:0.0 122:0.0 123:0.0 124:0.0 125:0.0 126:0.0 127:0.0 128:0.0 
0.1295895119018152 0.0 0.0 0.0 0.0 0.0 0.05034003922014552 0.007171233144762491 0.0 0.0 0.0 0.0 0.0 0.0 0.0 0.1523958037855776 0.0 0.020852772300070394 0.0 0.0 0.0 0.0 0.0 0.0 0.0 1:0.0 2:0.0 3:0.0 4:0.0 5:0.0 6:0.0 7:0.0 8:0.0 9:0.0 10:0.0 11:0.0 12:0.0 13:0.0 14:0.0 15:0.0 16:0.0 17:0.0 18:0.0 19:0.0 20:0.0 21:0.0 22:0.0 23:0.0 24:0.0 25:0.0 26:0.0 27:0.0 28:0.0 29:0.0 30:0.0 31:0.0 32:0.0 33:0.0 34:1.0 35:1.0 36:1.0 37:1.0 38:1.0 39:0.0 40:0.0 41:1.0 42:1.0 43:0.0 44:1.0 45:0.0 46:1.0 47:1.0 48:0.0 49:1.0 50:0.0 51:1.0 52:1.0 53:0.0 54:0.0 55:1.0 56:1.0 57:1.0 58:1.0 59:1.0 60:0.0 61:0.0 62:0.0 63:0.0 64:1.0 65:0.0 66:1.0 67:0.0 68:0.0 69:0.0 70:0.0 71:0.0 72:1.0 73:0.0 74:1.0 75:0.0 76:0.0 77:0.0 78:0.0 79:0.0 80:1.0 81:0.0 82:1.0 83:1.0 84:0.0 85:0.0 86:0.0 87:0.0 88:1.0 89:0.0 90:0.0 91:1.0 92:1.0 93:0.0 94:0.0 95:1.0 96:1.0 97:0.0 98:0.0 99:0.0 100:1.0 101:1.0 102:1.0 103:1.0 104:0.0 105:0.0 106:0.0 107:0.0 108:0.0 109:0.0 110:0.0 111:0.0 112:0.0 113:0.0 114:0.0 115:0.0 116:0.0 117:0.0 118:0.0 119:0.0 120:0.0 121:0.0 122:0.0 123:0.0 124:0.0 125:0.0 126:0.0 127:0.0 128:0.0 
0.0 0.855743099160902 0.0 0.0 0.0 0.12315609614497693 0.0 0.0 0.0 0.18917050576451983 0.0 0.0 0.0 0.0 0.09117866621266187 0.0 0.42896964602220505 0.10910180248548328 0.0 0.0414153803487493 0.010052442090967553 0.0 0.0 0.0 0.0 1:0.0 2:0.0 3:0.0 4:0.0 5:0.0 6:0.0 7:0.0 8:0.0 9:0.0 10:0.0 11:0.0 12:0.0 13:0.0 14:0.0 15:0.0 16:0.0 17:0.0 18:0.0 19:0.0 20:0.0 21:0.0 22:0.0 23:0.0 24:0.0 25:0.0 26:0.0 27:0.0 28:0.0 29:0.0 30:0.0 31:0.0 32:0.0 33:0.0 34:0.0 35:0.0 36:0.0 37:0.0 38:0.0 39:0.0 40:0.0 41:0.0 42:1.0 43:1.0 44:1.0 45:1.0 46:1.0 47:1.0 48:1.0 49:1.0 50:1.0 51:0.0 52:0.0 53:0.0 54:0.0 55:0.0 56:1.0 57:1.0 58:0.0 59:0.0 60:0.0 61:0.0 62:0.0 63:1.0 64:1.0 65:1.0 66:0.0 67:0.0 68:0.0 69:0.0 70:1.0 71:1.0 72:0.0 73:1.0 74:0.0 75:0.0 76:0.0 77:1.0 78:1.0 79:0.0 80:0.0 81:1.0 82:1.0 83:1.0 84:1.0 85:1.0 86:0.0 87:0.0 88:0.0 89:0.0 90:0.0 91:0.0 92:0.0 93:0.0 94:0.0 95:0.0 96:0.0 97:0.0 98:0.0 99:0.0 100:0.0 101:0.0 102:0.0 103:0.0 104:0.0 105:0.0 106:0.0 107:0.0 108:0.0 109:0.0 110:0.0 111:0.0 112:0.0 113:0.0 114:0.0 115:0.0 116:0.0 117:0.0 118:0.0 119:0.0 120:0.0 121:0.0 122:0.0 123:0.0 124:0.0 125:0.0 126:0.0 127:0.0 128:0.0 
0.0 0.0 0.0 0.0 0.0 0.0 0.0 0.022898028649125136 0.0 0.0 0.0 0.003351517897278295 0.04156510258119857 0.0 0.14113372177364825 0.028329132682081908 0.0 0.0 0.04990370220964578 0.0 0.0 0.0 0.011282373664280669 0.0 0.0 1:0.0 2:0.0 3:0.0 4:0.0 5:0.0 6:0.0 7:0.0 8:0.0 9:0.0 10:0.0 11:0.0 12:0.0 13:1.0 14:1.0 15:1.0 16:1.0 17:0.0 18:0.0 19:0.0 20:0.0 21:1.0 22:0.0 23:0.0 24:1.0 25:0.0 26:0.0 27:0.0 28:0.0 29:1.0 30:1.0 31:1.0 32:1.0 33:0.0 34:0.0 35:0.0 36:1.0 37:1.0 38:0.0 39:0.0 40:1.0 41:0.0 42:0.0 43:0.0 44:1.0 45:1.0 46:0.0 47:0.0 48:1.0 49:0.0 50:0.0 51:0.0 52:1.0 53:0.0 54:0.0 55:0.0 56:1.0 57:0.0 58:0.0 59:1.0 60:1.0 61:0.0 62:0.0 63:0.0 64:1.0 65:0.0 66:0.0 67:1.0 68:0.0 69:0.0 70:0.0 71:1.0 72:1.0 73:0.0 74:1.0 75:1.0 76:0.0 77:0.0 78:0.0 79:1.0 80:0.0 81:1.0 82:1.0 83:0.0 84:0.0 85:0.0 86:1.0 87:0.0 88:0.0 89:1.0 90:0.0 91:0.0 92:0.0 93:1.0 94:1.0 95:0.0 96:0.0 97:1.0 98:0.0 99:0.0 100:1.0 101:1.0 102:0.0 103:0.0 104:0.0 105:1.0 106:0.0 107:1.0 108:1.0 109:0.0 110:0.0 111:0.0 112:0.0 113:1.0 114:1.0 115:1.0 116:0.0 117:0.0 118:0.0 119:0.0 120:0.0 121:0.0 122:0.0 123:0.0 124:0.0 125:0.0 126:0.0 127:0.0 128:0.0 
0.0 0.0 0.0 0.0 0.0 0.0 0.0 0.0 0.0 0.0 0.0 0.006948591003279338 0.0 0.003260204499301128 0.0 0.0 0.0 0.0 0.0 0.0 0.0 0.0 0.0 0.0 0.0 1:0.0 2:0.0 3:0.0 4:0.0 5:1.0 6:0.0 7:0.0 8:0.0 9:0.0 10:0.0 11:0.0 12:0.0 13:1.0 14:1.0 15:1.0 16:0.0 17:0.0 18:0.0 19:0.0 20:0.0 21:0.0 22:0.0 23:1.0 24:0.0 25:0.0 26:0.0 27:0.0 28:1.0 29:1.0 30:0.0 31:0.0 32:1.0 33:0.0 34:1.0 35:1.0 36:1.0 37:0.0 38:0.0 39:0.0 40:1.0 41:0.0 42:1.0 43:0.0 44:0.0 45:0.0 46:0.0 47:0.0 48:1.0 49:0.0 50:1.0 51:0.0 52:0.0 53:0.0 54:0.0 55:0.0 56:1.0 57:1.0 58:1.0 59:0.0 60:0.0 61:0.0 62:0.0 63:0.0 64:1.0 65:1.0 66:0.0 67:0.0 68:0.0 69:0.0 70:0.0 71:0.0 72:1.0 73:1.0 74:0.0 75:0.0 76:0.0 77:0.0 78:0.0 79:0.0 80:1.0 81:1.0 82:0.0 83:0.0 84:0.0 85:0.0 86:0.0 87:0.0 88:1.0 89:1.0 90:0.0 91:0.0 92:0.0 93:0.0 94:0.0 95:1.0 96:0.0 97:1.0 98:0.0 99:0.0 100:0.0 101:0.0 102:0.0 103:1.0 104:0.0 105:1.0 106:0.0 107:0.0 108:0.0 109:0.0 110:1.0 111:1.0 112:0.0 113:1.0 114:1.0 115:0.0 116:0.0 117:0.0 118:1.0 119:0.0 120:0.0 121:0.0 122:1.0 123:1.0 124:1.0 125:1.0 126:0.0 127:0.0 128:0.0 
0.0 0.0 0.0 0.0 0.0 0.0 0.0 0.0 0.0 0.1489339403743332 0.0 0.0 0.0 0.0 0.0 0.0 0.0 0.0 0.0 0.0 0.0 0.0 0.0 0.0 0.0 1:0.0 2:0.0 3:0.0 4:0.0 5:0.0 6:0.0 7:0.0 8:0.0 9:0.0 10:0.0 11:0.0 12:0.0 13:0.0 14:0.0 15:0.0 16:0.0 17:0.0 18:0.0 19:0.0 20:0.0 21:0.0 22:0.0 23:0.0 24:0.0 25:1.0 26:1.0 27:1.0 28:1.0 29:1.0 30:1.0 31:0.0 32:0.0 33:0.0 34:0.0 35:0.0 36:0.0 37:0.0 38:1.0 39:1.0 40:1.0 41:0.0 42:0.0 43:0.0 44:0.0 45:0.0 46:0.0 47:0.0 48:1.0 49:1.0 50:1.0 51:1.0 52:1.0 53:1.0 54:0.0 55:0.0 56:1.0 57:1.0 58:0.0 59:0.0 60:0.0 61:0.0 62:0.0 63:0.0 64:1.0 65:1.0 66:0.0 67:0.0 68:0.0 69:0.0 70:0.0 71:0.0 72:1.0 73:1.0 74:0.0 75:0.0 76:0.0 77:0.0 78:0.0 79:1.0 80:1.0 81:1.0 82:0.0 83:0.0 84:0.0 85:0.0 86:1.0 87:1.0 88:0.0 89:1.0 90:0.0 91:0.0 92:1.0 93:1.0 94:1.0 95:0.0 96:0.0 97:1.0 98:1.0 99:1.0 100:1.0 101:0.0 102:0.0 103:0.0 104:0.0 105:0.0 106:0.0 107:0.0 108:0.0 109:0.0 110:0.0 111:0.0 112:0.0 113:0.0 114:0.0 115:0.0 116:0.0 117:0.0 118:0.0 119:0.0 120:0.0 121:0.0 122:0.0 123:0.0 124:0.0 125:0.0 126:0.0 127:0.0 128:0.0 
0.0 0.0 0.22473814000707956 0.0 0.0 0.0 0.0 0.0041433422237957835 0.0 0.0 0.0 0.0 0.0 0.0 0.0 0.0 0.0 0.0 0.0 0.0 0.0 0.0 0.0 0.0 0.0 1:0.0 2:0.0 3:0.0 4:0.0 5:0.0 6:0.0 7:0.0 8:0.0 9:0.0 10:0.0 11:0.0 12:0.0 13:0.0 14:0.0 15:0.0 16:0.0 17:0.0 18:0.0 19:0.0 20:0.0 21:1.0 22:1.0 23:1.0 24:1.0 25:0.0 26:0.0 27:0.0 28:1.0 29:1.0 30:0.0 31:0.0 32:1.0 33:0.0 34:0.0 35:1.0 36:1.0 37:0.0 38:0.0 39:0.0 40:1.0 41:0.0 42:0.0 43:1.0 44:0.0 45:0.0 46:0.0 47:0.0 48:1.0 49:0.0 50:1.0 51:1.0 52:0.0 53:0.0 54:0.0 55:0.0 56:1.0 57:1.0 58:1.0 59:0.0 60:0.0 61:0.0 62:0.0 63:0.0 64:1.0 65:1.0 66:0.0 67:0.0 68:0.0 69:0.0 70:0.0 71:0.0 72:1.0 73:1.0 74:0.0 75:0.0 76:0.0 77:0.0 78:0.0 79:1.0 80:1.0 81:1.0 82:0.0 83:0.0 84:0.0 85:0.0 86:0.0 87:1.0 88:0.0 89:1.0 90:0.0 91:0.0 92:0.0 93:0.0 94:1.0 95:1.0 96:0.0 97:1.0 98:0.0 99:1.0 100:1.0 101:1.0 102:1.0 103:0.0 104:0.0 105:1.0 106:1.0 107:1.0 108:0.0 109:0.0 110:0.0 111:0.0 112:0.0 113:0.0 114:0.0 115:0.0 116:0.0 117:0.0 118:0.0 119:0.0 120:0.0 121:0.0 122:0.0 123:0.0 124:0.0 125:0.0 126:0.0 127:0.0 128:0.0 
0.0 0.0 0.0 0.0 0.0 0.0 0.0 0.0 0.0 0.0 0.0 0.0 0.0 0.0 0.0 0.0 0.0 0.0 0.013689902601355835 0.0 0.0 0.0 0.0 0.0 0.0 1:0.0 2:0.0 3:0.0 4:0.0 5:0.0 6:0.0 7:0.0 8:0.0 9:0.0 10:1.0 11:1.0 12:1.0 13:1.0 14:1.0 15:0.0 16:0.0 17:1.0 18:1.0 19:0.0 20:0.0 21:0.0 22:1.0 23:1.0 24:0.0 25:1.0 26:0.0 27:0.0 28:0.0 29:0.0 30:0.0 31:1.0 32:1.0 33:1.0 34:0.0 35:0.0 36:1.0 37:1.0 38:1.0 39:0.0 40:1.0 41:1.0 42:0.0 43:1.0 44:1.0 45:0.0 46:0.0 47:0.0 48:1.0 49:0.0 50:1.0 51:1.0 52:0.0 53:0.0 54:0.0 55:0.0 56:1.0 57:1.0 58:1.0 59:0.0 60:0.0 61:0.0 62:0.0 63:0.0 64:1.0 65:1.0 66:0.0 67:0.0 68:0.0 69:0.0 70:0.0 71:0.0 72:1.0 73:1.0 74:0.0 75:0.0 76:0.0 77:0.0 78:0.0 79:0.0 80:1.0 81:1.0 82:0.0 83:0.0 84:0.0 85:0.0 86:0.0 87:0.0 88:1.0 89:1.0 90:0.0 91:0.0 92:0.0 93:0.0 94:0.0 95:1.0 96:0.0 97:1.0 98:0.0 99:0.0 100:0.0 101:1.0 102:1.0 103:1.0 104:0.0 105:1.0 106:0.0 107:0.0 108:1.0 109:1.0 110:0.0 111:0.0 112:0.0 113:1.0 114:1.0 115:1.0 116:1.0 117:0.0 118:0.0 119:0.0 120:0.0 121:0.0 122:0.0 123:0.0 124:0.0 125:0.0 126:0.0 127:0.0 128:0.0 
0.0 0.0 0.0 0.0 0.0 0.43410919048843233 0.0 0.0 0.0 0.022202177899014262 0.0 0.014786027840989317 0.0 0.0 0.0 0.037185846254156295 0.0 0.0 0.0 0.0 0.0 0.0 0.0 0.004064616649313595 0.0 1:0.0 2:0.0 3:0.0 4:0.0 5:1.0 6:1.0 7:0.0 8:0.0 9:0.0 10:1.0 11:1.0 12:1.0 13:0.0 14:1.0 15:1.0 16:1.0 17:1.0 18:1.0 19:0.0 20:0.0 21:0.0 22:0.0 23:0.0 24:1.0 25:1.0 26:0.0 27:0.0 28:0.0 29:0.0 30:0.0 31:0.0 32:1.0 33:1.0 34:0.0 35:0.0 36:0.0 37:0.0 38:0.0 39:0.0 40:1.0 41:1.0 42:0.0 43:0.0 44:0.0 45:0.0 46:0.0 47:0.0 48:1.0 49:1.0 50:0.0 51:0.0 52:0.0 53:0.0 54:0.0 55:0.0 56:1.0 57:1.0 58:0.0 59:0.0 60:0.0 61:0.0 62:0.0 63:0.0 64:1.0 65:1.0 66:0.0 67:0.0 68:0.0 69:0.0 70:0.0 71:0.0 72:1.0 73:1.0 74:0.0 75:0.0 76:0.0 77:0.0 78:0.0 79:0.0 80:1.0 81:1.0 82:0.0 83:0.0 84:0.0 85:0.0 86:0.0 87:0.0 88:1.0 89:1.0 90:1.0 91:0.0 92:0.0 93:0.0 94:0.0 95:1.0 96:1.0 97:0.0 98:1.0 99:1.0 100:0.0 101:0.0 102:0.0 103:0.0 104:0.0 105:0.0 106:0.0 107:1.0 108:0.0 109:0.0 110:0.0 111:0.0 112:0.0 113:0.0 114:0.0 115:1.0 116:1.0 117:1.0 118:1.0 119:1.0 120:0.0 121:0.0 122:0.0 123:0.0 124:0.0 125:1.0 126:1.0 127:0.0 128:0.0 
0.0 0.0 0.0 0.0 0.0 0.15742317654308835 0.0 0.0 0.0 0.0 0.0 0.0 0.0 0.0 0.07790214281093838 0.0 0.0 0.0 0.0 0.0 0.0 0.0 0.0 0.0 0.0 1:0.0 2:0.0 3:0.0 4:0.0 5:0.0 6:0.0 7:0.0 8:0.0 9:1.0 10:1.0 11:1.0 12:1.0 13:1.0 14:1.0 15:1.0 16:0.0 17:1.0 18:1.0 19:1.0 20:0.0 21:0.0 22:0.0 23:1.0 24:1.0 25:1.0 26:1.0 27:0.0 28:0.0 29:0.0 30:0.0 31:0.0 32:1.0 33:1.0 34:0.0 35:0.0 36:0.0 37:0.0 38:0.0 39:0.0 40:1.0 41:1.0 42:0.0 43:0.0 44:0.0 45:0.0 46:0.0 47:0.0 48:1.0 49:1.0 50:0.0 51:0.0 52:0.0 53:0.0 54:0.0 55:0.0 56:1.0 57:1.0 58:0.0 59:0.0 60:0.0 61:0.0 62:0.0 63:0.0 64:1.0 65:1.0 66:0.0 67:0.0 68:0.0 69:0.0 70:0.0 71:0.0 72:1.0 73:1.0 74:0.0 75:0.0 76:0.0 77:0.0 78:0.0 79:0.0 80:1.0 81:1.0 82:0.0 83:0.0 84:0.0 85:0.0 86:0.0 87:1.0 88:1.0 89:1.0 90:0.0 91:0.0 92:0.0 93:0.0 94:0.0 95:1.0 96:0.0 97:1.0 98:0.0 99:0.0 100:0.0 101:0.0 102:1.0 103:1.0 104:0.0 105:1.0 106:0.0 107:0.0 108:0.0 109:1.0 110:1.0 111:0.0 112:0.0 113:1.0 114:1.0 115:1.0 116:1.0 117:1.0 118:0.0 119:0.0 120:0.0 121:0.0 122:0.0 123:0.0 124:0.0 125:0.0 126:0.0 127:0.0 128:0.0 
0.0 0.0 0.0 0.0 0.0 0.250873797275571 0.0 0.0 0.0 0.0 0.0 0.0 0.0 0.0 0.0 0.0 0.0 0.050502756044159776 0.0 0.0 0.0 0.0 0.0 0.0 0.0 1:0.0 2:0.0 3:0.0 4:0.0 5:0.0 6:0.0 7:0.0 8:0.0 9:0.0 10:0.0 11:0.0 12:0.0 13:0.0 14:0.0 15:0.0 16:0.0 17:0.0 18:0.0 19:0.0 20:0.0 21:0.0 22:0.0 23:0.0 24:0.0 25:0.0 26:0.0 27:0.0 28:0.0 29:1.0 30:0.0 31:0.0 32:0.0 33:1.0 34:1.0 35:1.0 36:1.0 37:1.0 38:1.0 39:0.0 40:0.0 41:1.0 42:0.0 43:0.0 44:0.0 45:1.0 46:0.0 47:1.0 48:0.0 49:1.0 50:0.0 51:0.0 52:0.0 53:1.0 54:0.0 55:1.0 56:1.0 57:1.0 58:0.0 59:0.0 60:0.0 61:0.0 62:0.0 63:0.0 64:1.0 65:1.0 66:0.0 67:0.0 68:0.0 69:0.0 70:0.0 71:0.0 72:1.0 73:1.0 74:0.0 75:0.0 76:0.0 77:0.0 78:0.0 79:0.0 80:1.0 81:1.0 82:1.0 83:0.0 84:0.0 85:0.0 86:0.0 87:0.0 88:1.0 89:0.0 90:1.0 91:1.0 92:0.0 93:0.0 94:0.0 95:1.0 96:1.0 97:0.0 98:0.0 99:1.0 100:1.0 101:1.0 102:1.0 103:1.0 104:0.0 105:0.0 106:0.0 107:0.0 108:0.0 109:0.0 110:0.0 111:0.0 112:0.0 113:0.0 114:0.0 115:0.0 116:0.0 117:0.0 118:0.0 119:0.0 120:0.0 121:0.0 122:0.0 123:0.0 124:0.0 125:0.0 126:0.0 127:0.0 128:0.0 
0.06243645659485894 0.011470201974970465 0.5919526367486528 0.0 0.0 0.0 0.06982336729369623 0.13399186497559812 0.0 0.9428540094827597 0.0 0.0 0.0 0.0 0.0 0.03624407732621817 0.0 0.0 0.0 0.0 0.0 0.0 0.0 0.0 0.03597276871042314 1:0.0 2:0.0 3:0.0 4:0.0 5:0.0 6:0.0 7:0.0 8:0.0 9:0.0 10:0.0 11:1.0 12:1.0 13:1.0 14:1.0 15:1.0 16:1.0 17:0.0 18:0.0 19:1.0 20:0.0 21:0.0 22:0.0 23:0.0 24:1.0 25:0.0 26:0.0 27:1.0 28:0.0 29:0.0 30:0.0 31:0.0 32:1.0 33:0.0 34:0.0 35:1.0 36:0.0 37:0.0 38:0.0 39:0.0 40:1.0 41:1.0 42:1.0 43:1.0 44:0.0 45:0.0 46:0.0 47:0.0 48:1.0 49:1.0 50:0.0 51:1.0 52:0.0 53:0.0 54:0.0 55:0.0 56:1.0 57:1.0 58:0.0 59:1.0 60:0.0 61:0.0 62:0.0 63:0.0 64:1.0 65:1.0 66:0.0 67:1.0 68:0.0 69:0.0 70:0.0 71:0.0 72:1.0 73:1.0 74:0.0 75:1.0 76:0.0 77:0.0 78:0.0 79:0.0 80:1.0 81:1.0 82:0.0 83:0.0 84:0.0 85:0.0 86:0.0 87:0.0 88:1.0 89:1.0 90:0.0 91:0.0 92:0.0 93:0.0 94:0.0 95:1.0 96:1.0 97:1.0 98:0.0 99:0.0 100:0.0 101:0.0 102:0.0 103:1.0 104:0.0 105:1.0 106:0.0 107:0.0 108:0.0 109:0.0 110:1.0 111:1.0 112:0.0 113:1.0 114:1.0 115:1.0 116:1.0 117:1.0 118:1.0 119:0.0 120:0.0 121:0.0 122:0.0 123:0.0 124:0.0 125:0.0 126:0.0 127:0.0 128:0.0 
0.0 0.0 0.0 0.0 0.0 0.2053143123151386 0.0 0.0 0.0 0.0 0.0 0.0 0.0 0.0 0.0 0.0 0.0 0.0 0.0 0.0 0.0 0.0 0.0 0.0 0.0 1:0.0 2:0.0 3:0.0 4:0.0 5:0.0 6:0.0 7:0.0 8:0.0 9:0.0 10:0.0 11:0.0 12:0.0 13:0.0 14:0.0 15:0.0 16:0.0 17:0.0 18:0.0 19:0.0 20:0.0 21:0.0 22:0.0 23:0.0 24:0.0 25:0.0 26:0.0 27:1.0 28:1.0 29:1.0 30:0.0 31:0.0 32:0.0 33:0.0 34:0.0 35:1.0 36:0.0 37:1.0 38:1.0 39:0.0 40:0.0 41:0.0 42:1.0 43:1.0 44:0.0 45:0.0 46:1.0 47:1.0 48:0.0 49:1.0 50:1.0 51:0.0 52:0.0 53:0.0 54:0.0 55:1.0 56:1.0 57:1.0 58:0.0 59:0.0 60:0.0 61:0.0 62:0.0 63:0.0 64:1.0 65:1.0 66:0.0 67:0.0 68:0.0 69:0.0 70:0.0 71:0.0 72:1.0 73:1.0 74:0.0 75:0.0 76:0.0 77:0.0 78:0.0 79:0.0 80:1.0 81:1.0 82:1.0 83:0.0 84:0.0 85:0.0 86:0.0 87:0.0 88:1.0 89:0.0 90:1.0 91:1.0 92:0.0 93:0.0 94:0.0 95:1.0 96:1.0 97:0.0 98:0.0 99:1.0 100:1.0 101:1.0 102:1.0 103:1.0 104:0.0 105:0.0 106:0.0 107:0.0 108:0.0 109:0.0 110:0.0 111:0.0 112:0.0 113:0.0 114:0.0 115:0.0 116:0.0 117:0.0 118:0.0 119:0.0 120:0.0 121:0.0 122:0.0 123:0.0 124:0.0 125:0.0 126:0.0 127:0.0 128:0.0 
0.0 0.0 0.0 0.0 0.0 0.0 0.0 0.04793932084204705 0.0 0.06236652095877562 0.0 0.0 0.0 0.0 0.0 0.0 0.0 0.0 0.026364129061990513 0.0 0.0 0.0 0.0 0.034721546823742386 0.0 1:0.0 2:0.0 3:0.0 4:0.0 5:0.0 6:0.0 7:0.0 8:0.0 9:0.0 10:0.0 11:0.0 12:0.0 13:0.0 14:1.0 15:1.0 16:0.0 17:0.0 18:0.0 19:0.0 20:1.0 21:1.0 22:1.0 23:1.0 24:1.0 25:1.0 26:0.0 27:1.0 28:1.0 29:0.0 30:0.0 31:0.0 32:1.0 33:1.0 34:0.0 35:1.0 36:0.0 37:0.0 38:0.0 39:0.0 40:1.0 41:1.0 42:0.0 43:1.0 44:0.0 45:0.0 46:0.0 47:0.0 48:1.0 49:1.0 50:0.0 51:1.0 52:0.0 53:0.0 54:0.0 55:0.0 56:1.0 57:1.0 58:1.0 59:1.0 60:0.0 61:0.0 62:0.0 63:0.0 64:1.0 65:1.0 66:1.0 67:0.0 68:0.0 69:0.0 70:0.0 71:0.0 72:1.0 73:1.0 74:1.0 75:0.0 76:0.0 77:0.0 78:0.0 79:1.0 80:1.0 81:1.0 82:1.0 83:0.0 84:0.0 85:0.0 86:0.0 87:1.0 88:0.0 89:1.0 90:1.0 91:0.0 92:0.0 93:0.0 94:1.0 95:1.0 96:0.0 97:1.0 98:0.0 99:0.0 100:0.0 101:1.0 102:1.0 103:0.0 104:0.0 105:1.0 106:0.0 107:0.0 108:0.0 109:1.0 110:0.0 111:0.0 112:0.0 113:1.0 114:1.0 115:1.0 116:1.0 117:1.0 118:0.0 119:0.0 120:0.0 121:0.0 122:0.0 123:0.0 124:0.0 125:0.0 126:0.0 127:0.0 128:0.0 
0.0 0.0 0.0 0.0 0.0 0.0 0.0 0.0 0.0 0.0 0.0 0.0 0.0 0.012796027302167473 0.0 0.11886354173472112 0.026483899214598264 0.0 0.0 0.0 0.0 0.0 0.0 0.0 0.0 1:0.0 2:0.0 3:0.0 4:0.0 5:0.0 6:0.0 7:0.0 8:0.0 9:0.0 10:0.0 11:0.0 12:0.0 13:0.0 14:0.0 15:0.0 16:0.0 17:0.0 18:0.0 19:1.0 20:1.0 21:1.0 22:1.0 23:1.0 24:0.0 25:1.0 26:1.0 27:0.0 28:0.0 29:0.0 30:0.0 31:1.0 32:0.0 33:1.0 34:0.0 35:0.0 36:0.0 37:0.0 38:1.0 39:1.0 40:0.0 41:1.0 42:0.0 43:0.0 44:0.0 45:0.0 46:0.0 47:1.0 48:1.0 49:1.0 50:0.0 51:0.0 52:0.0 53:0.0 54:0.0 55:0.0 56:1.0 57:1.0 58:0.0 59:0.0 60:0.0 61:0.0 62:0.0 63:0.0 64:1.0 65:1.0 66:0.0 67:0.0 68:0.0 69:0.0 70:0.0 71:0.0 72:1.0 73:1.0 74:1.0 75:0.0 76:0.0 77:0.0 78:0.0 79:0.0 80:1.0 81:0.0 82:1.0 83:1.0 84:0.0 85:0.0 86:0.0 87:0.0 88:1.0 89:0.0 90:0.0 91:1.0 92:1.0 93:0.0 94:0.0 95:0.0 96:1.0 97:0.0 98:0.0 99:0.0 100:1.0 101:1.0 102:0.0 103:1.0 104:1.0 105:0.0 106:0.0 107:0.0 108:0.0 109:1.0 110:1.0 111:1.0 112:0.0 113:0.0 114:0.0 115:0.0 116:0.0 117:0.0 118:0.0 119:0.0 120:0.0 121:0.0 122:0.0 123:0.0 124:0.0 125:0.0 126:0.0 127:0.0 128:0.0 
0.0 0.0 0.0 0.0 0.0 0.0 0.0 0.0 0.0 0.0 0.0 0.0 0.0 0.0 0.0 0.0 0.0 0.0 0.02117625003197537 0.0 5.303766518707908E-4 0.0 0.0 0.0 0.0 1:0.0 2:0.0 3:0.0 4:1.0 5:1.0 6:1.0 7:0.0 8:0.0 9:0.0 10:0.0 11:1.0 12:1.0 13:1.0 14:1.0 15:0.0 16:0.0 17:0.0 18:0.0 19:1.0 20:0.0 21:0.0 22:1.0 23:1.0 24:0.0 25:0.0 26:1.0 27:1.0 28:0.0 29:0.0 30:0.0 31:1.0 32:0.0 33:0.0 34:1.0 35:0.0 36:0.0 37:0.0 38:0.0 39:1.0 40:1.0 41:1.0 42:1.0 43:0.0 44:0.0 45:0.0 46:0.0 47:0.0 48:1.0 49:1.0 50:0.0 51:0.0 52:0.0 53:0.0 54:0.0 55:0.0 56:1.0 57:1.0 58:0.0 59:0.0 60:0.0 61:0.0 62:0.0 63:0.0 64:1.0 65:1.0 66:0.0 67:0.0 68:0.0 69:0.0 70:0.0 71:0.0 72:1.0 73:1.0 74:0.0 75:0.0 76:0.0 77:0.0 78:0.0 79:0.0 80:1.0 81:1.0 82:0.0 83:0.0 84:0.0 85:0.0 86:0.0 87:0.0 88:1.0 89:1.0 90:0.0 91:0.0 92:0.0 93:0.0 94:0.0 95:0.0 96:1.0 97:1.0 98:0.0 99:0.0 100:0.0 101:0.0 102:0.0 103:1.0 104:1.0 105:1.0 106:0.0 107:0.0 108:0.0 109:0.0 110:1.0 111:1.0 112:0.0 113:1.0 114:0.0 115:0.0 116:0.0 117:0.0 118:1.0 119:0.0 120:0.0 121:1.0 122:1.0 123:1.0 124:1.0 125:1.0 126:1.0 127:0.0 128:0.0 
0.0 0.0 0.3049689176815409 0.0 0.0 0.0 0.0 0.0 0.0 0.0 0.0 0.0 0.0 0.0 0.0 0.0 0.0 0.0 0.0 0.0 0.0 0.0 0.0 0.0 0.0 1:0.0 2:0.0 3:0.0 4:0.0 5:0.0 6:0.0 7:0.0 8:0.0 9:0.0 10:0.0 11:0.0 12:0.0 13:0.0 14:0.0 15:0.0 16:0.0 17:0.0 18:0.0 19:0.0 20:0.0 21:0.0 22:0.0 23:0.0 24:0.0 25:0.0 26:0.0 27:0.0 28:0.0 29:0.0 30:0.0 31:0.0 32:0.0 33:0.0 34:1.0 35:1.0 36:1.0 37:1.0 38:1.0 39:1.0 40:0.0 41:1.0 42:1.0 43:1.0 44:0.0 45:0.0 46:0.0 47:1.0 48:1.0 49:1.0 50:1.0 51:0.0 52:0.0 53:0.0 54:0.0 55:0.0 56:1.0 57:1.0 58:0.0 59:0.0 60:0.0 61:0.0 62:0.0 63:0.0 64:1.0 65:1.0 66:0.0 67:0.0 68:0.0 69:0.0 70:0.0 71:0.0 72:1.0 73:1.0 74:0.0 75:0.0 76:0.0 77:0.0 78:0.0 79:0.0 80:1.0 81:1.0 82:0.0 83:0.0 84:0.0 85:0.0 86:0.0 87:0.0 88:1.0 89:1.0 90:1.0 91:1.0 92:1.0 93:1.0 94:1.0 95:1.0 96:1.0 97:0.0 98:0.0 99:0.0 100:0.0 101:0.0 102:0.0 103:0.0 104:0.0 105:0.0 106:0.0 107:0.0 108:0.0 109:0.0 110:0.0 111:0.0 112:0.0 113:0.0 114:0.0 115:0.0 116:0.0 117:0.0 118:0.0 119:0.0 120:0.0 121:0.0 122:0.0 123:0.0 124:0.0 125:0.0 126:0.0 127:0.0 128:0.0 
0.0 0.0 0.0 0.0 0.0 0.0 0.0 0.0 0.0 0.0 0.0 0.0 0.0 0.0 0.0 0.0 0.1631112015374305 0.0 0.0 0.0 0.0 0.0 0.0 0.0 0.0 1:0.0 2:0.0 3:0.0 4:0.0 5:0.0 6:0.0 7:0.0 8:0.0 9:0.0 10:0.0 11:0.0 12:0.0 13:0.0 14:0.0 15:0.0 16:0.0 17:1.0 18:1.0 19:0.0 20:0.0 21:0.0 22:0.0 23:0.0 24:0.0 25:1.0 26:0.0 27:0.0 28:1.0 29:1.0 30:0.0 31:0.0 32:0.0 33:1.0 34:0.0 35:0.0 36:0.0 37:0.0 38:1.0 39:1.0 40:0.0 41:1.0 42:0.0 43:0.0 44:0.0 45:0.0 46:0.0 47:1.0 48:1.0 49:1.0 50:0.0 51:0.0 52:0.0 53:0.0 54:0.0 55:0.0 56:1.0 57:1.0 58:0.0 59:0.0 60:0.0 61:0.0 62:0.0 63:0.0 64:1.0 65:1.0 66:0.0 67:0.0 68:0.0 69:0.0 70:0.0 71:0.0 72:1.0 73:1.0 74:0.0 75:0.0 76:0.0 77:0.0 78:0.0 79:0.0 80:1.0 81:1.0 82:0.0 83:0.0 84:0.0 85:0.0 86:0.0 87:1.0 88:1.0 89:1.0 90:0.0 91:0.0 92:0.0 93:0.0 94:0.0 95:1.0 96:0.0 97:0.0 98:1.0 99:1.0 100:0.0 101:1.0 102:1.0 103:1.0 104:0.0 105:0.0 106:0.0 107:1.0 108:1.0 109:1.0 110:0.0 111:0.0 112:0.0 113:0.0 114:0.0 115:0.0 116:0.0 117:0.0 118:0.0 119:0.0 120:0.0 121:0.0 122:0.0 123:0.0 124:0.0 125:0.0 126:0.0 127:0.0 128:0.0 
0.0 0.1885534378746671 0.13708490746786967 0.0 0.0 0.0 0.0 0.0 0.0 0.0 0.0 0.0 0.0 0.0 0.0 0.0 0.0 0.0 0.0 0.0 0.10236397947031436 0.0 0.0 0.0 0.0 1:0.0 2:0.0 3:0.0 4:0.0 5:0.0 6:0.0 7:0.0 8:0.0 9:0.0 10:0.0 11:0.0 12:0.0 13:0.0 14:0.0 15:0.0 16:0.0 17:0.0 18:0.0 19:0.0 20:0.0 21:1.0 22:1.0 23:0.0 24:0.0 25:0.0 26:0.0 27:0.0 28:0.0 29:1.0 30:1.0 31:1.0 32:0.0 33:0.0 34:0.0 35:0.0 36:0.0 37:1.0 38:0.0 39:1.0 40:0.0 41:0.0 42:0.0 43:0.0 44:0.0 45:0.0 46:0.0 47:1.0 48:1.0 49:0.0 50:0.0 51:0.0 52:0.0 53:0.0 54:0.0 55:0.0 56:1.0 57:0.0 58:1.0 59:1.0 60:0.0 61:0.0 62:0.0 63:0.0 64:1.0 65:1.0 66:1.0 67:0.0 68:0.0 69:0.0 70:0.0 71:0.0 72:1.0 73:1.0 74:0.0 75:0.0 76:0.0 77:0.0 78:0.0 79:0.0 80:1.0 81:1.0 82:0.0 83:0.0 84:0.0 85:0.0 86:0.0 87:0.0 88:1.0 89:1.0 90:0.0 91:0.0 92:0.0 93:0.0 94:0.0 95:1.0 96:1.0 97:1.0 98:1.0 99:1.0 100:0.0 101:1.0 102:1.0 103:1.0 104:0.0 105:0.0 106:0.0 107:1.0 108:1.0 109:1.0 110:0.0 111:0.0 112:0.0 113:0.0 114:0.0 115:0.0 116:0.0 117:0.0 118:0.0 119:0.0 120:0.0 121:0.0 122:0.0 123:0.0 124:0.0 125:0.0 126:0.0 127:0.0 128:0.0 
0.0 2.52344867400776E-6 0.0 0.009530530053857377 0.0 0.0 0.0 0.0 0.0 0.04598254655848279 0.08091756016278474 0.0 0.004655326214194499 0.11867676353829414 0.0 0.0 0.0 0.017008592803411136 0.0 0.0 0.0 0.0 0.0 0.0 0.008837508280175089 1:0.0 2:0.0 3:0.0 4:0.0 5:0.0 6:0.0 7:0.0 8:0.0 9:0.0 10:0.0 11:0.0 12:0.0 13:0.0 14:0.0 15:0.0 16:0.0 17:0.0 18:0.0 19:0.0 20:1.0 21:1.0 22:0.0 23:0.0 24:0.0 25:0.0 26:0.0 27:0.0 28:1.0 29:0.0 30:0.0 31:0.0 32:0.0 33:0.0 34:0.0 35:1.0 36:0.0 37:0.0 38:0.0 39:0.0 40:0.0 41:0.0 42:0.0 43:1.0 44:0.0 45:0.0 46:0.0 47:0.0 48:0.0 49:0.0 50:1.0 51:1.0 52:0.0 53:0.0 54:0.0 55:0.0 56:1.0 57:0.0 58:1.0 59:0.0 60:0.0 61:0.0 62:0.0 63:0.0 64:1.0 65:1.0 66:1.0 67:0.0 68:0.0 69:0.0 70:0.0 71:0.0 72:1.0 73:1.0 74:0.0 75:0.0 76:0.0 77:0.0 78:0.0 79:0.0 80:1.0 81:1.0 82:1.0 83:1.0 84:1.0 85:1.0 86:0.0 87:1.0 88:1.0 89:0.0 90:0.0 91:0.0 92:0.0 93:1.0 94:1.0 95:1.0 96:0.0 97:0.0 98:0.0 99:0.0 100:0.0 101:1.0 102:1.0 103:0.0 104:0.0 105:0.0 106:0.0 107:0.0 108:0.0 109:1.0 110:0.0 111:0.0 112:0.0 113:0.0 114:0.0 115:0.0 116:0.0 117:0.0 118:0.0 119:0.0 120:0.0 121:0.0 122:0.0 123:0.0 124:0.0 125:0.0 126:0.0 127:0.0 128:0.0 
0.2045816924009861 1.0 1.0 0.07157970014448796 0.0 0.6240984218962629 0.0 0.14218812214104568 0.32867713350143785 0.0 0.0 0.0 0.12387156575637474 0.10458362549231937 0.016341887461005195 0.0 0.011088105866883618 0.024385154628850866 0.06616659073426658 3.6749495227799604E-4 0.0 0.0 0.03499361899308404 0.13679883872263432 0.1169411044081597 1:0.0 2:0.0 3:0.0 4:0.0 5:0.0 6:0.0 7:0.0 8:0.0 9:0.0 10:0.0 11:0.0 12:0.0 13:0.0 14:0.0 15:0.0 16:0.0 17:0.0 18:0.0 19:0.0 20:0.0 21:0.0 22:0.0 23:0.0 24:0.0 25:0.0 26:0.0 27:0.0 28:0.0 29:0.0 30:0.0 31:0.0 32:0.0 33:0.0 34:0.0 35:0.0 36:0.0 37:0.0 38:0.0 39:0.0 40:0.0 41:0.0 42:0.0 43:0.0 44:0.0 45:1.0 46:1.0 47:1.0 48:1.0 49:0.0 50:0.0 51:0.0 52:1.0 53:1.0 54:0.0 55:0.0 56:1.0 57:0.0 58:1.0 59:1.0 60:1.0 61:0.0 62:0.0 63:1.0 64:1.0 65:1.0 66:1.0 67:0.0 68:0.0 69:0.0 70:1.0 71:1.0 72:0.0 73:1.0 74:1.0 75:1.0 76:1.0 77:1.0 78:1.0 79:0.0 80:0.0 81:1.0 82:1.0 83:0.0 84:0.0 85:0.0 86:0.0 87:0.0 88:0.0 89:0.0 90:0.0 91:0.0 92:0.0 93:0.0 94:0.0 95:0.0 96:0.0 97:0.0 98:0.0 99:0.0 100:0.0 101:0.0 102:0.0 103:0.0 104:0.0 105:0.0 106:0.0 107:0.0 108:0.0 109:0.0 110:0.0 111:0.0 112:0.0 113:0.0 114:0.0 115:0.0 116:0.0 117:0.0 118:0.0 119:0.0 120:0.0 121:0.0 122:0.0 123:0.0 124:0.0 125:0.0 126:0.0 127:0.0 128:0.0 
0.0 0.0 0.0 0.0 0.0 0.0 0.0 0.0 0.0 0.0 0.0 0.0 0.02095462452594129 0.0 0.06689253077623479 0.0 0.0 0.0 0.0 0.0 0.0 0.0 0.0 0.0 0.0 1:0.0 2:0.0 3:0.0 4:0.0 5:0.0 6:0.0 7:0.0 8:0.0 9:0.0 10:0.0 11:0.0 12:0.0 13:1.0 14:1.0 15:1.0 16:0.0 17:0.0 18:0.0 19:0.0 20:1.0 21:1.0 22:1.0 23:1.0 24:1.0 25:0.0 26:0.0 27:1.0 28:1.0 29:0.0 30:1.0 31:0.0 32:1.0 33:0.0 34:1.0 35:1.0 36:0.0 37:0.0 38:1.0 39:0.0 40:1.0 41:0.0 42:1.0 43:0.0 44:0.0 45:0.0 46:0.0 47:0.0 48:1.0 49:0.0 50:1.0 51:0.0 52:0.0 53:0.0 54:0.0 55:0.0 56:1.0 57:0.0 58:1.0 59:0.0 60:0.0 61:0.0 62:0.0 63:0.0 64:1.0 65:1.0 66:1.0 67:0.0 68:0.0 69:0.0 70:0.0 71:0.0 72:1.0 73:1.0 74:0.0 75:0.0 76:0.0 77:0.0 78:0.0 79:1.0 80:1.0 81:1.0 82:0.0 83:0.0 84:0.0 85:0.0 86:0.0 87:1.0 88:0.0 89:1.0 90:0.0 91:0.0 92:0.0 93:0.0 94:1.0 95:1.0 96:0.0 97:1.0 98:0.0 99:0.0 100:0.0 101:1.0 102:1.0 103:0.0 104:0.0 105:1.0 106:0.0 107:0.0 108:1.0 109:1.0 110:0.0 111:0.0 112:0.0 113:1.0 114:1.0 115:1.0 116:1.0 117:0.0 118:0.0 119:0.0 120:0.0 121:0.0 122:0.0 123:0.0 124:0.0 125:0.0 126:0.0 127:0.0 128:0.0 
0.0 0.0 1.0 0.0 0.0 0.0 0.0 0.0 0.0 0.32963155575605546 0.0 0.0 0.004529117680594548 0.0 0.0 0.0 0.1694986037441677 0.0 0.0 0.0 0.0 0.0 0.0 0.020582962407849976 0.0 1:0.0 2:0.0 3:0.0 4:0.0 5:0.0 6:0.0 7:0.0 8:0.0 9:0.0 10:0.0 11:0.0 12:0.0 13:0.0 14:0.0 15:0.0 16:0.0 17:0.0 18:0.0 19:0.0 20:0.0 21:0.0 22:0.0 23:0.0 24:0.0 25:0.0 26:0.0 27:0.0 28:0.0 29:0.0 30:0.0 31:0.0 32:0.0 33:0.0 34:1.0 35:1.0 36:1.0 37:1.0 38:1.0 39:1.0 40:1.0 41:1.0 42:1.0 43:0.0 44:0.0 45:0.0 46:0.0 47:0.0 48:1.0 49:1.0 50:0.0 51:0.0 52:0.0 53:0.0 54:0.0 55:0.0 56:1.0 57:1.0 58:1.0 59:0.0 60:0.0 61:0.0 62:0.0 63:0.0 64:1.0 65:1.0 66:0.0 67:0.0 68:0.0 69:0.0 70:0.0 71:0.0 72:1.0 73:1.0 74:1.0 75:0.0 76:0.0 77:0.0 78:0.0 79:1.0 80:1.0 81:0.0 82:1.0 83:0.0 84:0.0 85:0.0 86:1.0 87:1.0 88:0.0 89:0.0 90:1.0 91:1.0 92:1.0 93:1.0 94:1.0 95:0.0 96:0.0 97:0.0 98:0.0 99:0.0 100:0.0 101:0.0 102:0.0 103:0.0 104:0.0 105:0.0 106:0.0 107:0.0 108:0.0 109:0.0 110:0.0 111:0.0 112:0.0 113:0.0 114:0.0 115:0.0 116:0.0 117:0.0 118:0.0 119:0.0 120:0.0 121:0.0 122:0.0 123:0.0 124:0.0 125:0.0 126:0.0 127:0.0 128:0.0 
0.0 0.3864463605038991 0.5620581969286226 0.051288760844996034 0.0 0.6898190166779892 0.0 0.0 0.6791463335223114 1.0 0.0 0.0 0.0 0.0 0.39237710729246794 0.0 0.20374874719747543 0.05603978004818875 0.0 0.04341731988463935 0.0 0.0 0.0 0.0 0.0 1:0.0 2:0.0 3:0.0 4:0.0 5:0.0 6:0.0 7:0.0 8:0.0 9:0.0 10:0.0 11:0.0 12:0.0 13:0.0 14:0.0 15:0.0 16:0.0 17:0.0 18:0.0 19:0.0 20:0.0 21:0.0 22:0.0 23:0.0 24:0.0 25:0.0 26:0.0 27:0.0 28:0.0 29:0.0 30:0.0 31:0.0 32:0.0 33:0.0 34:0.0 35:0.0 36:0.0 37:1.0 38:1.0 39:1.0 40:1.0 41:0.0 42:0.0 43:0.0 44:1.0 45:1.0 46:1.0 47:0.0 48:0.0 49:0.0 50:0.0 51:1.0 52:1.0 53:0.0 54:1.0 55:0.0 56:0.0 57:0.0 58:1.0 59:1.0 60:0.0 61:0.0 62:1.0 63:0.0 64:0.0 65:1.0 66:1.0 67:0.0 68:0.0 69:1.0 70:1.0 71:0.0 72:0.0 73:1.0 74:0.0 75:0.0 76:1.0 77:1.0 78:0.0 79:0.0 80:0.0 81:1.0 82:0.0 83:1.0 84:1.0 85:0.0 86:0.0 87:0.0 88:0.0 89:1.0 90:1.0 91:1.0 92:0.0 93:0.0 94:0.0 95:0.0 96:0.0 97:0.0 98:0.0 99:0.0 100:0.0 101:0.0 102:0.0 103:0.0 104:0.0 105:0.0 106:0.0 107:0.0 108:0.0 109:0.0 110:0.0 111:0.0 112:0.0 113:0.0 114:0.0 115:0.0 116:0.0 117:0.0 118:0.0 119:0.0 120:0.0 121:0.0 122:0.0 123:0.0 124:0.0 125:0.0 126:0.0 127:0.0 128:0.0 
0.0 0.0 0.0 0.0 0.0 0.0 0.0 0.0 0.0 0.0 0.0 0.0 0.0 0.0 0.0 0.0640102562781413 0.0 0.0 0.0 0.0 0.0 0.0 0.0 0.0 0.0 1:0.0 2:0.0 3:0.0 4:0.0 5:0.0 6:0.0 7:0.0 8:0.0 9:0.0 10:0.0 11:0.0 12:0.0 13:0.0 14:0.0 15:0.0 16:1.0 17:0.0 18:0.0 19:0.0 20:0.0 21:0.0 22:0.0 23:0.0 24:1.0 25:0.0 26:0.0 27:0.0 28:0.0 29:0.0 30:0.0 31:0.0 32:1.0 33:0.0 34:0.0 35:1.0 36:1.0 37:1.0 38:1.0 39:1.0 40:1.0 41:0.0 42:1.0 43:1.0 44:0.0 45:0.0 46:0.0 47:0.0 48:1.0 49:1.0 50:1.0 51:0.0 52:0.0 53:0.0 54:0.0 55:0.0 56:1.0 57:1.0 58:0.0 59:0.0 60:0.0 61:0.0 62:0.0 63:0.0 64:1.0 65:1.0 66:0.0 67:0.0 68:0.0 69:0.0 70:0.0 71:0.0 72:1.0 73:1.0 74:0.0 75:0.0 76:0.0 77:0.0 78:0.0 79:0.0 80:1.0 81:1.0 82:0.0 83:0.0 84:0.0 85:0.0 86:0.0 87:0.0 88:1.0 89:1.0 90:0.0 91:0.0 92:0.0 93:0.0 94:0.0 95:1.0 96:1.0 97:1.0 98:1.0 99:0.0 100:0.0 101:0.0 102:0.0 103:1.0 104:0.0 105:0.0 106:1.0 107:0.0 108:0.0 109:0.0 110:1.0 111:1.0 112:0.0 113:0.0 114:0.0 115:1.0 116:1.0 117:1.0 118:1.0 119:0.0 120:0.0 121:0.0 122:0.0 123:0.0 124:0.0 125:0.0 126:0.0 127:0.0 128:0.0 
0.0 0.055379639543273664 0.048414796433027485 0.0 0.0 0.0 0.0 0.0 0.0 0.0 0.0 0.00913921230725472 0.0 0.0 0.11897052055767302 0.0 0.0 0.0 0.0 0.0 0.0 0.0 0.0 0.0 0.0 1:0.0 2:0.0 3:0.0 4:0.0 5:0.0 6:0.0 7:0.0 8:0.0 9:0.0 10:0.0 11:0.0 12:0.0 13:0.0 14:0.0 15:1.0 16:0.0 17:0.0 18:0.0 19:0.0 20:0.0 21:0.0 22:1.0 23:1.0 24:0.0 25:0.0 26:0.0 27:0.0 28:0.0 29:1.0 30:1.0 31:0.0 32:0.0 33:0.0 34:0.0 35:0.0 36:0.0 37:1.0 38:0.0 39:0.0 40:0.0 41:0.0 42:0.0 43:0.0 44:1.0 45:1.0 46:0.0 47:0.0 48:0.0 49:0.0 50:0.0 51:1.0 52:0.0 53:1.0 54:1.0 55:1.0 56:0.0 57:1.0 58:1.0 59:0.0 60:0.0 61:0.0 62:0.0 63:1.0 64:1.0 65:1.0 66:0.0 67:0.0 68:0.0 69:0.0 70:0.0 71:0.0 72:1.0 73:1.0 74:0.0 75:0.0 76:0.0 77:0.0 78:0.0 79:0.0 80:1.0 81:1.0 82:0.0 83:0.0 84:0.0 85:0.0 86:0.0 87:0.0 88:1.0 89:1.0 90:0.0 91:0.0 92:0.0 93:0.0 94:0.0 95:0.0 96:1.0 97:1.0 98:0.0 99:0.0 100:0.0 101:0.0 102:0.0 103:0.0 104:1.0 105:1.0 106:1.0 107:0.0 108:0.0 109:0.0 110:0.0 111:1.0 112:1.0 113:0.0 114:1.0 115:1.0 116:1.0 117:1.0 118:1.0 119:1.0 120:0.0 121:0.0 122:0.0 123:0.0 124:0.0 125:0.0 126:0.0 127:0.0 128:0.0 
0.0 0.0 0.4595192426954159 0.0 0.0 0.0 0.007013081568949151 0.0 0.06448728182076931 0.31327895054682187 0.06382204811932027 0.007838396160576942 0.0 0.0 0.0 0.08314444650828766 0.0 0.13627869467647474 0.0 0.0 0.0 0.0 0.0 0.0 0.024307290030811543 1:0.0 2:0.0 3:0.0 4:0.0 5:0.0 6:0.0 7:0.0 8:0.0 9:0.0 10:0.0 11:0.0 12:0.0 13:0.0 14:0.0 15:0.0 16:0.0 17:0.0 18:0.0 19:0.0 20:0.0 21:0.0 22:0.0 23:0.0 24:0.0 25:0.0 26:0.0 27:0.0 28:0.0 29:0.0 30:0.0 31:0.0 32:0.0 33:0.0 34:0.0 35:0.0 36:0.0 37:0.0 38:0.0 39:0.0 40:0.0 41:0.0 42:0.0 43:1.0 44:1.0 45:0.0 46:0.0 47:0.0 48:0.0 49:1.0 50:1.0 51:1.0 52:1.0 53:1.0 54:1.0 55:1.0 56:0.0 57:1.0 58:0.0 59:0.0 60:0.0 61:0.0 62:0.0 63:1.0 64:1.0 65:1.0 66:0.0 67:0.0 68:0.0 69:0.0 70:0.0 71:0.0 72:1.0 73:1.0 74:1.0 75:1.0 76:0.0 77:0.0 78:0.0 79:1.0 80:1.0 81:0.0 82:0.0 83:1.0 84:1.0 85:1.0 86:1.0 87:1.0 88:0.0 89:0.0 90:0.0 91:0.0 92:0.0 93:0.0 94:0.0 95:0.0 96:0.0 97:0.0 98:0.0 99:0.0 100:0.0 101:0.0 102:0.0 103:0.0 104:0.0 105:0.0 106:0.0 107:0.0 108:0.0 109:0.0 110:0.0 111:0.0 112:0.0 113:0.0 114:0.0 115:0.0 116:0.0 117:0.0 118:0.0 119:0.0 120:0.0 121:0.0 122:0.0 123:0.0 124:0.0 125:0.0 126:0.0 127:0.0 128:0.0 
0.281120993392808 0.0 0.3120928048015291 0.0 0.0 0.0 0.0 0.0 0.0 0.0 0.09182476626182308 0.0 0.0 0.0 0.0 0.0 0.0 0.0 0.0 0.0 0.0 0.0 0.0 0.0 0.0 1:0.0 2:0.0 3:0.0 4:0.0 5:0.0 6:0.0 7:0.0 8:0.0 9:0.0 10:0.0 11:0.0 12:0.0 13:0.0 14:0.0 15:0.0 16:0.0 17:0.0 18:0.0 19:0.0 20:0.0 21:0.0 22:0.0 23:0.0 24:0.0 25:0.0 26:0.0 27:0.0 28:0.0 29:0.0 30:0.0 31:0.0 32:0.0 33:0.0 34:0.0 35:0.0 36:0.0 37:0.0 38:0.0 39:0.0 40:0.0 41:0.0 42:0.0 43:1.0 44:1.0 45:1.0 46:1.0 47:0.0 48:0.0 49:1.0 50:1.0 51:1.0 52:1.0 53:0.0 54:1.0 55:1.0 56:1.0 57:0.0 58:1.0 59:1.0 60:0.0 61:0.0 62:0.0 63:0.0 64:1.0 65:0.0 66:1.0 67:0.0 68:0.0 69:0.0 70:0.0 71:0.0 72:1.0 73:0.0 74:1.0 75:0.0 76:0.0 77:0.0 78:0.0 79:0.0 80:1.0 81:0.0 82:1.0 83:1.0 84:1.0 85:1.0 86:1.0 87:1.0 88:1.0 89:0.0 90:0.0 91:0.0 92:0.0 93:0.0 94:0.0 95:0.0 96:0.0 97:0.0 98:0.0 99:0.0 100:0.0 101:0.0 102:0.0 103:0.0 104:0.0 105:0.0 106:0.0 107:0.0 108:0.0 109:0.0 110:0.0 111:0.0 112:0.0 113:0.0 114:0.0 115:0.0 116:0.0 117:0.0 118:0.0 119:0.0 120:0.0 121:0.0 122:0.0 123:0.0 124:0.0 125:0.0 126:0.0 127:0.0 128:0.0 
0.0 0.0 0.07640525689834048 0.0 0.0 0.0 0.0 0.0 0.0 0.31811279153072014 0.0 0.0 0.0 0.0 0.0 0.0 0.0 0.0 0.0 0.0 0.0 0.0 0.0 0.0 7.082786611791534E-4 1:0.0 2:0.0 3:0.0 4:0.0 5:0.0 6:0.0 7:0.0 8:0.0 9:0.0 10:0.0 11:0.0 12:0.0 13:0.0 14:0.0 15:0.0 16:0.0 17:0.0 18:0.0 19:0.0 20:0.0 21:0.0 22:0.0 23:0.0 24:0.0 25:0.0 26:0.0 27:0.0 28:0.0 29:0.0 30:0.0 31:0.0 32:0.0 33:0.0 34:0.0 35:0.0 36:1.0 37:1.0 38:1.0 39:1.0 40:0.0 41:0.0 42:1.0 43:1.0 44:1.0 45:0.0 46:0.0 47:0.0 48:1.0 49:1.0 50:1.0 51:1.0 52:1.0 53:0.0 54:0.0 55:0.0 56:1.0 57:1.0 58:1.0 59:1.0 60:0.0 61:0.0 62:0.0 63:0.0 64:1.0 65:1.0 66:1.0 67:0.0 68:0.0 69:0.0 70:0.0 71:0.0 72:1.0 73:0.0 74:1.0 75:0.0 76:0.0 77:0.0 78:0.0 79:0.0 80:1.0 81:0.0 82:1.0 83:0.0 84:0.0 85:0.0 86:1.0 87:1.0 88:1.0 89:0.0 90:1.0 91:1.0 92:1.0 93:1.0 94:1.0 95:0.0 96:0.0 97:0.0 98:0.0 99:0.0 100:0.0 101:0.0 102:0.0 103:0.0 104:0.0 105:0.0 106:0.0 107:0.0 108:0.0 109:0.0 110:0.0 111:0.0 112:0.0 113:0.0 114:0.0 115:0.0 116:0.0 117:0.0 118:0.0 119:0.0 120:0.0 121:0.0 122:0.0 123:0.0 124:0.0 125:0.0 126:0.0 127:0.0 128:0.0 
0.0 0.0 0.0 0.0 0.0 0.0 0.0 0.0 0.0 0.370165904854247 0.0 0.0 0.0 0.0 0.0 0.0 0.0 0.0 0.0 0.0 0.0 0.0 0.0 0.0 0.0 1:0.0 2:0.0 3:0.0 4:0.0 5:0.0 6:0.0 7:0.0 8:0.0 9:0.0 10:0.0 11:0.0 12:0.0 13:0.0 14:0.0 15:0.0 16:0.0 17:0.0 18:0.0 19:0.0 20:0.0 21:0.0 22:0.0 23:0.0 24:0.0 25:0.0 26:0.0 27:0.0 28:0.0 29:0.0 30:0.0 31:0.0 32:0.0 33:0.0 34:0.0 35:1.0 36:1.0 37:1.0 38:1.0 39:1.0 40:0.0 41:1.0 42:1.0 43:1.0 44:0.0 45:0.0 46:0.0 47:1.0 48:1.0 49:1.0 50:1.0 51:1.0 52:0.0 53:0.0 54:0.0 55:0.0 56:1.0 57:1.0 58:0.0 59:0.0 60:0.0 61:0.0 62:0.0 63:0.0 64:1.0 65:1.0 66:0.0 67:0.0 68:0.0 69:0.0 70:0.0 71:0.0 72:1.0 73:1.0 74:0.0 75:0.0 76:0.0 77:0.0 78:0.0 79:1.0 80:1.0 81:1.0 82:0.0 83:0.0 84:0.0 85:1.0 86:1.0 87:1.0 88:0.0 89:1.0 90:1.0 91:1.0 92:1.0 93:1.0 94:0.0 95:0.0 96:0.0 97:0.0 98:0.0 99:0.0 100:0.0 101:0.0 102:0.0 103:0.0 104:0.0 105:0.0 106:0.0 107:0.0 108:0.0 109:0.0 110:0.0 111:0.0 112:0.0 113:0.0 114:0.0 115:0.0 116:0.0 117:0.0 118:0.0 119:0.0 120:0.0 121:0.0 122:0.0 123:0.0 124:0.0 125:0.0 126:0.0 127:0.0 128:0.0 
0.0 0.0 0.0 0.0 0.0 0.0 0.0 0.0 0.0 0.0 0.0 0.0 0.0 0.0 0.0 0.0 0.0 0.0 6.710353718693585E-4 0.0 0.0 0.0 0.0 0.0 0.0 1:0.0 2:1.0 3:1.0 4:1.0 5:0.0 6:0.0 7:0.0 8:0.0 9:1.0 10:1.0 11:0.0 12:0.0 13:0.0 14:0.0 15:0.0 16:0.0 17:1.0 18:0.0 19:1.0 20:1.0 21:1.0 22:1.0 23:0.0 24:0.0 25:1.0 26:1.0 27:1.0 28:0.0 29:0.0 30:1.0 31:1.0 32:0.0 33:1.0 34:1.0 35:0.0 36:0.0 37:0.0 38:0.0 39:1.0 40:0.0 41:1.0 42:1.0 43:0.0 44:0.0 45:0.0 46:0.0 47:1.0 48:1.0 49:1.0 50:0.0 51:0.0 52:0.0 53:0.0 54:0.0 55:0.0 56:1.0 57:1.0 58:0.0 59:0.0 60:0.0 61:0.0 62:0.0 63:0.0 64:1.0 65:1.0 66:0.0 67:0.0 68:0.0 69:0.0 70:0.0 71:0.0 72:1.0 73:1.0 74:0.0 75:0.0 76:0.0 77:0.0 78:0.0 79:0.0 80:1.0 81:1.0 82:0.0 83:0.0 84:0.0 85:0.0 86:0.0 87:0.0 88:1.0 89:1.0 90:0.0 91:0.0 92:0.0 93:0.0 94:0.0 95:0.0 96:1.0 97:1.0 98:1.0 99:0.0 100:0.0 101:0.0 102:0.0 103:0.0 104:1.0 105:0.0 106:1.0 107:1.0 108:0.0 109:0.0 110:0.0 111:1.0 112:1.0 113:0.0 114:0.0 115:1.0 116:1.0 117:0.0 118:0.0 119:1.0 120:0.0 121:0.0 122:0.0 123:0.0 124:1.0 125:1.0 126:1.0 127:1.0 128:0.0 
0.0 0.0 0.4046805598668334 0.0 0.0 0.0 0.0 0.0 0.0 0.0 0.0 0.0 0.0 0.0 0.0 0.0 0.0 0.0 0.0 0.0 0.0 0.0 0.0 0.0 0.0 1:0.0 2:0.0 3:0.0 4:0.0 5:0.0 6:0.0 7:0.0 8:0.0 9:0.0 10:0.0 11:0.0 12:0.0 13:0.0 14:0.0 15:0.0 16:0.0 17:0.0 18:0.0 19:0.0 20:0.0 21:0.0 22:0.0 23:0.0 24:0.0 25:0.0 26:0.0 27:0.0 28:0.0 29:0.0 30:0.0 31:0.0 32:0.0 33:1.0 34:1.0 35:1.0 36:1.0 37:1.0 38:1.0 39:0.0 40:0.0 41:1.0 42:0.0 43:0.0 44:0.0 45:0.0 46:1.0 47:1.0 48:0.0 49:1.0 50:0.0 51:0.0 52:0.0 53:0.0 54:0.0 55:1.0 56:1.0 57:1.0 58:0.0 59:0.0 60:0.0 61:0.0 62:0.0 63:0.0 64:1.0 65:1.0 66:0.0 67:0.0 68:0.0 69:0.0 70:0.0 71:0.0 72:1.0 73:1.0 74:0.0 75:0.0 76:0.0 77:0.0 78:0.0 79:0.0 80:1.0 81:1.0 82:1.0 83:0.0 84:0.0 85:0.0 86:0.0 87:0.0 88:1.0 89:0.0 90:1.0 91:1.0 92:1.0 93:1.0 94:1.0 95:1.0 96:1.0 97:0.0 98:0.0 99:0.0 100:0.0 101:0.0 102:0.0 103:0.0 104:0.0 105:0.0 106:0.0 107:0.0 108:0.0 109:0.0 110:0.0 111:0.0 112:0.0 113:0.0 114:0.0 115:0.0 116:0.0 117:0.0 118:0.0 119:0.0 120:0.0 121:0.0 122:0.0 123:0.0 124:0.0 125:0.0 126:0.0 127:0.0 128:0.0 
0.0592587088252465 0.0 1.0 0.05029886846873613 0.02511931702538642 0.9741908643624875 0.029535884819148126 0.0 0.02464629909582623 0.0 0.4747839513219937 0.0 0.0 0.2352595911390258 0.6403671743664754 0.4027340507509196 0.0 0.16506225508730976 0.0 0.07043311520188959 0.0 0.0 0.12754643001122729 0.07697465791224345 0.0 1:0.0 2:0.0 3:0.0 4:0.0 5:0.0 6:0.0 7:0.0 8:0.0 9:0.0 10:0.0 11:0.0 12:0.0 13:0.0 14:0.0 15:0.0 16:0.0 17:0.0 18:0.0 19:0.0 20:0.0 21:0.0 22:0.0 23:0.0 24:0.0 25:0.0 26:0.0 27:0.0 28:0.0 29:0.0 30:0.0 31:0.0 32:0.0 33:0.0 34:0.0 35:0.0 36:0.0 37:0.0 38:0.0 39:0.0 40:0.0 41:1.0 42:1.0 43:1.0 44:1.0 45:1.0 46:1.0 47:1.0 48:1.0 49:0.0 50:0.0 51:1.0 52:0.0 53:0.0 54:0.0 55:0.0 56:1.0 57:0.0 58:0.0 59:1.0 60:0.0 61:0.0 62:0.0 63:0.0 64:1.0 65:0.0 66:0.0 67:1.0 68:0.0 69:0.0 70:0.0 71:0.0 72:1.0 73:0.0 74:0.0 75:1.0 76:1.0 77:0.0 78:0.0 79:0.0 80:1.0 81:0.0 82:0.0 83:0.0 84:1.0 85:1.0 86:1.0 87:1.0 88:1.0 89:0.0 90:0.0 91:0.0 92:0.0 93:0.0 94:0.0 95:0.0 96:0.0 97:0.0 98:0.0 99:0.0 100:0.0 101:0.0 102:0.0 103:0.0 104:0.0 105:0.0 106:0.0 107:0.0 108:0.0 109:0.0 110:0.0 111:0.0 112:0.0 113:0.0 114:0.0 115:0.0 116:0.0 117:0.0 118:0.0 119:0.0 120:0.0 121:0.0 122:0.0 123:0.0 124:0.0 125:0.0 126:0.0 127:0.0 128:0.0 
0.0 0.0 0.0 0.0 0.0 0.0 0.0 0.0 0.30206761312727726 0.10171114174888402 0.0 0.0 0.0 0.0 0.0 0.0 0.0 0.0 0.0 0.0 0.0 0.0 0.0 0.0 0.0 1:0.0 2:0.0 3:0.0 4:0.0 5:0.0 6:0.0 7:0.0 8:0.0 9:0.0 10:0.0 11:0.0 12:0.0 13:0.0 14:0.0 15:0.0 16:0.0 17:0.0 18:0.0 19:0.0 20:0.0 21:0.0 22:0.0 23:0.0 24:0.0 25:0.0 26:0.0 27:0.0 28:0.0 29:0.0 30:0.0 31:0.0 32:0.0 33:0.0 34:0.0 35:1.0 36:1.0 37:1.0 38:1.0 39:1.0 40:0.0 41:0.0 42:1.0 43:1.0 44:0.0 45:0.0 46:0.0 47:0.0 48:1.0 49:1.0 50:1.0 51:0.0 52:0.0 53:0.0 54:0.0 55:0.0 56:1.0 57:1.0 58:0.0 59:0.0 60:0.0 61:0.0 62:0.0 63:0.0 64:1.0 65:1.0 66:0.0 67:0.0 68:0.0 69:0.0 70:0.0 71:0.0 72:1.0 73:1.0 74:0.0 75:0.0 76:0.0 77:0.0 78:0.0 79:0.0 80:1.0 81:1.0 82:0.0 83:0.0 84:0.0 85:0.0 86:0.0 87:0.0 88:1.0 89:1.0 90:1.0 91:0.0 92:0.0 93:0.0 94:1.0 95:1.0 96:0.0 97:0.0 98:1.0 99:1.0 100:1.0 101:1.0 102:1.0 103:0.0 104:0.0 105:0.0 106:0.0 107:0.0 108:0.0 109:0.0 110:0.0 111:0.0 112:0.0 113:0.0 114:0.0 115:0.0 116:0.0 117:0.0 118:0.0 119:0.0 120:0.0 121:0.0 122:0.0 123:0.0 124:0.0 125:0.0 126:0.0 127:0.0 128:0.0 
0.0 0.0 0.0 0.0 0.0 0.022666962607835336 0.0 0.0 0.0 0.0 0.0 0.0 0.0 0.0 0.06931380429266956 0.09503472353786854 0.021841567698906144 0.0 0.0 0.0 0.0 0.0 0.0 0.0 0.0 1:0.0 2:0.0 3:0.0 4:0.0 5:0.0 6:0.0 7:0.0 8:0.0 9:0.0 10:0.0 11:0.0 12:0.0 13:0.0 14:0.0 15:1.0 16:0.0 17:0.0 18:0.0 19:0.0 20:0.0 21:0.0 22:0.0 23:1.0 24:0.0 25:0.0 26:0.0 27:0.0 28:0.0 29:1.0 30:0.0 31:1.0 32:0.0 33:0.0 34:0.0 35:1.0 36:1.0 37:0.0 38:0.0 39:1.0 40:1.0 41:0.0 42:0.0 43:1.0 44:0.0 45:0.0 46:0.0 47:0.0 48:1.0 49:0.0 50:1.0 51:0.0 52:0.0 53:0.0 54:0.0 55:0.0 56:1.0 57:1.0 58:0.0 59:0.0 60:0.0 61:0.0 62:0.0 63:0.0 64:1.0 65:1.0 66:0.0 67:0.0 68:0.0 69:0.0 70:0.0 71:0.0 72:1.0 73:1.0 74:0.0 75:0.0 76:0.0 77:0.0 78:0.0 79:1.0 80:1.0 81:1.0 82:0.0 83:0.0 84:0.0 85:0.0 86:0.0 87:1.0 88:0.0 89:1.0 90:0.0 91:0.0 92:0.0 93:1.0 94:1.0 95:1.0 96:0.0 97:1.0 98:0.0 99:1.0 100:1.0 101:1.0 102:0.0 103:0.0 104:0.0 105:1.0 106:1.0 107:1.0 108:0.0 109:0.0 110:0.0 111:0.0 112:0.0 113:1.0 114:1.0 115:0.0 116:0.0 117:0.0 118:0.0 119:0.0 120:0.0 121:0.0 122:0.0 123:0.0 124:0.0 125:0.0 126:0.0 127:0.0 128:0.0 
0.0 0.0 0.0 0.0 0.0 0.0 0.0 0.055805159097671246 0.3689284582720424 0.0 0.0 0.0 0.0034033897702889318 0.0 0.0 0.0 0.0 0.0 0.0 0.0 0.0 0.0 0.0 0.0 0.0 1:0.0 2:0.0 3:0.0 4:0.0 5:0.0 6:0.0 7:0.0 8:0.0 9:0.0 10:0.0 11:0.0 12:0.0 13:0.0 14:0.0 15:0.0 16:0.0 17:0.0 18:0.0 19:0.0 20:0.0 21:0.0 22:0.0 23:0.0 24:0.0 25:0.0 26:0.0 27:0.0 28:0.0 29:0.0 30:0.0 31:0.0 32:0.0 33:0.0 34:0.0 35:1.0 36:1.0 37:1.0 38:1.0 39:0.0 40:0.0 41:0.0 42:0.0 43:1.0 44:0.0 45:0.0 46:0.0 47:0.0 48:0.0 49:0.0 50:1.0 51:1.0 52:0.0 53:0.0 54:0.0 55:0.0 56:1.0 57:1.0 58:1.0 59:0.0 60:0.0 61:0.0 62:0.0 63:0.0 64:1.0 65:1.0 66:0.0 67:0.0 68:0.0 69:0.0 70:0.0 71:0.0 72:1.0 73:1.0 74:0.0 75:0.0 76:0.0 77:0.0 78:0.0 79:0.0 80:1.0 81:1.0 82:1.0 83:0.0 84:0.0 85:1.0 86:1.0 87:1.0 88:1.0 89:0.0 90:1.0 91:1.0 92:1.0 93:1.0 94:0.0 95:0.0 96:0.0 97:0.0 98:0.0 99:0.0 100:0.0 101:0.0 102:0.0 103:0.0 104:0.0 105:0.0 106:0.0 107:0.0 108:0.0 109:0.0 110:0.0 111:0.0 112:0.0 113:0.0 114:0.0 115:0.0 116:0.0 117:0.0 118:0.0 119:0.0 120:0.0 121:0.0 122:0.0 123:0.0 124:0.0 125:0.0 126:0.0 127:0.0 128:0.0 
0.0 0.0 0.0 0.0 0.0 0.0 0.0 0.0 0.0 0.0 0.0 0.0 0.0 0.0 0.0 0.0 0.0 0.0 0.0 0.0 0.0264298123324779 0.0 0.0 0.0 0.0 1:0.0 2:0.0 3:0.0 4:0.0 5:1.0 6:1.0 7:0.0 8:0.0 9:0.0 10:0.0 11:0.0 12:1.0 13:1.0 14:1.0 15:1.0 16:0.0 17:0.0 18:0.0 19:1.0 20:1.0 21:0.0 22:0.0 23:1.0 24:0.0 25:0.0 26:0.0 27:1.0 28:0.0 29:0.0 30:0.0 31:1.0 32:0.0 33:0.0 34:0.0 35:1.0 36:0.0 37:0.0 38:0.0 39:1.0 40:0.0 41:0.0 42:0.0 43:1.0 44:0.0 45:0.0 46:0.0 47:1.0 48:1.0 49:0.0 50:1.0 51:0.0 52:0.0 53:0.0 54:0.0 55:0.0 56:1.0 57:1.0 58:1.0 59:0.0 60:0.0 61:0.0 62:0.0 63:0.0 64:1.0 65:1.0 66:0.0 67:0.0 68:0.0 69:0.0 70:0.0 71:0.0 72:1.0 73:1.0 74:0.0 75:0.0 76:0.0 77:0.0 78:0.0 79:0.0 80:1.0 81:1.0 82:0.0 83:0.0 84:0.0 85:0.0 86:0.0 87:0.0 88:1.0 89:1.0 90:0.0 91:0.0 92:0.0 93:0.0 94:0.0 95:1.0 96:1.0 97:1.0 98:0.0 99:0.0 100:0.0 101:0.0 102:0.0 103:1.0 104:0.0 105:1.0 106:0.0 107:0.0 108:0.0 109:0.0 110:1.0 111:1.0 112:0.0 113:1.0 114:1.0 115:0.0 116:0.0 117:0.0 118:1.0 119:0.0 120:0.0 121:0.0 122:1.0 123:1.0 124:1.0 125:1.0 126:0.0 127:0.0 128:0.0 
0.0 0.0 0.29702025183157377 0.0 0.0 0.0 0.0 0.0 0.0 0.0 0.0 0.0 0.0 0.0 0.0 0.0 0.0 0.0 0.0 0.0 0.0 0.0 0.0 0.0 0.0 1:0.0 2:0.0 3:0.0 4:0.0 5:0.0 6:0.0 7:0.0 8:0.0 9:0.0 10:1.0 11:1.0 12:1.0 13:1.0 14:0.0 15:0.0 16:0.0 17:0.0 18:0.0 19:1.0 20:0.0 21:1.0 22:1.0 23:0.0 24:0.0 25:0.0 26:1.0 27:1.0 28:0.0 29:0.0 30:1.0 31:0.0 32:0.0 33:1.0 34:1.0 35:0.0 36:0.0 37:0.0 38:1.0 39:1.0 40:0.0 41:1.0 42:0.0 43:0.0 44:0.0 45:0.0 46:0.0 47:1.0 48:1.0 49:1.0 50:0.0 51:0.0 52:0.0 53:0.0 54:0.0 55:0.0 56:1.0 57:1.0 58:0.0 59:0.0 60:0.0 61:0.0 62:0.0 63:0.0 64:1.0 65:1.0 66:0.0 67:0.0 68:0.0 69:0.0 70:0.0 71:0.0 72:1.0 73:1.0 74:0.0 75:0.0 76:0.0 77:0.0 78:0.0 79:0.0 80:1.0 81:1.0 82:0.0 83:0.0 84:0.0 85:0.0 86:0.0 87:0.0 88:1.0 89:1.0 90:0.0 91:0.0 92:0.0 93:0.0 94:0.0 95:0.0 96:1.0 97:1.0 98:1.0 99:0.0 100:0.0 101:0.0 102:0.0 103:0.0 104:1.0 105:0.0 106:1.0 107:0.0 108:0.0 109:0.0 110:0.0 111:1.0 112:1.0 113:0.0 114:0.0 115:1.0 116:1.0 117:1.0 118:1.0 119:1.0 120:0.0 121:0.0 122:0.0 123:0.0 124:0.0 125:0.0 126:0.0 127:0.0 128:0.0 
0.0 0.0 0.0 0.0 0.0 0.0 0.0 0.0 0.0 0.0 0.0 0.0 0.0 0.0 0.0 0.0 0.0 0.0 0.0 0.0 0.03777236276570918 0.0 0.0 0.0 0.0 1:0.0 2:0.0 3:0.0 4:0.0 5:0.0 6:0.0 7:0.0 8:0.0 9:0.0 10:0.0 11:0.0 12:0.0 13:0.0 14:0.0 15:0.0 16:0.0 17:0.0 18:1.0 19:0.0 20:0.0 21:0.0 22:0.0 23:0.0 24:0.0 25:0.0 26:1.0 27:0.0 28:1.0 29:1.0 30:1.0 31:0.0 32:0.0 33:1.0 34:1.0 35:0.0 36:0.0 37:0.0 38:1.0 39:1.0 40:0.0 41:1.0 42:0.0 43:0.0 44:0.0 45:0.0 46:0.0 47:1.0 48:1.0 49:1.0 50:0.0 51:0.0 52:0.0 53:0.0 54:0.0 55:0.0 56:1.0 57:1.0 58:0.0 59:0.0 60:0.0 61:0.0 62:0.0 63:0.0 64:1.0 65:1.0 66:0.0 67:0.0 68:0.0 69:0.0 70:0.0 71:0.0 72:1.0 73:1.0 74:0.0 75:0.0 76:0.0 77:0.0 78:0.0 79:0.0 80:1.0 81:1.0 82:0.0 83:0.0 84:0.0 85:0.0 86:0.0 87:0.0 88:1.0 89:1.0 90:0.0 91:0.0 92:0.0 93:0.0 94:0.0 95:1.0 96:1.0 97:1.0 98:1.0 99:1.0 100:0.0 101:1.0 102:1.0 103:1.0 104:0.0 105:0.0 106:0.0 107:1.0 108:1.0 109:1.0 110:0.0 111:0.0 112:0.0 113:0.0 114:0.0 115:0.0 116:0.0 117:0.0 118:0.0 119:0.0 120:0.0 121:0.0 122:0.0 123:0.0 124:0.0 125:0.0 126:0.0 127:0.0 128:0.0 
0.013951905892107992 0.0 0.0 0.0 0.0 0.0 0.0 0.0 0.0 0.18587393749683925 0.0 0.0 0.0 0.0 0.0 0.0 0.0 0.0 0.0 0.0 0.0 0.0 0.0 0.0 0.0 1:0.0 2:0.0 3:0.0 4:0.0 5:0.0 6:0.0 7:0.0 8:0.0 9:0.0 10:0.0 11:0.0 12:0.0 13:0.0 14:0.0 15:0.0 16:0.0 17:0.0 18:0.0 19:0.0 20:0.0 21:0.0 22:0.0 23:0.0 24:0.0 25:0.0 26:0.0 27:0.0 28:0.0 29:0.0 30:0.0 31:0.0 32:0.0 33:0.0 34:1.0 35:1.0 36:1.0 37:1.0 38:1.0 39:1.0 40:0.0 41:1.0 42:1.0 43:0.0 44:0.0 45:0.0 46:0.0 47:1.0 48:1.0 49:1.0 50:1.0 51:1.0 52:0.0 53:0.0 54:0.0 55:0.0 56:1.0 57:1.0 58:1.0 59:0.0 60:0.0 61:0.0 62:0.0 63:0.0 64:1.0 65:1.0 66:0.0 67:0.0 68:0.0 69:0.0 70:0.0 71:0.0 72:1.0 73:1.0 74:0.0 75:0.0 76:0.0 77:0.0 78:0.0 79:1.0 80:1.0 81:1.0 82:0.0 83:0.0 84:1.0 85:1.0 86:1.0 87:1.0 88:0.0 89:1.0 90:1.0 91:1.0 92:1.0 93:0.0 94:0.0 95:0.0 96:0.0 97:0.0 98:0.0 99:0.0 100:0.0 101:0.0 102:0.0 103:0.0 104:0.0 105:0.0 106:0.0 107:0.0 108:0.0 109:0.0 110:0.0 111:0.0 112:0.0 113:0.0 114:0.0 115:0.0 116:0.0 117:0.0 118:0.0 119:0.0 120:0.0 121:0.0 122:0.0 123:0.0 124:0.0 125:0.0 126:0.0 127:0.0 128:0.0 
0.0 0.0 0.0 0.0 0.0 0.7958072099116068 0.0 0.0 0.0 0.0 0.0 0.0 0.0 0.0 0.0 0.0 0.0 0.0 0.0 0.0 0.0 0.0 0.0 0.0 0.0 1:0.0 2:0.0 3:0.0 4:0.0 5:0.0 6:0.0 7:0.0 8:0.0 9:0.0 10:0.0 11:0.0 12:0.0 13:0.0 14:0.0 15:0.0 16:0.0 17:0.0 18:0.0 19:0.0 20:0.0 21:0.0 22:0.0 23:0.0 24:0.0 25:0.0 26:0.0 27:0.0 28:0.0 29:0.0 30:0.0 31:0.0 32:0.0 33:0.0 34:0.0 35:1.0 36:1.0 37:1.0 38:1.0 39:0.0 40:0.0 41:1.0 42:1.0 43:1.0 44:0.0 45:0.0 46:1.0 47:1.0 48:1.0 49:1.0 50:0.0 51:0.0 52:0.0 53:0.0 54:0.0 55:0.0 56:1.0 57:1.0 58:0.0 59:0.0 60:0.0 61:0.0 62:0.0 63:0.0 64:1.0 65:1.0 66:0.0 67:0.0 68:0.0 69:0.0 70:0.0 71:0.0 72:1.0 73:1.0 74:0.0 75:0.0 76:0.0 77:0.0 78:0.0 79:0.0 80:1.0 81:1.0 82:1.0 83:1.0 84:1.0 85:0.0 86:1.0 87:1.0 88:1.0 89:0.0 90:0.0 91:0.0 92:1.0 93:1.0 94:1.0 95:0.0 96:0.0 97:0.0 98:0.0 99:0.0 100:0.0 101:0.0 102:0.0 103:0.0 104:0.0 105:0.0 106:0.0 107:0.0 108:0.0 109:0.0 110:0.0 111:0.0 112:0.0 113:0.0 114:0.0 115:0.0 116:0.0 117:0.0 118:0.0 119:0.0 120:0.0 121:0.0 122:0.0 123:0.0 124:0.0 125:0.0 126:0.0 127:0.0 128:0.0 
0.46669559646161324 0.46910297486995206 0.0 0.0 0.0 0.0 0.0 0.0 0.0 0.0 0.0 0.0 0.0 0.0 0.0 0.0 0.0 0.0 0.0 0.0 0.0 0.0 0.0 0.0 0.0 1:0.0 2:0.0 3:0.0 4:0.0 5:0.0 6:0.0 7:0.0 8:0.0 9:0.0 10:0.0 11:0.0 12:0.0 13:0.0 14:0.0 15:0.0 16:0.0 17:0.0 18:0.0 19:0.0 20:0.0 21:0.0 22:0.0 23:0.0 24:0.0 25:0.0 26:0.0 27:0.0 28:0.0 29:0.0 30:0.0 31:0.0 32:0.0 33:0.0 34:0.0 35:1.0 36:1.0 37:1.0 38:1.0 39:1.0 40:1.0 41:0.0 42:1.0 43:1.0 44:1.0 45:1.0 46:0.0 47:0.0 48:1.0 49:1.0 50:1.0 51:0.0 52:1.0 53:0.0 54:0.0 55:0.0 56:1.0 57:1.0 58:0.0 59:1.0 60:1.0 61:1.0 62:1.0 63:1.0 64:1.0 65:1.0 66:0.0 67:0.0 68:0.0 69:0.0 70:0.0 71:0.0 72:1.0 73:1.0 74:0.0 75:0.0 76:0.0 77:0.0 78:0.0 79:1.0 80:1.0 81:1.0 82:0.0 83:0.0 84:0.0 85:0.0 86:0.0 87:1.0 88:0.0 89:1.0 90:1.0 91:1.0 92:1.0 93:1.0 94:1.0 95:1.0 96:0.0 97:0.0 98:0.0 99:0.0 100:0.0 101:0.0 102:0.0 103:0.0 104:0.0 105:0.0 106:0.0 107:0.0 108:0.0 109:0.0 110:0.0 111:0.0 112:0.0 113:0.0 114:0.0 115:0.0 116:0.0 117:0.0 118:0.0 119:0.0 120:0.0 121:0.0 122:0.0 123:0.0 124:0.0 125:0.0 126:0.0 127:0.0 128:0.0 
0.5902027432242521 0.7946910260918133 0.7186755231461395 0.18442589244134444 0.0 0.0 0.03429987362594465 0.0 0.0 0.0 0.05737876521007324 0.0 0.0 0.05675150229532478 0.0 0.19215855886981903 0.7530645309677072 0.0 0.0 0.0 0.0 0.0 0.0 0.08254767488944398 0.0 1:0.0 2:0.0 3:0.0 4:0.0 5:0.0 6:0.0 7:0.0 8:0.0 9:0.0 10:0.0 11:0.0 12:0.0 13:0.0 14:0.0 15:0.0 16:0.0 17:0.0 18:0.0 19:0.0 20:0.0 21:0.0 22:0.0 23:0.0 24:0.0 25:0.0 26:0.0 27:0.0 28:0.0 29:0.0 30:0.0 31:0.0 32:0.0 33:0.0 34:0.0 35:0.0 36:0.0 37:0.0 38:0.0 39:0.0 40:0.0 41:0.0 42:0.0 43:0.0 44:0.0 45:0.0 46:1.0 47:1.0 48:0.0 49:0.0 50:0.0 51:0.0 52:0.0 53:0.0 54:0.0 55:1.0 56:1.0 57:0.0 58:1.0 59:1.0 60:1.0 61:1.0 62:1.0 63:1.0 64:1.0 65:1.0 66:1.0 67:0.0 68:0.0 69:0.0 70:0.0 71:0.0 72:1.0 73:1.0 74:0.0 75:0.0 76:0.0 77:0.0 78:0.0 79:1.0 80:1.0 81:1.0 82:1.0 83:1.0 84:1.0 85:1.0 86:1.0 87:1.0 88:0.0 89:0.0 90:0.0 91:0.0 92:0.0 93:0.0 94:0.0 95:0.0 96:0.0 97:0.0 98:0.0 99:0.0 100:0.0 101:0.0 102:0.0 103:0.0 104:0.0 105:0.0 106:0.0 107:0.0 108:0.0 109:0.0 110:0.0 111:0.0 112:0.0 113:0.0 114:0.0 115:0.0 116:0.0 117:0.0 118:0.0 119:0.0 120:0.0 121:0.0 122:0.0 123:0.0 124:0.0 125:0.0 126:0.0 127:0.0 128:0.0 
0.0 0.5711040282088978 0.0 0.0 0.04697835919934368 0.0 0.0913106089102886 0.0 0.0 0.0 0.11261795027492844 0.08435467884185605 0.0 0.0 0.0 0.08471222488507861 0.48833686853356156 0.0 0.0 0.029940713700358088 0.0 0.0 0.03990333918222564 0.0 0.0 1:0.0 2:0.0 3:0.0 4:0.0 5:0.0 6:0.0 7:0.0 8:0.0 9:0.0 10:0.0 11:0.0 12:0.0 13:0.0 14:0.0 15:0.0 16:0.0 17:0.0 18:0.0 19:0.0 20:0.0 21:0.0 22:0.0 23:0.0 24:0.0 25:0.0 26:0.0 27:0.0 28:0.0 29:0.0 30:0.0 31:0.0 32:0.0 33:0.0 34:0.0 35:0.0 36:0.0 37:0.0 38:0.0 39:0.0 40:0.0 41:0.0 42:0.0 43:0.0 44:1.0 45:1.0 46:1.0 47:1.0 48:0.0 49:0.0 50:0.0 51:0.0 52:1.0 53:0.0 54:0.0 55:1.0 56:0.0 57:0.0 58:0.0 59:1.0 60:1.0 61:0.0 62:0.0 63:1.0 64:0.0 65:1.0 66:1.0 67:1.0 68:0.0 69:0.0 70:0.0 71:1.0 72:1.0 73:1.0 74:0.0 75:0.0 76:0.0 77:0.0 78:0.0 79:0.0 80:1.0 81:1.0 82:1.0 83:1.0 84:1.0 85:1.0 86:1.0 87:1.0 88:1.0 89:0.0 90:0.0 91:0.0 92:0.0 93:0.0 94:0.0 95:0.0 96:0.0 97:0.0 98:0.0 99:0.0 100:0.0 101:0.0 102:0.0 103:0.0 104:0.0 105:0.0 106:0.0 107:0.0 108:0.0 109:0.0 110:0.0 111:0.0 112:0.0 113:0.0 114:0.0 115:0.0 116:0.0 117:0.0 118:0.0 119:0.0 120:0.0 121:0.0 122:0.0 123:0.0 124:0.0 125:0.0 126:0.0 127:0.0 128:0.0 
0.0 0.12110356624237202 0.0 0.0 0.0 0.0 0.0 0.0 0.0 0.0 0.0 0.0 0.0 0.0 0.0 0.0 0.0 0.0 0.0 0.0 0.0 0.0 0.0 0.0 0.0 1:0.0 2:0.0 3:0.0 4:0.0 5:0.0 6:0.0 7:0.0 8:0.0 9:0.0 10:0.0 11:0.0 12:0.0 13:0.0 14:0.0 15:0.0 16:0.0 17:0.0 18:0.0 19:0.0 20:0.0 21:0.0 22:0.0 23:0.0 24:0.0 25:0.0 26:0.0 27:1.0 28:1.0 29:1.0 30:1.0 31:0.0 32:0.0 33:0.0 34:1.0 35:1.0 36:1.0 37:1.0 38:1.0 39:1.0 40:0.0 41:1.0 42:1.0 43:0.0 44:0.0 45:0.0 46:0.0 47:1.0 48:1.0 49:1.0 50:0.0 51:0.0 52:0.0 53:0.0 54:0.0 55:0.0 56:1.0 57:1.0 58:0.0 59:0.0 60:0.0 61:0.0 62:0.0 63:0.0 64:1.0 65:1.0 66:0.0 67:0.0 68:0.0 69:0.0 70:0.0 71:1.0 72:1.0 73:1.0 74:0.0 75:0.0 76:0.0 77:0.0 78:1.0 79:1.0 80:0.0 81:1.0 82:0.0 83:0.0 84:0.0 85:1.0 86:1.0 87:0.0 88:0.0 89:1.0 90:1.0 91:1.0 92:1.0 93:1.0 94:0.0 95:0.0 96:0.0 97:1.0 98:1.0 99:0.0 100:0.0 101:0.0 102:0.0 103:0.0 104:0.0 105:0.0 106:0.0 107:0.0 108:0.0 109:0.0 110:0.0 111:0.0 112:0.0 113:0.0 114:0.0 115:0.0 116:0.0 117:0.0 118:0.0 119:0.0 120:0.0 121:0.0 122:0.0 123:0.0 124:0.0 125:0.0 126:0.0 127:0.0 128:0.0 
0.0 0.0 0.3522968021228394 0.0 0.0 0.28746286242508545 0.0 0.0 0.0 0.0 0.09583352701902836 0.0 0.0 0.0 0.3935350448237359 0.0 0.0 0.11975891047359814 0.0 0.0 0.0 0.009878263678482881 0.02466811327972305 0.0 0.0 1:0.0 2:0.0 3:0.0 4:0.0 5:0.0 6:0.0 7:0.0 8:0.0 9:0.0 10:0.0 11:0.0 12:0.0 13:0.0 14:0.0 15:0.0 16:0.0 17:0.0 18:0.0 19:0.0 20:0.0 21:0.0 22:0.0 23:0.0 24:0.0 25:0.0 26:0.0 27:0.0 28:0.0 29:0.0 30:0.0 31:0.0 32:0.0 33:0.0 34:1.0 35:1.0 36:1.0 37:1.0 38:1.0 39:1.0 40:0.0 41:1.0 42:1.0 43:1.0 44:1.0 45:1.0 46:1.0 47:0.0 48:0.0 49:1.0 50:1.0 51:0.0 52:0.0 53:0.0 54:1.0 55:1.0 56:0.0 57:1.0 58:0.0 59:0.0 60:0.0 61:0.0 62:0.0 63:1.0 64:1.0 65:0.0 66:1.0 67:0.0 68:0.0 69:0.0 70:0.0 71:0.0 72:1.0 73:0.0 74:1.0 75:0.0 76:0.0 77:0.0 78:0.0 79:0.0 80:1.0 81:0.0 82:0.0 83:1.0 84:0.0 85:0.0 86:0.0 87:0.0 88:1.0 89:0.0 90:0.0 91:0.0 92:1.0 93:1.0 94:1.0 95:1.0 96:1.0 97:0.0 98:0.0 99:0.0 100:0.0 101:0.0 102:0.0 103:0.0 104:0.0 105:0.0 106:0.0 107:0.0 108:0.0 109:0.0 110:0.0 111:0.0 112:0.0 113:0.0 114:0.0 115:0.0 116:0.0 117:0.0 118:0.0 119:0.0 120:0.0 121:0.0 122:0.0 123:0.0 124:0.0 125:0.0 126:0.0 127:0.0 128:0.0 
0.0 0.0 0.0 0.0 0.0 0.0 0.019246759749533056 0.10784489873338199 0.0 0.0 0.0 0.0 0.0 0.0 0.0 0.0 0.0 0.0 0.07694739659881454 0.0 0.0 0.004999370562854693 0.0 0.0 0.004288447630488077 1:0.0 2:0.0 3:0.0 4:0.0 5:1.0 6:1.0 7:1.0 8:1.0 9:1.0 10:1.0 11:1.0 12:1.0 13:1.0 14:0.0 15:0.0 16:1.0 17:1.0 18:0.0 19:0.0 20:1.0 21:1.0 22:0.0 23:0.0 24:0.0 25:1.0 26:0.0 27:0.0 28:1.0 29:1.0 30:1.0 31:0.0 32:0.0 33:1.0 34:0.0 35:1.0 36:1.0 37:0.0 38:1.0 39:0.0 40:0.0 41:1.0 42:0.0 43:1.0 44:0.0 45:0.0 46:1.0 47:1.0 48:0.0 49:0.0 50:0.0 51:1.0 52:0.0 53:0.0 54:0.0 55:1.0 56:0.0 57:0.0 58:0.0 59:1.0 60:0.0 61:0.0 62:0.0 63:1.0 64:0.0 65:0.0 66:1.0 67:1.0 68:0.0 69:0.0 70:0.0 71:1.0 72:0.0 73:0.0 74:1.0 75:0.0 76:0.0 77:0.0 78:0.0 79:1.0 80:0.0 81:0.0 82:1.0 83:0.0 84:0.0 85:0.0 86:0.0 87:1.0 88:0.0 89:0.0 90:1.0 91:0.0 92:0.0 93:0.0 94:0.0 95:1.0 96:0.0 97:0.0 98:1.0 99:0.0 100:0.0 101:0.0 102:1.0 103:1.0 104:0.0 105:0.0 106:1.0 107:0.0 108:0.0 109:1.0 110:1.0 111:0.0 112:0.0 113:0.0 114:1.0 115:0.0 116:0.0 117:1.0 118:0.0 119:0.0 120:0.0 121:0.0 122:1.0 123:1.0 124:1.0 125:1.0 126:0.0 127:0.0 128:0.0 
0.0 0.0 0.0 0.0 0.0 0.0 0.0 0.06866861302146335 0.0 0.0 0.0 0.0 0.0 0.0 0.0 0.0 0.0 0.0 0.005121615061379256 0.0 0.0 0.0 0.0 0.0 0.0 1:0.0 2:0.0 3:0.0 4:0.0 5:0.0 6:0.0 7:0.0 8:0.0 9:0.0 10:0.0 11:1.0 12:1.0 13:1.0 14:1.0 15:0.0 16:0.0 17:1.0 18:1.0 19:1.0 20:0.0 21:0.0 22:1.0 23:1.0 24:0.0 25:1.0 26:0.0 27:0.0 28:0.0 29:0.0 30:0.0 31:1.0 32:0.0 33:1.0 34:0.0 35:1.0 36:1.0 37:0.0 38:0.0 39:1.0 40:1.0 41:1.0 42:1.0 43:1.0 44:0.0 45:0.0 46:0.0 47:0.0 48:1.0 49:1.0 50:1.0 51:0.0 52:0.0 53:0.0 54:0.0 55:0.0 56:1.0 57:1.0 58:1.0 59:0.0 60:0.0 61:0.0 62:0.0 63:0.0 64:1.0 65:1.0 66:0.0 67:0.0 68:0.0 69:0.0 70:0.0 71:0.0 72:1.0 73:1.0 74:0.0 75:0.0 76:0.0 77:0.0 78:0.0 79:0.0 80:1.0 81:1.0 82:0.0 83:0.0 84:0.0 85:0.0 86:0.0 87:0.0 88:1.0 89:1.0 90:0.0 91:0.0 92:0.0 93:0.0 94:0.0 95:0.0 96:1.0 97:1.0 98:1.0 99:0.0 100:0.0 101:0.0 102:0.0 103:1.0 104:1.0 105:0.0 106:1.0 107:0.0 108:0.0 109:1.0 110:1.0 111:1.0 112:0.0 113:0.0 114:1.0 115:1.0 116:1.0 117:1.0 118:0.0 119:0.0 120:0.0 121:0.0 122:0.0 123:0.0 124:0.0 125:0.0 126:0.0 127:0.0 128:0.0 
0.014391964830780325 0.0 0.0 0.0 0.0 0.0 0.0 0.0 0.0 0.0 0.0 0.0 0.0 0.0 0.0 0.0 0.0 0.0 0.0 0.0 0.05435779830321033 0.0 0.0 0.0 0.0 1:0.0 2:0.0 3:0.0 4:0.0 5:0.0 6:0.0 7:0.0 8:0.0 9:0.0 10:0.0 11:0.0 12:0.0 13:0.0 14:0.0 15:0.0 16:0.0 17:0.0 18:0.0 19:0.0 20:0.0 21:1.0 22:1.0 23:1.0 24:0.0 25:0.0 26:0.0 27:0.0 28:0.0 29:0.0 30:0.0 31:1.0 32:1.0 33:0.0 34:0.0 35:1.0 36:1.0 37:1.0 38:1.0 39:0.0 40:1.0 41:0.0 42:0.0 43:1.0 44:0.0 45:0.0 46:1.0 47:1.0 48:1.0 49:0.0 50:1.0 51:1.0 52:0.0 53:0.0 54:0.0 55:0.0 56:1.0 57:0.0 58:1.0 59:0.0 60:0.0 61:0.0 62:0.0 63:0.0 64:1.0 65:1.0 66:0.0 67:0.0 68:0.0 69:0.0 70:0.0 71:0.0 72:1.0 73:1.0 74:0.0 75:0.0 76:0.0 77:0.0 78:0.0 79:0.0 80:1.0 81:1.0 82:0.0 83:0.0 84:0.0 85:0.0 86:0.0 87:0.0 88:1.0 89:1.0 90:0.0 91:0.0 92:0.0 93:0.0 94:0.0 95:0.0 96:1.0 97:1.0 98:1.0 99:0.0 100:0.0 101:0.0 102:1.0 103:1.0 104:1.0 105:0.0 106:1.0 107:1.0 108:1.0 109:1.0 110:1.0 111:0.0 112:0.0 113:0.0 114:0.0 115:0.0 116:0.0 117:0.0 118:0.0 119:0.0 120:0.0 121:0.0 122:0.0 123:0.0 124:0.0 125:0.0 126:0.0 127:0.0 128:0.0 
0.0 0.0 0.0 0.0 0.0 0.0 0.0 0.0 0.0 0.0 0.0 0.0 0.0 0.0 0.0 0.0 0.0977043800209405 0.0 0.0 0.0 0.0 0.0 0.0 0.0 0.0 1:0.0 2:0.0 3:0.0 4:0.0 5:0.0 6:0.0 7:0.0 8:0.0 9:0.0 10:0.0 11:0.0 12:0.0 13:0.0 14:0.0 15:0.0 16:0.0 17:0.0 18:0.0 19:0.0 20:1.0 21:1.0 22:1.0 23:1.0 24:0.0 25:1.0 26:1.0 27:1.0 28:1.0 29:0.0 30:0.0 31:1.0 32:1.0 33:1.0 34:0.0 35:0.0 36:0.0 37:0.0 38:0.0 39:0.0 40:1.0 41:1.0 42:0.0 43:0.0 44:0.0 45:0.0 46:0.0 47:0.0 48:1.0 49:1.0 50:0.0 51:0.0 52:0.0 53:0.0 54:0.0 55:0.0 56:1.0 57:1.0 58:0.0 59:0.0 60:0.0 61:0.0 62:0.0 63:0.0 64:1.0 65:1.0 66:0.0 67:0.0 68:0.0 69:0.0 70:0.0 71:0.0 72:1.0 73:1.0 74:0.0 75:0.0 76:0.0 77:0.0 78:0.0 79:0.0 80:1.0 81:1.0 82:0.0 83:0.0 84:0.0 85:0.0 86:0.0 87:0.0 88:1.0 89:1.0 90:0.0 91:0.0 92:0.0 93:0.0 94:0.0 95:0.0 96:1.0 97:1.0 98:1.0 99:0.0 100:0.0 101:0.0 102:0.0 103:1.0 104:1.0 105:0.0 106:1.0 107:1.0 108:1.0 109:1.0 110:1.0 111:1.0 112:1.0 113:0.0 114:0.0 115:0.0 116:0.0 117:0.0 118:0.0 119:0.0 120:0.0 121:0.0 122:0.0 123:0.0 124:0.0 125:0.0 126:0.0 127:0.0 128:0.0 
0.0 0.19900078991147727 0.0 0.0 0.0 0.0 0.0 0.0 0.0 0.33875478929046016 0.0 0.0 0.0 0.0 0.0 0.0 0.0 0.0 0.0 0.0 0.0 0.0 0.0 0.0 0.0 1:0.0 2:0.0 3:0.0 4:0.0 5:0.0 6:0.0 7:0.0 8:0.0 9:0.0 10:0.0 11:0.0 12:0.0 13:0.0 14:0.0 15:0.0 16:0.0 17:0.0 18:0.0 19:0.0 20:0.0 21:0.0 22:0.0 23:0.0 24:0.0 25:0.0 26:0.0 27:0.0 28:0.0 29:0.0 30:0.0 31:0.0 32:0.0 33:0.0 34:0.0 35:1.0 36:1.0 37:1.0 38:1.0 39:0.0 40:1.0 41:0.0 42:1.0 43:1.0 44:0.0 45:0.0 46:0.0 47:0.0 48:1.0 49:1.0 50:1.0 51:0.0 52:0.0 53:0.0 54:0.0 55:0.0 56:1.0 57:1.0 58:0.0 59:0.0 60:0.0 61:0.0 62:0.0 63:0.0 64:1.0 65:1.0 66:0.0 67:0.0 68:0.0 69:0.0 70:0.0 71:1.0 72:1.0 73:1.0 74:0.0 75:0.0 76:0.0 77:0.0 78:0.0 79:1.0 80:0.0 81:1.0 82:0.0 83:0.0 84:0.0 85:0.0 86:1.0 87:1.0 88:0.0 89:1.0 90:1.0 91:1.0 92:1.0 93:1.0 94:1.0 95:0.0 96:0.0 97:0.0 98:0.0 99:0.0 100:0.0 101:0.0 102:0.0 103:0.0 104:0.0 105:0.0 106:0.0 107:0.0 108:0.0 109:0.0 110:0.0 111:0.0 112:0.0 113:0.0 114:0.0 115:0.0 116:0.0 117:0.0 118:0.0 119:0.0 120:0.0 121:0.0 122:0.0 123:0.0 124:0.0 125:0.0 126:0.0 127:0.0 128:0.0 
0.0 0.04765593769894095 0.0 0.0 0.0 0.0 0.0 0.0 0.0 0.0 0.0 0.0 0.0 0.0 0.0 0.0 0.0 0.0 0.0 0.0 0.0 0.0 0.0 0.0 0.0 1:0.0 2:0.0 3:0.0 4:0.0 5:0.0 6:0.0 7:0.0 8:0.0 9:0.0 10:0.0 11:1.0 12:1.0 13:1.0 14:0.0 15:0.0 16:0.0 17:0.0 18:1.0 19:1.0 20:1.0 21:1.0 22:0.0 23:0.0 24:0.0 25:1.0 26:1.0 27:1.0 28:1.0 29:1.0 30:1.0 31:0.0 32:0.0 33:1.0 34:0.0 35:0.0 36:0.0 37:0.0 38:1.0 39:0.0 40:0.0 41:1.0 42:0.0 43:0.0 44:0.0 45:0.0 46:1.0 47:1.0 48:0.0 49:1.0 50:0.0 51:0.0 52:0.0 53:0.0 54:0.0 55:1.0 56:0.0 57:1.0 58:0.0 59:0.0 60:0.0 61:0.0 62:0.0 63:1.0 64:1.0 65:1.0 66:0.0 67:0.0 68:0.0 69:0.0 70:0.0 71:0.0 72:1.0 73:1.0 74:0.0 75:0.0 76:0.0 77:0.0 78:0.0 79:0.0 80:1.0 81:1.0 82:0.0 83:0.0 84:0.0 85:0.0 86:0.0 87:0.0 88:1.0 89:1.0 90:1.0 91:0.0 92:0.0 93:0.0 94:0.0 95:0.0 96:1.0 97:0.0 98:1.0 99:1.0 100:0.0 101:0.0 102:0.0 103:0.0 104:1.0 105:0.0 106:0.0 107:1.0 108:1.0 109:0.0 110:0.0 111:0.0 112:1.0 113:0.0 114:0.0 115:0.0 116:1.0 117:1.0 118:1.0 119:1.0 120:1.0 121:0.0 122:0.0 123:0.0 124:0.0 125:0.0 126:0.0 127:0.0 128:0.0 
0.0 0.0 0.0 0.1101954157495279 0.0 0.0 0.0 0.0 0.0 0.0 0.0 0.0 0.0 0.0 0.0 0.0 0.24661537137489545 0.0 0.0 0.0 0.0 0.0 0.0 0.0 0.0 1:0.0 2:0.0 3:0.0 4:0.0 5:0.0 6:0.0 7:0.0 8:0.0 9:0.0 10:0.0 11:0.0 12:0.0 13:0.0 14:0.0 15:0.0 16:0.0 17:0.0 18:0.0 19:0.0 20:0.0 21:0.0 22:0.0 23:0.0 24:0.0 25:0.0 26:0.0 27:0.0 28:0.0 29:0.0 30:1.0 31:1.0 32:0.0 33:0.0 34:0.0 35:0.0 36:0.0 37:0.0 38:0.0 39:1.0 40:1.0 41:0.0 42:0.0 43:0.0 44:0.0 45:1.0 46:1.0 47:1.0 48:1.0 49:0.0 50:0.0 51:0.0 52:1.0 53:1.0 54:0.0 55:0.0 56:1.0 57:0.0 58:1.0 59:1.0 60:1.0 61:0.0 62:0.0 63:0.0 64:1.0 65:1.0 66:1.0 67:0.0 68:0.0 69:0.0 70:0.0 71:0.0 72:1.0 73:1.0 74:0.0 75:0.0 76:0.0 77:0.0 78:0.0 79:0.0 80:1.0 81:1.0 82:0.0 83:0.0 84:0.0 85:0.0 86:0.0 87:0.0 88:1.0 89:1.0 90:0.0 91:0.0 92:0.0 93:0.0 94:1.0 95:1.0 96:1.0 97:1.0 98:1.0 99:1.0 100:1.0 101:1.0 102:1.0 103:0.0 104:0.0 105:0.0 106:0.0 107:0.0 108:0.0 109:0.0 110:0.0 111:0.0 112:0.0 113:0.0 114:0.0 115:0.0 116:0.0 117:0.0 118:0.0 119:0.0 120:0.0 121:0.0 122:0.0 123:0.0 124:0.0 125:0.0 126:0.0 127:0.0 128:0.0 
0.0 0.0 0.0 0.0 0.0 0.0 0.0 0.0 0.0 0.0 0.0 0.0 0.0 0.0 0.0 0.0 0.0 0.0 0.0 0.0 0.0 0.0 0.0 0.08763448587959098 0.0 1:0.0 2:0.0 3:0.0 4:0.0 5:0.0 6:0.0 7:0.0 8:0.0 9:0.0 10:0.0 11:0.0 12:0.0 13:0.0 14:0.0 15:0.0 16:0.0 17:0.0 18:0.0 19:0.0 20:0.0 21:0.0 22:0.0 23:0.0 24:0.0 25:0.0 26:0.0 27:0.0 28:0.0 29:0.0 30:0.0 31:0.0 32:0.0 33:0.0 34:0.0 35:1.0 36:1.0 37:1.0 38:1.0 39:1.0 40:1.0 41:1.0 42:1.0 43:1.0 44:0.0 45:0.0 46:0.0 47:0.0 48:1.0 49:1.0 50:0.0 51:0.0 52:0.0 53:0.0 54:0.0 55:0.0 56:1.0 57:1.0 58:0.0 59:0.0 60:0.0 61:0.0 62:0.0 63:0.0 64:1.0 65:1.0 66:0.0 67:0.0 68:0.0 69:0.0 70:0.0 71:0.0 72:1.0 73:1.0 74:0.0 75:0.0 76:0.0 77:0.0 78:0.0 79:1.0 80:1.0 81:1.0 82:0.0 83:0.0 84:0.0 85:0.0 86:1.0 87:1.0 88:0.0 89:1.0 90:1.0 91:1.0 92:1.0 93:1.0 94:1.0 95:0.0 96:0.0 97:0.0 98:0.0 99:0.0 100:0.0 101:0.0 102:0.0 103:0.0 104:0.0 105:0.0 106:0.0 107:0.0 108:0.0 109:0.0 110:0.0 111:0.0 112:0.0 113:0.0 114:0.0 115:0.0 116:0.0 117:0.0 118:0.0 119:0.0 120:0.0 121:0.0 122:0.0 123:0.0 124:0.0 125:0.0 126:0.0 127:0.0 128:0.0 
0.0 0.0 0.0 0.0 0.0 0.0 0.0 0.0 0.0 0.0 0.006861070979322929 0.0 0.0 0.0 0.0 0.0 0.0 0.0 0.0 0.0 0.0 0.0 0.0 0.0 0.008993190062418518 1:0.0 2:0.0 3:0.0 4:0.0 5:0.0 6:0.0 7:0.0 8:0.0 9:0.0 10:0.0 11:0.0 12:0.0 13:0.0 14:0.0 15:0.0 16:0.0 17:0.0 18:0.0 19:0.0 20:0.0 21:0.0 22:0.0 23:0.0 24:0.0 25:0.0 26:0.0 27:0.0 28:0.0 29:0.0 30:0.0 31:0.0 32:0.0 33:0.0 34:1.0 35:1.0 36:1.0 37:0.0 38:0.0 39:0.0 40:0.0 41:1.0 42:1.0 43:0.0 44:1.0 45:1.0 46:1.0 47:1.0 48:0.0 49:1.0 50:0.0 51:0.0 52:0.0 53:0.0 54:0.0 55:0.0 56:1.0 57:1.0 58:0.0 59:0.0 60:0.0 61:0.0 62:0.0 63:0.0 64:1.0 65:1.0 66:0.0 67:0.0 68:0.0 69:0.0 70:0.0 71:0.0 72:1.0 73:1.0 74:0.0 75:0.0 76:0.0 77:0.0 78:0.0 79:0.0 80:1.0 81:1.0 82:1.0 83:0.0 84:0.0 85:0.0 86:1.0 87:1.0 88:0.0 89:0.0 90:1.0 91:1.0 92:1.0 93:1.0 94:1.0 95:0.0 96:0.0 97:0.0 98:0.0 99:0.0 100:0.0 101:0.0 102:0.0 103:0.0 104:0.0 105:0.0 106:0.0 107:0.0 108:0.0 109:0.0 110:0.0 111:0.0 112:0.0 113:0.0 114:0.0 115:0.0 116:0.0 117:0.0 118:0.0 119:0.0 120:0.0 121:0.0 122:0.0 123:0.0 124:0.0 125:0.0 126:0.0 127:0.0 128:0.0 
0.0 0.0 0.2529326810646578 0.0 0.0 0.0 0.004628388194486348 0.0 0.0 0.0 0.0 0.0 0.0 0.0 0.0 0.0 0.0 0.010911940541010676 0.00828151766690167 0.0 0.0 0.0 0.002938127112265533 0.0 0.0 1:0.0 2:1.0 3:1.0 4:1.0 5:1.0 6:0.0 7:0.0 8:0.0 9:0.0 10:0.0 11:0.0 12:0.0 13:1.0 14:1.0 15:0.0 16:0.0 17:0.0 18:0.0 19:0.0 20:1.0 21:1.0 22:1.0 23:1.0 24:0.0 25:0.0 26:0.0 27:0.0 28:1.0 29:0.0 30:0.0 31:1.0 32:1.0 33:0.0 34:0.0 35:1.0 36:1.0 37:0.0 38:0.0 39:0.0 40:1.0 41:0.0 42:0.0 43:1.0 44:0.0 45:0.0 46:0.0 47:0.0 48:1.0 49:0.0 50:0.0 51:1.0 52:0.0 53:0.0 54:0.0 55:0.0 56:1.0 57:0.0 58:0.0 59:1.0 60:0.0 61:0.0 62:0.0 63:0.0 64:1.0 65:0.0 66:1.0 67:1.0 68:0.0 69:0.0 70:0.0 71:0.0 72:1.0 73:0.0 74:1.0 75:0.0 76:0.0 77:0.0 78:0.0 79:0.0 80:1.0 81:1.0 82:1.0 83:0.0 84:0.0 85:0.0 86:0.0 87:0.0 88:1.0 89:1.0 90:0.0 91:0.0 92:0.0 93:0.0 94:0.0 95:1.0 96:1.0 97:1.0 98:0.0 99:0.0 100:0.0 101:0.0 102:1.0 103:1.0 104:0.0 105:1.0 106:0.0 107:0.0 108:0.0 109:1.0 110:1.0 111:0.0 112:0.0 113:1.0 114:0.0 115:1.0 116:1.0 117:1.0 118:0.0 119:0.0 120:0.0 121:1.0 122:1.0 123:1.0 124:0.0 125:0.0 126:0.0 127:0.0 128:0.0 
0.0 0.24330975335099803 0.0 0.0 0.0 0.0 0.0 0.0 0.0 0.0 0.0 0.0 0.0 0.0 0.0 0.0 0.0 0.0 0.0 0.0 0.0 0.0 0.0 0.0 0.0 1:0.0 2:0.0 3:0.0 4:0.0 5:0.0 6:0.0 7:0.0 8:0.0 9:0.0 10:0.0 11:1.0 12:1.0 13:0.0 14:0.0 15:0.0 16:0.0 17:0.0 18:0.0 19:1.0 20:1.0 21:1.0 22:0.0 23:0.0 24:0.0 25:0.0 26:0.0 27:1.0 28:0.0 29:1.0 30:1.0 31:0.0 32:0.0 33:0.0 34:1.0 35:1.0 36:0.0 37:0.0 38:1.0 39:1.0 40:0.0 41:0.0 42:1.0 43:0.0 44:0.0 45:0.0 46:0.0 47:1.0 48:0.0 49:1.0 50:1.0 51:0.0 52:0.0 53:0.0 54:0.0 55:1.0 56:0.0 57:1.0 58:0.0 59:0.0 60:0.0 61:0.0 62:0.0 63:1.0 64:1.0 65:1.0 66:0.0 67:0.0 68:0.0 69:0.0 70:0.0 71:0.0 72:1.0 73:1.0 74:0.0 75:0.0 76:0.0 77:0.0 78:0.0 79:0.0 80:1.0 81:1.0 82:0.0 83:0.0 84:0.0 85:0.0 86:0.0 87:0.0 88:1.0 89:1.0 90:0.0 91:0.0 92:0.0 93:0.0 94:0.0 95:0.0 96:1.0 97:1.0 98:1.0 99:0.0 100:0.0 101:0.0 102:0.0 103:1.0 104:1.0 105:0.0 106:1.0 107:1.0 108:0.0 109:0.0 110:1.0 111:1.0 112:0.0 113:0.0 114:0.0 115:1.0 116:1.0 117:1.0 118:1.0 119:0.0 120:0.0 121:0.0 122:0.0 123:0.0 124:0.0 125:0.0 126:0.0 127:0.0 128:0.0 
0.0 0.0 0.0 0.029176444186811694 0.0 0.0 0.0 0.0 0.0 0.0 0.0 0.0 0.0 0.0 0.0 0.0 0.0 0.0 0.0 0.0 0.0 0.0 0.008599102717066653 0.0 0.04078863221950024 1:0.0 2:0.0 3:0.0 4:0.0 5:0.0 6:0.0 7:0.0 8:0.0 9:0.0 10:0.0 11:0.0 12:0.0 13:0.0 14:0.0 15:0.0 16:0.0 17:1.0 18:1.0 19:1.0 20:1.0 21:0.0 22:0.0 23:0.0 24:0.0 25:1.0 26:1.0 27:0.0 28:1.0 29:1.0 30:1.0 31:0.0 32:0.0 33:1.0 34:1.0 35:0.0 36:0.0 37:0.0 38:1.0 39:1.0 40:0.0 41:0.0 42:1.0 43:0.0 44:0.0 45:0.0 46:0.0 47:1.0 48:0.0 49:0.0 50:1.0 51:0.0 52:0.0 53:0.0 54:0.0 55:1.0 56:1.0 57:0.0 58:1.0 59:0.0 60:0.0 61:0.0 62:0.0 63:0.0 64:1.0 65:0.0 66:1.0 67:0.0 68:0.0 69:0.0 70:0.0 71:0.0 72:1.0 73:0.0 74:1.0 75:0.0 76:0.0 77:0.0 78:0.0 79:0.0 80:1.0 81:0.0 82:1.0 83:0.0 84:0.0 85:0.0 86:0.0 87:0.0 88:1.0 89:0.0 90:1.0 91:0.0 92:0.0 93:0.0 94:0.0 95:1.0 96:1.0 97:0.0 98:1.0 99:0.0 100:0.0 101:0.0 102:1.0 103:1.0 104:0.0 105:0.0 106:1.0 107:1.0 108:1.0 109:1.0 110:1.0 111:0.0 112:0.0 113:0.0 114:0.0 115:0.0 116:0.0 117:0.0 118:0.0 119:0.0 120:0.0 121:0.0 122:0.0 123:0.0 124:0.0 125:0.0 126:0.0 127:0.0 128:0.0 
0.0 0.3665059563264927 0.0 0.0 0.0 0.0 0.0 0.0 0.0 0.0 0.0 0.0 0.0 0.0 0.0 0.0 0.0 0.0 0.0 0.0 0.0 0.0 0.0 0.0 0.0 1:0.0 2:0.0 3:0.0 4:0.0 5:0.0 6:0.0 7:0.0 8:0.0 9:0.0 10:0.0 11:0.0 12:0.0 13:0.0 14:0.0 15:0.0 16:0.0 17:0.0 18:1.0 19:1.0 20:1.0 21:1.0 22:1.0 23:0.0 24:0.0 25:0.0 26:1.0 27:1.0 28:0.0 29:0.0 30:1.0 31:1.0 32:0.0 33:0.0 34:1.0 35:0.0 36:0.0 37:0.0 38:0.0 39:1.0 40:1.0 41:1.0 42:1.0 43:0.0 44:0.0 45:0.0 46:0.0 47:0.0 48:1.0 49:1.0 50:0.0 51:0.0 52:0.0 53:0.0 54:0.0 55:0.0 56:1.0 57:1.0 58:0.0 59:0.0 60:0.0 61:0.0 62:0.0 63:0.0 64:1.0 65:1.0 66:0.0 67:0.0 68:0.0 69:0.0 70:0.0 71:0.0 72:1.0 73:1.0 74:0.0 75:0.0 76:0.0 77:0.0 78:0.0 79:0.0 80:1.0 81:1.0 82:1.0 83:0.0 84:0.0 85:0.0 86:0.0 87:0.0 88:1.0 89:0.0 90:1.0 91:0.0 92:0.0 93:0.0 94:0.0 95:1.0 96:1.0 97:0.0 98:1.0 99:1.0 100:0.0 101:0.0 102:1.0 103:1.0 104:0.0 105:0.0 106:0.0 107:1.0 108:1.0 109:1.0 110:1.0 111:0.0 112:0.0 113:0.0 114:0.0 115:0.0 116:0.0 117:0.0 118:0.0 119:0.0 120:0.0 121:0.0 122:0.0 123:0.0 124:0.0 125:0.0 126:0.0 127:0.0 128:0.0 
0.0 0.0 0.0 0.0 0.0 0.0 0.0 0.0 0.0 0.0 0.0 0.0 0.0 0.0 0.0 0.30458145843496776 1.0 0.0 0.0 0.0 0.0 0.0 0.0 0.0 0.0 1:0.0 2:0.0 3:0.0 4:0.0 5:0.0 6:0.0 7:0.0 8:0.0 9:0.0 10:0.0 11:0.0 12:0.0 13:0.0 14:0.0 15:0.0 16:0.0 17:0.0 18:0.0 19:0.0 20:0.0 21:0.0 22:0.0 23:0.0 24:0.0 25:0.0 26:1.0 27:1.0 28:1.0 29:1.0 30:1.0 31:1.0 32:0.0 33:1.0 34:0.0 35:0.0 36:0.0 37:0.0 38:0.0 39:1.0 40:1.0 41:1.0 42:0.0 43:0.0 44:0.0 45:0.0 46:0.0 47:0.0 48:1.0 49:1.0 50:0.0 51:0.0 52:0.0 53:0.0 54:0.0 55:0.0 56:1.0 57:1.0 58:0.0 59:0.0 60:0.0 61:0.0 62:0.0 63:1.0 64:1.0 65:1.0 66:0.0 67:0.0 68:0.0 69:0.0 70:0.0 71:1.0 72:0.0 73:1.0 74:0.0 75:0.0 76:0.0 77:0.0 78:1.0 79:1.0 80:0.0 81:1.0 82:1.0 83:0.0 84:0.0 85:0.0 86:1.0 87:0.0 88:0.0 89:0.0 90:1.0 91:1.0 92:0.0 93:1.0 94:1.0 95:0.0 96:1.0 97:0.0 98:0.0 99:1.0 100:1.0 101:1.0 102:1.0 103:1.0 104:1.0 105:0.0 106:0.0 107:0.0 108:0.0 109:0.0 110:0.0 111:0.0 112:0.0 113:0.0 114:0.0 115:0.0 116:0.0 117:0.0 118:0.0 119:0.0 120:0.0 121:0.0 122:0.0 123:0.0 124:0.0 125:0.0 126:0.0 127:0.0 128:0.0 
0.0 0.0 0.0 0.0 0.0 0.0 0.0 0.0 0.0 0.0 0.0 0.03907799988076245 0.0 0.0 0.0 0.0 0.0 0.0 0.0 0.0 0.0 0.0 0.0 0.0 0.0 1:0.0 2:0.0 3:0.0 4:0.0 5:0.0 6:0.0 7:0.0 8:0.0 9:0.0 10:0.0 11:0.0 12:0.0 13:0.0 14:0.0 15:0.0 16:0.0 17:0.0 18:0.0 19:0.0 20:0.0 21:0.0 22:0.0 23:0.0 24:0.0 25:0.0 26:0.0 27:0.0 28:0.0 29:0.0 30:0.0 31:0.0 32:0.0 33:0.0 34:1.0 35:1.0 36:1.0 37:0.0 38:0.0 39:0.0 40:0.0 41:1.0 42:1.0 43:0.0 44:1.0 45:1.0 46:0.0 47:1.0 48:1.0 49:1.0 50:0.0 51:0.0 52:0.0 53:1.0 54:0.0 55:0.0 56:1.0 57:1.0 58:0.0 59:0.0 60:0.0 61:0.0 62:0.0 63:0.0 64:1.0 65:1.0 66:0.0 67:0.0 68:0.0 69:0.0 70:0.0 71:0.0 72:1.0 73:1.0 74:0.0 75:0.0 76:0.0 77:0.0 78:0.0 79:1.0 80:1.0 81:1.0 82:0.0 83:0.0 84:0.0 85:0.0 86:1.0 87:1.0 88:0.0 89:1.0 90:1.0 91:1.0 92:1.0 93:1.0 94:1.0 95:0.0 96:0.0 97:0.0 98:0.0 99:0.0 100:0.0 101:0.0 102:0.0 103:0.0 104:0.0 105:0.0 106:0.0 107:0.0 108:0.0 109:0.0 110:0.0 111:0.0 112:0.0 113:0.0 114:0.0 115:0.0 116:0.0 117:0.0 118:0.0 119:0.0 120:0.0 121:0.0 122:0.0 123:0.0 124:0.0 125:0.0 126:0.0 127:0.0 128:0.0 
0.2636891422888485 1.0 1.0 0.02886337525062463 0.12222520849748839 1.0 0.10690070167929215 0.47878498247831364 0.34270159546431456 1.0 0.0 0.1811987209962707 0.25007771709621884 0.229646794318006 0.0 0.0 0.0385053165049052 0.44618430003233694 0.30741910142571477 0.12061243939009209 0.0 0.021628485049822954 0.16262699827826774 0.0 0.16318768546111753 1:0.0 2:0.0 3:0.0 4:0.0 5:0.0 6:0.0 7:0.0 8:0.0 9:0.0 10:0.0 11:0.0 12:0.0 13:0.0 14:0.0 15:0.0 16:0.0 17:0.0 18:0.0 19:0.0 20:0.0 21:0.0 22:0.0 23:0.0 24:0.0 25:0.0 26:0.0 27:0.0 28:0.0 29:0.0 30:0.0 31:0.0 32:0.0 33:0.0 34:0.0 35:0.0 36:0.0 37:1.0 38:1.0 39:1.0 40:1.0 41:0.0 42:0.0 43:0.0 44:1.0 45:1.0 46:1.0 47:0.0 48:0.0 49:0.0 50:0.0 51:1.0 52:1.0 53:0.0 54:1.0 55:0.0 56:0.0 57:0.0 58:1.0 59:1.0 60:0.0 61:1.0 62:1.0 63:0.0 64:0.0 65:1.0 66:1.0 67:0.0 68:0.0 69:1.0 70:0.0 71:0.0 72:0.0 73:1.0 74:0.0 75:0.0 76:1.0 77:1.0 78:0.0 79:0.0 80:0.0 81:1.0 82:0.0 83:1.0 84:1.0 85:0.0 86:0.0 87:0.0 88:0.0 89:1.0 90:1.0 91:1.0 92:0.0 93:0.0 94:0.0 95:0.0 96:0.0 97:0.0 98:0.0 99:0.0 100:0.0 101:0.0 102:0.0 103:0.0 104:0.0 105:0.0 106:0.0 107:0.0 108:0.0 109:0.0 110:0.0 111:0.0 112:0.0 113:0.0 114:0.0 115:0.0 116:0.0 117:0.0 118:0.0 119:0.0 120:0.0 121:0.0 122:0.0 123:0.0 124:0.0 125:0.0 126:0.0 127:0.0 128:0.0 
0.0 0.0 0.0 0.0 0.0 0.0 0.0 0.0 0.0 0.0 0.0 0.0 0.0 0.0 0.0 0.0 0.14433724615073104 0.0 0.0 0.0 0.0 0.0 0.0 0.0 0.0 1:1.0 2:1.0 3:1.0 4:1.0 5:1.0 6:1.0 7:0.0 8:0.0 9:1.0 10:1.0 11:1.0 12:0.0 13:0.0 14:1.0 15:1.0 16:1.0 17:1.0 18:0.0 19:1.0 20:0.0 21:0.0 22:0.0 23:0.0 24:1.0 25:1.0 26:0.0 27:0.0 28:0.0 29:0.0 30:0.0 31:0.0 32:1.0 33:1.0 34:0.0 35:0.0 36:0.0 37:0.0 38:0.0 39:0.0 40:1.0 41:1.0 42:0.0 43:0.0 44:0.0 45:0.0 46:0.0 47:0.0 48:1.0 49:1.0 50:0.0 51:0.0 52:0.0 53:0.0 54:0.0 55:0.0 56:1.0 57:1.0 58:0.0 59:0.0 60:0.0 61:0.0 62:0.0 63:0.0 64:1.0 65:1.0 66:0.0 67:0.0 68:0.0 69:0.0 70:0.0 71:1.0 72:1.0 73:1.0 74:0.0 75:0.0 76:0.0 77:0.0 78:0.0 79:1.0 80:0.0 81:1.0 82:0.0 83:0.0 84:0.0 85:0.0 86:0.0 87:1.0 88:0.0 89:1.0 90:0.0 91:0.0 92:0.0 93:0.0 94:1.0 95:1.0 96:0.0 97:1.0 98:0.0 99:0.0 100:0.0 101:0.0 102:1.0 103:0.0 104:0.0 105:1.0 106:1.0 107:0.0 108:0.0 109:1.0 110:1.0 111:0.0 112:0.0 113:0.0 114:1.0 115:1.0 116:0.0 117:1.0 118:0.0 119:0.0 120:0.0 121:0.0 122:0.0 123:1.0 124:1.0 125:1.0 126:0.0 127:0.0 128:0.0 
