svm_type c_svc
kernel_type linear
nr_class 26
total_sv 3650
rho -2.012925226170064 -1.654029972308662 1.2662329081343682 -0.9717622530907669 2.063426011536918 1.561894954891336 -1.5899333202681951 1.3114150934680195 1.887218098473576 0.2623045235585516 1.293047992894222 1.6046343989594933 1.1193480542208243 2.546915295310513 1.4175078005427286 0.8795720634056624 1.1946577843641153 0.9800160750263311 -0.420078710412408 0.08396443276514004 0.48725178139842845 -1.039474748283859 0.07194932903839607 -1.527194221382317 -0.5412942648471204 3.339448115607324 4.339408283122007 0.661750850999391 1.4061859691123197 2.319232731403355 0.5007447484950784 2.074731226016273 1.6207453096239297 2.5913644986234114 1.194758271452129 1.2040106745727512 1.192500142049704 2.4810813325890497 1.4741680980608616 1.9715694484365653 2.455640426256411 1.695965835040044 1.0516363533272384 1.0625629588517171 0.3632693900881983 0.30952351544049134 1.348740948827031 0.6887561724444631 0.7071708738919807 2.658484369596775 0.1221182167615305 1.9757981077064977 1.4927667700891807 -1.0637604390366864 1.5207800357337276 2.2235772453656977 0.7434262012809316 1.7555964001799889 2.250398840405448 1.199174184643764 3.2245750234811146 1.6421787648720347 1.2116329685558958 0.9500238822119871 1.9962535912055264 0.49681383306425525 0.6521983749479016 0.6556922863001484 -1.0821507733673927 0.31718898464102113 -1.8354852253359828 -0.07985299446747723 -0.5662556277182705 1.6685088218237858 0.05372475481396193 -1.176940331039816 1.0002239453479977 0.8811094930252273 -0.44962202563600395 0.3087227903315065 1.579156071878349 0.7288656806527071 2.405537247979248 1.5291560657105754 1.1905012269120634 0.4241706984965162 0.8851082079518475 -0.26956197387257214 0.04246537118776641 0.10021769800116721 -1.2450988435490165 -0.4387027717004087 -2.695290497821586 -0.6568363657904227 3.0765676929243813 1.2303572430420562 -0.4013817696083918 1.2812645589258052 0.7853492092633566 0.8388137030573067 2.259095242281313 2.741825122021573 1.307622835851246 2.9560158463257236 1.7819938771558128 0.8292106588650217 -0.03008225041949408 2.191475063357839 0.20008116987311905 1.1372559411332432 1.6301931380011587 -0.37814812956464916 0.644865628678235 -0.7026080850983345 0.16722064195485742 -2.7012787407138332 -2.629492356338676 -2.220575822551489 -1.630316106719925 -2.449446834638894 -2.4284721565435046 -2.799288947848503 -3.4969809627985753 -3.4784535919038464 -2.5428940834717575 -1.8011263174394057 -1.997361025304907 -2.3601721020462034 -2.6300785017470885 -2.4936262100470827 -2.323667433030704 -2.582048889857248 -2.4381758093991315 -1.386443453393903 -2.811908183922139 -1.501834826294758 1.7788149899748347 0.6570415003478334 0.8087304843313255 1.7158390261810668 2.5044161901806414 1.4224817148417774 3.0715376341236467 2.119823188753736 -0.13109394069912136 -0.5236038550515739 1.6166921524677245 0.055341238266251966 -0.08716929707904972 0.49697292651247144 -1.6224714992472828 0.06344890738402824 -1.1041080107893824 -0.5189115984552191 1.1386062155452594 1.8807041711428443 1.3247990721719978 2.433706847178986 2.733502108546978 1.2057765873270505 2.8391207999733146 1.776897467621185 1.1542383500302908 1.9597611536631943 2.440746874296452 0.37541220516689444 2.410226409914326 1.0167833160455075 -0.7961350252937405 0.6905090482043474 -0.22187514549674411 0.6186499841963105 -0.6642181443610866 -2.6450571198919217 0.2011565993762075 1.769692319332262 -0.9124896112500881 1.2439137202960326 0.1298171930898648 -0.8347764214259618 -0.40778696591726354 0.07666412987319783 -3.052674099207655 0.05594012055310611 0.037633314143409625 -1.916109224968528 -1.0025145667634023 -1.0753492077616722 -1.7487511855879045 -4.291278305288564 -0.15471485887322683 0.8501561783198065 -0.41514593665674376 0.8442499922887445 0.31459094187563 -0.6509221827145798 -1.1026251955171027 -0.15091526979000505 -1.0266524345557806 -0.8851118186776709 0.15234107098367 -1.1662050252977725 -0.8308735418551915 -0.9474701291138797 -2.3430152187916797 0.8163741098644437 2.3937178976389957 1.2606943713247214 3.6046334088407046 1.0228435295348415 0.8595447087201403 1.243273603311663 0.7428166617991727 -1.6169045969146412 0.04702446408919844 0.2811979867204353 -1.7387893470509532 -0.6879141292454297 -1.719233518335232 -1.7337436435599476 1.7616971802308556 -0.25610201948927663 1.1673528188524147 -0.7331101583766558 -0.6428262746589506 -0.4161078830907891 -0.012430861814726146 -1.0954633680137105 -0.46687217351803784 -0.04979347163877392 -2.818499172102001 -1.3838864213835822 -0.8941965099045464 -1.496363559695233 -2.661945878962094 -3.1269057947601113 -2.464200380447249 -1.4972240035317117 -1.7124788243866726 -1.9479511070526052 -2.2973484243831126 -1.8955608685975809 -0.9921986590222707 -2.4740506018502 -2.459874417768518 -1.186258514782912 -2.9050807017501095 2.2676932426994485 0.5123276671383651 -0.11177928482251685 -0.20746698869880442 0.1582617734848125 -2.616515330602546 -0.3445262339590555 0.0676931803258094 -2.009073382273239 -1.2001645213240257 -0.8915932714434579 -1.6819918818532116 -1.5697461230325007 -1.3736421790249367 -1.5905710275476552 -2.5205778481954133 -2.96476452891553 -1.660363300213934 -0.2435617121685924 -3.3818240772079258 -2.6640014951600035 -1.644612243872166 -3.0728275867264836 -0.33556430242624763 -1.070970375574297 -0.7557131421374789 -1.9409186980950406 -0.8638001041331174 0.4308955155058033 -2.452332994063414 -1.8704141522948454 -1.2274917231031803 -1.2134459480706814 -0.3417402892222809 0.014673315468197442 -0.6974456023346933 0.39145232689786846 0.3718326050447717 -1.0447840884171091 -1.091125217084494 -2.347484731293604 -1.4948742852334087 0.7305738635388962 -0.7401883210866075 0.30523900604714993 0.3409967438722618 -1.2321450019547209 -0.6598886303258724 -3.459069148656813 -1.2732206327028 -1.1008373597067158 -0.9596163770869144 0.05206123436757231 -2.3395495650930225 -2.043385853664324 -1.516438479888668 -2.3563096314405754 0.39814806530290403 0.3533701580496455 -1.0665698689285636 0.054175896033538326 -0.18920669905198279 -0.12998671176575438 0.32232304550045415 -1.2741291713673204 -0.42241307061241 -0.8652406003258267 -2.0423017983313887 -1.0611583701143046 -0.3917812156548384 -0.29940124431445375 -0.5000070570970552 0.5310594580430672 0.196910452356334 0.7338574007360963 -1.2218894417767563 -0.7053802025303177 0.548009722963369
label 14 12 0 13 3 8 6 1 17 2 4 18 11 5 19 24 21 20 25 15 7 9 16 23 22 10
nr_sv 215 80 280 279 106 230 168 103 202 159 343 120 239 96 195 115 68 217 96 89 57 20 29 37 39 68
SV
0.0 0.0 0.06651531876471857 0.0 0.0 0.0 0.0 0.0 0.0 0.0 0.0 0.0 0.0 0.0 0.022297638173833633 0.0 0.0 0.0 0.0 0.0 0.0 0.0 0.0 0.0 0.0 1:0.0 2:0.0 3:0.0 4:0.0 5:0.0 6:0.0 7:0.0 8:0.0 9:0.0 10:0.0 11:0.0 12:0.0 13:0.0 14:0.0 15:0.0 16:0.0 17:0.0 18:0.0 19:0.0 20:0.0 21:0.0 22:0.0 23:0.0 24:0.0 25:0.0 26:1.0 27:1.0 28:1.0 29:1.0 30:0.0 31:0.0 32:0.0 33:1.0 34:1.0 35:0.0 36:1.0 37:1.0 38:0.0 39:0.0 40:0.0 41:1.0 42:0.0 43:0.0 44:0.0 45:1.0 46:1.0 47:1.0 48:0.0 49:1.0 50:0.0 51:0.0 52:0.0 53:0.0 54:0.0 55:1.0 56:1.0 57:1.0 58:0.0 59:0.0 60:0.0 61:0.0 62:0.0 63:0.0 64:1.0 65:1.0 66:0.0 67:0.0 68:0.0 69:0.0 70:0.0 71:0.0 72:1.0 73:1.0 74:0.0 75:0.0 76:0.0 77:0.0 78:0.0 79:0.0 80:1.0 81:1.0 82:1.0 83:0.0 84:0.0 85:0.0 86:0.0 87:0.0 88:1.0 89:0.0 90:1.0 91:0.0 92:0.0 93:0.0 94:0.0 95:0.0 96:1.0 97:0.0 98:1.0 99:1.0 100:1.0 101:1.0 102:1.0 103:1.0 104:1.0 105:0.0 106:0.0 107:0.0 108:0.0 109:0.0 110:0.0 111:0.0 112:0.0 113:0.0 114:0.0 115:0.0 116:0.0 117:0.0 118:0.0 119:0.0 120:0.0 121:0.0 122:0.0 123:0.0 124:0.0 125:0.0 126:0.0 127:0.0 128:0.0 
0.0 0.0 0.0 0.0020160654426187906 0.0 0.0 0.059659269931486986 0.0 0.0 0.0 0.0 0.0 0.0 0.0 0.0 0.0 0.0 0.0 0.0 0.0 0.0 0.0 0.0 0.0 0.0 1:0.0 2:0.0 3:1.0 4:1.0 5:0.0 6:0.0 7:0.0 8:0.0 9:0.0 10:1.0 11:1.0 12:0.0 13:0.0 14:0.0 15:0.0 16:0.0 17:0.0 18:1.0 19:0.0 20:1.0 21:1.0 22:0.0 23:0.0 24:0.0 25:1.0 26:1.0 27:0.0 28:0.0 29:1.0 30:1.0 31:0.0 32:0.0 33:1.0 34:0.0 35:0.0 36:0.0 37:0.0 38:1.0 39:1.0 40:0.0 41:1.0 42:0.0 43:0.0 44:0.0 45:0.0 46:0.0 47:1.0 48:0.0 49:1.0 50:0.0 51:0.0 52:0.0 53:0.0 54:0.0 55:1.0 56:1.0 57:1.0 58:0.0 59:0.0 60:0.0 61:0.0 62:0.0 63:0.0 64:1.0 65:1.0 66:0.0 67:0.0 68:0.0 69:0.0 70:0.0 71:0.0 72:1.0 73:1.0 74:0.0 75:0.0 76:0.0 77:0.0 78:0.0 79:0.0 80:1.0 81:1.0 82:0.0 83:0.0 84:0.0 85:0.0 86:0.0 87:0.0 88:1.0 89:1.0 90:1.0 91:0.0 92:0.0 93:0.0 94:0.0 95:0.0 96:1.0 97:0.0 98:1.0 99:0.0 100:0.0 101:0.0 102:0.0 103:0.0 104:1.0 105:0.0 106:1.0 107:1.0 108:0.0 109:0.0 110:0.0 111:1.0 112:1.0 113:0.0 114:0.0 115:1.0 116:1.0 117:0.0 118:1.0 119:1.0 120:0.0 121:0.0 122:0.0 123:0.0 124:1.0 125:1.0 126:1.0 127:0.0 128:0.0 
0.0 0.0 0.0 0.0 0.0 0.0 0.0 0.0 0.0 0.0 0.0 0.0 0.0 0.0 0.0 0.0 0.03612443224523224 0.0 0.0 0.0 0.0 0.0 0.0 0.0 0.0 1:1.0 2:1.0 3:0.0 4:0.0 5:0.0 6:0.0 7:0.0 8:0.0 9:1.0 10:1.0 11:0.0 12:1.0 13:1.0 14:1.0 15:0.0 16:0.0 17:1.0 18:1.0 19:0.0 20:0.0 21:0.0 22:1.0 23:0.0 24:0.0 25:1.0 26:0.0 27:0.0 28:0.0 29:0.0 30:1.0 31:1.0 32:0.0 33:1.0 34:0.0 35:0.0 36:0.0 37:0.0 38:0.0 39:1.0 40:1.0 41:1.0 42:0.0 43:0.0 44:0.0 45:0.0 46:0.0 47:0.0 48:1.0 49:1.0 50:0.0 51:0.0 52:0.0 53:0.0 54:0.0 55:0.0 56:1.0 57:1.0 58:0.0 59:0.0 60:0.0 61:0.0 62:0.0 63:0.0 64:1.0 65:1.0 66:0.0 67:0.0 68:0.0 69:0.0 70:0.0 71:0.0 72:1.0 73:1.0 74:0.0 75:0.0 76:0.0 77:0.0 78:0.0 79:0.0 80:1.0 81:1.0 82:0.0 83:0.0 84:0.0 85:0.0 86:0.0 87:0.0 88:1.0 89:1.0 90:0.0 91:0.0 92:0.0 93:0.0 94:0.0 95:0.0 96:1.0 97:1.0 98:0.0 99:0.0 100:0.0 101:0.0 102:0.0 103:1.0 104:1.0 105:1.0 106:0.0 107:0.0 108:0.0 109:0.0 110:0.0 111:1.0 112:0.0 113:1.0 114:1.0 115:1.0 116:0.0 117:0.0 118:1.0 119:1.0 120:0.0 121:0.0 122:0.0 123:1.0 124:1.0 125:1.0 126:1.0 127:0.0 128:0.0 
0.0 0.0300425202900452 0.0 0.0 0.0 0.0 0.0 0.0 0.0 0.0 0.0 0.0 0.0 0.0 0.0 0.0 0.0 0.0 0.0 0.0 0.0 0.0 0.0 0.0 0.0 1:0.0 2:0.0 3:0.0 4:0.0 5:0.0 6:0.0 7:0.0 8:0.0 9:0.0 10:0.0 11:0.0 12:0.0 13:0.0 14:0.0 15:0.0 16:0.0 17:0.0 18:0.0 19:0.0 20:0.0 21:0.0 22:0.0 23:0.0 24:0.0 25:0.0 26:0.0 27:1.0 28:1.0 29:1.0 30:1.0 31:1.0 32:0.0 33:0.0 34:0.0 35:1.0 36:0.0 37:1.0 38:1.0 39:1.0 40:0.0 41:0.0 42:1.0 43:1.0 44:0.0 45:0.0 46:0.0 47:1.0 48:0.0 49:0.0 50:1.0 51:0.0 52:0.0 53:0.0 54:0.0 55:1.0 56:1.0 57:1.0 58:1.0 59:0.0 60:0.0 61:0.0 62:0.0 63:0.0 64:1.0 65:1.0 66:0.0 67:0.0 68:0.0 69:0.0 70:0.0 71:0.0 72:1.0 73:1.0 74:0.0 75:0.0 76:0.0 77:0.0 78:0.0 79:0.0 80:1.0 81:1.0 82:0.0 83:0.0 84:0.0 85:0.0 86:0.0 87:1.0 88:1.0 89:1.0 90:0.0 91:0.0 92:0.0 93:0.0 94:1.0 95:1.0 96:0.0 97:1.0 98:1.0 99:1.0 100:1.0 101:1.0 102:1.0 103:0.0 104:0.0 105:0.0 106:0.0 107:0.0 108:0.0 109:0.0 110:0.0 111:0.0 112:0.0 113:0.0 114:0.0 115:0.0 116:0.0 117:0.0 118:0.0 119:0.0 120:0.0 121:0.0 122:0.0 123:0.0 124:0.0 125:0.0 126:0.0 127:0.0 128:0.0 
0.075609864798009 0.0 0.0 0.0 0.0 0.0 0.0 0.0 0.0 0.0 0.0 0.0 0.0 0.0 0.0 0.0 0.0 0.0 0.0 0.0 0.0 0.0 0.0 0.0 0.0 1:0.0 2:0.0 3:0.0 4:0.0 5:0.0 6:0.0 7:0.0 8:0.0 9:0.0 10:0.0 11:0.0 12:0.0 13:0.0 14:0.0 15:0.0 16:0.0 17:0.0 18:0.0 19:0.0 20:0.0 21:0.0 22:0.0 23:0.0 24:0.0 25:0.0 26:0.0 27:0.0 28:0.0 29:0.0 30:0.0 31:0.0 32:0.0 33:0.0 34:0.0 35:1.0 36:1.0 37:1.0 38:0.0 39:0.0 40:0.0 41:0.0 42:1.0 43:1.0 44:0.0 45:1.0 46:1.0 47:1.0 48:1.0 49:0.0 50:1.0 51:0.0 52:1.0 53:1.0 54:0.0 55:1.0 56:1.0 57:1.0 58:1.0 59:0.0 60:0.0 61:0.0 62:0.0 63:0.0 64:1.0 65:1.0 66:0.0 67:0.0 68:0.0 69:0.0 70:0.0 71:0.0 72:1.0 73:1.0 74:0.0 75:0.0 76:0.0 77:0.0 78:0.0 79:0.0 80:1.0 81:1.0 82:0.0 83:0.0 84:0.0 85:0.0 86:0.0 87:1.0 88:1.0 89:1.0 90:1.0 91:1.0 92:1.0 93:1.0 94:1.0 95:1.0 96:0.0 97:0.0 98:0.0 99:0.0 100:0.0 101:0.0 102:0.0 103:0.0 104:0.0 105:0.0 106:0.0 107:0.0 108:0.0 109:0.0 110:0.0 111:0.0 112:0.0 113:0.0 114:0.0 115:0.0 116:0.0 117:0.0 118:0.0 119:0.0 120:0.0 121:0.0 122:0.0 123:0.0 124:0.0 125:0.0 126:0.0 127:0.0 128:0.0 
0.0 0.0 0.0 0.0 0.0 0.0 0.0 0.01691409184005833 0.0 0.0 0.0 0.0 0.0 0.0 0.0 0.0 0.0 0.0 0.0 0.0 0.0 0.0 0.0 0.0 0.0 1:0.0 2:0.0 3:0.0 4:0.0 5:0.0 6:0.0 7:0.0 8:1.0 9:0.0 10:0.0 11:1.0 12:1.0 13:1.0 14:0.0 15:0.0 16:1.0 17:0.0 18:0.0 19:1.0 20:0.0 21:1.0 22:0.0 23:0.0 24:1.0 25:0.0 26:1.0 27:0.0 28:0.0 29:1.0 30:0.0 31:0.0 32:1.0 33:0.0 34:1.0 35:0.0 36:0.0 37:1.0 38:0.0 39:0.0 40:1.0 41:1.0 42:1.0 43:0.0 44:0.0 45:0.0 46:0.0 47:0.0 48:1.0 49:1.0 50:0.0 51:0.0 52:0.0 53:0.0 54:0.0 55:0.0 56:1.0 57:1.0 58:0.0 59:0.0 60:0.0 61:0.0 62:0.0 63:0.0 64:1.0 65:1.0 66:0.0 67:0.0 68:0.0 69:0.0 70:0.0 71:1.0 72:1.0 73:1.0 74:0.0 75:0.0 76:0.0 77:0.0 78:0.0 79:1.0 80:0.0 81:1.0 82:0.0 83:0.0 84:0.0 85:0.0 86:1.0 87:1.0 88:0.0 89:1.0 90:0.0 91:0.0 92:0.0 93:0.0 94:1.0 95:0.0 96:0.0 97:1.0 98:0.0 99:0.0 100:0.0 101:1.0 102:0.0 103:0.0 104:0.0 105:1.0 106:0.0 107:0.0 108:1.0 109:1.0 110:0.0 111:0.0 112:0.0 113:1.0 114:0.0 115:1.0 116:1.0 117:0.0 118:0.0 119:0.0 120:0.0 121:1.0 122:1.0 123:1.0 124:0.0 125:0.0 126:0.0 127:0.0 128:0.0 
0.0 0.0 0.1 0.03705130661522554 0.022038195990835847 0.032785622366798994 0.0 0.0 0.0 0.0 0.0 0.0 0.0 0.04223848579031609 0.01771565603622832 0.0 0.0 0.05291240706478674 0.0 0.027240861324718434 0.03279136834827704 0.0 0.01823962432015365 0.0 0.021208255120511277 1:0.0 2:1.0 3:1.0 4:1.0 5:0.0 6:0.0 7:0.0 8:0.0 9:0.0 10:0.0 11:0.0 12:1.0 13:1.0 14:0.0 15:0.0 16:0.0 17:0.0 18:0.0 19:0.0 20:0.0 21:1.0 22:0.0 23:0.0 24:0.0 25:0.0 26:0.0 27:0.0 28:0.0 29:1.0 30:1.0 31:0.0 32:0.0 33:0.0 34:0.0 35:0.0 36:1.0 37:1.0 38:1.0 39:1.0 40:0.0 41:0.0 42:0.0 43:0.0 44:1.0 45:0.0 46:1.0 47:1.0 48:0.0 49:0.0 50:0.0 51:1.0 52:1.0 53:0.0 54:0.0 55:1.0 56:0.0 57:0.0 58:0.0 59:1.0 60:0.0 61:0.0 62:0.0 63:1.0 64:0.0 65:0.0 66:1.0 67:1.0 68:0.0 69:0.0 70:0.0 71:1.0 72:0.0 73:0.0 74:1.0 75:0.0 76:0.0 77:0.0 78:0.0 79:1.0 80:0.0 81:0.0 82:1.0 83:0.0 84:0.0 85:0.0 86:0.0 87:1.0 88:0.0 89:0.0 90:1.0 91:0.0 92:0.0 93:0.0 94:0.0 95:1.0 96:0.0 97:0.0 98:1.0 99:0.0 100:0.0 101:0.0 102:0.0 103:1.0 104:0.0 105:0.0 106:1.0 107:0.0 108:0.0 109:0.0 110:0.0 111:1.0 112:0.0 113:0.0 114:1.0 115:0.0 116:0.0 117:0.0 118:1.0 119:1.0 120:0.0 121:0.0 122:1.0 123:1.0 124:1.0 125:1.0 126:1.0 127:0.0 128:0.0 
0.0 0.0 0.0 0.0 0.0 0.0 0.0 0.0 0.0 0.0 0.0 0.0 0.0 0.0 0.0 0.0 0.0 0.0 0.0 0.0 0.00513802564996061 0.0 0.0 0.0 0.0 1:0.0 2:0.0 3:0.0 4:1.0 5:0.0 6:0.0 7:0.0 8:0.0 9:0.0 10:0.0 11:1.0 12:1.0 13:1.0 14:1.0 15:0.0 16:0.0 17:1.0 18:1.0 19:0.0 20:0.0 21:0.0 22:1.0 23:1.0 24:0.0 25:1.0 26:0.0 27:0.0 28:0.0 29:0.0 30:0.0 31:0.0 32:0.0 33:1.0 34:0.0 35:0.0 36:0.0 37:0.0 38:0.0 39:1.0 40:0.0 41:1.0 42:0.0 43:0.0 44:0.0 45:0.0 46:0.0 47:1.0 48:0.0 49:1.0 50:0.0 51:0.0 52:0.0 53:0.0 54:0.0 55:1.0 56:1.0 57:1.0 58:0.0 59:0.0 60:0.0 61:0.0 62:0.0 63:0.0 64:1.0 65:1.0 66:0.0 67:0.0 68:0.0 69:0.0 70:0.0 71:0.0 72:1.0 73:1.0 74:0.0 75:0.0 76:0.0 77:0.0 78:0.0 79:1.0 80:0.0 81:1.0 82:0.0 83:0.0 84:0.0 85:0.0 86:0.0 87:1.0 88:0.0 89:1.0 90:0.0 91:0.0 92:0.0 93:0.0 94:0.0 95:1.0 96:0.0 97:1.0 98:0.0 99:0.0 100:0.0 101:0.0 102:0.0 103:1.0 104:0.0 105:1.0 106:0.0 107:0.0 108:0.0 109:0.0 110:0.0 111:1.0 112:0.0 113:0.0 114:1.0 115:0.0 116:0.0 117:1.0 118:1.0 119:0.0 120:0.0 121:0.0 122:1.0 123:1.0 124:1.0 125:1.0 126:0.0 127:0.0 128:0.0 
0.0 0.1 0.0 0.0 0.0 0.0 0.0 0.0 0.0 0.0 0.0 0.0 0.0 0.0 0.0 0.0 0.0 0.0 0.0 0.001908549486420752 0.0 0.0 0.0 0.0 0.0 1:0.0 2:0.0 3:0.0 4:0.0 5:0.0 6:0.0 7:0.0 8:0.0 9:0.0 10:0.0 11:0.0 12:0.0 13:0.0 14:0.0 15:0.0 16:0.0 17:0.0 18:0.0 19:1.0 20:1.0 21:1.0 22:1.0 23:0.0 24:0.0 25:0.0 26:0.0 27:1.0 28:0.0 29:0.0 30:1.0 31:0.0 32:0.0 33:0.0 34:1.0 35:0.0 36:0.0 37:0.0 38:1.0 39:0.0 40:0.0 41:0.0 42:1.0 43:0.0 44:0.0 45:0.0 46:0.0 47:1.0 48:0.0 49:1.0 50:1.0 51:0.0 52:0.0 53:0.0 54:0.0 55:1.0 56:1.0 57:1.0 58:0.0 59:0.0 60:0.0 61:0.0 62:0.0 63:0.0 64:1.0 65:1.0 66:0.0 67:0.0 68:0.0 69:0.0 70:0.0 71:0.0 72:1.0 73:1.0 74:0.0 75:0.0 76:0.0 77:0.0 78:0.0 79:0.0 80:1.0 81:1.0 82:0.0 83:0.0 84:0.0 85:0.0 86:0.0 87:0.0 88:1.0 89:1.0 90:0.0 91:0.0 92:0.0 93:0.0 94:0.0 95:0.0 96:1.0 97:1.0 98:1.0 99:0.0 100:0.0 101:0.0 102:1.0 103:1.0 104:1.0 105:0.0 106:1.0 107:1.0 108:1.0 109:1.0 110:1.0 111:0.0 112:0.0 113:0.0 114:0.0 115:0.0 116:0.0 117:0.0 118:0.0 119:0.0 120:0.0 121:0.0 122:0.0 123:0.0 124:0.0 125:0.0 126:0.0 127:0.0 128:0.0 
0.0 0.0 0.0 0.0 0.0 0.0 0.0 0.0 0.05536996494477675 0.0 0.0 0.0 0.0 0.0 0.0 0.0 0.0 0.0 0.0 0.0 0.0 0.0 0.0 0.0 0.0 1:0.0 2:0.0 3:0.0 4:0.0 5:0.0 6:0.0 7:0.0 8:0.0 9:0.0 10:0.0 11:0.0 12:0.0 13:0.0 14:0.0 15:0.0 16:0.0 17:0.0 18:0.0 19:0.0 20:0.0 21:1.0 22:0.0 23:0.0 24:0.0 25:0.0 26:0.0 27:0.0 28:0.0 29:1.0 30:1.0 31:0.0 32:0.0 33:0.0 34:0.0 35:0.0 36:1.0 37:1.0 38:1.0 39:1.0 40:0.0 41:0.0 42:0.0 43:1.0 44:1.0 45:0.0 46:0.0 47:1.0 48:1.0 49:0.0 50:1.0 51:1.0 52:0.0 53:0.0 54:0.0 55:0.0 56:1.0 57:0.0 58:1.0 59:0.0 60:0.0 61:0.0 62:0.0 63:0.0 64:1.0 65:1.0 66:1.0 67:0.0 68:0.0 69:0.0 70:0.0 71:0.0 72:1.0 73:1.0 74:0.0 75:0.0 76:0.0 77:0.0 78:0.0 79:0.0 80:1.0 81:1.0 82:0.0 83:0.0 84:0.0 85:0.0 86:0.0 87:1.0 88:1.0 89:1.0 90:0.0 91:0.0 92:0.0 93:0.0 94:1.0 95:1.0 96:0.0 97:1.0 98:0.0 99:0.0 100:0.0 101:1.0 102:1.0 103:0.0 104:0.0 105:1.0 106:1.0 107:1.0 108:1.0 109:1.0 110:0.0 111:0.0 112:0.0 113:0.0 114:0.0 115:0.0 116:0.0 117:0.0 118:0.0 119:0.0 120:0.0 121:0.0 122:0.0 123:0.0 124:0.0 125:0.0 126:0.0 127:0.0 128:0.0 
0.1 0.05308266735560366 0.1 0.0 0.0 0.0 0.0 0.0 0.0 0.025714337864907975 0.0 0.0 0.0 0.0 0.0 0.0 0.0 0.0 0.0 0.0 0.0 0.0 0.0 0.0 0.0 1:0.0 2:0.0 3:0.0 4:0.0 5:0.0 6:0.0 7:0.0 8:0.0 9:0.0 10:0.0 11:0.0 12:0.0 13:0.0 14:0.0 15:0.0 16:0.0 17:0.0 18:0.0 19:0.0 20:0.0 21:0.0 22:0.0 23:0.0 24:0.0 25:0.0 26:0.0 27:0.0 28:0.0 29:0.0 30:0.0 31:0.0 32:0.0 33:0.0 34:0.0 35:0.0 36:0.0 37:0.0 38:0.0 39:0.0 40:0.0 41:1.0 42:1.0 43:1.0 44:1.0 45:1.0 46:1.0 47:0.0 48:0.0 49:1.0 50:1.0 51:1.0 52:0.0 53:0.0 54:1.0 55:1.0 56:1.0 57:1.0 58:0.0 59:0.0 60:0.0 61:0.0 62:0.0 63:0.0 64:1.0 65:1.0 66:0.0 67:0.0 68:0.0 69:0.0 70:0.0 71:0.0 72:1.0 73:1.0 74:1.0 75:1.0 76:0.0 77:0.0 78:0.0 79:0.0 80:1.0 81:0.0 82:0.0 83:1.0 84:1.0 85:1.0 86:1.0 87:1.0 88:1.0 89:0.0 90:0.0 91:0.0 92:0.0 93:0.0 94:0.0 95:0.0 96:0.0 97:0.0 98:0.0 99:0.0 100:0.0 101:0.0 102:0.0 103:0.0 104:0.0 105:0.0 106:0.0 107:0.0 108:0.0 109:0.0 110:0.0 111:0.0 112:0.0 113:0.0 114:0.0 115:0.0 116:0.0 117:0.0 118:0.0 119:0.0 120:0.0 121:0.0 122:0.0 123:0.0 124:0.0 125:0.0 126:0.0 127:0.0 128:0.0 
0.0 0.0 0.0 0.0 0.0 0.0 0.0 0.0 0.0 0.0 0.0 0.0 0.0 0.0 0.0 0.0 0.1 0.0 0.0 0.0 0.0 0.0 0.0 0.0 0.0 1:0.0 2:0.0 3:0.0 4:0.0 5:0.0 6:0.0 7:0.0 8:0.0 9:0.0 10:0.0 11:0.0 12:0.0 13:0.0 14:0.0 15:0.0 16:0.0 17:0.0 18:0.0 19:0.0 20:0.0 21:0.0 22:0.0 23:0.0 24:0.0 25:1.0 26:0.0 27:1.0 28:1.0 29:1.0 30:0.0 31:0.0 32:0.0 33:1.0 34:0.0 35:1.0 36:0.0 37:1.0 38:1.0 39:0.0 40:0.0 41:1.0 42:0.0 43:0.0 44:0.0 45:0.0 46:0.0 47:1.0 48:0.0 49:1.0 50:0.0 51:0.0 52:0.0 53:0.0 54:0.0 55:1.0 56:1.0 57:1.0 58:0.0 59:0.0 60:0.0 61:0.0 62:0.0 63:0.0 64:1.0 65:1.0 66:0.0 67:0.0 68:0.0 69:0.0 70:0.0 71:1.0 72:1.0 73:1.0 74:0.0 75:0.0 76:0.0 77:0.0 78:0.0 79:1.0 80:0.0 81:1.0 82:0.0 83:0.0 84:0.0 85:0.0 86:1.0 87:1.0 88:0.0 89:1.0 90:0.0 91:0.0 92:0.0 93:0.0 94:1.0 95:0.0 96:0.0 97:0.0 98:1.0 99:1.0 100:1.0 101:1.0 102:1.0 103:0.0 104:0.0 105:0.0 106:0.0 107:0.0 108:0.0 109:0.0 110:0.0 111:0.0 112:0.0 113:0.0 114:0.0 115:0.0 116:0.0 117:0.0 118:0.0 119:0.0 120:0.0 121:0.0 122:0.0 123:0.0 124:0.0 125:0.0 126:0.0 127:0.0 128:0.0 
0.0 0.0 0.0 0.0035426527542463215 0.0 0.1 0.0 0.006395828409731811 0.0 0.0 0.0 0.0 0.0 0.0 0.008206252951191555 0.0 0.0 0.0 0.0 0.0 0.005973161877999851 0.0 0.0 0.0 0.0 1:0.0 2:0.0 3:0.0 4:0.0 5:0.0 6:0.0 7:0.0 8:0.0 9:0.0 10:0.0 11:0.0 12:0.0 13:0.0 14:0.0 15:0.0 16:0.0 17:0.0 18:0.0 19:1.0 20:1.0 21:1.0 22:1.0 23:1.0 24:0.0 25:0.0 26:1.0 27:1.0 28:0.0 29:0.0 30:0.0 31:1.0 32:0.0 33:0.0 34:1.0 35:0.0 36:0.0 37:0.0 38:1.0 39:0.0 40:0.0 41:0.0 42:1.0 43:0.0 44:0.0 45:0.0 46:1.0 47:1.0 48:1.0 49:1.0 50:0.0 51:0.0 52:0.0 53:1.0 54:1.0 55:0.0 56:1.0 57:1.0 58:0.0 59:0.0 60:0.0 61:0.0 62:0.0 63:0.0 64:1.0 65:1.0 66:0.0 67:0.0 68:0.0 69:0.0 70:0.0 71:0.0 72:1.0 73:1.0 74:0.0 75:0.0 76:0.0 77:0.0 78:0.0 79:1.0 80:1.0 81:1.0 82:0.0 83:0.0 84:0.0 85:0.0 86:1.0 87:1.0 88:0.0 89:1.0 90:0.0 91:0.0 92:0.0 93:0.0 94:1.0 95:0.0 96:0.0 97:1.0 98:0.0 99:0.0 100:0.0 101:1.0 102:0.0 103:0.0 104:0.0 105:1.0 106:1.0 107:1.0 108:1.0 109:1.0 110:0.0 111:0.0 112:0.0 113:0.0 114:0.0 115:0.0 116:0.0 117:0.0 118:0.0 119:0.0 120:0.0 121:0.0 122:0.0 123:0.0 124:0.0 125:0.0 126:0.0 127:0.0 128:0.0 
0.02146217140503413 0.0 0.09059474818766121 0.0 0.0 0.0 0.0 0.0 0.0053027516238775205 0.0 0.0 0.0 0.0 0.0 0.0 0.0 0.0 0.0 0.0 0.0 0.0 0.0 0.0 0.0 0.0 1:0.0 2:0.0 3:0.0 4:0.0 5:0.0 6:0.0 7:0.0 8:0.0 9:0.0 10:0.0 11:0.0 12:0.0 13:0.0 14:0.0 15:0.0 16:0.0 17:1.0 18:1.0 19:1.0 20:1.0 21:1.0 22:0.0 23:0.0 24:0.0 25:0.0 26:0.0 27:0.0 28:0.0 29:1.0 30:1.0 31:1.0 32:0.0 33:0.0 34:0.0 35:0.0 36:0.0 37:0.0 38:0.0 39:1.0 40:0.0 41:0.0 42:0.0 43:1.0 44:1.0 45:0.0 46:0.0 47:1.0 48:1.0 49:0.0 50:1.0 51:1.0 52:0.0 53:0.0 54:0.0 55:0.0 56:1.0 57:1.0 58:1.0 59:0.0 60:0.0 61:0.0 62:0.0 63:0.0 64:1.0 65:1.0 66:0.0 67:0.0 68:0.0 69:0.0 70:0.0 71:0.0 72:1.0 73:1.0 74:0.0 75:0.0 76:0.0 77:0.0 78:0.0 79:0.0 80:1.0 81:1.0 82:0.0 83:0.0 84:0.0 85:0.0 86:0.0 87:0.0 88:1.0 89:1.0 90:0.0 91:0.0 92:0.0 93:0.0 94:0.0 95:0.0 96:1.0 97:1.0 98:0.0 99:0.0 100:0.0 101:0.0 102:0.0 103:1.0 104:1.0 105:1.0 106:1.0 107:1.0 108:1.0 109:1.0 110:1.0 111:1.0 112:0.0 113:0.0 114:0.0 115:0.0 116:0.0 117:0.0 118:0.0 119:0.0 120:0.0 121:0.0 122:0.0 123:0.0 124:0.0 125:0.0 126:0.0 127:0.0 128:0.0 
0.0 0.0 0.0 0.0 0.0 0.0 0.0 0.0 0.0 0.0 0.0 0.0 0.0 0.0 0.0 0.023322997652885376 0.0 0.0 0.0 0.0 0.0 0.0 0.0 0.0 0.0 1:0.0 2:0.0 3:0.0 4:0.0 5:0.0 6:0.0 7:0.0 8:0.0 9:0.0 10:0.0 11:0.0 12:1.0 13:1.0 14:0.0 15:0.0 16:0.0 17:0.0 18:0.0 19:0.0 20:0.0 21:1.0 22:1.0 23:1.0 24:0.0 25:0.0 26:0.0 27:0.0 28:0.0 29:0.0 30:0.0 31:1.0 32:1.0 33:0.0 34:0.0 35:0.0 36:0.0 37:0.0 38:0.0 39:0.0 40:1.0 41:1.0 42:0.0 43:0.0 44:0.0 45:0.0 46:0.0 47:0.0 48:1.0 49:1.0 50:0.0 51:0.0 52:0.0 53:0.0 54:0.0 55:0.0 56:1.0 57:1.0 58:0.0 59:0.0 60:0.0 61:0.0 62:0.0 63:0.0 64:1.0 65:1.0 66:0.0 67:0.0 68:0.0 69:0.0 70:0.0 71:0.0 72:1.0 73:1.0 74:0.0 75:0.0 76:0.0 77:0.0 78:0.0 79:0.0 80:1.0 81:1.0 82:0.0 83:0.0 84:0.0 85:0.0 86:0.0 87:0.0 88:1.0 89:1.0 90:0.0 91:0.0 92:0.0 93:0.0 94:0.0 95:1.0 96:1.0 97:1.0 98:1.0 99:0.0 100:0.0 101:0.0 102:1.0 103:1.0 104:0.0 105:0.0 106:1.0 107:1.0 108:1.0 109:1.0 110:1.0 111:0.0 112:0.0 113:0.0 114:0.0 115:0.0 116:1.0 117:1.0 118:0.0 119:0.0 120:0.0 121:0.0 122:0.0 123:0.0 124:0.0 125:0.0 126:0.0 127:0.0 128:0.0 
0.0 0.0 0.0 0.029521950450385973 0.0 0.0 0.0 0.0 1.3993548665586407E-4 0.0 0.0 0.0 0.0 4.838556705230221E-4 0.0 0.02875516452167696 0.1 0.0 0.0 0.0 0.002351316252747857 0.0 0.0 0.0 0.0 1:0.0 2:0.0 3:0.0 4:0.0 5:0.0 6:0.0 7:0.0 8:0.0 9:0.0 10:0.0 11:0.0 12:0.0 13:0.0 14:0.0 15:0.0 16:0.0 17:0.0 18:0.0 19:0.0 20:0.0 21:0.0 22:1.0 23:1.0 24:0.0 25:0.0 26:0.0 27:0.0 28:0.0 29:0.0 30:0.0 31:1.0 32:1.0 33:0.0 34:0.0 35:0.0 36:0.0 37:0.0 38:0.0 39:0.0 40:1.0 41:0.0 42:0.0 43:0.0 44:0.0 45:0.0 46:0.0 47:0.0 48:1.0 49:0.0 50:0.0 51:0.0 52:0.0 53:0.0 54:0.0 55:0.0 56:1.0 57:0.0 58:0.0 59:0.0 60:0.0 61:0.0 62:0.0 63:0.0 64:1.0 65:1.0 66:1.0 67:1.0 68:0.0 69:0.0 70:0.0 71:0.0 72:1.0 73:1.0 74:0.0 75:0.0 76:0.0 77:0.0 78:0.0 79:0.0 80:1.0 81:1.0 82:0.0 83:0.0 84:0.0 85:0.0 86:0.0 87:0.0 88:1.0 89:1.0 90:0.0 91:0.0 92:0.0 93:0.0 94:0.0 95:1.0 96:0.0 97:1.0 98:1.0 99:0.0 100:0.0 101:1.0 102:1.0 103:1.0 104:0.0 105:0.0 106:0.0 107:1.0 108:1.0 109:1.0 110:0.0 111:0.0 112:0.0 113:0.0 114:0.0 115:0.0 116:0.0 117:0.0 118:0.0 119:0.0 120:0.0 121:0.0 122:0.0 123:0.0 124:0.0 125:0.0 126:0.0 127:0.0 128:0.0 
0.0 0.010008193739927453 0.0 0.0 0.0 0.0 0.0 0.0 0.0 0.0 0.0 0.0 0.0 0.0 0.0 0.0 0.0 0.0 0.0 0.0 0.0 0.0 0.0 0.0 0.0 1:0.0 2:0.0 3:0.0 4:0.0 5:0.0 6:0.0 7:0.0 8:0.0 9:0.0 10:0.0 11:0.0 12:0.0 13:0.0 14:0.0 15:0.0 16:0.0 17:0.0 18:0.0 19:0.0 20:0.0 21:1.0 22:1.0 23:0.0 24:0.0 25:0.0 26:0.0 27:0.0 28:1.0 29:1.0 30:1.0 31:1.0 32:0.0 33:0.0 34:0.0 35:1.0 36:1.0 37:0.0 38:0.0 39:1.0 40:1.0 41:0.0 42:1.0 43:1.0 44:0.0 45:0.0 46:0.0 47:0.0 48:1.0 49:1.0 50:1.0 51:0.0 52:0.0 53:0.0 54:0.0 55:0.0 56:1.0 57:1.0 58:0.0 59:0.0 60:0.0 61:0.0 62:0.0 63:0.0 64:1.0 65:1.0 66:0.0 67:0.0 68:0.0 69:0.0 70:0.0 71:0.0 72:1.0 73:1.0 74:0.0 75:0.0 76:0.0 77:0.0 78:0.0 79:1.0 80:1.0 81:1.0 82:0.0 83:0.0 84:0.0 85:0.0 86:1.0 87:1.0 88:0.0 89:1.0 90:0.0 91:0.0 92:0.0 93:1.0 94:1.0 95:0.0 96:0.0 97:1.0 98:1.0 99:1.0 100:1.0 101:1.0 102:0.0 103:0.0 104:0.0 105:1.0 106:1.0 107:0.0 108:0.0 109:0.0 110:0.0 111:0.0 112:0.0 113:0.0 114:0.0 115:0.0 116:0.0 117:0.0 118:0.0 119:0.0 120:0.0 121:0.0 122:0.0 123:0.0 124:0.0 125:0.0 126:0.0 127:0.0 128:0.0 
0.0 0.0 0.0 0.0 0.0 0.0 0.0 0.0 0.0 0.005710921240860257 0.06114944595332132 0.0 0.0 0.04196293731383974 0.0 0.0 0.1 0.0 0.0 0.0 0.0 0.0 0.0 0.0 0.0 1:0.0 2:0.0 3:0.0 4:0.0 5:0.0 6:0.0 7:0.0 8:0.0 9:0.0 10:0.0 11:0.0 12:0.0 13:0.0 14:0.0 15:0.0 16:0.0 17:0.0 18:0.0 19:0.0 20:0.0 21:0.0 22:0.0 23:0.0 24:0.0 25:0.0 26:0.0 27:0.0 28:0.0 29:0.0 30:0.0 31:0.0 32:0.0 33:0.0 34:1.0 35:1.0 36:1.0 37:0.0 38:0.0 39:0.0 40:0.0 41:1.0 42:0.0 43:0.0 44:1.0 45:0.0 46:0.0 47:0.0 48:0.0 49:1.0 50:0.0 51:0.0 52:0.0 53:0.0 54:0.0 55:1.0 56:1.0 57:1.0 58:0.0 59:0.0 60:0.0 61:0.0 62:0.0 63:0.0 64:1.0 65:1.0 66:0.0 67:0.0 68:0.0 69:0.0 70:0.0 71:0.0 72:1.0 73:1.0 74:1.0 75:0.0 76:0.0 77:0.0 78:0.0 79:0.0 80:1.0 81:0.0 82:1.0 83:1.0 84:0.0 85:0.0 86:0.0 87:0.0 88:1.0 89:0.0 90:0.0 91:1.0 92:1.0 93:1.0 94:1.0 95:1.0 96:1.0 97:0.0 98:0.0 99:0.0 100:0.0 101:0.0 102:0.0 103:0.0 104:0.0 105:0.0 106:0.0 107:0.0 108:0.0 109:0.0 110:0.0 111:0.0 112:0.0 113:0.0 114:0.0 115:0.0 116:0.0 117:0.0 118:0.0 119:0.0 120:0.0 121:0.0 122:0.0 123:0.0 124:0.0 125:0.0 126:0.0 127:0.0 128:0.0 
0.006341838029798327 0.06033550824514795 0.0 0.0 0.0 0.0 0.0 0.0 0.0 0.0 0.0 0.0 0.0 0.0 0.0 0.0 0.0 0.0 0.0 0.0 0.0 0.0 0.0 0.0 0.0 1:0.0 2:0.0 3:0.0 4:0.0 5:0.0 6:0.0 7:0.0 8:0.0 9:0.0 10:0.0 11:0.0 12:0.0 13:0.0 14:0.0 15:0.0 16:0.0 17:0.0 18:0.0 19:0.0 20:0.0 21:0.0 22:0.0 23:0.0 24:0.0 25:0.0 26:0.0 27:0.0 28:0.0 29:0.0 30:0.0 31:1.0 32:0.0 33:0.0 34:0.0 35:0.0 36:0.0 37:1.0 38:1.0 39:1.0 40:1.0 41:0.0 42:0.0 43:0.0 44:1.0 45:0.0 46:0.0 47:0.0 48:1.0 49:0.0 50:1.0 51:1.0 52:0.0 53:0.0 54:0.0 55:0.0 56:1.0 57:1.0 58:1.0 59:0.0 60:0.0 61:0.0 62:0.0 63:0.0 64:1.0 65:1.0 66:0.0 67:0.0 68:0.0 69:0.0 70:0.0 71:0.0 72:1.0 73:1.0 74:0.0 75:0.0 76:0.0 77:0.0 78:0.0 79:0.0 80:1.0 81:1.0 82:0.0 83:0.0 84:0.0 85:0.0 86:0.0 87:0.0 88:1.0 89:1.0 90:0.0 91:0.0 92:0.0 93:0.0 94:0.0 95:1.0 96:1.0 97:0.0 98:1.0 99:1.0 100:1.0 101:1.0 102:1.0 103:1.0 104:0.0 105:0.0 106:0.0 107:0.0 108:0.0 109:0.0 110:0.0 111:0.0 112:0.0 113:0.0 114:0.0 115:0.0 116:0.0 117:0.0 118:0.0 119:0.0 120:0.0 121:0.0 122:0.0 123:0.0 124:0.0 125:0.0 126:0.0 127:0.0 128:0.0 
0.009456841235304074 0.1 0.043525165587282734 0.05137893161241936 0.0 0.010911513305525353 0.01200876100906075 0.1 0.1 0.1 0.0 0.035757703327821425 0.016253425096514753 0.0 0.0037603957648983948 0.1 0.1 0.05034878140888451 0.1 0.052683835384296274 0.0 0.0 0.0 0.035600253255823514 0.08489099004322205 1:0.0 2:0.0 3:0.0 4:1.0 5:0.0 6:0.0 7:0.0 8:0.0 9:0.0 10:0.0 11:1.0 12:1.0 13:0.0 14:0.0 15:0.0 16:0.0 17:0.0 18:1.0 19:1.0 20:0.0 21:0.0 22:0.0 23:0.0 24:1.0 25:0.0 26:1.0 27:0.0 28:0.0 29:0.0 30:0.0 31:0.0 32:1.0 33:0.0 34:1.0 35:0.0 36:0.0 37:0.0 38:0.0 39:0.0 40:1.0 41:1.0 42:1.0 43:0.0 44:0.0 45:0.0 46:0.0 47:0.0 48:1.0 49:1.0 50:0.0 51:0.0 52:0.0 53:0.0 54:0.0 55:1.0 56:1.0 57:1.0 58:0.0 59:0.0 60:0.0 61:0.0 62:1.0 63:1.0 64:0.0 65:1.0 66:0.0 67:0.0 68:0.0 69:0.0 70:1.0 71:0.0 72:0.0 73:1.0 74:0.0 75:0.0 76:1.0 77:1.0 78:0.0 79:0.0 80:0.0 81:1.0 82:0.0 83:0.0 84:1.0 85:0.0 86:0.0 87:0.0 88:0.0 89:1.0 90:0.0 91:1.0 92:1.0 93:0.0 94:0.0 95:0.0 96:0.0 97:1.0 98:0.0 99:1.0 100:0.0 101:0.0 102:0.0 103:0.0 104:0.0 105:1.0 106:0.0 107:1.0 108:0.0 109:0.0 110:0.0 111:0.0 112:0.0 113:1.0 114:1.0 115:0.0 116:0.0 117:0.0 118:0.0 119:0.0 120:0.0 121:1.0 122:0.0 123:0.0 124:0.0 125:0.0 126:0.0 127:0.0 128:0.0 
0.0 0.0 0.0949451625467939 0.03610514988724199 0.05367402885058419 0.0 0.0 0.0 0.0 0.0 0.023362393626046075 0.006143933025440172 0.0 0.013505789964705408 0.0 0.0 0.05748060465828628 0.03458794020570949 0.01541561927429132 0.015298515427292474 0.0 0.0 0.0 0.011436491890146913 0.0772950413254679 1:0.0 2:0.0 3:0.0 4:0.0 5:0.0 6:0.0 7:0.0 8:0.0 9:0.0 10:0.0 11:0.0 12:0.0 13:1.0 14:0.0 15:0.0 16:0.0 17:0.0 18:0.0 19:0.0 20:1.0 21:1.0 22:0.0 23:0.0 24:0.0 25:0.0 26:0.0 27:0.0 28:1.0 29:0.0 30:0.0 31:0.0 32:0.0 33:0.0 34:0.0 35:0.0 36:1.0 37:0.0 38:0.0 39:0.0 40:1.0 41:0.0 42:0.0 43:0.0 44:1.0 45:0.0 46:0.0 47:0.0 48:1.0 49:0.0 50:0.0 51:0.0 52:1.0 53:0.0 54:0.0 55:0.0 56:1.0 57:0.0 58:0.0 59:1.0 60:1.0 61:0.0 62:0.0 63:0.0 64:1.0 65:0.0 66:0.0 67:1.0 68:0.0 69:0.0 70:0.0 71:1.0 72:1.0 73:0.0 74:1.0 75:1.0 76:0.0 77:0.0 78:0.0 79:1.0 80:0.0 81:0.0 82:1.0 83:0.0 84:0.0 85:1.0 86:1.0 87:0.0 88:0.0 89:1.0 90:1.0 91:0.0 92:1.0 93:1.0 94:0.0 95:0.0 96:0.0 97:1.0 98:0.0 99:1.0 100:1.0 101:0.0 102:0.0 103:0.0 104:0.0 105:1.0 106:1.0 107:1.0 108:0.0 109:0.0 110:0.0 111:0.0 112:0.0 113:1.0 114:1.0 115:0.0 116:0.0 117:0.0 118:0.0 119:0.0 120:0.0 121:0.0 122:0.0 123:0.0 124:0.0 125:0.0 126:0.0 127:0.0 128:0.0 
0.0 0.1 0.08079290359339995 0.0 0.0 0.1 0.0 0.0 0.0 0.004840367390971338 0.02502344122618107 0.0 0.0 0.0 0.0 0.0 0.0 0.0 0.0 0.02786657716638089 0.0 0.02151301023208096 0.0 0.0 0.0 1:0.0 2:0.0 3:0.0 4:0.0 5:0.0 6:0.0 7:0.0 8:0.0 9:0.0 10:0.0 11:0.0 12:0.0 13:0.0 14:0.0 15:0.0 16:0.0 17:0.0 18:0.0 19:0.0 20:0.0 21:0.0 22:0.0 23:0.0 24:0.0 25:0.0 26:0.0 27:1.0 28:1.0 29:1.0 30:0.0 31:0.0 32:0.0 33:1.0 34:1.0 35:1.0 36:0.0 37:1.0 38:1.0 39:1.0 40:0.0 41:1.0 42:0.0 43:0.0 44:0.0 45:1.0 46:1.0 47:0.0 48:0.0 49:1.0 50:0.0 51:0.0 52:0.0 53:0.0 54:1.0 55:0.0 56:0.0 57:1.0 58:0.0 59:0.0 60:0.0 61:0.0 62:0.0 63:1.0 64:0.0 65:1.0 66:0.0 67:0.0 68:0.0 69:0.0 70:0.0 71:1.0 72:1.0 73:1.0 74:1.0 75:0.0 76:0.0 77:0.0 78:0.0 79:0.0 80:1.0 81:0.0 82:1.0 83:1.0 84:0.0 85:0.0 86:0.0 87:0.0 88:1.0 89:0.0 90:0.0 91:1.0 92:1.0 93:1.0 94:1.0 95:1.0 96:1.0 97:0.0 98:0.0 99:0.0 100:0.0 101:0.0 102:0.0 103:1.0 104:1.0 105:0.0 106:0.0 107:0.0 108:0.0 109:0.0 110:0.0 111:0.0 112:0.0 113:0.0 114:0.0 115:0.0 116:0.0 117:0.0 118:0.0 119:0.0 120:0.0 121:0.0 122:0.0 123:0.0 124:0.0 125:0.0 126:0.0 127:0.0 128:0.0 
0.0 0.0 0.0 0.0 0.0 0.1 0.0 0.0 0.0 0.0 0.0 0.0 0.0 0.0 0.0 0.0 0.0 0.0 0.0 0.0 0.0 0.0 0.0 0.0 0.0 1:0.0 2:0.0 3:0.0 4:0.0 5:1.0 6:1.0 7:0.0 8:0.0 9:0.0 10:0.0 11:0.0 12:1.0 13:1.0 14:1.0 15:1.0 16:0.0 17:0.0 18:0.0 19:0.0 20:1.0 21:0.0 22:0.0 23:0.0 24:0.0 25:0.0 26:0.0 27:1.0 28:1.0 29:0.0 30:0.0 31:0.0 32:0.0 33:0.0 34:0.0 35:1.0 36:1.0 37:1.0 38:1.0 39:0.0 40:0.0 41:0.0 42:1.0 43:1.0 44:0.0 45:0.0 46:1.0 47:1.0 48:0.0 49:0.0 50:1.0 51:0.0 52:0.0 53:0.0 54:0.0 55:1.0 56:1.0 57:0.0 58:1.0 59:0.0 60:0.0 61:0.0 62:0.0 63:0.0 64:1.0 65:1.0 66:1.0 67:0.0 68:0.0 69:0.0 70:0.0 71:0.0 72:1.0 73:1.0 74:0.0 75:0.0 76:0.0 77:0.0 78:0.0 79:0.0 80:1.0 81:1.0 82:0.0 83:0.0 84:0.0 85:0.0 86:0.0 87:0.0 88:1.0 89:1.0 90:0.0 91:0.0 92:0.0 93:0.0 94:0.0 95:0.0 96:1.0 97:1.0 98:0.0 99:0.0 100:0.0 101:0.0 102:0.0 103:1.0 104:1.0 105:1.0 106:0.0 107:0.0 108:0.0 109:0.0 110:0.0 111:1.0 112:0.0 113:1.0 114:1.0 115:0.0 116:0.0 117:0.0 118:1.0 119:1.0 120:0.0 121:0.0 122:1.0 123:1.0 124:1.0 125:1.0 126:1.0 127:0.0 128:0.0 
0.0 0.0 0.0 0.0 0.0 0.0 0.0 0.0 0.0 0.0 0.0 0.0 0.0 0.0 0.0 0.0 0.0914612711306474 0.0 0.0 0.0 0.0 0.0 0.0 0.028058342150982553 0.0 1:0.0 2:0.0 3:0.0 4:0.0 5:0.0 6:0.0 7:0.0 8:0.0 9:0.0 10:0.0 11:0.0 12:0.0 13:0.0 14:0.0 15:0.0 16:0.0 17:0.0 18:0.0 19:0.0 20:1.0 21:1.0 22:1.0 23:1.0 24:1.0 25:0.0 26:0.0 27:0.0 28:0.0 29:0.0 30:0.0 31:0.0 32:1.0 33:1.0 34:1.0 35:1.0 36:0.0 37:0.0 38:0.0 39:0.0 40:1.0 41:1.0 42:0.0 43:0.0 44:0.0 45:0.0 46:0.0 47:0.0 48:1.0 49:1.0 50:0.0 51:0.0 52:0.0 53:0.0 54:0.0 55:0.0 56:1.0 57:1.0 58:0.0 59:0.0 60:0.0 61:0.0 62:0.0 63:0.0 64:1.0 65:1.0 66:0.0 67:0.0 68:0.0 69:0.0 70:0.0 71:0.0 72:1.0 73:1.0 74:0.0 75:0.0 76:0.0 77:0.0 78:0.0 79:1.0 80:1.0 81:1.0 82:0.0 83:0.0 84:0.0 85:0.0 86:0.0 87:1.0 88:0.0 89:1.0 90:1.0 91:0.0 92:0.0 93:0.0 94:1.0 95:1.0 96:0.0 97:0.0 98:1.0 99:1.0 100:1.0 101:1.0 102:1.0 103:0.0 104:0.0 105:0.0 106:0.0 107:1.0 108:1.0 109:0.0 110:0.0 111:0.0 112:0.0 113:0.0 114:0.0 115:0.0 116:0.0 117:0.0 118:0.0 119:0.0 120:0.0 121:0.0 122:0.0 123:0.0 124:0.0 125:0.0 126:0.0 127:0.0 128:0.0 
0.0 0.0 0.0 0.0 0.0 0.0 0.0 0.0 0.0 0.0 0.0 0.0 0.0 0.0 0.03645565335579681 0.0 0.0 0.0 0.0 0.0 0.0 0.0 0.0 0.0 0.0 1:0.0 2:0.0 3:0.0 4:0.0 5:0.0 6:0.0 7:0.0 8:0.0 9:0.0 10:0.0 11:0.0 12:0.0 13:0.0 14:0.0 15:0.0 16:0.0 17:0.0 18:0.0 19:0.0 20:0.0 21:0.0 22:0.0 23:0.0 24:0.0 25:0.0 26:0.0 27:0.0 28:0.0 29:0.0 30:0.0 31:0.0 32:0.0 33:0.0 34:0.0 35:0.0 36:0.0 37:1.0 38:1.0 39:1.0 40:0.0 41:0.0 42:0.0 43:1.0 44:1.0 45:1.0 46:0.0 47:1.0 48:0.0 49:0.0 50:1.0 51:1.0 52:0.0 53:1.0 54:1.0 55:1.0 56:1.0 57:1.0 58:1.0 59:0.0 60:0.0 61:0.0 62:0.0 63:0.0 64:1.0 65:1.0 66:0.0 67:0.0 68:0.0 69:0.0 70:0.0 71:0.0 72:1.0 73:1.0 74:0.0 75:0.0 76:0.0 77:0.0 78:0.0 79:1.0 80:1.0 81:1.0 82:0.0 83:0.0 84:0.0 85:1.0 86:1.0 87:1.0 88:0.0 89:1.0 90:1.0 91:1.0 92:1.0 93:1.0 94:0.0 95:0.0 96:0.0 97:0.0 98:0.0 99:0.0 100:0.0 101:0.0 102:0.0 103:0.0 104:0.0 105:0.0 106:0.0 107:0.0 108:0.0 109:0.0 110:0.0 111:0.0 112:0.0 113:0.0 114:0.0 115:0.0 116:0.0 117:0.0 118:0.0 119:0.0 120:0.0 121:0.0 122:0.0 123:0.0 124:0.0 125:0.0 126:0.0 127:0.0 128:0.0 
0.0 0.1 0.0 0.0 0.06563490993947059 0.1 0.057151158644098685 0.09514487122316358 0.1 0.1 0.1 0.1 0.0 0.08708356551540446 0.0 0.0 0.0 0.055727618888028435 0.0 0.01849452256672061 0.025982972788205095 0.0 0.01127913139125286 0.0 0.05799063267295744 1:0.0 2:0.0 3:0.0 4:0.0 5:0.0 6:0.0 7:0.0 8:0.0 9:0.0 10:0.0 11:0.0 12:0.0 13:0.0 14:0.0 15:0.0 16:0.0 17:0.0 18:0.0 19:0.0 20:0.0 21:0.0 22:0.0 23:0.0 24:0.0 25:0.0 26:0.0 27:0.0 28:0.0 29:0.0 30:0.0 31:0.0 32:0.0 33:0.0 34:0.0 35:0.0 36:1.0 37:1.0 38:0.0 39:0.0 40:0.0 41:0.0 42:0.0 43:1.0 44:0.0 45:1.0 46:1.0 47:0.0 48:0.0 49:1.0 50:1.0 51:1.0 52:0.0 53:0.0 54:1.0 55:0.0 56:0.0 57:1.0 58:0.0 59:0.0 60:0.0 61:0.0 62:0.0 63:0.0 64:0.0 65:1.0 66:0.0 67:0.0 68:0.0 69:0.0 70:0.0 71:0.0 72:1.0 73:1.0 74:0.0 75:0.0 76:0.0 77:0.0 78:0.0 79:0.0 80:1.0 81:1.0 82:0.0 83:0.0 84:0.0 85:0.0 86:0.0 87:1.0 88:1.0 89:1.0 90:0.0 91:0.0 92:0.0 93:1.0 94:1.0 95:1.0 96:0.0 97:1.0 98:1.0 99:1.0 100:1.0 101:1.0 102:0.0 103:0.0 104:0.0 105:0.0 106:0.0 107:0.0 108:0.0 109:0.0 110:0.0 111:0.0 112:0.0 113:0.0 114:0.0 115:0.0 116:0.0 117:0.0 118:0.0 119:0.0 120:0.0 121:0.0 122:0.0 123:0.0 124:0.0 125:0.0 126:0.0 127:0.0 128:0.0 
0.0 0.003727460760221622 0.0 0.0 0.0 0.0 0.0 0.0 0.0 0.0 0.0 0.0 0.0 0.0 0.0 0.0 0.0 0.0 0.0 0.0 0.0 0.0 0.0 0.0 0.0 1:0.0 2:0.0 3:0.0 4:0.0 5:0.0 6:0.0 7:0.0 8:0.0 9:0.0 10:0.0 11:0.0 12:0.0 13:0.0 14:0.0 15:0.0 16:0.0 17:0.0 18:0.0 19:0.0 20:0.0 21:0.0 22:0.0 23:0.0 24:0.0 25:0.0 26:0.0 27:1.0 28:1.0 29:1.0 30:0.0 31:0.0 32:0.0 33:0.0 34:1.0 35:1.0 36:0.0 37:1.0 38:1.0 39:1.0 40:0.0 41:0.0 42:0.0 43:0.0 44:0.0 45:0.0 46:0.0 47:1.0 48:1.0 49:1.0 50:1.0 51:0.0 52:0.0 53:0.0 54:0.0 55:0.0 56:1.0 57:0.0 58:1.0 59:0.0 60:0.0 61:0.0 62:0.0 63:0.0 64:1.0 65:1.0 66:1.0 67:0.0 68:0.0 69:0.0 70:0.0 71:0.0 72:1.0 73:1.0 74:0.0 75:0.0 76:0.0 77:0.0 78:0.0 79:1.0 80:1.0 81:1.0 82:0.0 83:0.0 84:0.0 85:0.0 86:1.0 87:1.0 88:0.0 89:1.0 90:0.0 91:0.0 92:1.0 93:1.0 94:1.0 95:0.0 96:0.0 97:1.0 98:1.0 99:1.0 100:1.0 101:0.0 102:0.0 103:0.0 104:0.0 105:0.0 106:0.0 107:0.0 108:0.0 109:0.0 110:0.0 111:0.0 112:0.0 113:0.0 114:0.0 115:0.0 116:0.0 117:0.0 118:0.0 119:0.0 120:0.0 121:0.0 122:0.0 123:0.0 124:0.0 125:0.0 126:0.0 127:0.0 128:0.0 
0.1 0.1 0.1 0.0 0.0 0.0 0.0 0.0 0.0 0.018901397956652598 0.0 0.0 0.0 0.0 0.0 0.0 0.0 0.0 0.0 0.0 0.0 0.0 0.0 0.00533180330427428 0.0 1:0.0 2:0.0 3:0.0 4:0.0 5:0.0 6:0.0 7:0.0 8:0.0 9:0.0 10:0.0 11:0.0 12:0.0 13:0.0 14:0.0 15:0.0 16:0.0 17:0.0 18:0.0 19:0.0 20:0.0 21:0.0 22:0.0 23:0.0 24:0.0 25:0.0 26:0.0 27:0.0 28:0.0 29:0.0 30:0.0 31:0.0 32:0.0 33:0.0 34:0.0 35:0.0 36:0.0 37:0.0 38:0.0 39:0.0 40:0.0 41:0.0 42:0.0 43:1.0 44:1.0 45:1.0 46:1.0 47:1.0 48:1.0 49:0.0 50:0.0 51:1.0 52:1.0 53:0.0 54:1.0 55:0.0 56:1.0 57:1.0 58:1.0 59:1.0 60:0.0 61:0.0 62:1.0 63:0.0 64:1.0 65:1.0 66:0.0 67:0.0 68:0.0 69:0.0 70:0.0 71:1.0 72:1.0 73:1.0 74:0.0 75:0.0 76:1.0 77:1.0 78:1.0 79:1.0 80:0.0 81:1.0 82:1.0 83:1.0 84:1.0 85:0.0 86:0.0 87:0.0 88:0.0 89:0.0 90:0.0 91:0.0 92:0.0 93:0.0 94:0.0 95:0.0 96:0.0 97:0.0 98:0.0 99:0.0 100:0.0 101:0.0 102:0.0 103:0.0 104:0.0 105:0.0 106:0.0 107:0.0 108:0.0 109:0.0 110:0.0 111:0.0 112:0.0 113:0.0 114:0.0 115:0.0 116:0.0 117:0.0 118:0.0 119:0.0 120:0.0 121:0.0 122:0.0 123:0.0 124:0.0 125:0.0 126:0.0 127:0.0 128:0.0 
0.0 0.0 0.0 0.09216723825238708 0.0 0.1 0.0 0.0 0.0 0.0 0.0 0.0 0.0 0.0 0.0 0.0 0.0 0.0 0.0 0.0 0.0 0.0 0.0 0.0 0.0 1:0.0 2:0.0 3:0.0 4:0.0 5:0.0 6:0.0 7:0.0 8:0.0 9:0.0 10:0.0 11:0.0 12:0.0 13:0.0 14:0.0 15:0.0 16:0.0 17:0.0 18:0.0 19:0.0 20:0.0 21:0.0 22:0.0 23:0.0 24:0.0 25:0.0 26:0.0 27:0.0 28:1.0 29:1.0 30:0.0 31:0.0 32:0.0 33:0.0 34:0.0 35:1.0 36:1.0 37:1.0 38:1.0 39:0.0 40:0.0 41:0.0 42:0.0 43:1.0 44:1.0 45:0.0 46:1.0 47:1.0 48:0.0 49:0.0 50:1.0 51:1.0 52:0.0 53:0.0 54:0.0 55:1.0 56:1.0 57:0.0 58:1.0 59:0.0 60:0.0 61:0.0 62:0.0 63:0.0 64:1.0 65:1.0 66:0.0 67:0.0 68:0.0 69:0.0 70:0.0 71:0.0 72:1.0 73:1.0 74:0.0 75:0.0 76:0.0 77:0.0 78:0.0 79:0.0 80:1.0 81:1.0 82:0.0 83:0.0 84:0.0 85:0.0 86:0.0 87:1.0 88:1.0 89:1.0 90:0.0 91:0.0 92:0.0 93:1.0 94:1.0 95:1.0 96:0.0 97:1.0 98:1.0 99:1.0 100:1.0 101:1.0 102:0.0 103:0.0 104:0.0 105:0.0 106:0.0 107:0.0 108:0.0 109:0.0 110:0.0 111:0.0 112:0.0 113:0.0 114:0.0 115:0.0 116:0.0 117:0.0 118:0.0 119:0.0 120:0.0 121:0.0 122:0.0 123:0.0 124:0.0 125:0.0 126:0.0 127:0.0 128:0.0 
0.0 0.0 0.05711175345715432 0.036770740226038136 0.0 0.0 0.0 0.0 0.0 0.0 0.0 0.04053014523307534 0.0 0.0 0.0 0.0 0.0 0.0 0.0 0.0 0.0 0.0 0.0 0.0 0.0 1:0.0 2:0.0 3:0.0 4:1.0 5:1.0 6:1.0 7:0.0 8:0.0 9:0.0 10:0.0 11:0.0 12:1.0 13:0.0 14:1.0 15:1.0 16:1.0 17:0.0 18:0.0 19:1.0 20:1.0 21:0.0 22:0.0 23:0.0 24:1.0 25:0.0 26:0.0 27:1.0 28:0.0 29:0.0 30:0.0 31:0.0 32:1.0 33:0.0 34:1.0 35:1.0 36:0.0 37:0.0 38:0.0 39:0.0 40:1.0 41:0.0 42:1.0 43:0.0 44:0.0 45:0.0 46:0.0 47:0.0 48:1.0 49:0.0 50:1.0 51:0.0 52:0.0 53:0.0 54:0.0 55:0.0 56:1.0 57:0.0 58:1.0 59:0.0 60:0.0 61:0.0 62:0.0 63:0.0 64:1.0 65:0.0 66:1.0 67:0.0 68:0.0 69:0.0 70:0.0 71:0.0 72:1.0 73:1.0 74:1.0 75:0.0 76:0.0 77:0.0 78:0.0 79:0.0 80:1.0 81:1.0 82:0.0 83:0.0 84:0.0 85:0.0 86:0.0 87:0.0 88:1.0 89:1.0 90:0.0 91:0.0 92:0.0 93:0.0 94:0.0 95:1.0 96:0.0 97:1.0 98:0.0 99:0.0 100:0.0 101:0.0 102:0.0 103:1.0 104:0.0 105:1.0 106:1.0 107:0.0 108:0.0 109:0.0 110:0.0 111:1.0 112:0.0 113:1.0 114:1.0 115:0.0 116:0.0 117:0.0 118:1.0 119:1.0 120:0.0 121:0.0 122:1.0 123:1.0 124:1.0 125:1.0 126:1.0 127:0.0 128:0.0 
0.0 0.0 0.0 0.0 0.0 0.0 0.0 0.0 0.0 0.0 0.0 0.0 0.016729167191919424 0.0 0.0 0.0 0.0 0.0 0.021392554045944787 0.0 0.0 0.0035753854728699424 0.0 0.0 0.0 1:0.0 2:0.0 3:0.0 4:0.0 5:0.0 6:0.0 7:0.0 8:0.0 9:0.0 10:0.0 11:0.0 12:0.0 13:1.0 14:0.0 15:0.0 16:0.0 17:0.0 18:0.0 19:1.0 20:1.0 21:1.0 22:1.0 23:1.0 24:0.0 25:0.0 26:1.0 27:0.0 28:1.0 29:1.0 30:0.0 31:1.0 32:0.0 33:0.0 34:1.0 35:1.0 36:1.0 37:1.0 38:1.0 39:1.0 40:1.0 41:1.0 42:1.0 43:0.0 44:0.0 45:0.0 46:0.0 47:0.0 48:1.0 49:1.0 50:0.0 51:0.0 52:0.0 53:0.0 54:0.0 55:0.0 56:1.0 57:1.0 58:0.0 59:0.0 60:0.0 61:0.0 62:0.0 63:0.0 64:1.0 65:1.0 66:0.0 67:0.0 68:0.0 69:0.0 70:0.0 71:0.0 72:1.0 73:1.0 74:0.0 75:0.0 76:0.0 77:0.0 78:0.0 79:0.0 80:1.0 81:0.0 82:1.0 83:0.0 84:0.0 85:0.0 86:0.0 87:0.0 88:1.0 89:0.0 90:1.0 91:0.0 92:0.0 93:0.0 94:0.0 95:0.0 96:1.0 97:0.0 98:1.0 99:1.0 100:0.0 101:0.0 102:0.0 103:1.0 104:0.0 105:0.0 106:0.0 107:1.0 108:1.0 109:1.0 110:1.0 111:0.0 112:0.0 113:0.0 114:0.0 115:0.0 116:1.0 117:1.0 118:0.0 119:0.0 120:0.0 121:0.0 122:0.0 123:0.0 124:0.0 125:0.0 126:0.0 127:0.0 128:0.0 
0.0 0.0 0.07355702698831887 0.0 0.0 0.0 0.0 0.0 0.0 0.0 0.0 0.0 0.0 0.0 0.0 0.0 0.1 0.0 0.0 0.008625095958061555 0.0 0.0 0.0 0.03313768101335108 0.0 1:0.0 2:0.0 3:0.0 4:0.0 5:0.0 6:0.0 7:0.0 8:0.0 9:0.0 10:0.0 11:0.0 12:0.0 13:0.0 14:0.0 15:0.0 16:0.0 17:0.0 18:0.0 19:0.0 20:0.0 21:0.0 22:0.0 23:0.0 24:0.0 25:0.0 26:1.0 27:1.0 28:1.0 29:1.0 30:1.0 31:0.0 32:0.0 33:1.0 34:0.0 35:0.0 36:0.0 37:0.0 38:1.0 39:1.0 40:0.0 41:1.0 42:0.0 43:0.0 44:0.0 45:0.0 46:0.0 47:1.0 48:1.0 49:1.0 50:0.0 51:0.0 52:0.0 53:0.0 54:0.0 55:0.0 56:1.0 57:1.0 58:0.0 59:0.0 60:0.0 61:0.0 62:0.0 63:0.0 64:1.0 65:1.0 66:1.0 67:0.0 68:0.0 69:0.0 70:0.0 71:0.0 72:1.0 73:1.0 74:1.0 75:0.0 76:0.0 77:0.0 78:0.0 79:0.0 80:1.0 81:1.0 82:0.0 83:0.0 84:0.0 85:0.0 86:0.0 87:1.0 88:1.0 89:1.0 90:1.0 91:0.0 92:0.0 93:0.0 94:1.0 95:1.0 96:0.0 97:0.0 98:1.0 99:1.0 100:1.0 101:1.0 102:1.0 103:0.0 104:0.0 105:0.0 106:0.0 107:0.0 108:0.0 109:0.0 110:0.0 111:0.0 112:0.0 113:0.0 114:0.0 115:0.0 116:0.0 117:0.0 118:0.0 119:0.0 120:0.0 121:0.0 122:0.0 123:0.0 124:0.0 125:0.0 126:0.0 127:0.0 128:0.0 
0.0 0.0 0.0 0.014149759975203131 0.0 0.0 0.0 0.0 0.0 0.0 0.0 0.0 0.0 0.0 0.03611550048752708 0.0 0.0 0.0 0.0 0.0 0.0 0.0 0.014059559980339243 0.0 0.0 1:0.0 2:0.0 3:0.0 4:0.0 5:0.0 6:0.0 7:0.0 8:0.0 9:0.0 10:0.0 11:0.0 12:0.0 13:0.0 14:1.0 15:1.0 16:0.0 17:0.0 18:0.0 19:0.0 20:0.0 21:0.0 22:1.0 23:1.0 24:1.0 25:0.0 26:0.0 27:0.0 28:0.0 29:1.0 30:1.0 31:1.0 32:1.0 33:0.0 34:0.0 35:0.0 36:0.0 37:1.0 38:0.0 39:1.0 40:1.0 41:0.0 42:0.0 43:0.0 44:1.0 45:1.0 46:0.0 47:0.0 48:1.0 49:0.0 50:0.0 51:1.0 52:1.0 53:0.0 54:0.0 55:0.0 56:1.0 57:0.0 58:0.0 59:1.0 60:0.0 61:0.0 62:0.0 63:0.0 64:1.0 65:0.0 66:1.0 67:1.0 68:0.0 69:0.0 70:0.0 71:0.0 72:1.0 73:0.0 74:1.0 75:0.0 76:0.0 77:0.0 78:0.0 79:0.0 80:1.0 81:1.0 82:1.0 83:0.0 84:0.0 85:0.0 86:0.0 87:1.0 88:1.0 89:1.0 90:0.0 91:0.0 92:0.0 93:0.0 94:1.0 95:1.0 96:0.0 97:1.0 98:0.0 99:0.0 100:0.0 101:1.0 102:1.0 103:0.0 104:0.0 105:1.0 106:0.0 107:0.0 108:1.0 109:1.0 110:0.0 111:0.0 112:0.0 113:1.0 114:1.0 115:1.0 116:1.0 117:0.0 118:0.0 119:0.0 120:0.0 121:0.0 122:0.0 123:0.0 124:0.0 125:0.0 126:0.0 127:0.0 128:0.0 
0.0 0.0 0.0 0.0 0.0 0.0 0.0 0.0 0.0 0.034778342289101434 0.0 0.0 0.0 0.0 0.0 0.0 0.0 0.0 0.0 0.0 0.0 0.0 0.0 0.0 0.0 1:0.0 2:0.0 3:0.0 4:0.0 5:0.0 6:0.0 7:0.0 8:0.0 9:0.0 10:0.0 11:0.0 12:0.0 13:0.0 14:0.0 15:0.0 16:0.0 17:0.0 18:0.0 19:0.0 20:0.0 21:0.0 22:0.0 23:0.0 24:0.0 25:0.0 26:0.0 27:0.0 28:0.0 29:0.0 30:0.0 31:0.0 32:0.0 33:0.0 34:0.0 35:1.0 36:1.0 37:1.0 38:1.0 39:1.0 40:1.0 41:0.0 42:1.0 43:1.0 44:0.0 45:0.0 46:1.0 47:0.0 48:1.0 49:0.0 50:1.0 51:0.0 52:0.0 53:0.0 54:0.0 55:0.0 56:1.0 57:1.0 58:1.0 59:0.0 60:0.0 61:0.0 62:0.0 63:0.0 64:1.0 65:1.0 66:0.0 67:0.0 68:0.0 69:0.0 70:0.0 71:0.0 72:1.0 73:1.0 74:0.0 75:0.0 76:0.0 77:0.0 78:1.0 79:1.0 80:1.0 81:1.0 82:0.0 83:0.0 84:1.0 85:1.0 86:1.0 87:0.0 88:0.0 89:1.0 90:1.0 91:1.0 92:1.0 93:0.0 94:0.0 95:0.0 96:0.0 97:0.0 98:0.0 99:0.0 100:0.0 101:0.0 102:0.0 103:0.0 104:0.0 105:0.0 106:0.0 107:0.0 108:0.0 109:0.0 110:0.0 111:0.0 112:0.0 113:0.0 114:0.0 115:0.0 116:0.0 117:0.0 118:0.0 119:0.0 120:0.0 121:0.0 122:0.0 123:0.0 124:0.0 125:0.0 126:0.0 127:0.0 128:0.0 
0.0 0.1 0.0 0.011363238256795593 0.0 0.1 0.099137048927419 0.03475177952734908 0.1 0.1 0.1 0.03259159162407853 0.0 0.0 0.0 0.04465893007268716 0.1 0.09978293449515968 0.0 0.0900763029227945 0.011908280449923293 0.05715938375895288 0.07301702226010554 0.020602102173175818 0.0020983009107984263 1:0.0 2:0.0 3:0.0 4:0.0 5:0.0 6:0.0 7:0.0 8:0.0 9:0.0 10:0.0 11:0.0 12:0.0 13:0.0 14:0.0 15:0.0 16:0.0 17:0.0 18:0.0 19:0.0 20:0.0 21:0.0 22:0.0 23:0.0 24:0.0 25:0.0 26:0.0 27:0.0 28:0.0 29:0.0 30:0.0 31:0.0 32:0.0 33:0.0 34:1.0 35:1.0 36:1.0 37:1.0 38:0.0 39:0.0 40:0.0 41:1.0 42:1.0 43:0.0 44:0.0 45:1.0 46:0.0 47:0.0 48:0.0 49:1.0 50:0.0 51:0.0 52:0.0 53:1.0 54:1.0 55:0.0 56:0.0 57:1.0 58:0.0 59:0.0 60:0.0 61:0.0 62:1.0 63:0.0 64:0.0 65:1.0 66:0.0 67:0.0 68:0.0 69:0.0 70:1.0 71:1.0 72:0.0 73:1.0 74:0.0 75:0.0 76:0.0 77:0.0 78:0.0 79:1.0 80:0.0 81:1.0 82:0.0 83:0.0 84:0.0 85:1.0 86:1.0 87:1.0 88:1.0 89:1.0 90:1.0 91:1.0 92:1.0 93:1.0 94:1.0 95:1.0 96:0.0 97:0.0 98:0.0 99:0.0 100:0.0 101:0.0 102:0.0 103:0.0 104:0.0 105:0.0 106:0.0 107:0.0 108:0.0 109:0.0 110:0.0 111:0.0 112:0.0 113:0.0 114:0.0 115:0.0 116:0.0 117:0.0 118:0.0 119:0.0 120:0.0 121:0.0 122:0.0 123:0.0 124:0.0 125:0.0 126:0.0 127:0.0 128:0.0 
0.0 0.0 0.0 0.0 0.0 0.0 0.0 0.0 0.0 0.0 0.0 0.0 0.0 0.0 0.0 0.0 0.0 0.0 0.007775268249425647 0.0 0.0 0.0 0.0 0.0 0.0 1:0.0 2:1.0 3:1.0 4:1.0 5:0.0 6:0.0 7:0.0 8:0.0 9:0.0 10:1.0 11:0.0 12:0.0 13:1.0 14:1.0 15:0.0 16:0.0 17:1.0 18:1.0 19:0.0 20:0.0 21:0.0 22:1.0 23:1.0 24:0.0 25:1.0 26:1.0 27:0.0 28:0.0 29:0.0 30:0.0 31:1.0 32:0.0 33:1.0 34:1.0 35:0.0 36:0.0 37:0.0 38:0.0 39:1.0 40:1.0 41:1.0 42:0.0 43:0.0 44:0.0 45:0.0 46:0.0 47:0.0 48:1.0 49:1.0 50:0.0 51:0.0 52:0.0 53:0.0 54:0.0 55:0.0 56:1.0 57:1.0 58:0.0 59:0.0 60:0.0 61:0.0 62:0.0 63:0.0 64:1.0 65:1.0 66:0.0 67:0.0 68:0.0 69:0.0 70:0.0 71:0.0 72:1.0 73:1.0 74:0.0 75:0.0 76:0.0 77:0.0 78:0.0 79:0.0 80:1.0 81:1.0 82:0.0 83:0.0 84:0.0 85:0.0 86:0.0 87:1.0 88:1.0 89:1.0 90:0.0 91:0.0 92:0.0 93:0.0 94:0.0 95:1.0 96:0.0 97:1.0 98:0.0 99:0.0 100:0.0 101:0.0 102:0.0 103:1.0 104:0.0 105:1.0 106:1.0 107:0.0 108:0.0 109:0.0 110:1.0 111:0.0 112:0.0 113:0.0 114:1.0 115:1.0 116:1.0 117:1.0 118:0.0 119:0.0 120:0.0 121:0.0 122:0.0 123:0.0 124:1.0 125:0.0 126:0.0 127:0.0 128:0.0 
0.0 0.0 0.0 0.0 0.0 0.0 0.0 0.06064366736819628 0.0 0.0 0.0 0.007227287849734113 0.0 0.0 0.0 0.0 0.0 0.0 0.0 0.0 0.0 0.0 0.0 0.0 0.0 1:0.0 2:0.0 3:0.0 4:0.0 5:0.0 6:0.0 7:0.0 8:0.0 9:0.0 10:0.0 11:0.0 12:0.0 13:0.0 14:0.0 15:0.0 16:0.0 17:0.0 18:1.0 19:1.0 20:1.0 21:1.0 22:0.0 23:0.0 24:0.0 25:0.0 26:1.0 27:1.0 28:0.0 29:1.0 30:1.0 31:0.0 32:0.0 33:0.0 34:1.0 35:0.0 36:0.0 37:0.0 38:1.0 39:1.0 40:0.0 41:0.0 42:1.0 43:0.0 44:0.0 45:0.0 46:0.0 47:0.0 48:1.0 49:0.0 50:1.0 51:0.0 52:0.0 53:0.0 54:0.0 55:0.0 56:1.0 57:1.0 58:1.0 59:0.0 60:0.0 61:0.0 62:0.0 63:0.0 64:1.0 65:1.0 66:0.0 67:0.0 68:0.0 69:0.0 70:0.0 71:0.0 72:1.0 73:1.0 74:0.0 75:0.0 76:0.0 77:0.0 78:0.0 79:0.0 80:1.0 81:1.0 82:0.0 83:0.0 84:0.0 85:0.0 86:0.0 87:0.0 88:1.0 89:1.0 90:0.0 91:0.0 92:0.0 93:0.0 94:0.0 95:0.0 96:1.0 97:1.0 98:0.0 99:0.0 100:0.0 101:0.0 102:1.0 103:1.0 104:0.0 105:1.0 106:1.0 107:1.0 108:1.0 109:1.0 110:1.0 111:0.0 112:0.0 113:0.0 114:0.0 115:0.0 116:0.0 117:0.0 118:0.0 119:0.0 120:0.0 121:0.0 122:0.0 123:0.0 124:0.0 125:0.0 126:0.0 127:0.0 128:0.0 
0.0 0.1 0.0 0.0 0.0 0.0 0.0 0.0 0.022421306032356158 0.016335897367181607 0.0 0.0 0.0 0.0 0.0 0.014567448815843723 0.09396587303788542 0.0 0.0 0.0 0.0 0.0 0.0 0.0 0.0 1:0.0 2:0.0 3:0.0 4:0.0 5:0.0 6:0.0 7:0.0 8:0.0 9:0.0 10:0.0 11:1.0 12:1.0 13:1.0 14:1.0 15:1.0 16:0.0 17:0.0 18:1.0 19:1.0 20:0.0 21:0.0 22:1.0 23:1.0 24:1.0 25:0.0 26:1.0 27:0.0 28:0.0 29:0.0 30:0.0 31:0.0 32:1.0 33:1.0 34:1.0 35:0.0 36:0.0 37:0.0 38:0.0 39:0.0 40:1.0 41:1.0 42:0.0 43:0.0 44:0.0 45:0.0 46:0.0 47:0.0 48:1.0 49:1.0 50:0.0 51:0.0 52:0.0 53:0.0 54:0.0 55:0.0 56:1.0 57:1.0 58:0.0 59:0.0 60:0.0 61:0.0 62:0.0 63:1.0 64:1.0 65:1.0 66:0.0 67:0.0 68:0.0 69:0.0 70:0.0 71:1.0 72:0.0 73:1.0 74:0.0 75:0.0 76:0.0 77:0.0 78:0.0 79:1.0 80:0.0 81:1.0 82:0.0 83:0.0 84:0.0 85:0.0 86:1.0 87:1.0 88:0.0 89:1.0 90:0.0 91:0.0 92:0.0 93:0.0 94:1.0 95:0.0 96:0.0 97:1.0 98:0.0 99:0.0 100:0.0 101:1.0 102:1.0 103:0.0 104:0.0 105:1.0 106:1.0 107:0.0 108:1.0 109:1.0 110:0.0 111:0.0 112:0.0 113:0.0 114:1.0 115:1.0 116:1.0 117:0.0 118:0.0 119:0.0 120:0.0 121:0.0 122:0.0 123:0.0 124:0.0 125:0.0 126:0.0 127:0.0 128:0.0 
0.0 0.06185323987408 0.0 0.017398195620490935 0.06721004835745964 0.03037742562682575 0.0 0.1 0.1 0.1 0.0 0.07916141781029193 0.06243904464061328 0.049919590277252325 0.03645188030395899 0.020177610937814453 0.1 0.0 0.1 0.09119848859479655 0.018812688257325152 0.020303151432661346 0.0 0.0 0.06307502115376876 1:0.0 2:1.0 3:1.0 4:1.0 5:1.0 6:0.0 7:0.0 8:0.0 9:0.0 10:1.0 11:0.0 12:0.0 13:1.0 14:0.0 15:0.0 16:0.0 17:1.0 18:1.0 19:0.0 20:0.0 21:1.0 22:1.0 23:0.0 24:0.0 25:1.0 26:0.0 27:0.0 28:0.0 29:0.0 30:1.0 31:0.0 32:0.0 33:1.0 34:0.0 35:0.0 36:0.0 37:0.0 38:1.0 39:0.0 40:0.0 41:1.0 42:0.0 43:0.0 44:0.0 45:0.0 46:1.0 47:0.0 48:0.0 49:1.0 50:0.0 51:0.0 52:0.0 53:0.0 54:1.0 55:0.0 56:0.0 57:1.0 58:0.0 59:0.0 60:0.0 61:0.0 62:1.0 63:0.0 64:0.0 65:1.0 66:0.0 67:0.0 68:0.0 69:0.0 70:1.0 71:0.0 72:0.0 73:1.0 74:0.0 75:0.0 76:0.0 77:0.0 78:1.0 79:0.0 80:0.0 81:1.0 82:1.0 83:0.0 84:0.0 85:0.0 86:0.0 87:0.0 88:0.0 89:0.0 90:1.0 91:0.0 92:0.0 93:0.0 94:0.0 95:0.0 96:0.0 97:0.0 98:1.0 99:1.0 100:0.0 101:0.0 102:0.0 103:0.0 104:1.0 105:0.0 106:0.0 107:1.0 108:0.0 109:0.0 110:0.0 111:0.0 112:1.0 113:0.0 114:0.0 115:1.0 116:1.0 117:0.0 118:0.0 119:0.0 120:1.0 121:0.0 122:0.0 123:0.0 124:1.0 125:1.0 126:1.0 127:1.0 128:1.0 
0.1 0.1 0.1 0.0 0.021208450732950957 0.1 0.052051995107786915 0.1 0.0 0.1 0.0 0.0 0.08943344951307466 0.07463830850232926 0.07361147356872279 0.0 0.027295112952043173 0.1 0.1 0.0 0.0 0.0695609333192327 0.1 0.0763552832772389 0.04747987900260571 1:0.0 2:0.0 3:0.0 4:0.0 5:0.0 6:0.0 7:0.0 8:0.0 9:0.0 10:0.0 11:0.0 12:0.0 13:0.0 14:0.0 15:0.0 16:0.0 17:0.0 18:0.0 19:0.0 20:0.0 21:0.0 22:0.0 23:0.0 24:0.0 25:0.0 26:0.0 27:0.0 28:0.0 29:0.0 30:0.0 31:0.0 32:0.0 33:0.0 34:0.0 35:0.0 36:0.0 37:1.0 38:1.0 39:1.0 40:1.0 41:0.0 42:0.0 43:0.0 44:1.0 45:1.0 46:0.0 47:0.0 48:1.0 49:0.0 50:0.0 51:1.0 52:1.0 53:1.0 54:0.0 55:0.0 56:1.0 57:0.0 58:0.0 59:1.0 60:1.0 61:0.0 62:0.0 63:1.0 64:1.0 65:0.0 66:1.0 67:1.0 68:1.0 69:0.0 70:1.0 71:1.0 72:0.0 73:1.0 74:1.0 75:0.0 76:1.0 77:1.0 78:0.0 79:0.0 80:0.0 81:1.0 82:0.0 83:1.0 84:1.0 85:1.0 86:0.0 87:0.0 88:0.0 89:1.0 90:1.0 91:1.0 92:0.0 93:0.0 94:0.0 95:0.0 96:0.0 97:0.0 98:0.0 99:0.0 100:0.0 101:0.0 102:0.0 103:0.0 104:0.0 105:0.0 106:0.0 107:0.0 108:0.0 109:0.0 110:0.0 111:0.0 112:0.0 113:0.0 114:0.0 115:0.0 116:0.0 117:0.0 118:0.0 119:0.0 120:0.0 121:0.0 122:0.0 123:0.0 124:0.0 125:0.0 126:0.0 127:0.0 128:0.0 
0.0 0.07623902772430771 0.0 0.0 0.0 0.0 0.0 0.0 0.0 0.0 0.07405519418020043 0.0 0.0 0.0 0.0 0.0 0.0 0.0 0.0 0.0 0.0 0.0 0.0 0.0 0.0 1:0.0 2:0.0 3:0.0 4:0.0 5:0.0 6:0.0 7:0.0 8:0.0 9:0.0 10:0.0 11:0.0 12:0.0 13:0.0 14:0.0 15:0.0 16:0.0 17:0.0 18:0.0 19:0.0 20:0.0 21:0.0 22:0.0 23:0.0 24:0.0 25:0.0 26:0.0 27:0.0 28:0.0 29:0.0 30:0.0 31:0.0 32:0.0 33:0.0 34:0.0 35:1.0 36:0.0 37:0.0 38:0.0 39:0.0 40:0.0 41:0.0 42:1.0 43:1.0 44:0.0 45:0.0 46:0.0 47:0.0 48:0.0 49:1.0 50:1.0 51:1.0 52:1.0 53:1.0 54:1.0 55:0.0 56:0.0 57:1.0 58:0.0 59:0.0 60:0.0 61:0.0 62:1.0 63:1.0 64:1.0 65:1.0 66:0.0 67:0.0 68:0.0 69:0.0 70:0.0 71:0.0 72:1.0 73:1.0 74:0.0 75:0.0 76:0.0 77:0.0 78:0.0 79:1.0 80:1.0 81:1.0 82:0.0 83:1.0 84:1.0 85:1.0 86:1.0 87:1.0 88:0.0 89:1.0 90:1.0 91:1.0 92:0.0 93:0.0 94:0.0 95:0.0 96:0.0 97:0.0 98:0.0 99:0.0 100:0.0 101:0.0 102:0.0 103:0.0 104:0.0 105:0.0 106:0.0 107:0.0 108:0.0 109:0.0 110:0.0 111:0.0 112:0.0 113:0.0 114:0.0 115:0.0 116:0.0 117:0.0 118:0.0 119:0.0 120:0.0 121:0.0 122:0.0 123:0.0 124:0.0 125:0.0 126:0.0 127:0.0 128:0.0 
0.0 0.0 0.0 0.0 0.0 0.0 0.00724952077893726 0.0 0.0 0.0 0.0 0.0 0.0 0.0 0.09546429556825124 0.0 0.0 0.0 0.010307919371454729 0.0 0.0 0.0 0.0 0.0 0.007526799413138012 1:0.0 2:1.0 3:1.0 4:0.0 5:0.0 6:0.0 7:0.0 8:0.0 9:0.0 10:1.0 11:1.0 12:1.0 13:1.0 14:1.0 15:0.0 16:0.0 17:0.0 18:1.0 19:1.0 20:0.0 21:0.0 22:0.0 23:1.0 24:0.0 25:1.0 26:1.0 27:0.0 28:0.0 29:0.0 30:0.0 31:1.0 32:0.0 33:1.0 34:0.0 35:0.0 36:0.0 37:0.0 38:0.0 39:1.0 40:0.0 41:1.0 42:0.0 43:0.0 44:0.0 45:0.0 46:0.0 47:1.0 48:1.0 49:1.0 50:0.0 51:0.0 52:0.0 53:0.0 54:0.0 55:0.0 56:1.0 57:1.0 58:0.0 59:0.0 60:0.0 61:0.0 62:0.0 63:0.0 64:1.0 65:1.0 66:0.0 67:0.0 68:0.0 69:0.0 70:0.0 71:0.0 72:1.0 73:1.0 74:0.0 75:0.0 76:0.0 77:0.0 78:0.0 79:0.0 80:1.0 81:1.0 82:0.0 83:0.0 84:0.0 85:0.0 86:0.0 87:0.0 88:1.0 89:1.0 90:0.0 91:0.0 92:0.0 93:0.0 94:0.0 95:1.0 96:0.0 97:1.0 98:0.0 99:0.0 100:0.0 101:0.0 102:0.0 103:1.0 104:0.0 105:1.0 106:0.0 107:0.0 108:0.0 109:0.0 110:1.0 111:0.0 112:0.0 113:1.0 114:0.0 115:0.0 116:0.0 117:1.0 118:1.0 119:0.0 120:0.0 121:1.0 122:1.0 123:1.0 124:1.0 125:1.0 126:0.0 127:0.0 128:0.0 
0.0 0.0 0.0 0.0 0.0 0.0 0.0 0.0 0.1 8.931751184446063E-4 0.0 0.0 0.0 0.0 0.0 0.0 0.0 0.0 0.0 0.0 0.0 0.0 0.0 0.0 0.0 1:0.0 2:0.0 3:0.0 4:0.0 5:0.0 6:0.0 7:0.0 8:0.0 9:0.0 10:0.0 11:0.0 12:0.0 13:0.0 14:0.0 15:0.0 16:0.0 17:0.0 18:0.0 19:0.0 20:0.0 21:0.0 22:1.0 23:1.0 24:1.0 25:0.0 26:0.0 27:0.0 28:0.0 29:0.0 30:1.0 31:0.0 32:1.0 33:0.0 34:0.0 35:0.0 36:1.0 37:1.0 38:1.0 39:0.0 40:1.0 41:0.0 42:0.0 43:1.0 44:1.0 45:0.0 46:0.0 47:0.0 48:1.0 49:0.0 50:1.0 51:1.0 52:0.0 53:0.0 54:0.0 55:0.0 56:1.0 57:0.0 58:1.0 59:0.0 60:0.0 61:0.0 62:0.0 63:0.0 64:1.0 65:1.0 66:1.0 67:0.0 68:0.0 69:0.0 70:0.0 71:0.0 72:1.0 73:1.0 74:0.0 75:0.0 76:0.0 77:0.0 78:0.0 79:1.0 80:0.0 81:1.0 82:0.0 83:0.0 84:0.0 85:0.0 86:1.0 87:1.0 88:0.0 89:1.0 90:0.0 91:0.0 92:0.0 93:1.0 94:1.0 95:0.0 96:0.0 97:1.0 98:0.0 99:0.0 100:0.0 101:1.0 102:0.0 103:0.0 104:0.0 105:1.0 106:1.0 107:1.0 108:1.0 109:1.0 110:0.0 111:0.0 112:0.0 113:0.0 114:0.0 115:0.0 116:0.0 117:0.0 118:0.0 119:0.0 120:0.0 121:0.0 122:0.0 123:0.0 124:0.0 125:0.0 126:0.0 127:0.0 128:0.0 
0.0 0.0 0.0 0.0 0.0 0.0 0.0 0.0 0.012649686242297894 0.0 0.0 0.0 0.0 0.0 0.0 0.0 0.02890661649634678 0.0 0.0 5.139269717287366E-4 0.0 0.0 0.0 0.0 0.0 1:0.0 2:0.0 3:0.0 4:0.0 5:0.0 6:0.0 7:0.0 8:0.0 9:0.0 10:0.0 11:0.0 12:0.0 13:0.0 14:0.0 15:0.0 16:0.0 17:1.0 18:1.0 19:1.0 20:1.0 21:1.0 22:0.0 23:0.0 24:0.0 25:1.0 26:0.0 27:0.0 28:0.0 29:1.0 30:1.0 31:0.0 32:0.0 33:1.0 34:0.0 35:0.0 36:0.0 37:0.0 38:1.0 39:1.0 40:0.0 41:1.0 42:0.0 43:0.0 44:0.0 45:0.0 46:0.0 47:1.0 48:1.0 49:1.0 50:0.0 51:0.0 52:0.0 53:0.0 54:0.0 55:0.0 56:1.0 57:1.0 58:0.0 59:0.0 60:0.0 61:0.0 62:0.0 63:0.0 64:1.0 65:1.0 66:0.0 67:0.0 68:0.0 69:0.0 70:0.0 71:0.0 72:1.0 73:1.0 74:0.0 75:0.0 76:0.0 77:0.0 78:0.0 79:0.0 80:1.0 81:1.0 82:0.0 83:0.0 84:0.0 85:0.0 86:0.0 87:0.0 88:1.0 89:1.0 90:0.0 91:0.0 92:0.0 93:0.0 94:0.0 95:1.0 96:1.0 97:1.0 98:1.0 99:0.0 100:0.0 101:0.0 102:1.0 103:1.0 104:0.0 105:0.0 106:0.0 107:1.0 108:1.0 109:1.0 110:1.0 111:0.0 112:0.0 113:0.0 114:0.0 115:0.0 116:0.0 117:0.0 118:0.0 119:0.0 120:0.0 121:0.0 122:0.0 123:0.0 124:0.0 125:0.0 126:0.0 127:0.0 128:0.0 
0.0 0.0 0.0 0.0 0.0 0.0 0.0 0.0 0.0 0.0 0.0 0.0 0.0 0.0 0.0 0.0 0.0 0.0 0.1 0.0 0.0 0.0 0.0 0.0 0.0 1:0.0 2:0.0 3:0.0 4:0.0 5:0.0 6:0.0 7:0.0 8:0.0 9:0.0 10:0.0 11:0.0 12:0.0 13:0.0 14:0.0 15:0.0 16:0.0 17:0.0 18:0.0 19:1.0 20:1.0 21:1.0 22:1.0 23:0.0 24:0.0 25:1.0 26:1.0 27:1.0 28:0.0 29:0.0 30:1.0 31:1.0 32:1.0 33:1.0 34:1.0 35:1.0 36:0.0 37:0.0 38:0.0 39:0.0 40:1.0 41:0.0 42:0.0 43:1.0 44:0.0 45:0.0 46:0.0 47:0.0 48:1.0 49:0.0 50:1.0 51:1.0 52:0.0 53:0.0 54:0.0 55:0.0 56:1.0 57:0.0 58:1.0 59:0.0 60:0.0 61:0.0 62:0.0 63:0.0 64:1.0 65:0.0 66:1.0 67:0.0 68:0.0 69:0.0 70:0.0 71:0.0 72:1.0 73:0.0 74:1.0 75:0.0 76:0.0 77:0.0 78:0.0 79:1.0 80:1.0 81:0.0 82:1.0 83:0.0 84:0.0 85:0.0 86:0.0 87:1.0 88:0.0 89:0.0 90:1.0 91:0.0 92:0.0 93:0.0 94:1.0 95:1.0 96:0.0 97:0.0 98:1.0 99:1.0 100:0.0 101:1.0 102:1.0 103:0.0 104:0.0 105:0.0 106:0.0 107:1.0 108:1.0 109:1.0 110:0.0 111:0.0 112:0.0 113:0.0 114:0.0 115:0.0 116:0.0 117:0.0 118:0.0 119:0.0 120:0.0 121:0.0 122:0.0 123:0.0 124:0.0 125:0.0 126:0.0 127:0.0 128:0.0 
0.0 0.1 0.013917853911474985 0.0 0.0 0.011756838730814668 0.0 0.0 0.0 0.025913802364160084 0.1 0.0 0.0 0.0 0.0 0.0 0.035488746032127726 0.0 0.0 0.0 0.0 0.0 0.0 0.0 0.0 1:0.0 2:0.0 3:0.0 4:0.0 5:0.0 6:0.0 7:0.0 8:0.0 9:0.0 10:0.0 11:0.0 12:0.0 13:0.0 14:0.0 15:0.0 16:0.0 17:0.0 18:0.0 19:0.0 20:0.0 21:0.0 22:0.0 23:0.0 24:0.0 25:0.0 26:0.0 27:0.0 28:0.0 29:0.0 30:0.0 31:0.0 32:0.0 33:0.0 34:1.0 35:1.0 36:0.0 37:0.0 38:0.0 39:0.0 40:0.0 41:1.0 42:1.0 43:1.0 44:1.0 45:0.0 46:0.0 47:0.0 48:0.0 49:1.0 50:0.0 51:0.0 52:1.0 53:1.0 54:1.0 55:0.0 56:0.0 57:1.0 58:0.0 59:0.0 60:0.0 61:0.0 62:1.0 63:1.0 64:0.0 65:1.0 66:0.0 67:0.0 68:0.0 69:0.0 70:0.0 71:1.0 72:1.0 73:1.0 74:0.0 75:0.0 76:0.0 77:0.0 78:0.0 79:0.0 80:1.0 81:0.0 82:1.0 83:1.0 84:0.0 85:0.0 86:0.0 87:1.0 88:1.0 89:0.0 90:0.0 91:1.0 92:1.0 93:1.0 94:1.0 95:1.0 96:0.0 97:0.0 98:0.0 99:0.0 100:0.0 101:0.0 102:0.0 103:0.0 104:0.0 105:0.0 106:0.0 107:0.0 108:0.0 109:0.0 110:0.0 111:0.0 112:0.0 113:0.0 114:0.0 115:0.0 116:0.0 117:0.0 118:0.0 119:0.0 120:0.0 121:0.0 122:0.0 123:0.0 124:0.0 125:0.0 126:0.0 127:0.0 128:0.0 
0.0020499539716337 0.0 0.0 0.0 0.0 0.0 0.0 0.0 0.0 0.0 0.0 0.0 0.0 0.0 0.0 0.0 0.0 0.0 0.0 0.0 0.0 0.0 0.0 0.0 0.0 1:0.0 2:0.0 3:0.0 4:0.0 5:0.0 6:0.0 7:0.0 8:0.0 9:0.0 10:0.0 11:0.0 12:0.0 13:0.0 14:0.0 15:0.0 16:0.0 17:0.0 18:0.0 19:0.0 20:0.0 21:0.0 22:0.0 23:0.0 24:0.0 25:0.0 26:0.0 27:0.0 28:0.0 29:0.0 30:0.0 31:0.0 32:0.0 33:0.0 34:0.0 35:0.0 36:0.0 37:1.0 38:1.0 39:1.0 40:0.0 41:0.0 42:1.0 43:1.0 44:1.0 45:1.0 46:0.0 47:1.0 48:1.0 49:1.0 50:1.0 51:0.0 52:1.0 53:1.0 54:0.0 55:0.0 56:1.0 57:1.0 58:0.0 59:0.0 60:0.0 61:0.0 62:0.0 63:0.0 64:1.0 65:1.0 66:0.0 67:0.0 68:0.0 69:0.0 70:0.0 71:1.0 72:1.0 73:1.0 74:0.0 75:0.0 76:0.0 77:0.0 78:1.0 79:1.0 80:0.0 81:1.0 82:0.0 83:0.0 84:1.0 85:1.0 86:1.0 87:0.0 88:0.0 89:1.0 90:1.0 91:1.0 92:1.0 93:0.0 94:0.0 95:0.0 96:0.0 97:0.0 98:0.0 99:0.0 100:0.0 101:0.0 102:0.0 103:0.0 104:0.0 105:0.0 106:0.0 107:0.0 108:0.0 109:0.0 110:0.0 111:0.0 112:0.0 113:0.0 114:0.0 115:0.0 116:0.0 117:0.0 118:0.0 119:0.0 120:0.0 121:0.0 122:0.0 123:0.0 124:0.0 125:0.0 126:0.0 127:0.0 128:0.0 
0.0 0.0 0.0 0.01991883652376955 0.0 0.0 0.0 0.0 0.012029116591172121 0.0 0.0 0.0 0.0 0.0 0.0 0.0 0.0 0.0 0.0 0.0 0.0 0.0 0.0 0.0 0.0 1:0.0 2:0.0 3:0.0 4:0.0 5:0.0 6:0.0 7:0.0 8:0.0 9:0.0 10:0.0 11:0.0 12:0.0 13:0.0 14:0.0 15:0.0 16:0.0 17:0.0 18:0.0 19:0.0 20:0.0 21:0.0 22:0.0 23:0.0 24:0.0 25:0.0 26:0.0 27:0.0 28:0.0 29:1.0 30:1.0 31:1.0 32:0.0 33:0.0 34:0.0 35:0.0 36:0.0 37:0.0 38:1.0 39:1.0 40:1.0 41:0.0 42:0.0 43:0.0 44:1.0 45:1.0 46:1.0 47:1.0 48:1.0 49:0.0 50:1.0 51:1.0 52:0.0 53:0.0 54:0.0 55:1.0 56:1.0 57:1.0 58:1.0 59:0.0 60:0.0 61:0.0 62:0.0 63:0.0 64:1.0 65:1.0 66:0.0 67:0.0 68:0.0 69:0.0 70:0.0 71:0.0 72:1.0 73:1.0 74:0.0 75:0.0 76:0.0 77:0.0 78:0.0 79:0.0 80:1.0 81:1.0 82:0.0 83:0.0 84:0.0 85:0.0 86:0.0 87:1.0 88:0.0 89:1.0 90:0.0 91:0.0 92:0.0 93:0.0 94:1.0 95:1.0 96:0.0 97:1.0 98:1.0 99:1.0 100:1.0 101:1.0 102:1.0 103:0.0 104:0.0 105:0.0 106:0.0 107:0.0 108:0.0 109:0.0 110:0.0 111:0.0 112:0.0 113:0.0 114:0.0 115:0.0 116:0.0 117:0.0 118:0.0 119:0.0 120:0.0 121:0.0 122:0.0 123:0.0 124:0.0 125:0.0 126:0.0 127:0.0 128:0.0 
0.0 0.0 0.0 0.0 0.0 0.032821094631596416 0.0 0.0 0.0 0.0 0.00595911563796793 0.0 0.0 0.0 0.0 0.0 0.0 0.0 0.0 0.0 8.306926222937642E-4 0.0 0.0 0.0 0.0 1:0.0 2:0.0 3:0.0 4:0.0 5:0.0 6:1.0 7:1.0 8:1.0 9:0.0 10:0.0 11:0.0 12:0.0 13:1.0 14:1.0 15:0.0 16:0.0 17:0.0 18:0.0 19:1.0 20:1.0 21:0.0 22:0.0 23:0.0 24:0.0 25:0.0 26:1.0 27:1.0 28:0.0 29:0.0 30:0.0 31:0.0 32:1.0 33:1.0 34:1.0 35:0.0 36:0.0 37:0.0 38:0.0 39:0.0 40:1.0 41:1.0 42:0.0 43:0.0 44:0.0 45:0.0 46:0.0 47:0.0 48:1.0 49:1.0 50:0.0 51:0.0 52:0.0 53:0.0 54:0.0 55:0.0 56:1.0 57:1.0 58:0.0 59:0.0 60:0.0 61:0.0 62:0.0 63:0.0 64:1.0 65:1.0 66:0.0 67:0.0 68:0.0 69:0.0 70:0.0 71:0.0 72:1.0 73:1.0 74:0.0 75:0.0 76:0.0 77:0.0 78:0.0 79:0.0 80:1.0 81:1.0 82:0.0 83:0.0 84:0.0 85:0.0 86:0.0 87:0.0 88:1.0 89:1.0 90:0.0 91:0.0 92:0.0 93:0.0 94:0.0 95:0.0 96:1.0 97:1.0 98:1.0 99:0.0 100:0.0 101:0.0 102:0.0 103:1.0 104:1.0 105:0.0 106:1.0 107:0.0 108:0.0 109:0.0 110:0.0 111:1.0 112:0.0 113:0.0 114:1.0 115:1.0 116:0.0 117:1.0 118:1.0 119:1.0 120:0.0 121:0.0 122:0.0 123:1.0 124:1.0 125:1.0 126:0.0 127:0.0 128:0.0 
0.0 0.0 0.03678743282765423 0.0 0.033108532706449825 0.09601301875656151 0.007387972250554156 0.0 0.0 0.0 0.0 0.0 0.0 0.0 0.0 0.0 0.0 0.0 0.0 0.0 0.0 0.007681823615322423 0.0 0.0 0.0 1:0.0 2:0.0 3:1.0 4:1.0 5:1.0 6:1.0 7:1.0 8:1.0 9:0.0 10:0.0 11:1.0 12:0.0 13:0.0 14:0.0 15:0.0 16:1.0 17:0.0 18:1.0 19:1.0 20:0.0 21:0.0 22:0.0 23:0.0 24:1.0 25:0.0 26:1.0 27:0.0 28:0.0 29:0.0 30:0.0 31:0.0 32:1.0 33:1.0 34:1.0 35:0.0 36:0.0 37:0.0 38:0.0 39:0.0 40:1.0 41:1.0 42:0.0 43:0.0 44:0.0 45:0.0 46:0.0 47:0.0 48:1.0 49:1.0 50:0.0 51:0.0 52:0.0 53:0.0 54:0.0 55:0.0 56:1.0 57:1.0 58:0.0 59:0.0 60:0.0 61:0.0 62:0.0 63:0.0 64:1.0 65:1.0 66:0.0 67:0.0 68:0.0 69:0.0 70:0.0 71:0.0 72:1.0 73:1.0 74:0.0 75:0.0 76:0.0 77:0.0 78:0.0 79:0.0 80:1.0 81:1.0 82:0.0 83:0.0 84:0.0 85:0.0 86:0.0 87:0.0 88:1.0 89:1.0 90:0.0 91:0.0 92:0.0 93:0.0 94:0.0 95:1.0 96:1.0 97:1.0 98:0.0 99:0.0 100:0.0 101:0.0 102:0.0 103:1.0 104:0.0 105:1.0 106:0.0 107:0.0 108:0.0 109:0.0 110:1.0 111:1.0 112:0.0 113:1.0 114:0.0 115:0.0 116:0.0 117:0.0 118:1.0 119:0.0 120:0.0 121:1.0 122:1.0 123:1.0 124:1.0 125:1.0 126:0.0 127:0.0 128:0.0 
0.0 0.045135064121788845 0.1 0.0 0.0 0.09041606992786767 0.0 0.014341229238686654 0.0 0.0 0.0 0.0 0.0 0.037419910330339874 4.2612702949842567E-4 0.0 0.0 0.0 0.0 0.0 0.0 0.0 0.0 0.0 0.0 1:0.0 2:0.0 3:0.0 4:0.0 5:0.0 6:0.0 7:0.0 8:0.0 9:0.0 10:0.0 11:0.0 12:0.0 13:0.0 14:1.0 15:1.0 16:0.0 17:0.0 18:0.0 19:0.0 20:0.0 21:1.0 22:1.0 23:1.0 24:0.0 25:0.0 26:0.0 27:0.0 28:0.0 29:1.0 30:1.0 31:1.0 32:0.0 33:0.0 34:0.0 35:0.0 36:1.0 37:1.0 38:0.0 39:1.0 40:1.0 41:0.0 42:0.0 43:0.0 44:1.0 45:0.0 46:0.0 47:0.0 48:1.0 49:0.0 50:0.0 51:1.0 52:1.0 53:0.0 54:0.0 55:0.0 56:1.0 57:0.0 58:1.0 59:1.0 60:0.0 61:0.0 62:0.0 63:0.0 64:1.0 65:0.0 66:1.0 67:0.0 68:0.0 69:0.0 70:0.0 71:0.0 72:1.0 73:0.0 74:1.0 75:0.0 76:0.0 77:0.0 78:0.0 79:0.0 80:1.0 81:1.0 82:0.0 83:0.0 84:0.0 85:0.0 86:0.0 87:0.0 88:1.0 89:1.0 90:0.0 91:0.0 92:0.0 93:0.0 94:0.0 95:0.0 96:1.0 97:1.0 98:0.0 99:0.0 100:0.0 101:0.0 102:0.0 103:0.0 104:1.0 105:1.0 106:0.0 107:0.0 108:0.0 109:0.0 110:0.0 111:1.0 112:1.0 113:1.0 114:1.0 115:1.0 116:1.0 117:1.0 118:1.0 119:1.0 120:0.0 121:0.0 122:0.0 123:0.0 124:0.0 125:0.0 126:0.0 127:0.0 128:0.0 
0.0 0.0 0.0 0.0 0.0 0.07723922647911308 0.0635027854679825 0.0 0.0 0.0 0.1 0.010606290300163803 0.004377487972663097 0.004403675880722293 0.0891013460058395 0.0591345454545505 0.1 0.09299788382689983 0.04092829262623525 0.0596782928050387 0.0 0.024711722747544643 0.0020671835379721115 0.0 0.027516204321217992 1:0.0 2:0.0 3:0.0 4:0.0 5:0.0 6:0.0 7:0.0 8:0.0 9:0.0 10:0.0 11:0.0 12:0.0 13:0.0 14:0.0 15:0.0 16:0.0 17:1.0 18:1.0 19:1.0 20:1.0 21:1.0 22:0.0 23:0.0 24:0.0 25:1.0 26:0.0 27:0.0 28:0.0 29:1.0 30:1.0 31:1.0 32:0.0 33:1.0 34:0.0 35:0.0 36:0.0 37:0.0 38:0.0 39:1.0 40:0.0 41:0.0 42:0.0 43:1.0 44:0.0 45:0.0 46:0.0 47:0.0 48:1.0 49:0.0 50:1.0 51:1.0 52:0.0 53:0.0 54:0.0 55:0.0 56:1.0 57:0.0 58:1.0 59:0.0 60:0.0 61:0.0 62:0.0 63:0.0 64:1.0 65:0.0 66:1.0 67:0.0 68:0.0 69:0.0 70:0.0 71:0.0 72:1.0 73:0.0 74:1.0 75:0.0 76:0.0 77:0.0 78:0.0 79:0.0 80:1.0 81:0.0 82:1.0 83:0.0 84:0.0 85:0.0 86:0.0 87:0.0 88:1.0 89:0.0 90:1.0 91:1.0 92:0.0 93:0.0 94:0.0 95:1.0 96:1.0 97:0.0 98:0.0 99:1.0 100:1.0 101:1.0 102:1.0 103:1.0 104:0.0 105:0.0 106:0.0 107:0.0 108:1.0 109:1.0 110:0.0 111:0.0 112:0.0 113:0.0 114:0.0 115:0.0 116:0.0 117:0.0 118:0.0 119:0.0 120:0.0 121:0.0 122:0.0 123:0.0 124:0.0 125:0.0 126:0.0 127:0.0 128:0.0 
0.0 0.0 0.1 0.0 0.0 0.0 0.0 0.05503353263062548 0.05922202912290234 0.0 0.0 0.0 0.0 0.0 0.0 0.0 0.0 0.0 0.0 0.0 0.0 0.0 0.0 0.0 0.0 1:0.0 2:0.0 3:0.0 4:0.0 5:0.0 6:0.0 7:0.0 8:0.0 9:0.0 10:0.0 11:0.0 12:0.0 13:0.0 14:0.0 15:0.0 16:0.0 17:0.0 18:0.0 19:0.0 20:0.0 21:0.0 22:0.0 23:0.0 24:0.0 25:0.0 26:0.0 27:0.0 28:0.0 29:0.0 30:0.0 31:0.0 32:0.0 33:0.0 34:0.0 35:0.0 36:0.0 37:0.0 38:0.0 39:0.0 40:0.0 41:1.0 42:1.0 43:1.0 44:1.0 45:1.0 46:1.0 47:0.0 48:0.0 49:1.0 50:1.0 51:0.0 52:0.0 53:0.0 54:1.0 55:1.0 56:0.0 57:1.0 58:0.0 59:0.0 60:0.0 61:0.0 62:0.0 63:0.0 64:1.0 65:1.0 66:0.0 67:0.0 68:0.0 69:0.0 70:0.0 71:0.0 72:1.0 73:1.0 74:1.0 75:0.0 76:0.0 77:0.0 78:0.0 79:0.0 80:1.0 81:0.0 82:1.0 83:1.0 84:1.0 85:1.0 86:1.0 87:1.0 88:1.0 89:0.0 90:0.0 91:0.0 92:0.0 93:0.0 94:0.0 95:0.0 96:0.0 97:0.0 98:0.0 99:0.0 100:0.0 101:0.0 102:0.0 103:0.0 104:0.0 105:0.0 106:0.0 107:0.0 108:0.0 109:0.0 110:0.0 111:0.0 112:0.0 113:0.0 114:0.0 115:0.0 116:0.0 117:0.0 118:0.0 119:0.0 120:0.0 121:0.0 122:0.0 123:0.0 124:0.0 125:0.0 126:0.0 127:0.0 128:0.0 
0.0 0.0 0.0 0.0 0.0 0.0 0.0 0.0 0.05359371358606703 0.0 0.0 0.0 0.0 0.0 0.0 0.0 0.0 0.0 0.0 0.0 0.0 0.0 0.0 0.0 0.0 1:0.0 2:0.0 3:0.0 4:0.0 5:0.0 6:0.0 7:0.0 8:0.0 9:0.0 10:0.0 11:0.0 12:0.0 13:0.0 14:0.0 15:0.0 16:0.0 17:0.0 18:0.0 19:0.0 20:0.0 21:0.0 22:0.0 23:0.0 24:0.0 25:0.0 26:0.0 27:0.0 28:0.0 29:0.0 30:0.0 31:0.0 32:0.0 33:0.0 34:0.0 35:1.0 36:1.0 37:1.0 38:0.0 39:0.0 40:0.0 41:0.0 42:1.0 43:1.0 44:1.0 45:1.0 46:1.0 47:1.0 48:1.0 49:1.0 50:1.0 51:0.0 52:1.0 53:0.0 54:0.0 55:0.0 56:1.0 57:1.0 58:0.0 59:0.0 60:0.0 61:0.0 62:0.0 63:0.0 64:1.0 65:1.0 66:0.0 67:0.0 68:0.0 69:0.0 70:0.0 71:0.0 72:1.0 73:1.0 74:0.0 75:0.0 76:0.0 77:0.0 78:0.0 79:0.0 80:1.0 81:1.0 82:0.0 83:0.0 84:0.0 85:0.0 86:1.0 87:1.0 88:0.0 89:1.0 90:1.0 91:1.0 92:1.0 93:1.0 94:1.0 95:0.0 96:0.0 97:0.0 98:0.0 99:0.0 100:0.0 101:0.0 102:0.0 103:0.0 104:0.0 105:0.0 106:0.0 107:0.0 108:0.0 109:0.0 110:0.0 111:0.0 112:0.0 113:0.0 114:0.0 115:0.0 116:0.0 117:0.0 118:0.0 119:0.0 120:0.0 121:0.0 122:0.0 123:0.0 124:0.0 125:0.0 126:0.0 127:0.0 128:0.0 
0.1 0.1 0.1 0.1 0.1 0.1 0.0 0.1 0.013008596517782857 0.1 0.1 0.06411781605464327 0.1 0.1 0.1 0.1 0.1 0.1 0.1 0.1 0.05685678124209326 0.035186906275468194 0.1 0.1 0.08405476991014725 1:0.0 2:0.0 3:0.0 4:0.0 5:0.0 6:0.0 7:0.0 8:0.0 9:0.0 10:0.0 11:0.0 12:0.0 13:0.0 14:0.0 15:0.0 16:0.0 17:0.0 18:0.0 19:0.0 20:0.0 21:0.0 22:0.0 23:0.0 24:0.0 25:0.0 26:0.0 27:0.0 28:0.0 29:0.0 30:0.0 31:0.0 32:0.0 33:0.0 34:0.0 35:0.0 36:0.0 37:0.0 38:0.0 39:0.0 40:0.0 41:0.0 42:0.0 43:0.0 44:0.0 45:0.0 46:0.0 47:0.0 48:0.0 49:0.0 50:0.0 51:0.0 52:0.0 53:0.0 54:0.0 55:0.0 56:0.0 57:1.0 58:1.0 59:1.0 60:1.0 61:1.0 62:1.0 63:1.0 64:1.0 65:1.0 66:1.0 67:1.0 68:1.0 69:1.0 70:1.0 71:1.0 72:1.0 73:0.0 74:0.0 75:0.0 76:0.0 77:0.0 78:0.0 79:0.0 80:0.0 81:0.0 82:0.0 83:0.0 84:0.0 85:0.0 86:0.0 87:0.0 88:0.0 89:0.0 90:0.0 91:0.0 92:0.0 93:0.0 94:0.0 95:0.0 96:0.0 97:0.0 98:0.0 99:0.0 100:0.0 101:0.0 102:0.0 103:0.0 104:0.0 105:0.0 106:0.0 107:0.0 108:0.0 109:0.0 110:0.0 111:0.0 112:0.0 113:0.0 114:0.0 115:0.0 116:0.0 117:0.0 118:0.0 119:0.0 120:0.0 121:0.0 122:0.0 123:0.0 124:0.0 125:0.0 126:0.0 127:0.0 128:0.0 
0.1 0.1 0.1 0.04080494540570574 0.07904232084881106 0.011645531833623253 0.1 0.05159866037710302 0.0 0.1 0.1 0.0 0.1 0.1 0.0218785891901738 0.07902678348328344 0.1 0.1 0.027934482803569062 0.1 0.0 0.02456165185218457 0.1 0.1 0.043006103331187685 1:0.0 2:0.0 3:0.0 4:0.0 5:0.0 6:0.0 7:0.0 8:0.0 9:0.0 10:0.0 11:0.0 12:0.0 13:0.0 14:0.0 15:0.0 16:0.0 17:0.0 18:0.0 19:0.0 20:0.0 21:0.0 22:0.0 23:0.0 24:0.0 25:0.0 26:0.0 27:0.0 28:0.0 29:0.0 30:0.0 31:0.0 32:0.0 33:0.0 34:0.0 35:0.0 36:0.0 37:0.0 38:0.0 39:0.0 40:0.0 41:0.0 42:0.0 43:0.0 44:0.0 45:0.0 46:0.0 47:0.0 48:0.0 49:0.0 50:0.0 51:1.0 52:1.0 53:0.0 54:0.0 55:0.0 56:0.0 57:1.0 58:1.0 59:1.0 60:1.0 61:1.0 62:1.0 63:1.0 64:1.0 65:1.0 66:1.0 67:0.0 68:0.0 69:0.0 70:0.0 71:0.0 72:1.0 73:0.0 74:1.0 75:1.0 76:1.0 77:1.0 78:1.0 79:1.0 80:1.0 81:0.0 82:0.0 83:0.0 84:0.0 85:0.0 86:0.0 87:0.0 88:0.0 89:0.0 90:0.0 91:0.0 92:0.0 93:0.0 94:0.0 95:0.0 96:0.0 97:0.0 98:0.0 99:0.0 100:0.0 101:0.0 102:0.0 103:0.0 104:0.0 105:0.0 106:0.0 107:0.0 108:0.0 109:0.0 110:0.0 111:0.0 112:0.0 113:0.0 114:0.0 115:0.0 116:0.0 117:0.0 118:0.0 119:0.0 120:0.0 121:0.0 122:0.0 123:0.0 124:0.0 125:0.0 126:0.0 127:0.0 128:0.0 
0.0 0.0 0.0 0.0 0.0 0.040304583168312896 0.0 0.0 0.0 0.0 0.0 0.0 0.0 0.0 0.0 0.0 0.0 0.0 0.0 0.0 0.0 0.0 0.0 0.0 0.0 1:0.0 2:0.0 3:0.0 4:0.0 5:0.0 6:0.0 7:0.0 8:0.0 9:0.0 10:0.0 11:0.0 12:0.0 13:0.0 14:0.0 15:0.0 16:0.0 17:0.0 18:0.0 19:0.0 20:0.0 21:0.0 22:0.0 23:0.0 24:0.0 25:0.0 26:0.0 27:0.0 28:0.0 29:0.0 30:0.0 31:0.0 32:0.0 33:0.0 34:1.0 35:1.0 36:1.0 37:1.0 38:0.0 39:0.0 40:0.0 41:0.0 42:1.0 43:0.0 44:0.0 45:1.0 46:1.0 47:0.0 48:0.0 49:0.0 50:1.0 51:0.0 52:0.0 53:0.0 54:1.0 55:1.0 56:0.0 57:1.0 58:0.0 59:0.0 60:0.0 61:0.0 62:0.0 63:1.0 64:1.0 65:1.0 66:0.0 67:0.0 68:0.0 69:0.0 70:0.0 71:0.0 72:1.0 73:1.0 74:0.0 75:0.0 76:0.0 77:0.0 78:0.0 79:1.0 80:1.0 81:1.0 82:1.0 83:0.0 84:0.0 85:0.0 86:1.0 87:1.0 88:0.0 89:0.0 90:1.0 91:1.0 92:1.0 93:1.0 94:1.0 95:0.0 96:0.0 97:0.0 98:0.0 99:0.0 100:0.0 101:0.0 102:0.0 103:0.0 104:0.0 105:0.0 106:0.0 107:0.0 108:0.0 109:0.0 110:0.0 111:0.0 112:0.0 113:0.0 114:0.0 115:0.0 116:0.0 117:0.0 118:0.0 119:0.0 120:0.0 121:0.0 122:0.0 123:0.0 124:0.0 125:0.0 126:0.0 127:0.0 128:0.0 
0.0973459953961772 0.1 0.055575647689155294 0.0 0.0 0.0 0.0 0.0 0.0 0.1 0.0 0.0 0.0 0.0 0.0 0.0 0.0 0.0 0.0 0.0 0.0 0.0 0.0 0.0 0.0 1:0.0 2:0.0 3:0.0 4:0.0 5:0.0 6:0.0 7:0.0 8:0.0 9:0.0 10:0.0 11:0.0 12:0.0 13:0.0 14:0.0 15:0.0 16:0.0 17:0.0 18:0.0 19:0.0 20:0.0 21:0.0 22:0.0 23:0.0 24:0.0 25:0.0 26:0.0 27:0.0 28:1.0 29:1.0 30:1.0 31:1.0 32:1.0 33:0.0 34:0.0 35:1.0 36:1.0 37:0.0 38:0.0 39:0.0 40:1.0 41:0.0 42:0.0 43:1.0 44:1.0 45:0.0 46:0.0 47:0.0 48:1.0 49:0.0 50:0.0 51:1.0 52:1.0 53:0.0 54:0.0 55:0.0 56:1.0 57:0.0 58:1.0 59:1.0 60:1.0 61:0.0 62:0.0 63:0.0 64:1.0 65:0.0 66:1.0 67:0.0 68:0.0 69:0.0 70:0.0 71:1.0 72:1.0 73:1.0 74:1.0 75:0.0 76:0.0 77:0.0 78:1.0 79:1.0 80:0.0 81:1.0 82:0.0 83:0.0 84:0.0 85:1.0 86:1.0 87:0.0 88:0.0 89:1.0 90:0.0 91:1.0 92:1.0 93:1.0 94:0.0 95:0.0 96:0.0 97:1.0 98:1.0 99:1.0 100:0.0 101:0.0 102:0.0 103:0.0 104:0.0 105:0.0 106:0.0 107:0.0 108:0.0 109:0.0 110:0.0 111:0.0 112:0.0 113:0.0 114:0.0 115:0.0 116:0.0 117:0.0 118:0.0 119:0.0 120:0.0 121:0.0 122:0.0 123:0.0 124:0.0 125:0.0 126:0.0 127:0.0 128:0.0 
0.0 0.1 0.1 0.0 0.0 0.0 0.0 0.0 0.0 0.06068639938281249 0.0 0.0 0.0 0.0 0.0 0.0 0.0 0.0 0.010005965457327187 0.0 0.0 0.0 0.02663043011824658 0.0 0.0 1:0.0 2:0.0 3:0.0 4:0.0 5:0.0 6:0.0 7:0.0 8:0.0 9:0.0 10:0.0 11:0.0 12:0.0 13:0.0 14:0.0 15:0.0 16:0.0 17:0.0 18:0.0 19:0.0 20:0.0 21:0.0 22:0.0 23:0.0 24:0.0 25:0.0 26:0.0 27:0.0 28:0.0 29:0.0 30:1.0 31:1.0 32:0.0 33:0.0 34:0.0 35:0.0 36:1.0 37:1.0 38:1.0 39:1.0 40:1.0 41:0.0 42:0.0 43:1.0 44:1.0 45:0.0 46:0.0 47:0.0 48:1.0 49:0.0 50:0.0 51:1.0 52:0.0 53:0.0 54:0.0 55:0.0 56:1.0 57:0.0 58:0.0 59:1.0 60:1.0 61:1.0 62:1.0 63:0.0 64:1.0 65:0.0 66:1.0 67:1.0 68:1.0 69:0.0 70:0.0 71:1.0 72:1.0 73:0.0 74:1.0 75:0.0 76:0.0 77:0.0 78:1.0 79:1.0 80:0.0 81:1.0 82:1.0 83:0.0 84:1.0 85:1.0 86:1.0 87:0.0 88:0.0 89:1.0 90:1.0 91:1.0 92:1.0 93:0.0 94:0.0 95:0.0 96:0.0 97:1.0 98:1.0 99:0.0 100:0.0 101:0.0 102:0.0 103:0.0 104:0.0 105:0.0 106:0.0 107:0.0 108:0.0 109:0.0 110:0.0 111:0.0 112:0.0 113:0.0 114:0.0 115:0.0 116:0.0 117:0.0 118:0.0 119:0.0 120:0.0 121:0.0 122:0.0 123:0.0 124:0.0 125:0.0 126:0.0 127:0.0 128:0.0 
0.02314732109264484 0.0 0.0 5.504251638157504E-4 0.0 0.0 0.0070784999275723655 0.0 0.0 0.0 0.0 0.018313066490668987 0.0 0.0 0.0 0.0 0.0 0.0 0.0 0.0 0.0 0.0 0.0 0.0 0.0036683101431617257 1:0.0 2:0.0 3:0.0 4:0.0 5:0.0 6:0.0 7:0.0 8:0.0 9:0.0 10:0.0 11:0.0 12:0.0 13:0.0 14:0.0 15:0.0 16:0.0 17:0.0 18:0.0 19:0.0 20:0.0 21:0.0 22:0.0 23:0.0 24:0.0 25:0.0 26:0.0 27:1.0 28:1.0 29:1.0 30:0.0 31:0.0 32:0.0 33:1.0 34:1.0 35:0.0 36:0.0 37:0.0 38:0.0 39:0.0 40:0.0 41:1.0 42:0.0 43:0.0 44:0.0 45:0.0 46:0.0 47:0.0 48:0.0 49:1.0 50:0.0 51:0.0 52:1.0 53:1.0 54:1.0 55:1.0 56:1.0 57:1.0 58:0.0 59:0.0 60:0.0 61:0.0 62:0.0 63:0.0 64:1.0 65:1.0 66:0.0 67:0.0 68:0.0 69:0.0 70:0.0 71:0.0 72:1.0 73:1.0 74:0.0 75:0.0 76:0.0 77:0.0 78:0.0 79:0.0 80:1.0 81:1.0 82:0.0 83:0.0 84:0.0 85:0.0 86:0.0 87:0.0 88:1.0 89:1.0 90:0.0 91:0.0 92:0.0 93:0.0 94:1.0 95:1.0 96:0.0 97:1.0 98:1.0 99:1.0 100:1.0 101:1.0 102:1.0 103:0.0 104:0.0 105:0.0 106:0.0 107:0.0 108:0.0 109:0.0 110:0.0 111:0.0 112:0.0 113:0.0 114:0.0 115:0.0 116:0.0 117:0.0 118:0.0 119:0.0 120:0.0 121:0.0 122:0.0 123:0.0 124:0.0 125:0.0 126:0.0 127:0.0 128:0.0 
0.0 0.0 0.0 0.0 0.0 0.0 0.0 0.0 0.0 0.0 0.0 0.0 0.0 0.0 0.0 0.026404936263688155 0.09291895956268299 0.0 0.0 0.0 0.0 0.0 0.0 0.0 0.0 1:0.0 2:0.0 3:0.0 4:0.0 5:0.0 6:0.0 7:0.0 8:0.0 9:0.0 10:0.0 11:0.0 12:0.0 13:0.0 14:0.0 15:0.0 16:0.0 17:0.0 18:0.0 19:0.0 20:1.0 21:0.0 22:0.0 23:0.0 24:0.0 25:0.0 26:0.0 27:1.0 28:0.0 29:0.0 30:0.0 31:1.0 32:1.0 33:0.0 34:0.0 35:1.0 36:0.0 37:0.0 38:0.0 39:0.0 40:1.0 41:0.0 42:1.0 43:1.0 44:0.0 45:0.0 46:0.0 47:0.0 48:1.0 49:1.0 50:1.0 51:0.0 52:0.0 53:0.0 54:0.0 55:0.0 56:1.0 57:1.0 58:0.0 59:0.0 60:0.0 61:0.0 62:0.0 63:0.0 64:1.0 65:1.0 66:0.0 67:0.0 68:0.0 69:0.0 70:0.0 71:0.0 72:1.0 73:1.0 74:0.0 75:0.0 76:0.0 77:0.0 78:0.0 79:1.0 80:1.0 81:1.0 82:0.0 83:0.0 84:0.0 85:0.0 86:1.0 87:1.0 88:0.0 89:1.0 90:0.0 91:0.0 92:0.0 93:1.0 94:1.0 95:0.0 96:0.0 97:1.0 98:0.0 99:0.0 100:1.0 101:1.0 102:0.0 103:0.0 104:0.0 105:1.0 106:1.0 107:1.0 108:1.0 109:0.0 110:0.0 111:0.0 112:0.0 113:0.0 114:0.0 115:0.0 116:0.0 117:0.0 118:0.0 119:0.0 120:0.0 121:0.0 122:0.0 123:0.0 124:0.0 125:0.0 126:0.0 127:0.0 128:0.0 
0.007456298266819803 0.0 0.023399089719494556 0.0 0.0 0.0 0.004806156254271756 0.0 0.03265760597307007 0.0 0.0 0.0 0.0 0.0 0.0 0.042881123630396034 0.1 0.0 0.0 0.0 0.0 0.0 0.0 0.01034244379171738 0.0 1:0.0 2:0.0 3:0.0 4:0.0 5:0.0 6:0.0 7:0.0 8:0.0 9:0.0 10:0.0 11:0.0 12:0.0 13:0.0 14:0.0 15:1.0 16:0.0 17:0.0 18:0.0 19:0.0 20:0.0 21:0.0 22:0.0 23:1.0 24:1.0 25:0.0 26:0.0 27:0.0 28:0.0 29:0.0 30:0.0 31:0.0 32:1.0 33:1.0 34:1.0 35:1.0 36:1.0 37:0.0 38:0.0 39:0.0 40:1.0 41:1.0 42:0.0 43:0.0 44:0.0 45:0.0 46:0.0 47:0.0 48:1.0 49:1.0 50:0.0 51:0.0 52:0.0 53:0.0 54:0.0 55:0.0 56:1.0 57:1.0 58:0.0 59:0.0 60:0.0 61:0.0 62:0.0 63:0.0 64:1.0 65:1.0 66:0.0 67:0.0 68:0.0 69:0.0 70:0.0 71:0.0 72:1.0 73:1.0 74:0.0 75:0.0 76:0.0 77:0.0 78:0.0 79:0.0 80:1.0 81:1.0 82:0.0 83:0.0 84:0.0 85:0.0 86:0.0 87:0.0 88:1.0 89:1.0 90:0.0 91:0.0 92:0.0 93:0.0 94:0.0 95:0.0 96:1.0 97:1.0 98:1.0 99:0.0 100:0.0 101:0.0 102:0.0 103:0.0 104:1.0 105:0.0 106:1.0 107:1.0 108:0.0 109:0.0 110:0.0 111:1.0 112:1.0 113:0.0 114:0.0 115:1.0 116:1.0 117:1.0 118:1.0 119:1.0 120:0.0 121:0.0 122:0.0 123:0.0 124:0.0 125:0.0 126:0.0 127:0.0 128:0.0 
0.0 0.0 0.0 0.0 0.0 0.0 0.0 0.0 0.0 0.0 0.0 0.0 0.0 0.0 0.0013922623499522636 0.0 0.0 0.0 0.0 0.0 0.0 0.0 0.0 0.0 0.0070845546230732855 1:0.0 2:0.0 3:0.0 4:0.0 5:0.0 6:0.0 7:0.0 8:0.0 9:0.0 10:0.0 11:0.0 12:0.0 13:0.0 14:0.0 15:0.0 16:0.0 17:1.0 18:1.0 19:1.0 20:0.0 21:0.0 22:0.0 23:0.0 24:0.0 25:1.0 26:1.0 27:1.0 28:1.0 29:1.0 30:0.0 31:0.0 32:0.0 33:1.0 34:1.0 35:0.0 36:0.0 37:1.0 38:1.0 39:0.0 40:0.0 41:1.0 42:0.0 43:0.0 44:0.0 45:0.0 46:1.0 47:1.0 48:0.0 49:1.0 50:0.0 51:0.0 52:0.0 53:0.0 54:0.0 55:1.0 56:1.0 57:1.0 58:0.0 59:0.0 60:0.0 61:0.0 62:0.0 63:0.0 64:1.0 65:1.0 66:0.0 67:0.0 68:0.0 69:0.0 70:0.0 71:0.0 72:1.0 73:1.0 74:0.0 75:0.0 76:0.0 77:0.0 78:0.0 79:0.0 80:1.0 81:1.0 82:0.0 83:0.0 84:0.0 85:0.0 86:0.0 87:0.0 88:1.0 89:1.0 90:0.0 91:0.0 92:0.0 93:0.0 94:0.0 95:1.0 96:1.0 97:1.0 98:1.0 99:0.0 100:0.0 101:0.0 102:1.0 103:1.0 104:0.0 105:0.0 106:1.0 107:1.0 108:1.0 109:1.0 110:1.0 111:0.0 112:0.0 113:0.0 114:0.0 115:0.0 116:0.0 117:0.0 118:0.0 119:0.0 120:0.0 121:0.0 122:0.0 123:0.0 124:0.0 125:0.0 126:0.0 127:0.0 128:0.0 
0.0 0.08654243705139256 0.0 0.0 0.0 0.0 0.0 0.0 0.0 0.1 0.0 0.0 0.0 0.0 0.0 0.0 0.031017485701440892 0.0 0.0 0.0 0.0 0.0 0.0 0.0 0.0 1:0.0 2:0.0 3:0.0 4:0.0 5:0.0 6:0.0 7:0.0 8:0.0 9:0.0 10:0.0 11:0.0 12:0.0 13:0.0 14:0.0 15:0.0 16:0.0 17:0.0 18:0.0 19:0.0 20:0.0 21:0.0 22:0.0 23:0.0 24:0.0 25:0.0 26:0.0 27:0.0 28:0.0 29:0.0 30:0.0 31:0.0 32:0.0 33:0.0 34:0.0 35:0.0 36:1.0 37:1.0 38:1.0 39:1.0 40:1.0 41:0.0 42:0.0 43:1.0 44:0.0 45:0.0 46:0.0 47:0.0 48:1.0 49:0.0 50:1.0 51:1.0 52:0.0 53:0.0 54:0.0 55:0.0 56:1.0 57:1.0 58:1.0 59:0.0 60:0.0 61:0.0 62:0.0 63:0.0 64:1.0 65:1.0 66:0.0 67:0.0 68:0.0 69:0.0 70:0.0 71:1.0 72:1.0 73:1.0 74:0.0 75:0.0 76:0.0 77:0.0 78:1.0 79:1.0 80:0.0 81:1.0 82:1.0 83:0.0 84:1.0 85:1.0 86:1.0 87:0.0 88:0.0 89:0.0 90:1.0 91:1.0 92:1.0 93:0.0 94:0.0 95:0.0 96:0.0 97:0.0 98:0.0 99:0.0 100:0.0 101:0.0 102:0.0 103:0.0 104:0.0 105:0.0 106:0.0 107:0.0 108:0.0 109:0.0 110:0.0 111:0.0 112:0.0 113:0.0 114:0.0 115:0.0 116:0.0 117:0.0 118:0.0 119:0.0 120:0.0 121:0.0 122:0.0 123:0.0 124:0.0 125:0.0 126:0.0 127:0.0 128:0.0 
0.0 0.1 0.0 0.0 0.0 0.0 0.0 0.0 0.0 0.0 0.0 0.0 0.0 0.0 0.0 0.0 0.0 0.0 0.0 0.0 0.0 0.0 0.0 0.0 0.0 1:0.0 2:0.0 3:0.0 4:0.0 5:0.0 6:0.0 7:0.0 8:0.0 9:0.0 10:0.0 11:0.0 12:0.0 13:0.0 14:0.0 15:0.0 16:0.0 17:0.0 18:0.0 19:0.0 20:0.0 21:0.0 22:0.0 23:0.0 24:0.0 25:0.0 26:0.0 27:0.0 28:1.0 29:1.0 30:1.0 31:0.0 32:0.0 33:0.0 34:1.0 35:1.0 36:1.0 37:1.0 38:1.0 39:1.0 40:0.0 41:0.0 42:1.0 43:0.0 44:0.0 45:0.0 46:0.0 47:1.0 48:0.0 49:1.0 50:1.0 51:0.0 52:0.0 53:0.0 54:0.0 55:1.0 56:1.0 57:1.0 58:0.0 59:0.0 60:0.0 61:0.0 62:0.0 63:0.0 64:1.0 65:1.0 66:0.0 67:0.0 68:0.0 69:0.0 70:0.0 71:0.0 72:1.0 73:1.0 74:0.0 75:0.0 76:0.0 77:0.0 78:0.0 79:0.0 80:1.0 81:1.0 82:0.0 83:0.0 84:0.0 85:0.0 86:0.0 87:0.0 88:1.0 89:1.0 90:0.0 91:0.0 92:0.0 93:0.0 94:1.0 95:1.0 96:1.0 97:1.0 98:1.0 99:1.0 100:1.0 101:1.0 102:1.0 103:0.0 104:0.0 105:0.0 106:0.0 107:0.0 108:0.0 109:0.0 110:0.0 111:0.0 112:0.0 113:0.0 114:0.0 115:0.0 116:0.0 117:0.0 118:0.0 119:0.0 120:0.0 121:0.0 122:0.0 123:0.0 124:0.0 125:0.0 126:0.0 127:0.0 128:0.0 
0.0 0.1 0.0 0.0 0.0 0.0 0.0 0.0 0.0 0.0 0.0 0.0 0.0 0.0 0.0 0.0 0.06409857137684986 0.0 0.0 0.0 0.0 0.0 0.0 0.0 0.0 1:0.0 2:0.0 3:0.0 4:0.0 5:0.0 6:0.0 7:0.0 8:0.0 9:0.0 10:0.0 11:0.0 12:0.0 13:0.0 14:0.0 15:0.0 16:0.0 17:0.0 18:0.0 19:0.0 20:0.0 21:0.0 22:0.0 23:0.0 24:0.0 25:0.0 26:0.0 27:0.0 28:0.0 29:0.0 30:0.0 31:1.0 32:0.0 33:0.0 34:0.0 35:0.0 36:0.0 37:0.0 38:0.0 39:1.0 40:1.0 41:0.0 42:0.0 43:1.0 44:1.0 45:1.0 46:1.0 47:0.0 48:1.0 49:0.0 50:1.0 51:1.0 52:0.0 53:0.0 54:1.0 55:0.0 56:1.0 57:1.0 58:1.0 59:0.0 60:0.0 61:0.0 62:1.0 63:0.0 64:1.0 65:1.0 66:0.0 67:0.0 68:0.0 69:0.0 70:1.0 71:0.0 72:1.0 73:1.0 74:0.0 75:0.0 76:0.0 77:0.0 78:1.0 79:1.0 80:1.0 81:1.0 82:0.0 83:0.0 84:0.0 85:0.0 86:0.0 87:1.0 88:1.0 89:1.0 90:1.0 91:0.0 92:0.0 93:0.0 94:1.0 95:1.0 96:0.0 97:0.0 98:1.0 99:1.0 100:1.0 101:1.0 102:1.0 103:0.0 104:0.0 105:0.0 106:0.0 107:0.0 108:0.0 109:0.0 110:0.0 111:0.0 112:0.0 113:0.0 114:0.0 115:0.0 116:0.0 117:0.0 118:0.0 119:0.0 120:0.0 121:0.0 122:0.0 123:0.0 124:0.0 125:0.0 126:0.0 127:0.0 128:0.0 
0.0 0.03779920375710714 0.023027065605232006 0.0 0.0 0.0 0.05944827877392242 0.0 0.0 0.1 0.0 0.0 0.025109881441995358 0.0 0.0 0.1 0.1 0.0 0.0 0.0 0.0 0.02518380365498282 0.0 0.047070683375639695 0.0 1:0.0 2:0.0 3:0.0 4:0.0 5:0.0 6:0.0 7:0.0 8:0.0 9:0.0 10:0.0 11:0.0 12:0.0 13:0.0 14:0.0 15:0.0 16:0.0 17:0.0 18:0.0 19:0.0 20:1.0 21:1.0 22:1.0 23:1.0 24:0.0 25:0.0 26:1.0 27:1.0 28:0.0 29:0.0 30:0.0 31:1.0 32:1.0 33:1.0 34:1.0 35:0.0 36:0.0 37:0.0 38:0.0 39:0.0 40:1.0 41:1.0 42:0.0 43:0.0 44:0.0 45:0.0 46:0.0 47:0.0 48:1.0 49:1.0 50:0.0 51:0.0 52:0.0 53:0.0 54:0.0 55:0.0 56:1.0 57:1.0 58:0.0 59:0.0 60:0.0 61:0.0 62:0.0 63:0.0 64:1.0 65:1.0 66:0.0 67:0.0 68:0.0 69:0.0 70:0.0 71:0.0 72:1.0 73:1.0 74:1.0 75:0.0 76:0.0 77:0.0 78:0.0 79:0.0 80:1.0 81:0.0 82:1.0 83:1.0 84:0.0 85:0.0 86:0.0 87:0.0 88:1.0 89:0.0 90:0.0 91:1.0 92:1.0 93:1.0 94:1.0 95:0.0 96:1.0 97:0.0 98:0.0 99:0.0 100:0.0 101:1.0 102:0.0 103:1.0 104:1.0 105:0.0 106:0.0 107:0.0 108:0.0 109:0.0 110:0.0 111:1.0 112:0.0 113:0.0 114:0.0 115:0.0 116:0.0 117:0.0 118:0.0 119:0.0 120:0.0 121:0.0 122:0.0 123:0.0 124:0.0 125:0.0 126:0.0 127:0.0 128:0.0 
0.0 0.0 0.0 0.0 6.96523946316214E-5 0.0 0.0 0.0 0.07751388026762823 0.0 0.06158374654541561 0.015393506760410352 0.0 0.0 0.0 0.0319383574754172 0.0 0.0 0.0 0.0 0.0 0.0 0.0 0.0 0.0 1:0.0 2:0.0 3:0.0 4:0.0 5:0.0 6:0.0 7:0.0 8:0.0 9:0.0 10:0.0 11:0.0 12:0.0 13:0.0 14:0.0 15:0.0 16:0.0 17:0.0 18:0.0 19:0.0 20:0.0 21:0.0 22:0.0 23:0.0 24:0.0 25:0.0 26:0.0 27:1.0 28:1.0 29:1.0 30:1.0 31:0.0 32:0.0 33:1.0 34:1.0 35:1.0 36:0.0 37:0.0 38:1.0 39:1.0 40:0.0 41:1.0 42:0.0 43:0.0 44:0.0 45:0.0 46:0.0 47:1.0 48:0.0 49:1.0 50:0.0 51:0.0 52:0.0 53:0.0 54:0.0 55:1.0 56:0.0 57:1.0 58:0.0 59:0.0 60:0.0 61:0.0 62:0.0 63:0.0 64:1.0 65:1.0 66:0.0 67:0.0 68:0.0 69:0.0 70:0.0 71:0.0 72:1.0 73:1.0 74:0.0 75:0.0 76:0.0 77:0.0 78:0.0 79:0.0 80:1.0 81:1.0 82:0.0 83:0.0 84:0.0 85:0.0 86:0.0 87:1.0 88:1.0 89:0.0 90:1.0 91:1.0 92:0.0 93:0.0 94:0.0 95:1.0 96:0.0 97:0.0 98:0.0 99:1.0 100:1.0 101:1.0 102:1.0 103:0.0 104:0.0 105:0.0 106:0.0 107:0.0 108:0.0 109:0.0 110:0.0 111:0.0 112:0.0 113:0.0 114:0.0 115:0.0 116:0.0 117:0.0 118:0.0 119:0.0 120:0.0 121:0.0 122:0.0 123:0.0 124:0.0 125:0.0 126:0.0 127:0.0 128:0.0 
0.0 0.0 0.0 0.0 0.0 0.0 0.0 0.0 0.0 0.08291176348186975 0.0 0.0 0.0 0.0 0.0 0.0 0.01507499643821138 0.0 0.0 0.0 0.0 0.0 0.0 0.0 0.0 1:0.0 2:0.0 3:0.0 4:0.0 5:0.0 6:0.0 7:0.0 8:0.0 9:0.0 10:0.0 11:0.0 12:0.0 13:0.0 14:0.0 15:0.0 16:0.0 17:0.0 18:0.0 19:0.0 20:0.0 21:0.0 22:0.0 23:0.0 24:0.0 25:0.0 26:0.0 27:0.0 28:0.0 29:1.0 30:1.0 31:1.0 32:0.0 33:0.0 34:0.0 35:1.0 36:1.0 37:1.0 38:0.0 39:0.0 40:1.0 41:0.0 42:1.0 43:1.0 44:0.0 45:0.0 46:0.0 47:0.0 48:1.0 49:1.0 50:1.0 51:0.0 52:0.0 53:0.0 54:0.0 55:0.0 56:1.0 57:1.0 58:0.0 59:0.0 60:0.0 61:0.0 62:0.0 63:0.0 64:1.0 65:1.0 66:0.0 67:0.0 68:0.0 69:0.0 70:0.0 71:1.0 72:1.0 73:1.0 74:0.0 75:0.0 76:0.0 77:0.0 78:1.0 79:1.0 80:0.0 81:1.0 82:0.0 83:0.0 84:0.0 85:1.0 86:1.0 87:0.0 88:0.0 89:1.0 90:1.0 91:0.0 92:1.0 93:1.0 94:0.0 95:0.0 96:0.0 97:0.0 98:1.0 99:1.0 100:1.0 101:0.0 102:0.0 103:0.0 104:0.0 105:0.0 106:0.0 107:0.0 108:0.0 109:0.0 110:0.0 111:0.0 112:0.0 113:0.0 114:0.0 115:0.0 116:0.0 117:0.0 118:0.0 119:0.0 120:0.0 121:0.0 122:0.0 123:0.0 124:0.0 125:0.0 126:0.0 127:0.0 128:0.0 
0.0 0.0 0.0 0.0 0.0 0.003903451364659006 0.0 0.0 0.0 0.0 0.0 0.0 0.0 0.0 0.0 0.0 0.0 0.0 0.0 0.0 0.0 0.0 0.0 0.0 0.0 1:0.0 2:0.0 3:0.0 4:0.0 5:0.0 6:0.0 7:0.0 8:0.0 9:0.0 10:0.0 11:0.0 12:0.0 13:0.0 14:0.0 15:0.0 16:0.0 17:0.0 18:0.0 19:0.0 20:0.0 21:0.0 22:0.0 23:0.0 24:0.0 25:0.0 26:0.0 27:0.0 28:0.0 29:0.0 30:0.0 31:0.0 32:0.0 33:0.0 34:0.0 35:1.0 36:1.0 37:1.0 38:1.0 39:0.0 40:0.0 41:0.0 42:1.0 43:1.0 44:0.0 45:0.0 46:1.0 47:1.0 48:0.0 49:0.0 50:1.0 51:0.0 52:0.0 53:1.0 54:1.0 55:1.0 56:1.0 57:1.0 58:1.0 59:0.0 60:0.0 61:0.0 62:0.0 63:0.0 64:1.0 65:1.0 66:0.0 67:0.0 68:0.0 69:0.0 70:0.0 71:0.0 72:1.0 73:1.0 74:0.0 75:0.0 76:0.0 77:0.0 78:0.0 79:1.0 80:1.0 81:1.0 82:0.0 83:0.0 84:0.0 85:0.0 86:1.0 87:1.0 88:0.0 89:1.0 90:1.0 91:1.0 92:1.0 93:1.0 94:1.0 95:0.0 96:0.0 97:0.0 98:0.0 99:0.0 100:0.0 101:0.0 102:0.0 103:0.0 104:0.0 105:0.0 106:0.0 107:0.0 108:0.0 109:0.0 110:0.0 111:0.0 112:0.0 113:0.0 114:0.0 115:0.0 116:0.0 117:0.0 118:0.0 119:0.0 120:0.0 121:0.0 122:0.0 123:0.0 124:0.0 125:0.0 126:0.0 127:0.0 128:0.0 
0.0 0.0 0.0 0.0 0.0 0.0 0.0 0.0 0.0 0.0 0.0 0.0 0.0 0.0 0.0 0.0 0.1 0.0 0.0 0.0 0.0 0.0 0.0 0.0 0.0 1:0.0 2:0.0 3:0.0 4:0.0 5:0.0 6:0.0 7:0.0 8:0.0 9:0.0 10:0.0 11:0.0 12:0.0 13:0.0 14:0.0 15:0.0 16:0.0 17:0.0 18:0.0 19:0.0 20:0.0 21:0.0 22:0.0 23:0.0 24:0.0 25:0.0 26:0.0 27:0.0 28:0.0 29:0.0 30:0.0 31:0.0 32:0.0 33:0.0 34:0.0 35:0.0 36:0.0 37:0.0 38:0.0 39:0.0 40:0.0 41:1.0 42:1.0 43:1.0 44:1.0 45:1.0 46:1.0 47:1.0 48:1.0 49:1.0 50:0.0 51:0.0 52:0.0 53:0.0 54:1.0 55:1.0 56:1.0 57:1.0 58:0.0 59:0.0 60:0.0 61:0.0 62:0.0 63:0.0 64:1.0 65:1.0 66:0.0 67:0.0 68:0.0 69:0.0 70:0.0 71:1.0 72:1.0 73:1.0 74:0.0 75:0.0 76:0.0 77:0.0 78:1.0 79:1.0 80:0.0 81:1.0 82:0.0 83:0.0 84:0.0 85:1.0 86:1.0 87:0.0 88:0.0 89:1.0 90:1.0 91:1.0 92:1.0 93:0.0 94:0.0 95:0.0 96:0.0 97:0.0 98:0.0 99:0.0 100:0.0 101:0.0 102:0.0 103:0.0 104:0.0 105:0.0 106:0.0 107:0.0 108:0.0 109:0.0 110:0.0 111:0.0 112:0.0 113:0.0 114:0.0 115:0.0 116:0.0 117:0.0 118:0.0 119:0.0 120:0.0 121:0.0 122:0.0 123:0.0 124:0.0 125:0.0 126:0.0 127:0.0 128:0.0 
0.0 0.1 0.1 0.0 0.0 0.060942208067586434 0.0 0.0 0.0 0.06001279363366648 0.0 0.0 0.0 0.0 0.0 0.0 0.0904566778808585 0.0 0.0 0.0 0.0 0.0 0.0 0.1 0.0 1:0.0 2:0.0 3:0.0 4:0.0 5:0.0 6:0.0 7:0.0 8:0.0 9:0.0 10:0.0 11:0.0 12:0.0 13:0.0 14:0.0 15:0.0 16:0.0 17:0.0 18:0.0 19:0.0 20:0.0 21:0.0 22:0.0 23:0.0 24:0.0 25:0.0 26:0.0 27:0.0 28:0.0 29:0.0 30:0.0 31:0.0 32:0.0 33:0.0 34:0.0 35:0.0 36:0.0 37:0.0 38:0.0 39:0.0 40:0.0 41:0.0 42:0.0 43:1.0 44:1.0 45:1.0 46:0.0 47:0.0 48:0.0 49:1.0 50:1.0 51:1.0 52:0.0 53:1.0 54:1.0 55:1.0 56:1.0 57:1.0 58:0.0 59:0.0 60:0.0 61:0.0 62:0.0 63:0.0 64:1.0 65:1.0 66:0.0 67:0.0 68:0.0 69:0.0 70:0.0 71:0.0 72:1.0 73:1.0 74:0.0 75:1.0 76:1.0 77:0.0 78:0.0 79:1.0 80:1.0 81:1.0 82:1.0 83:1.0 84:1.0 85:1.0 86:1.0 87:1.0 88:0.0 89:0.0 90:0.0 91:0.0 92:0.0 93:0.0 94:0.0 95:0.0 96:0.0 97:0.0 98:0.0 99:0.0 100:0.0 101:0.0 102:0.0 103:0.0 104:0.0 105:0.0 106:0.0 107:0.0 108:0.0 109:0.0 110:0.0 111:0.0 112:0.0 113:0.0 114:0.0 115:0.0 116:0.0 117:0.0 118:0.0 119:0.0 120:0.0 121:0.0 122:0.0 123:0.0 124:0.0 125:0.0 126:0.0 127:0.0 128:0.0 
0.0 0.0 0.0 0.0 0.002300625130305709 0.0 0.0 0.0 0.0 0.0 0.0 0.0 0.0 0.0 0.0 0.0 0.0 0.0 0.0 0.0 0.0 0.0 0.0 0.0 0.0 1:0.0 2:0.0 3:0.0 4:0.0 5:0.0 6:0.0 7:0.0 8:0.0 9:0.0 10:0.0 11:0.0 12:0.0 13:0.0 14:0.0 15:0.0 16:0.0 17:0.0 18:0.0 19:0.0 20:0.0 21:0.0 22:0.0 23:0.0 24:0.0 25:0.0 26:0.0 27:0.0 28:0.0 29:0.0 30:0.0 31:0.0 32:0.0 33:0.0 34:0.0 35:0.0 36:1.0 37:1.0 38:1.0 39:1.0 40:0.0 41:0.0 42:0.0 43:1.0 44:1.0 45:0.0 46:0.0 47:1.0 48:1.0 49:0.0 50:1.0 51:0.0 52:0.0 53:0.0 54:0.0 55:0.0 56:1.0 57:1.0 58:0.0 59:0.0 60:0.0 61:0.0 62:0.0 63:0.0 64:1.0 65:1.0 66:0.0 67:0.0 68:0.0 69:0.0 70:0.0 71:0.0 72:1.0 73:1.0 74:0.0 75:0.0 76:0.0 77:0.0 78:0.0 79:0.0 80:1.0 81:1.0 82:0.0 83:0.0 84:0.0 85:0.0 86:1.0 87:1.0 88:1.0 89:1.0 90:1.0 91:1.0 92:1.0 93:1.0 94:1.0 95:0.0 96:0.0 97:0.0 98:0.0 99:0.0 100:0.0 101:0.0 102:0.0 103:0.0 104:0.0 105:0.0 106:0.0 107:0.0 108:0.0 109:0.0 110:0.0 111:0.0 112:0.0 113:0.0 114:0.0 115:0.0 116:0.0 117:0.0 118:0.0 119:0.0 120:0.0 121:0.0 122:0.0 123:0.0 124:0.0 125:0.0 126:0.0 127:0.0 128:0.0 
0.0 0.0 0.0 0.0 0.0 0.0 0.0 0.0 0.0 0.0 0.0 0.0 0.0 0.0 0.0 0.0 0.1 0.0 0.0 0.0 0.0 0.0 0.0 0.04304236608687633 0.0 1:0.0 2:0.0 3:0.0 4:0.0 5:0.0 6:0.0 7:0.0 8:0.0 9:0.0 10:0.0 11:0.0 12:0.0 13:0.0 14:0.0 15:0.0 16:0.0 17:0.0 18:0.0 19:0.0 20:0.0 21:0.0 22:0.0 23:0.0 24:0.0 25:0.0 26:0.0 27:0.0 28:1.0 29:1.0 30:1.0 31:1.0 32:1.0 33:0.0 34:0.0 35:1.0 36:1.0 37:0.0 38:0.0 39:0.0 40:1.0 41:1.0 42:1.0 43:0.0 44:0.0 45:0.0 46:0.0 47:0.0 48:1.0 49:1.0 50:0.0 51:0.0 52:0.0 53:0.0 54:0.0 55:0.0 56:1.0 57:1.0 58:0.0 59:0.0 60:0.0 61:0.0 62:0.0 63:0.0 64:1.0 65:1.0 66:0.0 67:0.0 68:0.0 69:0.0 70:0.0 71:0.0 72:1.0 73:1.0 74:0.0 75:0.0 76:0.0 77:0.0 78:0.0 79:0.0 80:1.0 81:1.0 82:0.0 83:0.0 84:0.0 85:0.0 86:0.0 87:1.0 88:1.0 89:1.0 90:1.0 91:0.0 92:0.0 93:1.0 94:1.0 95:1.0 96:0.0 97:0.0 98:1.0 99:1.0 100:1.0 101:1.0 102:0.0 103:0.0 104:0.0 105:0.0 106:0.0 107:0.0 108:0.0 109:0.0 110:0.0 111:0.0 112:0.0 113:0.0 114:0.0 115:0.0 116:0.0 117:0.0 118:0.0 119:0.0 120:0.0 121:0.0 122:0.0 123:0.0 124:0.0 125:0.0 126:0.0 127:0.0 128:0.0 
0.0 0.0 0.020136806470822513 0.0 0.0 0.0 0.0 0.0 0.04813181755700984 0.0 0.0 0.0 0.0 0.0 2.5960411616411303E-4 0.0 0.0 0.0 0.0 0.0 0.0 0.0 0.0 0.0 0.0 1:0.0 2:0.0 3:0.0 4:0.0 5:0.0 6:0.0 7:0.0 8:0.0 9:0.0 10:0.0 11:0.0 12:0.0 13:0.0 14:0.0 15:0.0 16:0.0 17:0.0 18:0.0 19:0.0 20:0.0 21:0.0 22:0.0 23:0.0 24:0.0 25:0.0 26:0.0 27:0.0 28:0.0 29:0.0 30:0.0 31:0.0 32:0.0 33:0.0 34:0.0 35:0.0 36:0.0 37:0.0 38:0.0 39:0.0 40:0.0 41:0.0 42:0.0 43:1.0 44:1.0 45:1.0 46:1.0 47:1.0 48:1.0 49:1.0 50:1.0 51:1.0 52:0.0 53:1.0 54:0.0 55:0.0 56:1.0 57:1.0 58:0.0 59:0.0 60:0.0 61:0.0 62:0.0 63:0.0 64:1.0 65:1.0 66:0.0 67:0.0 68:0.0 69:0.0 70:0.0 71:1.0 72:1.0 73:1.0 74:0.0 75:0.0 76:0.0 77:0.0 78:1.0 79:1.0 80:0.0 81:1.0 82:1.0 83:1.0 84:1.0 85:1.0 86:1.0 87:0.0 88:0.0 89:0.0 90:0.0 91:0.0 92:0.0 93:0.0 94:0.0 95:0.0 96:0.0 97:0.0 98:0.0 99:0.0 100:0.0 101:0.0 102:0.0 103:0.0 104:0.0 105:0.0 106:0.0 107:0.0 108:0.0 109:0.0 110:0.0 111:0.0 112:0.0 113:0.0 114:0.0 115:0.0 116:0.0 117:0.0 118:0.0 119:0.0 120:0.0 121:0.0 122:0.0 123:0.0 124:0.0 125:0.0 126:0.0 127:0.0 128:0.0 
0.1 0.1 0.1 0.0 0.0 0.0 0.042405931064415016 0.0 0.07266858040532531 0.1 0.08703991609732267 0.0 0.0 0.0 0.0 0.0 0.1 0.0 0.0 0.0 0.0 0.01219776646013262 0.0 0.0602208049717633 0.0 1:0.0 2:0.0 3:0.0 4:0.0 5:0.0 6:0.0 7:0.0 8:0.0 9:0.0 10:0.0 11:0.0 12:0.0 13:0.0 14:0.0 15:0.0 16:0.0 17:0.0 18:0.0 19:0.0 20:0.0 21:0.0 22:0.0 23:0.0 24:0.0 25:0.0 26:0.0 27:0.0 28:0.0 29:0.0 30:0.0 31:0.0 32:0.0 33:0.0 34:0.0 35:0.0 36:0.0 37:0.0 38:0.0 39:0.0 40:0.0 41:1.0 42:1.0 43:0.0 44:0.0 45:0.0 46:0.0 47:0.0 48:0.0 49:1.0 50:1.0 51:1.0 52:1.0 53:1.0 54:0.0 55:0.0 56:0.0 57:1.0 58:0.0 59:0.0 60:0.0 61:1.0 62:1.0 63:1.0 64:1.0 65:1.0 66:0.0 67:0.0 68:0.0 69:0.0 70:0.0 71:0.0 72:1.0 73:1.0 74:0.0 75:0.0 76:0.0 77:0.0 78:0.0 79:0.0 80:1.0 81:1.0 82:1.0 83:1.0 84:1.0 85:1.0 86:1.0 87:1.0 88:1.0 89:0.0 90:0.0 91:0.0 92:0.0 93:0.0 94:0.0 95:0.0 96:0.0 97:0.0 98:0.0 99:0.0 100:0.0 101:0.0 102:0.0 103:0.0 104:0.0 105:0.0 106:0.0 107:0.0 108:0.0 109:0.0 110:0.0 111:0.0 112:0.0 113:0.0 114:0.0 115:0.0 116:0.0 117:0.0 118:0.0 119:0.0 120:0.0 121:0.0 122:0.0 123:0.0 124:0.0 125:0.0 126:0.0 127:0.0 128:0.0 
0.0 0.0 0.0 0.0 0.0 0.0 0.0 0.0 0.0 0.0 0.0 0.0 0.0 0.0 0.0 0.0 0.0 0.0 0.0 0.0 0.0 0.0 0.0 0.002972158216717377 0.0 1:0.0 2:0.0 3:0.0 4:0.0 5:0.0 6:0.0 7:0.0 8:0.0 9:0.0 10:0.0 11:0.0 12:0.0 13:0.0 14:0.0 15:0.0 16:0.0 17:0.0 18:0.0 19:0.0 20:0.0 21:0.0 22:0.0 23:0.0 24:0.0 25:0.0 26:0.0 27:0.0 28:0.0 29:0.0 30:0.0 31:0.0 32:0.0 33:1.0 34:1.0 35:1.0 36:1.0 37:1.0 38:0.0 39:0.0 40:0.0 41:1.0 42:0.0 43:0.0 44:0.0 45:1.0 46:1.0 47:1.0 48:0.0 49:1.0 50:0.0 51:0.0 52:0.0 53:0.0 54:0.0 55:1.0 56:1.0 57:1.0 58:0.0 59:0.0 60:0.0 61:0.0 62:0.0 63:0.0 64:1.0 65:1.0 66:0.0 67:0.0 68:0.0 69:0.0 70:0.0 71:0.0 72:1.0 73:1.0 74:1.0 75:0.0 76:0.0 77:0.0 78:0.0 79:0.0 80:1.0 81:0.0 82:1.0 83:1.0 84:0.0 85:0.0 86:0.0 87:1.0 88:1.0 89:0.0 90:0.0 91:1.0 92:1.0 93:1.0 94:1.0 95:1.0 96:0.0 97:0.0 98:0.0 99:0.0 100:0.0 101:0.0 102:0.0 103:0.0 104:0.0 105:0.0 106:0.0 107:0.0 108:0.0 109:0.0 110:0.0 111:0.0 112:0.0 113:0.0 114:0.0 115:0.0 116:0.0 117:0.0 118:0.0 119:0.0 120:0.0 121:0.0 122:0.0 123:0.0 124:0.0 125:0.0 126:0.0 127:0.0 128:0.0 
0.0 0.1 0.0 0.0 0.0 0.0 0.0 0.0 0.0 0.0 0.0 0.0 0.0 0.0 0.0 0.0 0.0 0.0 0.0 0.0 0.0 0.0 0.0 0.0 0.0 1:0.0 2:0.0 3:0.0 4:0.0 5:0.0 6:0.0 7:0.0 8:0.0 9:0.0 10:0.0 11:0.0 12:0.0 13:0.0 14:0.0 15:0.0 16:0.0 17:0.0 18:0.0 19:0.0 20:0.0 21:0.0 22:0.0 23:0.0 24:0.0 25:0.0 26:0.0 27:0.0 28:0.0 29:0.0 30:0.0 31:0.0 32:0.0 33:0.0 34:0.0 35:0.0 36:1.0 37:1.0 38:1.0 39:1.0 40:1.0 41:0.0 42:1.0 43:1.0 44:1.0 45:0.0 46:0.0 47:0.0 48:1.0 49:1.0 50:1.0 51:0.0 52:0.0 53:0.0 54:0.0 55:0.0 56:1.0 57:1.0 58:0.0 59:0.0 60:0.0 61:0.0 62:0.0 63:0.0 64:1.0 65:1.0 66:0.0 67:0.0 68:0.0 69:0.0 70:0.0 71:1.0 72:1.0 73:1.0 74:0.0 75:0.0 76:0.0 77:0.0 78:1.0 79:1.0 80:0.0 81:1.0 82:0.0 83:0.0 84:0.0 85:1.0 86:1.0 87:0.0 88:0.0 89:1.0 90:1.0 91:1.0 92:1.0 93:1.0 94:0.0 95:0.0 96:0.0 97:0.0 98:0.0 99:0.0 100:0.0 101:0.0 102:0.0 103:0.0 104:0.0 105:0.0 106:0.0 107:0.0 108:0.0 109:0.0 110:0.0 111:0.0 112:0.0 113:0.0 114:0.0 115:0.0 116:0.0 117:0.0 118:0.0 119:0.0 120:0.0 121:0.0 122:0.0 123:0.0 124:0.0 125:0.0 126:0.0 127:0.0 128:0.0 
0.0 0.0 0.0 0.0 0.0 0.0 0.0 0.037222283474451265 0.0 0.03900357677822353 0.0 0.0 0.0 0.0 0.0 0.0 0.0 0.0 0.0 0.0 0.0 0.0 0.0 0.0 0.0 1:0.0 2:0.0 3:0.0 4:0.0 5:0.0 6:0.0 7:0.0 8:0.0 9:0.0 10:0.0 11:0.0 12:0.0 13:0.0 14:0.0 15:0.0 16:0.0 17:0.0 18:0.0 19:0.0 20:0.0 21:0.0 22:0.0 23:0.0 24:0.0 25:0.0 26:0.0 27:0.0 28:0.0 29:0.0 30:0.0 31:0.0 32:0.0 33:0.0 34:0.0 35:0.0 36:1.0 37:1.0 38:1.0 39:1.0 40:0.0 41:0.0 42:1.0 43:1.0 44:1.0 45:0.0 46:0.0 47:1.0 48:1.0 49:1.0 50:1.0 51:1.0 52:0.0 53:0.0 54:0.0 55:0.0 56:1.0 57:1.0 58:0.0 59:0.0 60:0.0 61:0.0 62:0.0 63:0.0 64:1.0 65:1.0 66:0.0 67:0.0 68:0.0 69:0.0 70:0.0 71:0.0 72:1.0 73:1.0 74:0.0 75:0.0 76:0.0 77:0.0 78:0.0 79:1.0 80:1.0 81:1.0 82:1.0 83:1.0 84:0.0 85:1.0 86:1.0 87:1.0 88:0.0 89:0.0 90:0.0 91:1.0 92:1.0 93:1.0 94:0.0 95:0.0 96:0.0 97:0.0 98:0.0 99:0.0 100:0.0 101:0.0 102:0.0 103:0.0 104:0.0 105:0.0 106:0.0 107:0.0 108:0.0 109:0.0 110:0.0 111:0.0 112:0.0 113:0.0 114:0.0 115:0.0 116:0.0 117:0.0 118:0.0 119:0.0 120:0.0 121:0.0 122:0.0 123:0.0 124:0.0 125:0.0 126:0.0 127:0.0 128:0.0 
0.0 0.0 0.0 0.0 0.0 0.0 0.0 0.0 0.0 0.0 0.0 0.0 0.0 0.0 0.0 0.0 0.0 0.0 0.0 0.0 0.0 0.010943329469355558 0.0 0.0 0.0 1:0.0 2:0.0 3:0.0 4:0.0 5:0.0 6:0.0 7:0.0 8:0.0 9:0.0 10:0.0 11:0.0 12:0.0 13:0.0 14:0.0 15:0.0 16:0.0 17:0.0 18:0.0 19:1.0 20:1.0 21:1.0 22:0.0 23:0.0 24:0.0 25:0.0 26:1.0 27:1.0 28:1.0 29:1.0 30:0.0 31:0.0 32:0.0 33:1.0 34:1.0 35:1.0 36:1.0 37:1.0 38:1.0 39:1.0 40:0.0 41:1.0 42:0.0 43:0.0 44:0.0 45:0.0 46:0.0 47:1.0 48:0.0 49:1.0 50:0.0 51:0.0 52:0.0 53:0.0 54:0.0 55:1.0 56:1.0 57:1.0 58:0.0 59:0.0 60:0.0 61:0.0 62:0.0 63:0.0 64:1.0 65:1.0 66:0.0 67:0.0 68:0.0 69:0.0 70:0.0 71:0.0 72:1.0 73:1.0 74:0.0 75:0.0 76:0.0 77:0.0 78:0.0 79:0.0 80:1.0 81:1.0 82:0.0 83:0.0 84:0.0 85:0.0 86:0.0 87:0.0 88:1.0 89:1.0 90:1.0 91:1.0 92:0.0 93:0.0 94:0.0 95:1.0 96:1.0 97:0.0 98:0.0 99:1.0 100:1.0 101:1.0 102:1.0 103:1.0 104:0.0 105:0.0 106:0.0 107:0.0 108:0.0 109:0.0 110:1.0 111:0.0 112:0.0 113:0.0 114:0.0 115:0.0 116:0.0 117:0.0 118:0.0 119:0.0 120:0.0 121:0.0 122:0.0 123:0.0 124:0.0 125:0.0 126:0.0 127:0.0 128:0.0 
0.0 0.0 0.0 0.0 0.0 0.0 0.0 0.0 0.0 0.1 0.0 0.0 0.0 0.0 0.0 0.0 0.0 0.0 0.0 0.0 0.0 0.028807192270906064 0.0 0.0 0.0 1:0.0 2:0.0 3:0.0 4:0.0 5:0.0 6:0.0 7:0.0 8:0.0 9:0.0 10:0.0 11:0.0 12:0.0 13:0.0 14:0.0 15:0.0 16:0.0 17:0.0 18:0.0 19:0.0 20:0.0 21:0.0 22:0.0 23:0.0 24:0.0 25:0.0 26:0.0 27:0.0 28:0.0 29:0.0 30:0.0 31:0.0 32:0.0 33:0.0 34:0.0 35:0.0 36:1.0 37:0.0 38:0.0 39:0.0 40:0.0 41:0.0 42:1.0 43:1.0 44:1.0 45:1.0 46:1.0 47:1.0 48:0.0 49:1.0 50:1.0 51:0.0 52:1.0 53:1.0 54:0.0 55:1.0 56:1.0 57:1.0 58:0.0 59:0.0 60:1.0 61:0.0 62:0.0 63:0.0 64:1.0 65:1.0 66:0.0 67:0.0 68:0.0 69:0.0 70:0.0 71:0.0 72:1.0 73:1.0 74:0.0 75:0.0 76:0.0 77:0.0 78:0.0 79:0.0 80:1.0 81:1.0 82:1.0 83:1.0 84:0.0 85:1.0 86:1.0 87:1.0 88:1.0 89:0.0 90:0.0 91:1.0 92:1.0 93:1.0 94:0.0 95:0.0 96:0.0 97:0.0 98:0.0 99:0.0 100:0.0 101:0.0 102:0.0 103:0.0 104:0.0 105:0.0 106:0.0 107:0.0 108:0.0 109:0.0 110:0.0 111:0.0 112:0.0 113:0.0 114:0.0 115:0.0 116:0.0 117:0.0 118:0.0 119:0.0 120:0.0 121:0.0 122:0.0 123:0.0 124:0.0 125:0.0 126:0.0 127:0.0 128:0.0 
0.0 0.0 0.005168154103723266 0.0 0.0 0.0 0.0 0.0 0.0 0.0 0.0 0.0 0.0 0.0 0.0 0.0 0.0 0.0 0.0 0.0 0.0 0.0 0.0 0.0 0.0 1:0.0 2:0.0 3:0.0 4:0.0 5:1.0 6:1.0 7:0.0 8:0.0 9:0.0 10:0.0 11:0.0 12:0.0 13:1.0 14:1.0 15:1.0 16:0.0 17:0.0 18:0.0 19:1.0 20:1.0 21:1.0 22:1.0 23:1.0 24:0.0 25:0.0 26:0.0 27:1.0 28:0.0 29:0.0 30:0.0 31:1.0 32:1.0 33:0.0 34:1.0 35:1.0 36:0.0 37:0.0 38:0.0 39:0.0 40:1.0 41:0.0 42:1.0 43:0.0 44:0.0 45:0.0 46:0.0 47:0.0 48:1.0 49:0.0 50:1.0 51:0.0 52:0.0 53:0.0 54:0.0 55:0.0 56:1.0 57:1.0 58:1.0 59:0.0 60:0.0 61:0.0 62:0.0 63:0.0 64:1.0 65:1.0 66:0.0 67:0.0 68:0.0 69:0.0 70:0.0 71:0.0 72:1.0 73:1.0 74:0.0 75:0.0 76:0.0 77:0.0 78:0.0 79:0.0 80:1.0 81:1.0 82:0.0 83:0.0 84:0.0 85:0.0 86:0.0 87:0.0 88:1.0 89:1.0 90:0.0 91:0.0 92:0.0 93:0.0 94:0.0 95:0.0 96:1.0 97:1.0 98:0.0 99:0.0 100:0.0 101:0.0 102:0.0 103:0.0 104:1.0 105:1.0 106:0.0 107:0.0 108:0.0 109:0.0 110:0.0 111:1.0 112:1.0 113:1.0 114:0.0 115:0.0 116:0.0 117:0.0 118:1.0 119:1.0 120:0.0 121:1.0 122:1.0 123:1.0 124:1.0 125:1.0 126:1.0 127:0.0 128:0.0 
0.0 0.0 0.0 0.0 0.0 0.0 0.0 0.0 0.0 0.0 0.0 0.0 0.0 0.0 0.0 0.0 0.0 0.0 0.0 0.01010530651152662 0.0 0.0 0.0 0.0 0.0 1:0.0 2:0.0 3:0.0 4:0.0 5:0.0 6:0.0 7:0.0 8:0.0 9:0.0 10:0.0 11:1.0 12:1.0 13:0.0 14:0.0 15:0.0 16:0.0 17:0.0 18:1.0 19:1.0 20:1.0 21:1.0 22:1.0 23:0.0 24:1.0 25:1.0 26:1.0 27:0.0 28:0.0 29:0.0 30:0.0 31:0.0 32:1.0 33:1.0 34:0.0 35:0.0 36:0.0 37:0.0 38:0.0 39:0.0 40:1.0 41:1.0 42:0.0 43:0.0 44:0.0 45:0.0 46:0.0 47:0.0 48:1.0 49:1.0 50:0.0 51:0.0 52:0.0 53:0.0 54:0.0 55:0.0 56:1.0 57:1.0 58:0.0 59:0.0 60:0.0 61:0.0 62:0.0 63:0.0 64:1.0 65:1.0 66:0.0 67:0.0 68:0.0 69:0.0 70:0.0 71:0.0 72:1.0 73:1.0 74:0.0 75:0.0 76:0.0 77:0.0 78:0.0 79:0.0 80:1.0 81:1.0 82:0.0 83:0.0 84:0.0 85:0.0 86:0.0 87:1.0 88:1.0 89:1.0 90:0.0 91:0.0 92:0.0 93:0.0 94:1.0 95:1.0 96:0.0 97:1.0 98:0.0 99:0.0 100:0.0 101:1.0 102:1.0 103:0.0 104:0.0 105:1.0 106:1.0 107:1.0 108:1.0 109:0.0 110:0.0 111:0.0 112:0.0 113:0.0 114:1.0 115:0.0 116:0.0 117:0.0 118:0.0 119:0.0 120:0.0 121:0.0 122:0.0 123:0.0 124:0.0 125:0.0 126:0.0 127:0.0 128:0.0 
0.0 0.024873165160430366 0.0 0.1 0.07702541346392124 0.1 0.1 0.03651707203374781 0.01925119854400174 0.1 0.1 0.03988491822047883 0.029427758558526706 0.1 0.040766928752880516 0.0 0.08850126050128296 0.06451755111734211 0.03868680268971702 0.008298449274501123 0.06539510701197047 0.03458288034835092 0.01199832774352586 0.0 0.041528308026008647 1:0.0 2:0.0 3:0.0 4:1.0 5:0.0 6:0.0 7:0.0 8:0.0 9:0.0 10:0.0 11:0.0 12:1.0 13:0.0 14:0.0 15:0.0 16:0.0 17:0.0 18:0.0 19:1.0 20:0.0 21:0.0 22:0.0 23:0.0 24:0.0 25:0.0 26:0.0 27:1.0 28:0.0 29:0.0 30:0.0 31:0.0 32:0.0 33:0.0 34:0.0 35:1.0 36:0.0 37:1.0 38:0.0 39:0.0 40:0.0 41:0.0 42:1.0 43:1.0 44:0.0 45:1.0 46:0.0 47:0.0 48:0.0 49:0.0 50:1.0 51:0.0 52:0.0 53:1.0 54:0.0 55:0.0 56:0.0 57:0.0 58:1.0 59:0.0 60:0.0 61:1.0 62:1.0 63:0.0 64:0.0 65:0.0 66:1.0 67:0.0 68:0.0 69:0.0 70:1.0 71:0.0 72:0.0 73:0.0 74:1.0 75:0.0 76:0.0 77:0.0 78:1.0 79:1.0 80:0.0 81:0.0 82:1.0 83:0.0 84:0.0 85:0.0 86:0.0 87:1.0 88:0.0 89:0.0 90:1.0 91:1.0 92:0.0 93:0.0 94:0.0 95:1.0 96:0.0 97:0.0 98:0.0 99:1.0 100:0.0 101:0.0 102:0.0 103:1.0 104:0.0 105:0.0 106:0.0 107:1.0 108:1.0 109:0.0 110:0.0 111:1.0 112:0.0 113:0.0 114:0.0 115:0.0 116:1.0 117:0.0 118:0.0 119:1.0 120:0.0 121:0.0 122:0.0 123:0.0 124:1.0 125:1.0 126:1.0 127:1.0 128:0.0 
0.0 0.0 0.0 0.0 0.0 0.0 0.0 0.0 0.0 0.0 0.0 0.0 0.0 0.0 0.0 0.0 0.04056145875336279 0.0 0.0 0.0 0.0 0.0 0.0 0.0 0.0 1:0.0 2:0.0 3:0.0 4:0.0 5:0.0 6:0.0 7:0.0 8:0.0 9:0.0 10:0.0 11:0.0 12:0.0 13:0.0 14:0.0 15:0.0 16:0.0 17:0.0 18:0.0 19:0.0 20:0.0 21:0.0 22:0.0 23:0.0 24:0.0 25:0.0 26:0.0 27:0.0 28:1.0 29:1.0 30:1.0 31:1.0 32:1.0 33:0.0 34:1.0 35:1.0 36:1.0 37:0.0 38:0.0 39:0.0 40:1.0 41:0.0 42:1.0 43:0.0 44:0.0 45:0.0 46:0.0 47:0.0 48:1.0 49:0.0 50:1.0 51:0.0 52:0.0 53:0.0 54:0.0 55:0.0 56:1.0 57:1.0 58:1.0 59:0.0 60:0.0 61:0.0 62:0.0 63:0.0 64:1.0 65:1.0 66:0.0 67:0.0 68:0.0 69:0.0 70:0.0 71:1.0 72:1.0 73:1.0 74:0.0 75:0.0 76:0.0 77:0.0 78:0.0 79:1.0 80:0.0 81:1.0 82:0.0 83:0.0 84:0.0 85:0.0 86:1.0 87:1.0 88:0.0 89:1.0 90:0.0 91:0.0 92:1.0 93:1.0 94:1.0 95:0.0 96:0.0 97:1.0 98:1.0 99:1.0 100:1.0 101:0.0 102:0.0 103:0.0 104:0.0 105:0.0 106:0.0 107:0.0 108:0.0 109:0.0 110:0.0 111:0.0 112:0.0 113:0.0 114:0.0 115:0.0 116:0.0 117:0.0 118:0.0 119:0.0 120:0.0 121:0.0 122:0.0 123:0.0 124:0.0 125:0.0 126:0.0 127:0.0 128:0.0 
0.0 0.1 0.1 0.0 0.0 0.0 0.0 0.0 0.040020851922399146 0.0 0.0 0.0 0.0 0.0 0.0 0.0 0.0 0.0 0.0 0.0 0.0 0.0 0.0 0.0 0.0 1:0.0 2:0.0 3:0.0 4:0.0 5:0.0 6:0.0 7:0.0 8:0.0 9:0.0 10:0.0 11:0.0 12:0.0 13:0.0 14:0.0 15:0.0 16:0.0 17:0.0 18:0.0 19:0.0 20:0.0 21:0.0 22:0.0 23:0.0 24:0.0 25:0.0 26:1.0 27:1.0 28:1.0 29:1.0 30:1.0 31:0.0 32:0.0 33:0.0 34:0.0 35:0.0 36:0.0 37:0.0 38:1.0 39:1.0 40:1.0 41:0.0 42:0.0 43:0.0 44:0.0 45:0.0 46:0.0 47:0.0 48:1.0 49:0.0 50:1.0 51:0.0 52:0.0 53:0.0 54:0.0 55:0.0 56:1.0 57:1.0 58:1.0 59:0.0 60:0.0 61:0.0 62:0.0 63:0.0 64:1.0 65:1.0 66:0.0 67:0.0 68:0.0 69:0.0 70:0.0 71:0.0 72:1.0 73:1.0 74:0.0 75:0.0 76:0.0 77:0.0 78:0.0 79:0.0 80:1.0 81:1.0 82:0.0 83:0.0 84:0.0 85:0.0 86:0.0 87:0.0 88:1.0 89:1.0 90:0.0 91:0.0 92:0.0 93:0.0 94:0.0 95:1.0 96:1.0 97:0.0 98:1.0 99:1.0 100:1.0 101:1.0 102:1.0 103:1.0 104:0.0 105:0.0 106:0.0 107:0.0 108:0.0 109:0.0 110:0.0 111:0.0 112:0.0 113:0.0 114:0.0 115:0.0 116:0.0 117:0.0 118:0.0 119:0.0 120:0.0 121:0.0 122:0.0 123:0.0 124:0.0 125:0.0 126:0.0 127:0.0 128:0.0 
0.0 0.0 0.0 0.0 0.0 0.0 0.040229220202519796 0.0 0.0 0.0 0.0 0.0 0.0 0.0 0.0 0.0 0.1 0.0 0.0 0.0 0.0 0.0 0.0 0.0 0.0 1:0.0 2:0.0 3:0.0 4:0.0 5:0.0 6:0.0 7:0.0 8:0.0 9:0.0 10:0.0 11:0.0 12:0.0 13:0.0 14:0.0 15:0.0 16:0.0 17:0.0 18:0.0 19:0.0 20:0.0 21:0.0 22:0.0 23:0.0 24:0.0 25:0.0 26:0.0 27:1.0 28:1.0 29:1.0 30:1.0 31:0.0 32:0.0 33:1.0 34:1.0 35:1.0 36:0.0 37:0.0 38:0.0 39:0.0 40:0.0 41:1.0 42:0.0 43:0.0 44:0.0 45:0.0 46:0.0 47:1.0 48:0.0 49:1.0 50:0.0 51:0.0 52:0.0 53:0.0 54:0.0 55:1.0 56:1.0 57:1.0 58:0.0 59:0.0 60:0.0 61:0.0 62:0.0 63:0.0 64:1.0 65:1.0 66:0.0 67:0.0 68:0.0 69:0.0 70:0.0 71:0.0 72:1.0 73:1.0 74:0.0 75:0.0 76:0.0 77:0.0 78:0.0 79:0.0 80:1.0 81:1.0 82:0.0 83:0.0 84:0.0 85:0.0 86:0.0 87:0.0 88:1.0 89:1.0 90:1.0 91:1.0 92:0.0 93:0.0 94:0.0 95:0.0 96:1.0 97:0.0 98:0.0 99:1.0 100:1.0 101:1.0 102:1.0 103:1.0 104:1.0 105:0.0 106:0.0 107:0.0 108:0.0 109:0.0 110:0.0 111:0.0 112:0.0 113:0.0 114:0.0 115:0.0 116:0.0 117:0.0 118:0.0 119:0.0 120:0.0 121:0.0 122:0.0 123:0.0 124:0.0 125:0.0 126:0.0 127:0.0 128:0.0 
