svm_type c_svc
kernel_type linear
nr_class 26
total_sv 3759
rho -1.1094877138345531 -1.2989731071296169 1.1021095621761123 -0.7063345481960961 2.3870641991726322 1.9651917433002424 -1.655732959651805 1.4609663599912646 2.0433491797724037 0.30742549397308894 0.9682638798854362 1.681108483440471 1.238024001161303 3.2037935688792873 2.1577724644971887 1.17862616400367 0.9545907614767033 0.6975743533603636 -0.5685193354945886 -0.20163313628829907 0.6157953952523192 -1.342714391626957 0.07640673140293822 -1.0276881635238908 -0.30952303685675314 3.301498943396102 4.237043271423414 0.7350657908929034 1.377191661208303 1.283375982049355 -0.10387841561217744 1.829353275271668 1.5969719475846056 2.103974387775925 0.6227681902569409 1.0926385404681922 1.1491203132418588 2.9930540809261905 1.5237974846540467 1.2399365560547653 1.731753326647561 1.8619962508480137 0.387109773045645 0.8244048399900078 0.34992370676737866 -0.678949504878117 0.9451285200819 0.6048756995982303 0.5704099614595847 2.7470590021421692 0.5022621657839345 2.1472544671396405 1.8106002553998295 -1.0857633066153924 1.364196842717452 2.2733393904127475 0.7479732277290351 1.0800429180011766 2.1074917143989027 1.0522762572211113 3.6999205228900047 1.9000805910931027 1.8997494585117551 1.124171846253813 1.8355772769015222 -5.34363767815096E-4 0.180194601457172 0.4223630774167022 -0.6693883282376614 0.1717553649145082 -1.5751994979365809 -0.2646122884637601 -0.39662673036200546 1.9711621677749118 0.8380297985410136 -1.1383331715831886 1.4679513077791706 1.4548828215301153 0.5075533061535258 0.6283687719459341 1.4083380771515066 0.9061015267843637 3.0254534236587114 1.5792757719866775 2.2015283655275097 1.2434641691870314 0.7800132619122806 -0.48872479458544804 0.3826206670504939 0.21520783374697794 -1.0782461725994705 -0.0488007939810964 -2.23598789078065 0.12489519559078072 2.85658787936919 1.5171884337202293 -0.6980159708449738 1.7132730655286206 1.7822776687103183 0.7080221445710737 1.8715171191756168 3.1161459727671827 1.4290890895619979 3.315081207049442 1.6689312845954751 1.1351200820700995 0.8243571663598044 1.525115343473527 -0.08291354983068087 0.2937945929201237 1.2762087430669022 -0.5146254086091518 0.3525515387848112 -0.16603211097730586 0.6105622514123337 -2.8537808925578503 -2.7072144683254082 -1.9177002240830763 -1.950493903318671 -2.0864462605078935 -2.483582554637757 -2.9342593708076707 -3.7156696377162106 -2.9228171752646497 -2.414838235018925 -2.0822227723292865 -1.9755779419041837 -2.762503654027867 -2.8375017135173994 -2.8655511112837666 -2.2294128286733432 -2.800857010439604 -2.342164169710271 -1.436242851997926 -3.00961032159177 -1.2958147309114463 1.994018455007443 1.3271734603794978 0.3071841104134029 1.3928298594213964 2.1293377448218287 1.5258635721836111 3.5708256389369386 2.288167199839343 0.07325537800703748 -0.6772397313892408 1.2212871059534482 0.04154506059450341 0.1478015189290051 0.443058241084311 -1.8648819261163954 0.6545151027485171 -0.8425526730150155 0.5792784453932958 1.314255893528036 2.3271332045100825 1.3955263713625814 2.303329562433675 2.9032043626372626 1.2920953832879842 3.4659985824092128 1.4927413444641806 1.7031409807415152 1.6053225729541942 2.405395853414586 0.14089822057665688 3.2505685851300896 0.9145813876102584 -0.6359888073669161 1.0134650045243911 0.07626052810317867 1.66009995183321 -0.17566206458286046 -3.1707637779509175 -0.06829266372749285 1.7196536165714356 -1.2272242653411922 0.9791403756523439 -0.9107641395011287 -0.7947355478134348 -0.8878368014449195 -1.2759508805567006 -3.169886022982307 -0.5013361441129969 -0.40625840580389017 -2.1387307806417204 -1.538228330213982 -1.181594120397646 -1.3641445752834331 -4.2634641262290325 -0.7735022741167641 1.0054614612178214 -0.6446946009425748 1.1670186770411013 -0.10272765927100007 -0.494642564451878 -1.1100956815886152 -0.9511887520184724 -1.9394144129957047 -1.3087197772939654 -0.15026354840048797 -1.9691350776918455 -1.0742952865990196 -0.9503971827929634 -2.4295692300559404 0.6634957199057311 2.522736393492997 1.4047652364141616 4.9075264614515275 0.9812461964815662 1.4048690211906765 0.580957396098737 0.10702749630318695 -1.2067251409059534 0.40177998491756833 0.21121974540366845 -1.8202308369509657 -0.3715047992599151 -1.4253342913606073 -0.9614783225268871 1.8361637317027155 -0.4472695484664505 2.093808278407789 -0.035941832924262014 -0.2521324581349779 -0.8182021739752688 -0.8596807106883009 -1.3299374768323087 -0.3034699527587631 -0.0869337673158566 -2.6672139786169207 -1.4478055199398765 -0.4688260599287973 -0.9729621989460988 -3.2230736872954218 -3.020583907124333 -2.070920820808121 -2.217462042466552 -1.82473932096869 -2.5652533617868407 -2.5878235210227287 -2.528370113464138 -1.5812673258223917 -2.6871249411628293 -2.3328129378414584 -0.8642403016020385 -3.3149197481245136 3.049381352496941 0.3898401193922261 -0.2238483630043052 -0.6254491847332994 -0.3605738314975073 -2.327514827691008 -0.436645465154852 0.3097594074459847 -2.276090922075815 -1.7200400196189163 -0.4017561416480554 -1.5998833869020896 -2.6619930526753186 -2.5944322792037204 -1.8986912802544262 -4.159151012968115 -3.3712159653687923 -2.4348113693915887 -0.7129886638231979 -3.5077173218692823 -3.540789697349283 -1.449154238812522 -3.688131546487728 -0.3132089811566813 -0.9373488319232071 -1.1378978137616798 -2.722600380949503 -0.7058874997311695 -0.0767380552211148 -2.6835015671440448 -1.8979328119277112 -0.7719190049074144 -0.910580122338875 -0.9227250763525261 -0.10379321017406361 -0.9764562514027961 -0.1022200933783117 0.24591258455715279 -1.5984608493928771 -1.2043253112438979 -1.8529460277956968 -1.2102076771132586 0.6632966369407367 -0.48004691146654044 0.3803416450214018 0.39822079349665657 -1.3325631900314403 -0.14977552183297285 -2.9567896444768538 -0.8105409907046599 -1.2089699604952697 -0.7480322228452777 0.28954553285865775 -2.0572733671723307 -1.3552832468911167 -0.8602334895936495 -0.7270730249802795 0.4392493860691712 0.4775021422361386 -0.8691498574067477 0.6292793590871029 0.29161438458696404 0.36527300522579015 0.5959016069167383 -1.4909425781126227 -0.6477159177829906 -0.48906314164088166 -1.9174719783373757 -1.0395082583939892 -0.27443267392700205 -0.20965049836064176 -0.3242082760074485 1.041885729929361 0.5574134870107648 1.254219651574741 -0.43406652839487386 -0.24872433886100914 0.36345857598052356
label 14 12 0 13 3 8 6 1 17 2 4 18 11 5 19 24 21 20 25 15 7 9 16 23 22 10
nr_sv 220 99 279 283 125 218 196 93 224 178 332 125 215 93 214 113 67 181 98 102 87 16 35 42 49 75
SV
0.0 0.0 0.1 0.0 0.0 0.0 0.0 0.0 0.0 0.0 0.0 0.0 0.0 0.0 0.0 0.0 0.0 0.0 0.0 0.0 0.0 0.0 0.0 0.0 0.0 1:0.0 2:0.0 3:0.0 4:0.0 5:0.0 6:0.0 7:0.0 8:0.0 9:0.0 10:0.0 11:0.0 12:0.0 13:0.0 14:0.0 15:0.0 16:0.0 17:0.0 18:0.0 19:0.0 20:0.0 21:0.0 22:0.0 23:0.0 24:0.0 25:0.0 26:0.0 27:0.0 28:0.0 29:0.0 30:0.0 31:0.0 32:0.0 33:1.0 34:1.0 35:1.0 36:1.0 37:1.0 38:1.0 39:1.0 40:1.0 41:1.0 42:0.0 43:1.0 44:0.0 45:0.0 46:0.0 47:0.0 48:1.0 49:0.0 50:1.0 51:1.0 52:0.0 53:0.0 54:0.0 55:0.0 56:1.0 57:0.0 58:1.0 59:0.0 60:0.0 61:0.0 62:0.0 63:0.0 64:1.0 65:0.0 66:1.0 67:0.0 68:0.0 69:0.0 70:0.0 71:0.0 72:1.0 73:0.0 74:1.0 75:0.0 76:0.0 77:0.0 78:0.0 79:1.0 80:1.0 81:0.0 82:1.0 83:0.0 84:0.0 85:0.0 86:1.0 87:1.0 88:0.0 89:0.0 90:1.0 91:1.0 92:1.0 93:1.0 94:1.0 95:0.0 96:0.0 97:0.0 98:0.0 99:0.0 100:0.0 101:0.0 102:0.0 103:0.0 104:0.0 105:0.0 106:0.0 107:0.0 108:0.0 109:0.0 110:0.0 111:0.0 112:0.0 113:0.0 114:0.0 115:0.0 116:0.0 117:0.0 118:0.0 119:0.0 120:0.0 121:0.0 122:0.0 123:0.0 124:0.0 125:0.0 126:0.0 127:0.0 128:0.0 
0.0 0.0 0.0 0.0 0.0 0.0 0.05821881893991084 0.0 0.0 0.0 0.0 0.0 0.0 0.0 0.031103685772027614 0.07065860416141122 0.1 0.0 0.0 0.0 0.0 0.0 0.0 0.00922453328969636 0.0 1:0.0 2:0.0 3:0.0 4:0.0 5:0.0 6:0.0 7:0.0 8:0.0 9:0.0 10:1.0 11:1.0 12:1.0 13:1.0 14:1.0 15:1.0 16:0.0 17:1.0 18:1.0 19:0.0 20:0.0 21:0.0 22:0.0 23:1.0 24:1.0 25:1.0 26:0.0 27:0.0 28:0.0 29:0.0 30:0.0 31:0.0 32:1.0 33:1.0 34:0.0 35:0.0 36:0.0 37:0.0 38:0.0 39:0.0 40:1.0 41:1.0 42:0.0 43:0.0 44:0.0 45:0.0 46:0.0 47:0.0 48:1.0 49:1.0 50:0.0 51:0.0 52:0.0 53:0.0 54:0.0 55:0.0 56:1.0 57:1.0 58:0.0 59:0.0 60:0.0 61:0.0 62:0.0 63:0.0 64:1.0 65:1.0 66:0.0 67:0.0 68:0.0 69:0.0 70:0.0 71:0.0 72:1.0 73:1.0 74:0.0 75:0.0 76:0.0 77:0.0 78:0.0 79:0.0 80:1.0 81:1.0 82:1.0 83:0.0 84:0.0 85:0.0 86:0.0 87:0.0 88:1.0 89:0.0 90:1.0 91:0.0 92:0.0 93:0.0 94:0.0 95:1.0 96:1.0 97:0.0 98:1.0 99:1.0 100:0.0 101:0.0 102:1.0 103:1.0 104:0.0 105:0.0 106:0.0 107:1.0 108:1.0 109:1.0 110:1.0 111:0.0 112:0.0 113:0.0 114:0.0 115:0.0 116:0.0 117:1.0 118:1.0 119:0.0 120:0.0 121:0.0 122:0.0 123:0.0 124:0.0 125:0.0 126:0.0 127:0.0 128:0.0 
0.0 0.0 0.0 0.0 0.0 0.0 0.0 0.0 0.0018419932981118693 0.0 0.0 0.0 0.0 0.0 0.0 0.0 0.0 0.0 0.0 0.0 0.0 0.0 0.0 0.0 0.0 1:0.0 2:0.0 3:0.0 4:0.0 5:0.0 6:0.0 7:0.0 8:0.0 9:0.0 10:0.0 11:0.0 12:0.0 13:0.0 14:0.0 15:0.0 16:0.0 17:0.0 18:0.0 19:0.0 20:1.0 21:1.0 22:1.0 23:1.0 24:0.0 25:0.0 26:0.0 27:1.0 28:1.0 29:0.0 30:0.0 31:1.0 32:0.0 33:0.0 34:0.0 35:1.0 36:0.0 37:0.0 38:0.0 39:0.0 40:1.0 41:1.0 42:1.0 43:0.0 44:0.0 45:0.0 46:0.0 47:0.0 48:1.0 49:1.0 50:1.0 51:1.0 52:0.0 53:0.0 54:0.0 55:0.0 56:1.0 57:1.0 58:0.0 59:0.0 60:0.0 61:0.0 62:0.0 63:0.0 64:1.0 65:1.0 66:0.0 67:0.0 68:0.0 69:0.0 70:0.0 71:0.0 72:1.0 73:1.0 74:0.0 75:0.0 76:0.0 77:0.0 78:0.0 79:1.0 80:1.0 81:1.0 82:0.0 83:0.0 84:0.0 85:0.0 86:1.0 87:1.0 88:0.0 89:1.0 90:0.0 91:0.0 92:0.0 93:0.0 94:1.0 95:0.0 96:0.0 97:1.0 98:1.0 99:0.0 100:0.0 101:1.0 102:1.0 103:0.0 104:0.0 105:0.0 106:1.0 107:1.0 108:1.0 109:1.0 110:0.0 111:0.0 112:0.0 113:0.0 114:0.0 115:0.0 116:0.0 117:0.0 118:0.0 119:0.0 120:0.0 121:0.0 122:0.0 123:0.0 124:0.0 125:0.0 126:0.0 127:0.0 128:0.0 
0.1 0.1 0.1 0.1 0.1 0.1 0.08346941119222437 0.1 0.1 0.1 0.0 0.026939837001854698 0.1 0.1 0.1 0.1 0.1 0.1 0.1 0.1 0.013251409419570575 0.023127637785227955 0.1 0.1 0.1 1:0.0 2:0.0 3:0.0 4:0.0 5:0.0 6:0.0 7:0.0 8:0.0 9:0.0 10:0.0 11:0.0 12:0.0 13:0.0 14:0.0 15:0.0 16:0.0 17:0.0 18:0.0 19:0.0 20:0.0 21:0.0 22:0.0 23:0.0 24:0.0 25:0.0 26:0.0 27:0.0 28:0.0 29:0.0 30:0.0 31:0.0 32:0.0 33:0.0 34:0.0 35:0.0 36:0.0 37:0.0 38:1.0 39:1.0 40:1.0 41:0.0 42:0.0 43:0.0 44:0.0 45:1.0 46:1.0 47:1.0 48:1.0 49:0.0 50:0.0 51:0.0 52:1.0 53:1.0 54:0.0 55:1.0 56:0.0 57:0.0 58:0.0 59:1.0 60:1.0 61:0.0 62:1.0 63:1.0 64:0.0 65:0.0 66:1.0 67:1.0 68:0.0 69:1.0 70:1.0 71:0.0 72:0.0 73:1.0 74:1.0 75:0.0 76:1.0 77:1.0 78:0.0 79:0.0 80:0.0 81:1.0 82:0.0 83:1.0 84:1.0 85:0.0 86:0.0 87:0.0 88:0.0 89:1.0 90:1.0 91:1.0 92:0.0 93:0.0 94:0.0 95:0.0 96:0.0 97:0.0 98:0.0 99:0.0 100:0.0 101:0.0 102:0.0 103:0.0 104:0.0 105:0.0 106:0.0 107:0.0 108:0.0 109:0.0 110:0.0 111:0.0 112:0.0 113:0.0 114:0.0 115:0.0 116:0.0 117:0.0 118:0.0 119:0.0 120:0.0 121:0.0 122:0.0 123:0.0 124:0.0 125:0.0 126:0.0 127:0.0 128:0.0 
0.0 0.0 0.0 0.0 0.026172160482083873 0.01850455395698037 0.0 0.048764526422969835 0.0 0.0 0.06044445500132613 0.0 0.02047568593402368 0.02100267436629435 0.015780509412014282 0.03677873444890509 0.0010626495995164054 0.026757127204444984 0.021629827370701522 0.0 0.0 0.0 0.0 0.0021376018605536837 0.0 1:0.0 2:0.0 3:0.0 4:0.0 5:0.0 6:0.0 7:0.0 8:0.0 9:0.0 10:0.0 11:0.0 12:0.0 13:0.0 14:0.0 15:0.0 16:0.0 17:0.0 18:0.0 19:0.0 20:1.0 21:1.0 22:1.0 23:0.0 24:0.0 25:0.0 26:1.0 27:1.0 28:1.0 29:0.0 30:1.0 31:1.0 32:1.0 33:1.0 34:1.0 35:0.0 36:0.0 37:0.0 38:0.0 39:0.0 40:1.0 41:1.0 42:0.0 43:0.0 44:0.0 45:0.0 46:0.0 47:0.0 48:1.0 49:1.0 50:0.0 51:0.0 52:0.0 53:0.0 54:0.0 55:0.0 56:1.0 57:1.0 58:0.0 59:0.0 60:0.0 61:0.0 62:0.0 63:0.0 64:1.0 65:1.0 66:0.0 67:0.0 68:0.0 69:0.0 70:0.0 71:0.0 72:1.0 73:0.0 74:1.0 75:0.0 76:0.0 77:0.0 78:0.0 79:0.0 80:1.0 81:0.0 82:1.0 83:1.0 84:0.0 85:0.0 86:0.0 87:0.0 88:1.0 89:0.0 90:0.0 91:1.0 92:1.0 93:0.0 94:0.0 95:0.0 96:1.0 97:0.0 98:0.0 99:0.0 100:1.0 101:1.0 102:0.0 103:0.0 104:1.0 105:0.0 106:0.0 107:0.0 108:0.0 109:1.0 110:0.0 111:0.0 112:0.0 113:0.0 114:0.0 115:0.0 116:0.0 117:0.0 118:0.0 119:0.0 120:0.0 121:0.0 122:0.0 123:0.0 124:0.0 125:0.0 126:0.0 127:0.0 128:0.0 
0.0 0.0 0.0 0.0 0.0 0.0 0.0 0.004926886852105702 0.0 0.0 0.0 0.0 0.0 0.0 0.024976799814872996 0.0 0.0 0.0 0.0 0.042537704301354055 0.021393749657896442 0.0 0.0 0.0 0.0 1:0.0 2:0.0 3:1.0 4:1.0 5:1.0 6:1.0 7:1.0 8:0.0 9:0.0 10:1.0 11:1.0 12:0.0 13:0.0 14:0.0 15:1.0 16:0.0 17:1.0 18:1.0 19:0.0 20:0.0 21:0.0 22:0.0 23:1.0 24:1.0 25:1.0 26:0.0 27:0.0 28:0.0 29:0.0 30:0.0 31:0.0 32:1.0 33:1.0 34:0.0 35:0.0 36:0.0 37:0.0 38:0.0 39:0.0 40:1.0 41:1.0 42:0.0 43:0.0 44:0.0 45:0.0 46:0.0 47:0.0 48:1.0 49:1.0 50:0.0 51:0.0 52:0.0 53:0.0 54:0.0 55:0.0 56:1.0 57:1.0 58:0.0 59:0.0 60:0.0 61:0.0 62:0.0 63:0.0 64:1.0 65:1.0 66:0.0 67:0.0 68:0.0 69:0.0 70:0.0 71:0.0 72:1.0 73:1.0 74:0.0 75:0.0 76:0.0 77:0.0 78:0.0 79:0.0 80:1.0 81:1.0 82:1.0 83:0.0 84:0.0 85:0.0 86:0.0 87:0.0 88:1.0 89:0.0 90:0.0 91:0.0 92:0.0 93:0.0 94:0.0 95:0.0 96:1.0 97:0.0 98:0.0 99:0.0 100:0.0 101:0.0 102:0.0 103:0.0 104:1.0 105:1.0 106:1.0 107:1.0 108:0.0 109:0.0 110:0.0 111:0.0 112:1.0 113:0.0 114:0.0 115:1.0 116:0.0 117:0.0 118:0.0 119:1.0 120:1.0 121:0.0 122:0.0 123:1.0 124:1.0 125:1.0 126:1.0 127:1.0 128:0.0 
0.0 0.0 0.0 0.0 0.0 0.05521703555038837 0.0 0.0 0.0 0.0 0.0 0.0 0.0 0.0 0.0 0.0 0.0 0.0 0.0 0.0 0.0 0.0 0.0 0.0 0.0 1:0.0 2:0.0 3:1.0 4:1.0 5:1.0 6:0.0 7:0.0 8:0.0 9:0.0 10:0.0 11:1.0 12:0.0 13:0.0 14:0.0 15:0.0 16:0.0 17:0.0 18:1.0 19:1.0 20:1.0 21:1.0 22:1.0 23:1.0 24:0.0 25:0.0 26:1.0 27:1.0 28:0.0 29:0.0 30:0.0 31:1.0 32:1.0 33:1.0 34:1.0 35:0.0 36:0.0 37:0.0 38:0.0 39:0.0 40:1.0 41:1.0 42:0.0 43:0.0 44:0.0 45:0.0 46:0.0 47:0.0 48:1.0 49:1.0 50:0.0 51:0.0 52:0.0 53:0.0 54:0.0 55:0.0 56:1.0 57:1.0 58:0.0 59:0.0 60:0.0 61:0.0 62:0.0 63:0.0 64:1.0 65:1.0 66:0.0 67:0.0 68:0.0 69:0.0 70:0.0 71:0.0 72:1.0 73:1.0 74:0.0 75:0.0 76:0.0 77:0.0 78:0.0 79:0.0 80:1.0 81:1.0 82:0.0 83:0.0 84:0.0 85:0.0 86:0.0 87:0.0 88:1.0 89:1.0 90:0.0 91:0.0 92:0.0 93:0.0 94:0.0 95:0.0 96:1.0 97:1.0 98:0.0 99:0.0 100:0.0 101:0.0 102:0.0 103:1.0 104:1.0 105:1.0 106:0.0 107:0.0 108:0.0 109:0.0 110:0.0 111:1.0 112:0.0 113:1.0 114:0.0 115:0.0 116:0.0 117:0.0 118:1.0 119:1.0 120:0.0 121:1.0 122:1.0 123:1.0 124:1.0 125:1.0 126:1.0 127:0.0 128:0.0 
0.1 0.08267432029684124 0.04594361164164785 0.0 0.05499521056558446 0.1 0.0 0.1 0.1 0.1 0.0 0.1 0.1 0.1 0.06501243100271702 0.004471372684978182 0.0 0.1 0.1 0.0 0.0 0.0 0.08153136096153338 0.0 0.04766927491295576 1:0.0 2:0.0 3:0.0 4:0.0 5:0.0 6:0.0 7:0.0 8:0.0 9:0.0 10:0.0 11:0.0 12:0.0 13:0.0 14:0.0 15:0.0 16:0.0 17:0.0 18:0.0 19:0.0 20:0.0 21:0.0 22:0.0 23:0.0 24:0.0 25:0.0 26:0.0 27:0.0 28:1.0 29:1.0 30:0.0 31:0.0 32:0.0 33:0.0 34:0.0 35:0.0 36:0.0 37:1.0 38:1.0 39:1.0 40:1.0 41:0.0 42:0.0 43:1.0 44:1.0 45:1.0 46:0.0 47:0.0 48:1.0 49:0.0 50:1.0 51:1.0 52:0.0 53:1.0 54:0.0 55:0.0 56:0.0 57:1.0 58:1.0 59:0.0 60:0.0 61:1.0 62:0.0 63:0.0 64:0.0 65:1.0 66:0.0 67:0.0 68:0.0 69:1.0 70:0.0 71:0.0 72:0.0 73:1.0 74:0.0 75:0.0 76:0.0 77:1.0 78:0.0 79:0.0 80:0.0 81:1.0 82:0.0 83:0.0 84:1.0 85:1.0 86:0.0 87:0.0 88:0.0 89:1.0 90:0.0 91:0.0 92:1.0 93:0.0 94:0.0 95:0.0 96:0.0 97:1.0 98:1.0 99:1.0 100:1.0 101:0.0 102:0.0 103:0.0 104:0.0 105:0.0 106:0.0 107:0.0 108:0.0 109:0.0 110:0.0 111:0.0 112:0.0 113:0.0 114:0.0 115:0.0 116:0.0 117:0.0 118:0.0 119:0.0 120:0.0 121:0.0 122:0.0 123:0.0 124:0.0 125:0.0 126:0.0 127:0.0 128:0.0 
0.0 0.0 0.0 0.0 0.0 0.0 0.0 0.0 0.0 0.08528169606305355 0.0 0.0 0.0 0.0 0.0 0.0 0.0 0.0 0.00489420069233212 0.0 0.0 0.0 0.0 0.0 0.0 1:0.0 2:0.0 3:0.0 4:0.0 5:0.0 6:0.0 7:0.0 8:0.0 9:0.0 10:0.0 11:0.0 12:0.0 13:0.0 14:0.0 15:0.0 16:0.0 17:0.0 18:0.0 19:0.0 20:0.0 21:0.0 22:0.0 23:0.0 24:0.0 25:0.0 26:0.0 27:0.0 28:0.0 29:0.0 30:0.0 31:0.0 32:0.0 33:0.0 34:1.0 35:1.0 36:1.0 37:1.0 38:1.0 39:1.0 40:1.0 41:0.0 42:1.0 43:1.0 44:1.0 45:0.0 46:0.0 47:0.0 48:1.0 49:1.0 50:1.0 51:0.0 52:0.0 53:0.0 54:0.0 55:0.0 56:1.0 57:1.0 58:0.0 59:0.0 60:0.0 61:0.0 62:0.0 63:0.0 64:1.0 65:1.0 66:0.0 67:0.0 68:0.0 69:0.0 70:0.0 71:1.0 72:1.0 73:1.0 74:0.0 75:0.0 76:0.0 77:0.0 78:1.0 79:0.0 80:0.0 81:1.0 82:0.0 83:1.0 84:1.0 85:1.0 86:1.0 87:0.0 88:0.0 89:1.0 90:1.0 91:1.0 92:0.0 93:0.0 94:0.0 95:0.0 96:0.0 97:0.0 98:0.0 99:0.0 100:0.0 101:0.0 102:0.0 103:0.0 104:0.0 105:0.0 106:0.0 107:0.0 108:0.0 109:0.0 110:0.0 111:0.0 112:0.0 113:0.0 114:0.0 115:0.0 116:0.0 117:0.0 118:0.0 119:0.0 120:0.0 121:0.0 122:0.0 123:0.0 124:0.0 125:0.0 126:0.0 127:0.0 128:0.0 
0.0 0.07928201130247517 0.0 0.0 0.0 0.09310907184819299 0.0 0.0 0.0 0.027756698411629595 0.0 0.0 0.04700057984911506 0.0 0.0 0.0 0.0 0.0 0.0 0.0 0.0 0.0 0.0 0.0 0.0 1:0.0 2:0.0 3:0.0 4:0.0 5:0.0 6:1.0 7:1.0 8:0.0 9:0.0 10:0.0 11:0.0 12:0.0 13:1.0 14:1.0 15:1.0 16:1.0 17:0.0 18:0.0 19:0.0 20:1.0 21:1.0 22:1.0 23:1.0 24:1.0 25:0.0 26:0.0 27:0.0 28:1.0 29:0.0 30:1.0 31:0.0 32:1.0 33:0.0 34:0.0 35:0.0 36:1.0 37:0.0 38:0.0 39:0.0 40:1.0 41:0.0 42:0.0 43:1.0 44:1.0 45:0.0 46:0.0 47:0.0 48:1.0 49:0.0 50:0.0 51:1.0 52:0.0 53:0.0 54:0.0 55:1.0 56:1.0 57:0.0 58:1.0 59:1.0 60:0.0 61:0.0 62:0.0 63:1.0 64:0.0 65:0.0 66:1.0 67:0.0 68:0.0 69:0.0 70:0.0 71:1.0 72:0.0 73:0.0 74:1.0 75:0.0 76:0.0 77:0.0 78:0.0 79:1.0 80:0.0 81:1.0 82:1.0 83:0.0 84:0.0 85:0.0 86:1.0 87:1.0 88:0.0 89:1.0 90:0.0 91:0.0 92:0.0 93:0.0 94:1.0 95:0.0 96:0.0 97:1.0 98:0.0 99:0.0 100:0.0 101:1.0 102:1.0 103:0.0 104:0.0 105:1.0 106:0.0 107:0.0 108:1.0 109:1.0 110:0.0 111:0.0 112:0.0 113:1.0 114:1.0 115:1.0 116:1.0 117:0.0 118:0.0 119:0.0 120:0.0 121:0.0 122:1.0 123:1.0 124:0.0 125:0.0 126:0.0 127:0.0 128:0.0 
0.0 0.0 0.0 0.0 0.0 0.0 0.0 0.0 0.0 0.0 0.0 0.0 0.0 0.0 0.0 0.0 0.0 0.0 0.010403856223054932 0.0 0.0 0.0 0.0 0.0 0.0 1:0.0 2:0.0 3:0.0 4:0.0 5:0.0 6:0.0 7:0.0 8:0.0 9:0.0 10:0.0 11:0.0 12:0.0 13:0.0 14:0.0 15:0.0 16:0.0 17:0.0 18:1.0 19:1.0 20:1.0 21:1.0 22:1.0 23:1.0 24:0.0 25:1.0 26:1.0 27:1.0 28:0.0 29:0.0 30:0.0 31:1.0 32:1.0 33:1.0 34:0.0 35:1.0 36:0.0 37:0.0 38:0.0 39:0.0 40:1.0 41:1.0 42:0.0 43:1.0 44:0.0 45:0.0 46:0.0 47:0.0 48:1.0 49:1.0 50:0.0 51:0.0 52:0.0 53:0.0 54:0.0 55:0.0 56:1.0 57:1.0 58:0.0 59:0.0 60:0.0 61:0.0 62:0.0 63:0.0 64:1.0 65:1.0 66:0.0 67:0.0 68:0.0 69:0.0 70:0.0 71:0.0 72:1.0 73:1.0 74:0.0 75:0.0 76:0.0 77:0.0 78:0.0 79:0.0 80:1.0 81:1.0 82:0.0 83:0.0 84:0.0 85:0.0 86:0.0 87:0.0 88:1.0 89:1.0 90:0.0 91:0.0 92:0.0 93:0.0 94:0.0 95:1.0 96:0.0 97:1.0 98:0.0 99:0.0 100:0.0 101:0.0 102:1.0 103:1.0 104:0.0 105:1.0 106:1.0 107:1.0 108:1.0 109:1.0 110:1.0 111:0.0 112:0.0 113:0.0 114:0.0 115:0.0 116:0.0 117:0.0 118:0.0 119:0.0 120:0.0 121:0.0 122:0.0 123:0.0 124:0.0 125:0.0 126:0.0 127:0.0 128:0.0 
0.0 0.0 0.015195933071694326 0.0 0.0 0.06915451856863322 0.0 0.010489714999882832 0.0 0.0 0.0 0.0 0.0 0.0 0.0 0.0 0.0 0.0 0.0 0.0 0.0 0.0 0.0 0.0 0.0 1:0.0 2:0.0 3:0.0 4:0.0 5:0.0 6:0.0 7:0.0 8:0.0 9:0.0 10:0.0 11:0.0 12:0.0 13:0.0 14:0.0 15:0.0 16:0.0 17:1.0 18:1.0 19:0.0 20:0.0 21:0.0 22:0.0 23:0.0 24:0.0 25:1.0 26:1.0 27:1.0 28:1.0 29:1.0 30:1.0 31:0.0 32:0.0 33:1.0 34:0.0 35:0.0 36:0.0 37:0.0 38:1.0 39:1.0 40:0.0 41:1.0 42:0.0 43:0.0 44:0.0 45:0.0 46:0.0 47:1.0 48:1.0 49:1.0 50:0.0 51:0.0 52:0.0 53:0.0 54:0.0 55:0.0 56:1.0 57:1.0 58:0.0 59:0.0 60:0.0 61:0.0 62:0.0 63:0.0 64:1.0 65:1.0 66:0.0 67:0.0 68:0.0 69:0.0 70:0.0 71:0.0 72:1.0 73:1.0 74:0.0 75:0.0 76:0.0 77:0.0 78:0.0 79:0.0 80:1.0 81:1.0 82:0.0 83:0.0 84:0.0 85:0.0 86:0.0 87:0.0 88:1.0 89:1.0 90:0.0 91:0.0 92:0.0 93:0.0 94:0.0 95:0.0 96:1.0 97:1.0 98:1.0 99:1.0 100:0.0 101:0.0 102:0.0 103:1.0 104:1.0 105:0.0 106:0.0 107:1.0 108:1.0 109:1.0 110:1.0 111:1.0 112:0.0 113:0.0 114:0.0 115:0.0 116:0.0 117:0.0 118:0.0 119:0.0 120:0.0 121:0.0 122:0.0 123:0.0 124:0.0 125:0.0 126:0.0 127:0.0 128:0.0 
0.0 0.06309616145823303 0.0 0.040189669462579944 0.0 0.05047454832761907 0.006187515737116724 0.0 0.0 0.0 0.0 0.0 0.0 0.0 0.03969364424656285 0.0 0.0 0.0 0.003407916599461172 0.0 0.0 0.04077587970266101 0.0 0.0 0.0 1:0.0 2:1.0 3:1.0 4:1.0 5:1.0 6:0.0 7:0.0 8:0.0 9:1.0 10:1.0 11:0.0 12:1.0 13:1.0 14:0.0 15:0.0 16:0.0 17:1.0 18:0.0 19:0.0 20:0.0 21:1.0 22:1.0 23:0.0 24:0.0 25:1.0 26:0.0 27:0.0 28:0.0 29:1.0 30:1.0 31:0.0 32:0.0 33:1.0 34:0.0 35:0.0 36:0.0 37:1.0 38:1.0 39:1.0 40:0.0 41:1.0 42:0.0 43:0.0 44:0.0 45:0.0 46:1.0 47:1.0 48:0.0 49:1.0 50:0.0 51:0.0 52:0.0 53:0.0 54:1.0 55:1.0 56:0.0 57:1.0 58:0.0 59:0.0 60:0.0 61:0.0 62:1.0 63:1.0 64:0.0 65:1.0 66:0.0 67:0.0 68:0.0 69:0.0 70:0.0 71:1.0 72:0.0 73:1.0 74:0.0 75:0.0 76:0.0 77:0.0 78:0.0 79:1.0 80:1.0 81:1.0 82:0.0 83:0.0 84:0.0 85:0.0 86:0.0 87:1.0 88:1.0 89:1.0 90:0.0 91:0.0 92:0.0 93:0.0 94:0.0 95:1.0 96:0.0 97:1.0 98:0.0 99:0.0 100:0.0 101:0.0 102:0.0 103:1.0 104:0.0 105:1.0 106:1.0 107:0.0 108:0.0 109:0.0 110:0.0 111:1.0 112:0.0 113:0.0 114:1.0 115:0.0 116:0.0 117:0.0 118:1.0 119:1.0 120:0.0 121:0.0 122:1.0 123:1.0 124:1.0 125:1.0 126:1.0 127:0.0 128:0.0 
0.0 0.0 0.0 0.0 0.0 0.0 0.0 0.0010302356636312316 0.0 0.0 0.0 0.0 0.0 0.0 0.0 0.011090293077974716 0.0 0.0 0.0 0.0 0.0 0.0 0.0 0.0 0.0 1:0.0 2:0.0 3:1.0 4:1.0 5:1.0 6:1.0 7:0.0 8:0.0 9:0.0 10:1.0 11:1.0 12:0.0 13:0.0 14:1.0 15:1.0 16:0.0 17:0.0 18:1.0 19:0.0 20:0.0 21:0.0 22:0.0 23:1.0 24:1.0 25:1.0 26:1.0 27:0.0 28:0.0 29:0.0 30:0.0 31:0.0 32:1.0 33:1.0 34:0.0 35:0.0 36:0.0 37:0.0 38:0.0 39:0.0 40:1.0 41:1.0 42:0.0 43:0.0 44:0.0 45:0.0 46:0.0 47:0.0 48:1.0 49:1.0 50:0.0 51:0.0 52:0.0 53:0.0 54:0.0 55:0.0 56:1.0 57:1.0 58:0.0 59:0.0 60:0.0 61:0.0 62:0.0 63:0.0 64:1.0 65:1.0 66:0.0 67:0.0 68:0.0 69:0.0 70:0.0 71:0.0 72:1.0 73:1.0 74:0.0 75:0.0 76:0.0 77:0.0 78:0.0 79:0.0 80:1.0 81:1.0 82:0.0 83:0.0 84:0.0 85:0.0 86:0.0 87:0.0 88:1.0 89:1.0 90:0.0 91:0.0 92:0.0 93:0.0 94:0.0 95:0.0 96:1.0 97:1.0 98:0.0 99:0.0 100:0.0 101:0.0 102:0.0 103:0.0 104:1.0 105:1.0 106:1.0 107:0.0 108:0.0 109:0.0 110:0.0 111:0.0 112:1.0 113:0.0 114:1.0 115:1.0 116:1.0 117:1.0 118:0.0 119:0.0 120:1.0 121:0.0 122:0.0 123:0.0 124:0.0 125:1.0 126:1.0 127:1.0 128:1.0 
0.0 0.1 0.003200285325331934 0.0 0.032088659415385024 0.0 0.0 0.01592370924405962 0.09584908703968831 0.1 0.0 0.0 0.014895892861604724 0.0 0.0 0.0 0.0 0.0 0.0 0.0 0.0 0.0 0.0 0.0 0.053231633401920345 1:0.0 2:0.0 3:0.0 4:0.0 5:0.0 6:0.0 7:0.0 8:0.0 9:0.0 10:0.0 11:0.0 12:0.0 13:0.0 14:0.0 15:0.0 16:0.0 17:0.0 18:0.0 19:0.0 20:0.0 21:0.0 22:0.0 23:0.0 24:0.0 25:0.0 26:0.0 27:0.0 28:0.0 29:0.0 30:0.0 31:0.0 32:0.0 33:0.0 34:0.0 35:0.0 36:0.0 37:1.0 38:1.0 39:1.0 40:1.0 41:0.0 42:0.0 43:0.0 44:1.0 45:1.0 46:0.0 47:0.0 48:1.0 49:0.0 50:1.0 51:1.0 52:1.0 53:0.0 54:0.0 55:0.0 56:1.0 57:1.0 58:1.0 59:0.0 60:1.0 61:0.0 62:0.0 63:0.0 64:1.0 65:1.0 66:0.0 67:0.0 68:0.0 69:0.0 70:0.0 71:1.0 72:0.0 73:1.0 74:0.0 75:0.0 76:0.0 77:0.0 78:1.0 79:1.0 80:0.0 81:1.0 82:0.0 83:0.0 84:0.0 85:1.0 86:1.0 87:0.0 88:0.0 89:1.0 90:1.0 91:1.0 92:1.0 93:1.0 94:0.0 95:0.0 96:0.0 97:0.0 98:0.0 99:0.0 100:0.0 101:0.0 102:0.0 103:0.0 104:0.0 105:0.0 106:0.0 107:0.0 108:0.0 109:0.0 110:0.0 111:0.0 112:0.0 113:0.0 114:0.0 115:0.0 116:0.0 117:0.0 118:0.0 119:0.0 120:0.0 121:0.0 122:0.0 123:0.0 124:0.0 125:0.0 126:0.0 127:0.0 128:0.0 
0.06762050847943815 0.1 0.0 0.0 0.0 0.0 0.0 0.0 0.0 0.0 0.0 0.0 0.0 0.0 0.0 0.0 0.0 0.0 0.0 0.0 0.0 0.0 0.0 0.0 0.0 1:0.0 2:0.0 3:0.0 4:0.0 5:0.0 6:0.0 7:0.0 8:0.0 9:0.0 10:0.0 11:0.0 12:0.0 13:0.0 14:0.0 15:0.0 16:0.0 17:0.0 18:0.0 19:0.0 20:0.0 21:0.0 22:0.0 23:0.0 24:0.0 25:0.0 26:0.0 27:0.0 28:0.0 29:1.0 30:1.0 31:1.0 32:0.0 33:0.0 34:0.0 35:1.0 36:1.0 37:0.0 38:0.0 39:1.0 40:1.0 41:0.0 42:0.0 43:1.0 44:0.0 45:0.0 46:0.0 47:0.0 48:1.0 49:0.0 50:1.0 51:1.0 52:1.0 53:0.0 54:0.0 55:0.0 56:1.0 57:1.0 58:1.0 59:0.0 60:1.0 61:1.0 62:0.0 63:0.0 64:1.0 65:1.0 66:1.0 67:0.0 68:0.0 69:0.0 70:0.0 71:0.0 72:1.0 73:1.0 74:1.0 75:0.0 76:0.0 77:0.0 78:0.0 79:1.0 80:1.0 81:1.0 82:0.0 83:0.0 84:0.0 85:0.0 86:1.0 87:1.0 88:0.0 89:1.0 90:0.0 91:0.0 92:0.0 93:1.0 94:1.0 95:0.0 96:0.0 97:1.0 98:1.0 99:1.0 100:1.0 101:1.0 102:0.0 103:0.0 104:0.0 105:0.0 106:0.0 107:0.0 108:0.0 109:0.0 110:0.0 111:0.0 112:0.0 113:0.0 114:0.0 115:0.0 116:0.0 117:0.0 118:0.0 119:0.0 120:0.0 121:0.0 122:0.0 123:0.0 124:0.0 125:0.0 126:0.0 127:0.0 128:0.0 
0.0 0.0 0.0 0.0 0.0 0.0 0.0 0.0 0.0 0.0 0.0 0.0 0.0 0.0 0.0 0.001214307697209408 0.0 0.0 0.0 0.0 0.0 0.0 0.0 0.0 0.0 1:0.0 2:0.0 3:0.0 4:0.0 5:0.0 6:0.0 7:0.0 8:0.0 9:0.0 10:0.0 11:0.0 12:0.0 13:0.0 14:0.0 15:0.0 16:0.0 17:0.0 18:0.0 19:0.0 20:0.0 21:0.0 22:0.0 23:0.0 24:0.0 25:0.0 26:1.0 27:1.0 28:1.0 29:1.0 30:1.0 31:0.0 32:0.0 33:1.0 34:1.0 35:0.0 36:0.0 37:0.0 38:1.0 39:1.0 40:1.0 41:1.0 42:0.0 43:0.0 44:0.0 45:0.0 46:0.0 47:0.0 48:1.0 49:1.0 50:0.0 51:0.0 52:0.0 53:0.0 54:0.0 55:0.0 56:1.0 57:1.0 58:0.0 59:0.0 60:0.0 61:0.0 62:0.0 63:0.0 64:1.0 65:1.0 66:0.0 67:0.0 68:0.0 69:0.0 70:0.0 71:0.0 72:1.0 73:1.0 74:0.0 75:0.0 76:0.0 77:0.0 78:0.0 79:0.0 80:1.0 81:1.0 82:1.0 83:0.0 84:0.0 85:0.0 86:0.0 87:0.0 88:1.0 89:0.0 90:1.0 91:1.0 92:1.0 93:0.0 94:0.0 95:1.0 96:1.0 97:0.0 98:0.0 99:0.0 100:1.0 101:1.0 102:1.0 103:1.0 104:0.0 105:0.0 106:0.0 107:0.0 108:0.0 109:0.0 110:0.0 111:0.0 112:0.0 113:0.0 114:0.0 115:0.0 116:0.0 117:0.0 118:0.0 119:0.0 120:0.0 121:0.0 122:0.0 123:0.0 124:0.0 125:0.0 126:0.0 127:0.0 128:0.0 
0.0 0.01685512585886298 0.0 0.0 0.0 0.0 0.0 0.0 0.0 0.0 0.0 0.0 0.0 0.0 0.0 0.09395389999821883 0.1 0.0 0.0 0.0 0.0 0.0 0.0 0.04511504672747773 0.0 1:0.0 2:0.0 3:0.0 4:0.0 5:0.0 6:0.0 7:0.0 8:0.0 9:0.0 10:0.0 11:0.0 12:0.0 13:0.0 14:0.0 15:0.0 16:0.0 17:0.0 18:0.0 19:0.0 20:0.0 21:0.0 22:0.0 23:0.0 24:0.0 25:0.0 26:0.0 27:0.0 28:0.0 29:0.0 30:0.0 31:0.0 32:0.0 33:1.0 34:1.0 35:1.0 36:1.0 37:1.0 38:1.0 39:1.0 40:0.0 41:1.0 42:0.0 43:0.0 44:0.0 45:0.0 46:0.0 47:1.0 48:1.0 49:1.0 50:0.0 51:0.0 52:0.0 53:0.0 54:0.0 55:0.0 56:1.0 57:1.0 58:0.0 59:0.0 60:0.0 61:0.0 62:0.0 63:0.0 64:1.0 65:1.0 66:0.0 67:0.0 68:0.0 69:0.0 70:0.0 71:0.0 72:1.0 73:0.0 74:1.0 75:0.0 76:0.0 77:0.0 78:0.0 79:1.0 80:1.0 81:0.0 82:1.0 83:0.0 84:0.0 85:0.0 86:0.0 87:1.0 88:0.0 89:0.0 90:1.0 91:1.0 92:1.0 93:1.0 94:1.0 95:1.0 96:0.0 97:0.0 98:0.0 99:0.0 100:0.0 101:0.0 102:0.0 103:0.0 104:0.0 105:0.0 106:0.0 107:0.0 108:0.0 109:0.0 110:0.0 111:0.0 112:0.0 113:0.0 114:0.0 115:0.0 116:0.0 117:0.0 118:0.0 119:0.0 120:0.0 121:0.0 122:0.0 123:0.0 124:0.0 125:0.0 126:0.0 127:0.0 128:0.0 
0.0 0.0 0.0 0.016454729766672973 0.0 0.0 0.0 0.0 0.0 0.0 0.0 0.0 0.0 0.0 0.0 0.006388678180010363 0.0 0.0 0.0 0.0 0.026606338566088787 0.0 0.0 0.0 0.0 1:0.0 2:0.0 3:0.0 4:0.0 5:0.0 6:0.0 7:0.0 8:0.0 9:0.0 10:0.0 11:0.0 12:0.0 13:0.0 14:0.0 15:0.0 16:0.0 17:0.0 18:0.0 19:1.0 20:0.0 21:0.0 22:0.0 23:0.0 24:0.0 25:0.0 26:0.0 27:0.0 28:1.0 29:0.0 30:0.0 31:0.0 32:0.0 33:0.0 34:0.0 35:0.0 36:0.0 37:1.0 38:0.0 39:0.0 40:0.0 41:1.0 42:0.0 43:0.0 44:0.0 45:1.0 46:1.0 47:0.0 48:0.0 49:1.0 50:0.0 51:0.0 52:0.0 53:0.0 54:1.0 55:1.0 56:0.0 57:1.0 58:0.0 59:0.0 60:0.0 61:0.0 62:0.0 63:1.0 64:1.0 65:1.0 66:0.0 67:0.0 68:0.0 69:0.0 70:0.0 71:0.0 72:1.0 73:1.0 74:0.0 75:0.0 76:0.0 77:0.0 78:0.0 79:0.0 80:1.0 81:1.0 82:0.0 83:0.0 84:0.0 85:0.0 86:0.0 87:0.0 88:1.0 89:1.0 90:1.0 91:0.0 92:0.0 93:0.0 94:0.0 95:0.0 96:1.0 97:0.0 98:1.0 99:1.0 100:0.0 101:0.0 102:0.0 103:0.0 104:1.0 105:0.0 106:0.0 107:1.0 108:1.0 109:1.0 110:1.0 111:1.0 112:1.0 113:0.0 114:0.0 115:0.0 116:0.0 117:0.0 118:0.0 119:0.0 120:0.0 121:0.0 122:0.0 123:0.0 124:0.0 125:0.0 126:0.0 127:0.0 128:0.0 
0.09769400386961075 0.1 0.1 0.1 0.1 0.0 0.1 0.09541606514430566 0.1 0.1 0.1 0.03408324828177308 0.0780413802295201 0.1 0.0 0.1 0.1 0.08068211601310195 0.0 0.1 0.0 0.0 0.042071079296303854 0.1 0.1 1:0.0 2:0.0 3:0.0 4:0.0 5:0.0 6:0.0 7:0.0 8:0.0 9:0.0 10:0.0 11:0.0 12:0.0 13:0.0 14:0.0 15:0.0 16:0.0 17:0.0 18:0.0 19:0.0 20:0.0 21:0.0 22:0.0 23:0.0 24:0.0 25:0.0 26:0.0 27:0.0 28:0.0 29:0.0 30:0.0 31:0.0 32:0.0 33:0.0 34:0.0 35:0.0 36:0.0 37:0.0 38:0.0 39:0.0 40:0.0 41:0.0 42:0.0 43:1.0 44:0.0 45:0.0 46:0.0 47:0.0 48:0.0 49:0.0 50:0.0 51:1.0 52:0.0 53:0.0 54:0.0 55:0.0 56:0.0 57:1.0 58:1.0 59:1.0 60:0.0 61:0.0 62:0.0 63:0.0 64:0.0 65:1.0 66:0.0 67:0.0 68:1.0 69:1.0 70:1.0 71:1.0 72:1.0 73:1.0 74:1.0 75:0.0 76:0.0 77:0.0 78:0.0 79:0.0 80:1.0 81:0.0 82:1.0 83:1.0 84:1.0 85:1.0 86:1.0 87:1.0 88:1.0 89:0.0 90:0.0 91:0.0 92:0.0 93:0.0 94:0.0 95:0.0 96:0.0 97:0.0 98:0.0 99:0.0 100:0.0 101:0.0 102:0.0 103:0.0 104:0.0 105:0.0 106:0.0 107:0.0 108:0.0 109:0.0 110:0.0 111:0.0 112:0.0 113:0.0 114:0.0 115:0.0 116:0.0 117:0.0 118:0.0 119:0.0 120:0.0 121:0.0 122:0.0 123:0.0 124:0.0 125:0.0 126:0.0 127:0.0 128:0.0 
0.0 0.034587114541643246 0.0 0.0 0.0 0.0 0.0 0.0 0.0 0.0 0.0 0.0 0.0 0.0 0.0 0.0 0.0 0.0 0.0 0.0 0.0 0.0 0.0 0.0 0.0 1:0.0 2:0.0 3:0.0 4:0.0 5:0.0 6:0.0 7:0.0 8:0.0 9:0.0 10:0.0 11:0.0 12:0.0 13:0.0 14:0.0 15:0.0 16:0.0 17:0.0 18:0.0 19:0.0 20:0.0 21:0.0 22:0.0 23:0.0 24:0.0 25:0.0 26:0.0 27:0.0 28:1.0 29:1.0 30:1.0 31:1.0 32:1.0 33:0.0 34:0.0 35:1.0 36:1.0 37:1.0 38:0.0 39:0.0 40:1.0 41:0.0 42:1.0 43:0.0 44:0.0 45:0.0 46:0.0 47:0.0 48:1.0 49:0.0 50:1.0 51:0.0 52:0.0 53:0.0 54:0.0 55:0.0 56:1.0 57:0.0 58:1.0 59:0.0 60:0.0 61:0.0 62:0.0 63:0.0 64:1.0 65:1.0 66:1.0 67:0.0 68:0.0 69:0.0 70:0.0 71:0.0 72:1.0 73:1.0 74:0.0 75:0.0 76:0.0 77:0.0 78:0.0 79:1.0 80:1.0 81:1.0 82:0.0 83:0.0 84:0.0 85:0.0 86:1.0 87:1.0 88:0.0 89:1.0 90:0.0 91:0.0 92:0.0 93:1.0 94:1.0 95:0.0 96:0.0 97:1.0 98:1.0 99:1.0 100:1.0 101:1.0 102:0.0 103:0.0 104:0.0 105:0.0 106:0.0 107:0.0 108:0.0 109:0.0 110:0.0 111:0.0 112:0.0 113:0.0 114:0.0 115:0.0 116:0.0 117:0.0 118:0.0 119:0.0 120:0.0 121:0.0 122:0.0 123:0.0 124:0.0 125:0.0 126:0.0 127:0.0 128:0.0 
0.0 0.0 0.1 0.0 0.05430978727992216 0.1 0.0 0.0010298269677723832 0.0 0.0 0.06590045696154703 0.0 0.06714473444125 0.1 0.1 0.0 0.0 0.0 1.9413674996097562E-5 0.0 0.0465267414733265 0.0 0.04046574620625243 0.0 0.0 1:0.0 2:0.0 3:0.0 4:0.0 5:0.0 6:0.0 7:0.0 8:0.0 9:0.0 10:0.0 11:0.0 12:0.0 13:0.0 14:0.0 15:0.0 16:0.0 17:0.0 18:0.0 19:0.0 20:0.0 21:0.0 22:0.0 23:0.0 24:0.0 25:0.0 26:0.0 27:0.0 28:0.0 29:0.0 30:0.0 31:0.0 32:0.0 33:1.0 34:1.0 35:1.0 36:1.0 37:1.0 38:1.0 39:1.0 40:0.0 41:0.0 42:0.0 43:1.0 44:0.0 45:0.0 46:0.0 47:1.0 48:1.0 49:0.0 50:0.0 51:1.0 52:0.0 53:0.0 54:0.0 55:0.0 56:1.0 57:0.0 58:0.0 59:1.0 60:0.0 61:0.0 62:0.0 63:0.0 64:1.0 65:0.0 66:0.0 67:1.0 68:0.0 69:0.0 70:0.0 71:0.0 72:1.0 73:0.0 74:0.0 75:1.0 76:0.0 77:0.0 78:0.0 79:0.0 80:1.0 81:0.0 82:0.0 83:1.0 84:0.0 85:0.0 86:0.0 87:0.0 88:1.0 89:0.0 90:0.0 91:0.0 92:1.0 93:1.0 94:1.0 95:1.0 96:0.0 97:0.0 98:0.0 99:0.0 100:0.0 101:0.0 102:0.0 103:0.0 104:0.0 105:0.0 106:0.0 107:0.0 108:0.0 109:0.0 110:0.0 111:0.0 112:0.0 113:0.0 114:0.0 115:0.0 116:0.0 117:0.0 118:0.0 119:0.0 120:0.0 121:0.0 122:0.0 123:0.0 124:0.0 125:0.0 126:0.0 127:0.0 128:0.0 
0.0 0.0 0.1 0.0 0.0 0.0 0.0 0.0 0.020673326688138562 0.0 0.0 0.0 0.0 0.0 0.0 0.0 0.0 0.0 0.0 0.0 0.0 0.0 0.0 0.0 0.0 1:0.0 2:0.0 3:0.0 4:0.0 5:0.0 6:0.0 7:0.0 8:0.0 9:0.0 10:0.0 11:0.0 12:0.0 13:0.0 14:0.0 15:0.0 16:0.0 17:0.0 18:0.0 19:0.0 20:0.0 21:0.0 22:0.0 23:0.0 24:0.0 25:0.0 26:0.0 27:0.0 28:0.0 29:0.0 30:0.0 31:0.0 32:0.0 33:0.0 34:0.0 35:0.0 36:0.0 37:0.0 38:0.0 39:0.0 40:0.0 41:0.0 42:1.0 43:1.0 44:1.0 45:1.0 46:1.0 47:1.0 48:0.0 49:1.0 50:1.0 51:0.0 52:0.0 53:0.0 54:0.0 55:1.0 56:1.0 57:1.0 58:0.0 59:0.0 60:0.0 61:0.0 62:0.0 63:0.0 64:1.0 65:1.0 66:0.0 67:0.0 68:0.0 69:0.0 70:0.0 71:0.0 72:1.0 73:1.0 74:1.0 75:0.0 76:0.0 77:0.0 78:0.0 79:0.0 80:1.0 81:0.0 82:1.0 83:1.0 84:1.0 85:1.0 86:1.0 87:1.0 88:1.0 89:0.0 90:0.0 91:0.0 92:0.0 93:0.0 94:0.0 95:0.0 96:0.0 97:0.0 98:0.0 99:0.0 100:0.0 101:0.0 102:0.0 103:0.0 104:0.0 105:0.0 106:0.0 107:0.0 108:0.0 109:0.0 110:0.0 111:0.0 112:0.0 113:0.0 114:0.0 115:0.0 116:0.0 117:0.0 118:0.0 119:0.0 120:0.0 121:0.0 122:0.0 123:0.0 124:0.0 125:0.0 126:0.0 127:0.0 128:0.0 
0.0 0.0 0.0 0.0 0.0 0.0 0.0 0.0 0.0 0.0 0.0 0.0 0.0 0.0 0.0 0.0 0.07361754993299711 0.0 0.0 0.0 0.0 0.0 0.0 0.0 0.0 1:0.0 2:0.0 3:0.0 4:0.0 5:0.0 6:0.0 7:0.0 8:0.0 9:0.0 10:0.0 11:0.0 12:0.0 13:0.0 14:0.0 15:0.0 16:0.0 17:0.0 18:1.0 19:1.0 20:1.0 21:1.0 22:1.0 23:1.0 24:0.0 25:0.0 26:1.0 27:0.0 28:0.0 29:0.0 30:0.0 31:1.0 32:1.0 33:1.0 34:1.0 35:0.0 36:0.0 37:0.0 38:0.0 39:0.0 40:1.0 41:1.0 42:0.0 43:0.0 44:0.0 45:0.0 46:0.0 47:0.0 48:1.0 49:1.0 50:0.0 51:0.0 52:0.0 53:0.0 54:0.0 55:0.0 56:1.0 57:1.0 58:0.0 59:0.0 60:0.0 61:0.0 62:0.0 63:0.0 64:1.0 65:1.0 66:0.0 67:0.0 68:0.0 69:0.0 70:0.0 71:0.0 72:1.0 73:1.0 74:0.0 75:0.0 76:0.0 77:0.0 78:0.0 79:0.0 80:1.0 81:1.0 82:0.0 83:0.0 84:0.0 85:0.0 86:0.0 87:1.0 88:1.0 89:1.0 90:0.0 91:0.0 92:0.0 93:0.0 94:0.0 95:1.0 96:0.0 97:1.0 98:0.0 99:0.0 100:0.0 101:0.0 102:1.0 103:1.0 104:0.0 105:1.0 106:1.0 107:1.0 108:1.0 109:1.0 110:1.0 111:0.0 112:0.0 113:0.0 114:0.0 115:0.0 116:0.0 117:0.0 118:0.0 119:0.0 120:0.0 121:0.0 122:0.0 123:0.0 124:0.0 125:0.0 126:0.0 127:0.0 128:0.0 
0.0 0.0 0.0 0.0 0.0 0.0 0.0 0.031565209437513196 0.0 0.0 0.0 0.0 0.0 0.0 0.0 0.0 0.0 0.0 0.0 0.0 0.0 0.0 0.0 0.0 0.0 1:0.0 2:0.0 3:0.0 4:0.0 5:0.0 6:0.0 7:0.0 8:0.0 9:0.0 10:0.0 11:0.0 12:0.0 13:0.0 14:0.0 15:0.0 16:0.0 17:0.0 18:0.0 19:0.0 20:0.0 21:0.0 22:0.0 23:0.0 24:0.0 25:1.0 26:1.0 27:1.0 28:1.0 29:1.0 30:1.0 31:1.0 32:0.0 33:1.0 34:0.0 35:0.0 36:0.0 37:0.0 38:0.0 39:1.0 40:1.0 41:1.0 42:0.0 43:0.0 44:0.0 45:0.0 46:0.0 47:0.0 48:1.0 49:1.0 50:0.0 51:0.0 52:0.0 53:0.0 54:0.0 55:0.0 56:1.0 57:1.0 58:0.0 59:0.0 60:0.0 61:0.0 62:0.0 63:0.0 64:1.0 65:1.0 66:0.0 67:0.0 68:0.0 69:0.0 70:0.0 71:0.0 72:1.0 73:1.0 74:0.0 75:0.0 76:0.0 77:0.0 78:0.0 79:0.0 80:1.0 81:1.0 82:1.0 83:0.0 84:0.0 85:0.0 86:0.0 87:0.0 88:1.0 89:0.0 90:1.0 91:0.0 92:0.0 93:0.0 94:0.0 95:0.0 96:1.0 97:0.0 98:1.0 99:1.0 100:1.0 101:1.0 102:1.0 103:1.0 104:0.0 105:0.0 106:0.0 107:0.0 108:0.0 109:0.0 110:0.0 111:0.0 112:0.0 113:0.0 114:0.0 115:0.0 116:0.0 117:0.0 118:0.0 119:0.0 120:0.0 121:0.0 122:0.0 123:0.0 124:0.0 125:0.0 126:0.0 127:0.0 128:0.0 
0.0 0.1 0.0 0.0 0.0 0.0 0.0 0.0 0.024515673498770537 0.0 0.0 0.0 0.0 0.0 0.0 0.0 0.1 0.0 0.0 0.0 0.0 0.0 0.0 0.06768555307205812 0.0 1:0.0 2:0.0 3:0.0 4:0.0 5:0.0 6:0.0 7:0.0 8:0.0 9:0.0 10:0.0 11:0.0 12:0.0 13:0.0 14:0.0 15:0.0 16:0.0 17:0.0 18:0.0 19:0.0 20:0.0 21:0.0 22:0.0 23:0.0 24:0.0 25:0.0 26:0.0 27:0.0 28:0.0 29:0.0 30:0.0 31:0.0 32:0.0 33:0.0 34:1.0 35:1.0 36:1.0 37:0.0 38:0.0 39:0.0 40:1.0 41:1.0 42:1.0 43:0.0 44:1.0 45:0.0 46:0.0 47:0.0 48:1.0 49:1.0 50:0.0 51:0.0 52:0.0 53:0.0 54:0.0 55:0.0 56:1.0 57:1.0 58:0.0 59:0.0 60:0.0 61:0.0 62:0.0 63:0.0 64:1.0 65:1.0 66:0.0 67:0.0 68:0.0 69:0.0 70:0.0 71:1.0 72:1.0 73:1.0 74:0.0 75:0.0 76:0.0 77:0.0 78:1.0 79:1.0 80:0.0 81:1.0 82:0.0 83:0.0 84:1.0 85:1.0 86:1.0 87:0.0 88:0.0 89:1.0 90:1.0 91:1.0 92:1.0 93:0.0 94:0.0 95:0.0 96:0.0 97:0.0 98:0.0 99:0.0 100:0.0 101:0.0 102:0.0 103:0.0 104:0.0 105:0.0 106:0.0 107:0.0 108:0.0 109:0.0 110:0.0 111:0.0 112:0.0 113:0.0 114:0.0 115:0.0 116:0.0 117:0.0 118:0.0 119:0.0 120:0.0 121:0.0 122:0.0 123:0.0 124:0.0 125:0.0 126:0.0 127:0.0 128:0.0 
0.0 0.1 0.0 0.012344836533094287 0.1 0.0 0.05345199880415229 0.06889930252917147 0.1 0.1 0.00500517429122871 0.06899744527395134 0.0 0.0 0.0 0.0 0.0 0.0 0.0 0.03193468646574961 0.0 0.0 0.0 0.0 0.03324464206104886 1:0.0 2:0.0 3:0.0 4:0.0 5:0.0 6:0.0 7:0.0 8:0.0 9:0.0 10:0.0 11:0.0 12:0.0 13:0.0 14:0.0 15:0.0 16:0.0 17:0.0 18:0.0 19:0.0 20:0.0 21:0.0 22:0.0 23:0.0 24:0.0 25:0.0 26:0.0 27:0.0 28:0.0 29:0.0 30:0.0 31:0.0 32:0.0 33:0.0 34:0.0 35:0.0 36:0.0 37:1.0 38:1.0 39:0.0 40:0.0 41:0.0 42:0.0 43:0.0 44:1.0 45:1.0 46:0.0 47:0.0 48:0.0 49:0.0 50:1.0 51:1.0 52:1.0 53:0.0 54:0.0 55:0.0 56:0.0 57:1.0 58:1.0 59:0.0 60:0.0 61:0.0 62:0.0 63:0.0 64:0.0 65:1.0 66:0.0 67:0.0 68:0.0 69:0.0 70:0.0 71:0.0 72:1.0 73:1.0 74:0.0 75:0.0 76:0.0 77:0.0 78:0.0 79:0.0 80:1.0 81:1.0 82:0.0 83:0.0 84:0.0 85:0.0 86:0.0 87:1.0 88:1.0 89:1.0 90:1.0 91:1.0 92:1.0 93:1.0 94:1.0 95:1.0 96:0.0 97:0.0 98:0.0 99:0.0 100:0.0 101:0.0 102:0.0 103:0.0 104:0.0 105:0.0 106:0.0 107:0.0 108:0.0 109:0.0 110:0.0 111:0.0 112:0.0 113:0.0 114:0.0 115:0.0 116:0.0 117:0.0 118:0.0 119:0.0 120:0.0 121:0.0 122:0.0 123:0.0 124:0.0 125:0.0 126:0.0 127:0.0 128:0.0 
0.0 0.0 0.0 0.0 0.0 0.0 0.0 0.0 0.0 0.024659209690099753 0.0 0.0 0.0 0.0 0.0 0.0 0.0 0.0 0.07618333651953985 0.0 0.0 0.00791882006091024 0.0 0.00838959496021921 0.0 1:0.0 2:0.0 3:1.0 4:1.0 5:1.0 6:1.0 7:0.0 8:0.0 9:0.0 10:0.0 11:1.0 12:1.0 13:0.0 14:1.0 15:1.0 16:1.0 17:0.0 18:1.0 19:1.0 20:0.0 21:0.0 22:0.0 23:0.0 24:1.0 25:0.0 26:1.0 27:1.0 28:0.0 29:0.0 30:0.0 31:0.0 32:1.0 33:0.0 34:1.0 35:0.0 36:0.0 37:0.0 38:0.0 39:0.0 40:1.0 41:1.0 42:1.0 43:0.0 44:0.0 45:0.0 46:0.0 47:0.0 48:1.0 49:1.0 50:0.0 51:0.0 52:0.0 53:0.0 54:0.0 55:0.0 56:1.0 57:1.0 58:0.0 59:0.0 60:0.0 61:0.0 62:0.0 63:0.0 64:1.0 65:1.0 66:0.0 67:0.0 68:0.0 69:0.0 70:0.0 71:0.0 72:1.0 73:1.0 74:0.0 75:0.0 76:0.0 77:0.0 78:0.0 79:0.0 80:1.0 81:1.0 82:0.0 83:0.0 84:0.0 85:0.0 86:0.0 87:1.0 88:0.0 89:1.0 90:0.0 91:0.0 92:0.0 93:0.0 94:1.0 95:1.0 96:0.0 97:1.0 98:0.0 99:0.0 100:0.0 101:0.0 102:1.0 103:0.0 104:0.0 105:1.0 106:0.0 107:0.0 108:0.0 109:1.0 110:0.0 111:0.0 112:0.0 113:1.0 114:0.0 115:0.0 116:1.0 117:0.0 118:0.0 119:0.0 120:0.0 121:0.0 122:1.0 123:1.0 124:0.0 125:0.0 126:0.0 127:0.0 128:0.0 
0.0 0.0 0.0 0.1 0.03973048209302105 0.1 0.060896293841878654 0.017591414007826798 0.0 0.08924469318731895 0.0 0.0811483177216629 0.0 0.07855887419568408 0.009078688114876401 2.0381650006449939E-4 0.07174579681389037 0.04315495472263662 0.023431398472277497 0.082845897845978 0.08404880082622561 0.06283423865673499 0.011042767171091657 0.0 0.006951238289942685 1:0.0 2:0.0 3:0.0 4:1.0 5:1.0 6:1.0 7:0.0 8:0.0 9:0.0 10:0.0 11:0.0 12:1.0 13:0.0 14:1.0 15:1.0 16:0.0 17:0.0 18:0.0 19:1.0 20:0.0 21:0.0 22:0.0 23:1.0 24:0.0 25:0.0 26:0.0 27:1.0 28:0.0 29:0.0 30:0.0 31:1.0 32:0.0 33:0.0 34:1.0 35:1.0 36:0.0 37:0.0 38:0.0 39:1.0 40:0.0 41:0.0 42:1.0 43:0.0 44:0.0 45:0.0 46:0.0 47:1.0 48:0.0 49:0.0 50:1.0 51:0.0 52:0.0 53:0.0 54:0.0 55:1.0 56:0.0 57:0.0 58:1.0 59:0.0 60:0.0 61:0.0 62:0.0 63:1.0 64:0.0 65:0.0 66:1.0 67:0.0 68:0.0 69:0.0 70:0.0 71:1.0 72:0.0 73:0.0 74:1.0 75:0.0 76:0.0 77:0.0 78:0.0 79:1.0 80:0.0 81:0.0 82:1.0 83:0.0 84:0.0 85:0.0 86:0.0 87:1.0 88:0.0 89:0.0 90:1.0 91:0.0 92:0.0 93:0.0 94:0.0 95:1.0 96:0.0 97:0.0 98:1.0 99:0.0 100:0.0 101:0.0 102:0.0 103:1.0 104:0.0 105:0.0 106:1.0 107:0.0 108:0.0 109:0.0 110:0.0 111:1.0 112:0.0 113:0.0 114:1.0 115:0.0 116:0.0 117:0.0 118:1.0 119:1.0 120:0.0 121:0.0 122:1.0 123:1.0 124:1.0 125:1.0 126:1.0 127:0.0 128:0.0 
0.0 0.0 0.0 0.0 0.0 0.0 0.0 0.0 0.06103785198885663 0.0 0.0 0.0 0.0 0.0 0.0 0.0 0.0 0.0 0.0 0.0 0.0 0.0 0.0 0.0 0.0 1:0.0 2:0.0 3:0.0 4:0.0 5:0.0 6:0.0 7:0.0 8:0.0 9:0.0 10:0.0 11:0.0 12:0.0 13:0.0 14:0.0 15:0.0 16:0.0 17:0.0 18:0.0 19:0.0 20:0.0 21:0.0 22:0.0 23:0.0 24:0.0 25:0.0 26:0.0 27:0.0 28:0.0 29:0.0 30:0.0 31:0.0 32:0.0 33:0.0 34:0.0 35:0.0 36:0.0 37:0.0 38:0.0 39:0.0 40:0.0 41:0.0 42:0.0 43:1.0 44:1.0 45:1.0 46:1.0 47:1.0 48:1.0 49:1.0 50:1.0 51:1.0 52:1.0 53:0.0 54:0.0 55:0.0 56:1.0 57:1.0 58:0.0 59:0.0 60:0.0 61:0.0 62:0.0 63:0.0 64:1.0 65:1.0 66:0.0 67:0.0 68:0.0 69:0.0 70:0.0 71:0.0 72:1.0 73:1.0 74:1.0 75:0.0 76:0.0 77:0.0 78:0.0 79:0.0 80:1.0 81:0.0 82:1.0 83:1.0 84:1.0 85:1.0 86:1.0 87:1.0 88:1.0 89:0.0 90:0.0 91:0.0 92:0.0 93:0.0 94:0.0 95:0.0 96:0.0 97:0.0 98:0.0 99:0.0 100:0.0 101:0.0 102:0.0 103:0.0 104:0.0 105:0.0 106:0.0 107:0.0 108:0.0 109:0.0 110:0.0 111:0.0 112:0.0 113:0.0 114:0.0 115:0.0 116:0.0 117:0.0 118:0.0 119:0.0 120:0.0 121:0.0 122:0.0 123:0.0 124:0.0 125:0.0 126:0.0 127:0.0 128:0.0 
0.0 0.04326016258217807 0.0 0.0 0.0 0.0 0.01305514971723384 0.0 0.1 0.0 0.06769075975922285 0.0 0.0 0.0 0.0 0.0 0.0 0.0 0.0 0.0 0.0 0.0 0.0 0.0 0.0 1:0.0 2:0.0 3:0.0 4:0.0 5:0.0 6:0.0 7:0.0 8:0.0 9:0.0 10:0.0 11:0.0 12:0.0 13:0.0 14:0.0 15:0.0 16:0.0 17:0.0 18:0.0 19:0.0 20:0.0 21:0.0 22:0.0 23:0.0 24:0.0 25:0.0 26:0.0 27:0.0 28:0.0 29:0.0 30:0.0 31:0.0 32:0.0 33:0.0 34:0.0 35:0.0 36:1.0 37:0.0 38:0.0 39:0.0 40:0.0 41:0.0 42:0.0 43:1.0 44:1.0 45:0.0 46:0.0 47:0.0 48:0.0 49:0.0 50:1.0 51:1.0 52:1.0 53:1.0 54:1.0 55:1.0 56:0.0 57:1.0 58:1.0 59:0.0 60:0.0 61:0.0 62:0.0 63:1.0 64:1.0 65:1.0 66:0.0 67:0.0 68:0.0 69:0.0 70:0.0 71:0.0 72:1.0 73:1.0 74:0.0 75:0.0 76:0.0 77:0.0 78:0.0 79:1.0 80:1.0 81:1.0 82:0.0 83:0.0 84:0.0 85:1.0 86:1.0 87:1.0 88:0.0 89:1.0 90:1.0 91:1.0 92:1.0 93:1.0 94:0.0 95:0.0 96:0.0 97:0.0 98:0.0 99:0.0 100:0.0 101:0.0 102:0.0 103:0.0 104:0.0 105:0.0 106:0.0 107:0.0 108:0.0 109:0.0 110:0.0 111:0.0 112:0.0 113:0.0 114:0.0 115:0.0 116:0.0 117:0.0 118:0.0 119:0.0 120:0.0 121:0.0 122:0.0 123:0.0 124:0.0 125:0.0 126:0.0 127:0.0 128:0.0 
0.0 0.06929452195874988 0.1 0.0 0.0 0.0 0.0 0.005086788989221071 0.0 0.0 0.0 0.012292568864237602 0.0 0.0 0.0369559636334737 0.0 0.0 0.0 0.0 0.0 0.0 0.0 0.0 0.0 0.0 1:0.0 2:0.0 3:0.0 4:0.0 5:0.0 6:0.0 7:0.0 8:0.0 9:0.0 10:0.0 11:0.0 12:0.0 13:0.0 14:0.0 15:0.0 16:0.0 17:0.0 18:1.0 19:1.0 20:1.0 21:1.0 22:1.0 23:1.0 24:1.0 25:1.0 26:1.0 27:0.0 28:0.0 29:0.0 30:1.0 31:0.0 32:1.0 33:1.0 34:0.0 35:0.0 36:0.0 37:0.0 38:1.0 39:1.0 40:0.0 41:1.0 42:0.0 43:0.0 44:0.0 45:0.0 46:0.0 47:1.0 48:1.0 49:1.0 50:0.0 51:0.0 52:0.0 53:0.0 54:0.0 55:0.0 56:1.0 57:1.0 58:0.0 59:0.0 60:0.0 61:0.0 62:0.0 63:0.0 64:1.0 65:1.0 66:0.0 67:0.0 68:0.0 69:0.0 70:0.0 71:0.0 72:1.0 73:1.0 74:0.0 75:0.0 76:0.0 77:0.0 78:0.0 79:0.0 80:1.0 81:1.0 82:0.0 83:0.0 84:0.0 85:0.0 86:0.0 87:0.0 88:1.0 89:1.0 90:0.0 91:0.0 92:0.0 93:0.0 94:0.0 95:0.0 96:1.0 97:1.0 98:1.0 99:0.0 100:0.0 101:0.0 102:0.0 103:0.0 104:1.0 105:0.0 106:1.0 107:1.0 108:1.0 109:1.0 110:1.0 111:1.0 112:1.0 113:0.0 114:0.0 115:0.0 116:0.0 117:0.0 118:0.0 119:0.0 120:0.0 121:0.0 122:0.0 123:0.0 124:0.0 125:0.0 126:0.0 127:0.0 128:0.0 
0.056728150408992484 0.1 0.1 0.1 0.00206882898126674 0.0 0.0 0.0 0.0 0.08140072199250849 0.0 0.01861495573418508 0.03113244973889378 0.031483619335993404 0.05173840345156302 0.015749761353728377 0.1 0.1 0.013639970712968068 0.013884064703670693 0.0 0.0 0.0 0.0906484229642357 0.0 1:0.0 2:0.0 3:0.0 4:0.0 5:0.0 6:0.0 7:0.0 8:0.0 9:0.0 10:0.0 11:0.0 12:0.0 13:0.0 14:0.0 15:0.0 16:0.0 17:0.0 18:0.0 19:0.0 20:0.0 21:0.0 22:0.0 23:0.0 24:0.0 25:0.0 26:0.0 27:0.0 28:0.0 29:0.0 30:0.0 31:0.0 32:0.0 33:0.0 34:0.0 35:0.0 36:0.0 37:0.0 38:0.0 39:0.0 40:1.0 41:0.0 42:0.0 43:0.0 44:0.0 45:0.0 46:1.0 47:1.0 48:1.0 49:0.0 50:0.0 51:0.0 52:1.0 53:1.0 54:1.0 55:0.0 56:1.0 57:0.0 58:0.0 59:1.0 60:1.0 61:0.0 62:0.0 63:0.0 64:1.0 65:0.0 66:1.0 67:1.0 68:0.0 69:0.0 70:0.0 71:1.0 72:1.0 73:1.0 74:1.0 75:0.0 76:0.0 77:1.0 78:1.0 79:1.0 80:0.0 81:1.0 82:1.0 83:1.0 84:1.0 85:1.0 86:0.0 87:0.0 88:0.0 89:1.0 90:0.0 91:0.0 92:0.0 93:0.0 94:0.0 95:0.0 96:0.0 97:0.0 98:0.0 99:0.0 100:0.0 101:0.0 102:0.0 103:0.0 104:0.0 105:0.0 106:0.0 107:0.0 108:0.0 109:0.0 110:0.0 111:0.0 112:0.0 113:0.0 114:0.0 115:0.0 116:0.0 117:0.0 118:0.0 119:0.0 120:0.0 121:0.0 122:0.0 123:0.0 124:0.0 125:0.0 126:0.0 127:0.0 128:0.0 
0.01041688312459177 0.07311201624644208 0.0 0.0 0.0 0.09649533770988104 0.1 0.0 0.023723624692696267 0.057316245423398776 0.012524492437159387 0.0 0.0 0.0 0.02357845020426476 0.0 0.0 0.0022377749034842897 0.0 0.028288201626240503 0.0025338607685955737 0.0 0.0 0.0 0.0 1:0.0 2:0.0 3:1.0 4:1.0 5:0.0 6:0.0 7:0.0 8:0.0 9:0.0 10:0.0 11:1.0 12:0.0 13:0.0 14:0.0 15:0.0 16:0.0 17:0.0 18:1.0 19:1.0 20:0.0 21:0.0 22:0.0 23:0.0 24:0.0 25:0.0 26:1.0 27:0.0 28:1.0 29:0.0 30:0.0 31:0.0 32:0.0 33:0.0 34:1.0 35:0.0 36:1.0 37:0.0 38:0.0 39:0.0 40:0.0 41:1.0 42:1.0 43:0.0 44:1.0 45:1.0 46:0.0 47:0.0 48:0.0 49:1.0 50:0.0 51:0.0 52:0.0 53:1.0 54:1.0 55:0.0 56:0.0 57:1.0 58:0.0 59:0.0 60:0.0 61:0.0 62:1.0 63:1.0 64:0.0 65:1.0 66:0.0 67:0.0 68:0.0 69:0.0 70:0.0 71:1.0 72:1.0 73:1.0 74:0.0 75:0.0 76:0.0 77:0.0 78:0.0 79:0.0 80:1.0 81:1.0 82:0.0 83:0.0 84:0.0 85:0.0 86:0.0 87:0.0 88:1.0 89:1.0 90:0.0 91:0.0 92:0.0 93:0.0 94:0.0 95:0.0 96:1.0 97:1.0 98:1.0 99:0.0 100:0.0 101:0.0 102:0.0 103:0.0 104:1.0 105:0.0 106:1.0 107:0.0 108:0.0 109:0.0 110:0.0 111:0.0 112:1.0 113:0.0 114:1.0 115:1.0 116:1.0 117:0.0 118:0.0 119:1.0 120:1.0 121:0.0 122:0.0 123:0.0 124:1.0 125:1.0 126:1.0 127:1.0 128:0.0 
0.0 0.0 0.0 0.0 0.0 0.0 0.0 0.0 0.037184836197286825 0.0 0.0 0.0 0.0 0.0 0.0 0.0 0.0 0.0 0.0 0.0 0.0 0.0 0.0 0.0 0.0 1:0.0 2:0.0 3:0.0 4:0.0 5:0.0 6:0.0 7:0.0 8:0.0 9:0.0 10:0.0 11:0.0 12:0.0 13:0.0 14:0.0 15:0.0 16:0.0 17:0.0 18:0.0 19:0.0 20:1.0 21:1.0 22:1.0 23:1.0 24:0.0 25:0.0 26:1.0 27:1.0 28:1.0 29:0.0 30:0.0 31:1.0 32:1.0 33:1.0 34:1.0 35:0.0 36:0.0 37:0.0 38:0.0 39:0.0 40:1.0 41:1.0 42:1.0 43:0.0 44:0.0 45:0.0 46:0.0 47:0.0 48:1.0 49:1.0 50:1.0 51:0.0 52:0.0 53:0.0 54:0.0 55:0.0 56:1.0 57:1.0 58:0.0 59:0.0 60:0.0 61:0.0 62:0.0 63:0.0 64:1.0 65:1.0 66:0.0 67:0.0 68:0.0 69:0.0 70:0.0 71:0.0 72:1.0 73:1.0 74:0.0 75:0.0 76:0.0 77:0.0 78:0.0 79:1.0 80:1.0 81:1.0 82:0.0 83:0.0 84:0.0 85:0.0 86:0.0 87:1.0 88:0.0 89:1.0 90:0.0 91:0.0 92:0.0 93:0.0 94:1.0 95:0.0 96:0.0 97:1.0 98:0.0 99:0.0 100:1.0 101:1.0 102:0.0 103:0.0 104:0.0 105:1.0 106:1.0 107:1.0 108:1.0 109:0.0 110:0.0 111:0.0 112:0.0 113:0.0 114:0.0 115:0.0 116:0.0 117:0.0 118:0.0 119:0.0 120:0.0 121:0.0 122:0.0 123:0.0 124:0.0 125:0.0 126:0.0 127:0.0 128:0.0 
0.0 0.0 0.0 0.0 0.0 0.0 0.007775052374034516 0.0 0.0 0.0 0.0 0.0 0.0 0.0 0.0 0.0 0.0 0.0 0.0 0.0 0.0 0.0 0.0 0.0 0.0 1:0.0 2:0.0 3:0.0 4:0.0 5:0.0 6:0.0 7:0.0 8:0.0 9:0.0 10:0.0 11:0.0 12:0.0 13:0.0 14:0.0 15:0.0 16:0.0 17:0.0 18:0.0 19:1.0 20:1.0 21:0.0 22:0.0 23:0.0 24:0.0 25:1.0 26:0.0 27:0.0 28:1.0 29:1.0 30:1.0 31:0.0 32:0.0 33:1.0 34:0.0 35:0.0 36:0.0 37:0.0 38:1.0 39:0.0 40:0.0 41:1.0 42:0.0 43:0.0 44:0.0 45:0.0 46:1.0 47:1.0 48:0.0 49:1.0 50:0.0 51:0.0 52:0.0 53:0.0 54:0.0 55:1.0 56:1.0 57:1.0 58:0.0 59:0.0 60:0.0 61:0.0 62:0.0 63:0.0 64:1.0 65:1.0 66:0.0 67:0.0 68:0.0 69:0.0 70:0.0 71:0.0 72:1.0 73:1.0 74:0.0 75:0.0 76:0.0 77:0.0 78:0.0 79:0.0 80:1.0 81:1.0 82:1.0 83:0.0 84:0.0 85:0.0 86:0.0 87:0.0 88:1.0 89:0.0 90:1.0 91:1.0 92:0.0 93:0.0 94:0.0 95:0.0 96:1.0 97:0.0 98:0.0 99:0.0 100:1.0 101:1.0 102:0.0 103:0.0 104:1.0 105:0.0 106:0.0 107:0.0 108:0.0 109:1.0 110:1.0 111:1.0 112:1.0 113:0.0 114:0.0 115:0.0 116:0.0 117:0.0 118:0.0 119:0.0 120:0.0 121:0.0 122:0.0 123:0.0 124:0.0 125:0.0 126:0.0 127:0.0 128:0.0 
0.0 0.0 0.03209408561521796 0.1 0.03198561860924376 0.1 0.0 0.005100489907279818 0.0 0.0 0.04605172497697989 0.06265379694659155 0.0 0.048875053789490676 0.1 0.1 0.1 0.0 0.0 0.022227179300908773 0.07923359734945233 0.0 0.0 0.0 0.0 1:0.0 2:0.0 3:0.0 4:0.0 5:0.0 6:0.0 7:0.0 8:0.0 9:0.0 10:0.0 11:0.0 12:0.0 13:0.0 14:1.0 15:1.0 16:1.0 17:0.0 18:0.0 19:0.0 20:0.0 21:0.0 22:0.0 23:0.0 24:1.0 25:0.0 26:0.0 27:0.0 28:0.0 29:0.0 30:0.0 31:0.0 32:1.0 33:0.0 34:0.0 35:0.0 36:0.0 37:0.0 38:0.0 39:0.0 40:1.0 41:0.0 42:0.0 43:0.0 44:0.0 45:0.0 46:0.0 47:0.0 48:1.0 49:0.0 50:0.0 51:0.0 52:0.0 53:0.0 54:0.0 55:0.0 56:1.0 57:0.0 58:0.0 59:0.0 60:0.0 61:0.0 62:0.0 63:0.0 64:1.0 65:0.0 66:0.0 67:0.0 68:0.0 69:0.0 70:0.0 71:0.0 72:1.0 73:1.0 74:0.0 75:0.0 76:0.0 77:0.0 78:0.0 79:0.0 80:1.0 81:1.0 82:0.0 83:0.0 84:0.0 85:0.0 86:0.0 87:0.0 88:1.0 89:1.0 90:0.0 91:0.0 92:0.0 93:0.0 94:0.0 95:0.0 96:1.0 97:1.0 98:0.0 99:0.0 100:0.0 101:0.0 102:1.0 103:1.0 104:1.0 105:1.0 106:0.0 107:0.0 108:0.0 109:1.0 110:1.0 111:0.0 112:0.0 113:1.0 114:1.0 115:1.0 116:1.0 117:0.0 118:0.0 119:0.0 120:0.0 121:0.0 122:0.0 123:0.0 124:0.0 125:0.0 126:0.0 127:0.0 128:0.0 
0.0 0.1 0.1 0.02530483007089295 0.0 0.1 0.011587625776204046 0.0 0.0 0.08041233585635832 0.06350168231425639 0.0 0.025514834464401434 0.0 0.050208852137669374 0.0 0.0 0.05170682678837584 0.034614521889092933 0.0 0.0 0.02206954147379993 0.011526544438645942 0.004963087947928204 0.017127511889214103 1:0.0 2:0.0 3:0.0 4:0.0 5:0.0 6:0.0 7:0.0 8:0.0 9:0.0 10:0.0 11:0.0 12:0.0 13:0.0 14:0.0 15:0.0 16:0.0 17:0.0 18:0.0 19:0.0 20:0.0 21:0.0 22:1.0 23:1.0 24:1.0 25:0.0 26:0.0 27:0.0 28:0.0 29:1.0 30:1.0 31:0.0 32:1.0 33:0.0 34:0.0 35:0.0 36:1.0 37:1.0 38:1.0 39:1.0 40:1.0 41:0.0 42:0.0 43:1.0 44:1.0 45:0.0 46:1.0 47:0.0 48:1.0 49:0.0 50:1.0 51:1.0 52:0.0 53:1.0 54:1.0 55:0.0 56:1.0 57:0.0 58:1.0 59:0.0 60:1.0 61:1.0 62:0.0 63:0.0 64:1.0 65:0.0 66:0.0 67:1.0 68:1.0 69:0.0 70:0.0 71:0.0 72:1.0 73:0.0 74:0.0 75:1.0 76:0.0 77:0.0 78:0.0 79:1.0 80:1.0 81:0.0 82:1.0 83:1.0 84:0.0 85:0.0 86:1.0 87:1.0 88:0.0 89:1.0 90:1.0 91:0.0 92:0.0 93:1.0 94:1.0 95:0.0 96:0.0 97:1.0 98:0.0 99:0.0 100:0.0 101:1.0 102:0.0 103:0.0 104:0.0 105:1.0 106:1.0 107:1.0 108:1.0 109:1.0 110:0.0 111:0.0 112:0.0 113:0.0 114:0.0 115:0.0 116:0.0 117:0.0 118:0.0 119:0.0 120:0.0 121:0.0 122:0.0 123:0.0 124:0.0 125:0.0 126:0.0 127:0.0 128:0.0 
0.0 0.0 0.0 0.1 0.0 0.0 0.0 0.0 0.0 0.0 0.0 0.0 0.0 0.0 0.0 0.0 0.0 0.0 0.03370113323870337 0.0 0.0 0.0 0.0 0.0 0.0 1:0.0 2:0.0 3:1.0 4:1.0 5:1.0 6:0.0 7:0.0 8:0.0 9:0.0 10:1.0 11:1.0 12:1.0 13:1.0 14:0.0 15:0.0 16:0.0 17:1.0 18:1.0 19:0.0 20:0.0 21:0.0 22:1.0 23:1.0 24:0.0 25:1.0 26:1.0 27:0.0 28:0.0 29:0.0 30:0.0 31:1.0 32:1.0 33:1.0 34:0.0 35:0.0 36:0.0 37:0.0 38:0.0 39:0.0 40:1.0 41:1.0 42:0.0 43:0.0 44:0.0 45:0.0 46:0.0 47:0.0 48:1.0 49:1.0 50:0.0 51:0.0 52:0.0 53:0.0 54:0.0 55:0.0 56:1.0 57:1.0 58:0.0 59:0.0 60:0.0 61:0.0 62:0.0 63:0.0 64:1.0 65:1.0 66:0.0 67:0.0 68:0.0 69:0.0 70:0.0 71:0.0 72:1.0 73:1.0 74:0.0 75:0.0 76:0.0 77:0.0 78:0.0 79:0.0 80:1.0 81:1.0 82:0.0 83:0.0 84:0.0 85:0.0 86:0.0 87:0.0 88:1.0 89:1.0 90:0.0 91:0.0 92:0.0 93:0.0 94:0.0 95:0.0 96:1.0 97:1.0 98:0.0 99:0.0 100:0.0 101:0.0 102:0.0 103:1.0 104:1.0 105:1.0 106:0.0 107:0.0 108:0.0 109:0.0 110:1.0 111:1.0 112:0.0 113:1.0 114:1.0 115:0.0 116:1.0 117:1.0 118:1.0 119:0.0 120:0.0 121:0.0 122:1.0 123:1.0 124:1.0 125:0.0 126:0.0 127:0.0 128:0.0 
0.0 0.0 0.0 0.0 0.0 0.0 0.0 0.0 0.0 0.0 0.0 0.0 0.0 0.0 0.0 0.0 0.1 0.0 0.0 0.0 0.0 0.0 0.0 0.0 0.0 1:0.0 2:0.0 3:0.0 4:0.0 5:0.0 6:0.0 7:0.0 8:0.0 9:0.0 10:0.0 11:0.0 12:0.0 13:0.0 14:0.0 15:0.0 16:0.0 17:0.0 18:0.0 19:0.0 20:0.0 21:0.0 22:0.0 23:0.0 24:0.0 25:0.0 26:0.0 27:0.0 28:0.0 29:0.0 30:0.0 31:0.0 32:0.0 33:0.0 34:0.0 35:0.0 36:1.0 37:1.0 38:1.0 39:0.0 40:0.0 41:0.0 42:0.0 43:0.0 44:0.0 45:0.0 46:1.0 47:1.0 48:0.0 49:1.0 50:1.0 51:0.0 52:0.0 53:0.0 54:0.0 55:1.0 56:1.0 57:1.0 58:0.0 59:0.0 60:0.0 61:0.0 62:0.0 63:0.0 64:1.0 65:1.0 66:0.0 67:0.0 68:0.0 69:0.0 70:0.0 71:0.0 72:1.0 73:1.0 74:0.0 75:0.0 76:0.0 77:0.0 78:0.0 79:0.0 80:1.0 81:1.0 82:0.0 83:0.0 84:0.0 85:0.0 86:0.0 87:1.0 88:1.0 89:1.0 90:1.0 91:1.0 92:0.0 93:1.0 94:1.0 95:1.0 96:0.0 97:0.0 98:0.0 99:1.0 100:1.0 101:1.0 102:0.0 103:0.0 104:0.0 105:0.0 106:0.0 107:0.0 108:0.0 109:0.0 110:0.0 111:0.0 112:0.0 113:0.0 114:0.0 115:0.0 116:0.0 117:0.0 118:0.0 119:0.0 120:0.0 121:0.0 122:0.0 123:0.0 124:0.0 125:0.0 126:0.0 127:0.0 128:0.0 
0.0 0.0 0.06473768603038628 0.0 0.007567699817990979 0.0 0.0 0.0 0.0 0.0 0.0 0.0 0.0 0.012338138346872583 0.0 0.0 0.0 0.0 0.008457387686767931 0.0 0.0 0.0 0.0 0.03098495767166477 0.0 1:0.0 2:0.0 3:1.0 4:1.0 5:1.0 6:1.0 7:0.0 8:0.0 9:0.0 10:1.0 11:1.0 12:0.0 13:0.0 14:0.0 15:1.0 16:0.0 17:0.0 18:1.0 19:0.0 20:0.0 21:0.0 22:0.0 23:1.0 24:0.0 25:0.0 26:1.0 27:0.0 28:0.0 29:0.0 30:0.0 31:1.0 32:0.0 33:1.0 34:0.0 35:0.0 36:0.0 37:0.0 38:0.0 39:0.0 40:1.0 41:1.0 42:0.0 43:0.0 44:0.0 45:0.0 46:0.0 47:0.0 48:1.0 49:1.0 50:0.0 51:0.0 52:0.0 53:0.0 54:0.0 55:0.0 56:1.0 57:1.0 58:0.0 59:0.0 60:0.0 61:0.0 62:0.0 63:0.0 64:1.0 65:1.0 66:0.0 67:0.0 68:0.0 69:0.0 70:0.0 71:0.0 72:1.0 73:1.0 74:0.0 75:0.0 76:0.0 77:0.0 78:0.0 79:0.0 80:1.0 81:1.0 82:0.0 83:0.0 84:0.0 85:0.0 86:0.0 87:0.0 88:1.0 89:1.0 90:1.0 91:0.0 92:0.0 93:0.0 94:0.0 95:1.0 96:1.0 97:0.0 98:0.0 99:0.0 100:0.0 101:0.0 102:0.0 103:1.0 104:0.0 105:0.0 106:0.0 107:0.0 108:0.0 109:0.0 110:0.0 111:1.0 112:0.0 113:0.0 114:0.0 115:0.0 116:0.0 117:0.0 118:0.0 119:1.0 120:0.0 121:0.0 122:0.0 123:0.0 124:0.0 125:1.0 126:1.0 127:1.0 128:0.0 
0.0 0.0 0.0 0.0 0.0 0.07244389484816784 0.0 0.0 0.0 0.0 0.0 0.0 0.0 0.0 0.0 0.0 0.0 0.0 0.0 0.0 0.0 0.0 0.0 0.0 0.0 1:0.0 2:0.0 3:0.0 4:0.0 5:0.0 6:0.0 7:0.0 8:0.0 9:0.0 10:0.0 11:0.0 12:0.0 13:0.0 14:0.0 15:0.0 16:0.0 17:0.0 18:0.0 19:0.0 20:0.0 21:0.0 22:0.0 23:0.0 24:0.0 25:0.0 26:0.0 27:1.0 28:1.0 29:1.0 30:1.0 31:1.0 32:0.0 33:0.0 34:0.0 35:1.0 36:0.0 37:1.0 38:0.0 39:1.0 40:1.0 41:0.0 42:0.0 43:1.0 44:0.0 45:0.0 46:0.0 47:0.0 48:1.0 49:0.0 50:1.0 51:1.0 52:0.0 53:0.0 54:0.0 55:0.0 56:1.0 57:0.0 58:1.0 59:0.0 60:0.0 61:0.0 62:0.0 63:0.0 64:1.0 65:1.0 66:0.0 67:0.0 68:0.0 69:0.0 70:0.0 71:0.0 72:1.0 73:1.0 74:0.0 75:0.0 76:0.0 77:0.0 78:0.0 79:1.0 80:1.0 81:1.0 82:0.0 83:0.0 84:0.0 85:0.0 86:0.0 87:1.0 88:0.0 89:1.0 90:0.0 91:0.0 92:0.0 93:0.0 94:1.0 95:1.0 96:0.0 97:1.0 98:1.0 99:1.0 100:1.0 101:1.0 102:1.0 103:0.0 104:0.0 105:0.0 106:0.0 107:0.0 108:0.0 109:0.0 110:0.0 111:0.0 112:0.0 113:0.0 114:0.0 115:0.0 116:0.0 117:0.0 118:0.0 119:0.0 120:0.0 121:0.0 122:0.0 123:0.0 124:0.0 125:0.0 126:0.0 127:0.0 128:0.0 
0.0 0.07439382076271522 0.0 0.0 0.0 0.0 0.0 0.0 0.0686811689484924 0.0 0.0 0.0 0.0 0.0 0.0 0.0 0.0 0.0 0.0 0.0 0.0 0.0 0.0 0.0 0.0 1:0.0 2:0.0 3:0.0 4:0.0 5:0.0 6:0.0 7:0.0 8:0.0 9:0.0 10:0.0 11:0.0 12:0.0 13:0.0 14:0.0 15:0.0 16:0.0 17:0.0 18:0.0 19:0.0 20:0.0 21:1.0 22:1.0 23:1.0 24:1.0 25:0.0 26:0.0 27:0.0 28:1.0 29:1.0 30:0.0 31:0.0 32:1.0 33:0.0 34:0.0 35:1.0 36:1.0 37:0.0 38:0.0 39:0.0 40:1.0 41:0.0 42:1.0 43:1.0 44:0.0 45:0.0 46:0.0 47:0.0 48:1.0 49:0.0 50:1.0 51:0.0 52:0.0 53:0.0 54:0.0 55:0.0 56:1.0 57:1.0 58:1.0 59:0.0 60:0.0 61:0.0 62:0.0 63:0.0 64:1.0 65:1.0 66:0.0 67:0.0 68:0.0 69:0.0 70:0.0 71:0.0 72:1.0 73:1.0 74:0.0 75:0.0 76:0.0 77:0.0 78:0.0 79:0.0 80:1.0 81:1.0 82:0.0 83:0.0 84:0.0 85:0.0 86:0.0 87:0.0 88:1.0 89:1.0 90:0.0 91:0.0 92:0.0 93:0.0 94:0.0 95:1.0 96:1.0 97:1.0 98:0.0 99:0.0 100:0.0 101:0.0 102:1.0 103:1.0 104:0.0 105:1.0 106:1.0 107:1.0 108:1.0 109:1.0 110:1.0 111:0.0 112:0.0 113:0.0 114:0.0 115:0.0 116:0.0 117:0.0 118:0.0 119:0.0 120:0.0 121:0.0 122:0.0 123:0.0 124:0.0 125:0.0 126:0.0 127:0.0 128:0.0 
0.0 0.0 0.01476681352361493 0.0 0.0 0.0 0.0 0.0 0.024903468619187404 0.0 0.0 0.0 0.0 0.0 0.0 0.0 0.08440302876416239 0.0 0.0 0.0 0.0 0.0 0.0 0.0 0.0 1:0.0 2:0.0 3:0.0 4:0.0 5:0.0 6:0.0 7:0.0 8:0.0 9:0.0 10:0.0 11:0.0 12:0.0 13:0.0 14:0.0 15:0.0 16:0.0 17:0.0 18:0.0 19:0.0 20:0.0 21:0.0 22:0.0 23:0.0 24:0.0 25:0.0 26:0.0 27:0.0 28:0.0 29:0.0 30:0.0 31:0.0 32:0.0 33:0.0 34:0.0 35:0.0 36:0.0 37:0.0 38:0.0 39:1.0 40:0.0 41:0.0 42:0.0 43:0.0 44:1.0 45:1.0 46:0.0 47:1.0 48:1.0 49:0.0 50:1.0 51:1.0 52:1.0 53:0.0 54:0.0 55:0.0 56:1.0 57:1.0 58:1.0 59:0.0 60:0.0 61:0.0 62:0.0 63:0.0 64:1.0 65:1.0 66:0.0 67:0.0 68:0.0 69:0.0 70:0.0 71:0.0 72:1.0 73:1.0 74:0.0 75:0.0 76:0.0 77:0.0 78:0.0 79:0.0 80:1.0 81:1.0 82:0.0 83:0.0 84:0.0 85:0.0 86:0.0 87:1.0 88:1.0 89:1.0 90:1.0 91:1.0 92:1.0 93:1.0 94:1.0 95:1.0 96:0.0 97:0.0 98:0.0 99:0.0 100:0.0 101:0.0 102:0.0 103:0.0 104:0.0 105:0.0 106:0.0 107:0.0 108:0.0 109:0.0 110:0.0 111:0.0 112:0.0 113:0.0 114:0.0 115:0.0 116:0.0 117:0.0 118:0.0 119:0.0 120:0.0 121:0.0 122:0.0 123:0.0 124:0.0 125:0.0 126:0.0 127:0.0 128:0.0 
0.0 0.0 0.0 0.0 0.0 0.0 0.0 0.0 0.0 0.0 0.0 0.0 0.0 0.0 0.0 0.0 0.0 0.0 0.0 0.0 0.0 0.004418698223085701 0.0 0.0 0.0 1:0.0 2:0.0 3:0.0 4:0.0 5:0.0 6:0.0 7:0.0 8:0.0 9:0.0 10:0.0 11:0.0 12:0.0 13:0.0 14:0.0 15:0.0 16:0.0 17:0.0 18:1.0 19:1.0 20:1.0 21:1.0 22:0.0 23:0.0 24:0.0 25:0.0 26:1.0 27:1.0 28:1.0 29:1.0 30:1.0 31:1.0 32:0.0 33:0.0 34:1.0 35:1.0 36:0.0 37:0.0 38:0.0 39:1.0 40:1.0 41:1.0 42:0.0 43:0.0 44:0.0 45:0.0 46:0.0 47:0.0 48:1.0 49:1.0 50:0.0 51:0.0 52:0.0 53:0.0 54:0.0 55:0.0 56:1.0 57:1.0 58:0.0 59:0.0 60:0.0 61:0.0 62:0.0 63:0.0 64:1.0 65:1.0 66:0.0 67:0.0 68:0.0 69:0.0 70:0.0 71:0.0 72:1.0 73:1.0 74:0.0 75:0.0 76:0.0 77:0.0 78:0.0 79:0.0 80:1.0 81:1.0 82:0.0 83:0.0 84:0.0 85:0.0 86:0.0 87:0.0 88:1.0 89:1.0 90:0.0 91:0.0 92:0.0 93:0.0 94:0.0 95:0.0 96:1.0 97:1.0 98:0.0 99:0.0 100:0.0 101:0.0 102:0.0 103:1.0 104:1.0 105:1.0 106:1.0 107:1.0 108:1.0 109:1.0 110:1.0 111:1.0 112:0.0 113:0.0 114:0.0 115:0.0 116:0.0 117:0.0 118:0.0 119:0.0 120:0.0 121:0.0 122:0.0 123:0.0 124:0.0 125:0.0 126:0.0 127:0.0 128:0.0 
0.017766259169914766 0.0 0.0 0.0 0.0 0.0 0.0 0.0 0.0 0.0 0.0 0.0 0.0 0.0 0.0 0.0 0.0 0.0 0.0 0.0 0.0 0.0 0.0 0.0 0.0 1:0.0 2:0.0 3:0.0 4:0.0 5:0.0 6:0.0 7:0.0 8:0.0 9:0.0 10:0.0 11:0.0 12:0.0 13:0.0 14:0.0 15:0.0 16:0.0 17:0.0 18:0.0 19:0.0 20:0.0 21:0.0 22:0.0 23:0.0 24:0.0 25:0.0 26:0.0 27:0.0 28:0.0 29:1.0 30:1.0 31:0.0 32:0.0 33:0.0 34:0.0 35:0.0 36:1.0 37:1.0 38:1.0 39:1.0 40:0.0 41:0.0 42:1.0 43:1.0 44:1.0 45:0.0 46:0.0 47:1.0 48:0.0 49:1.0 50:1.0 51:0.0 52:0.0 53:0.0 54:0.0 55:1.0 56:1.0 57:1.0 58:0.0 59:0.0 60:0.0 61:0.0 62:0.0 63:0.0 64:1.0 65:1.0 66:0.0 67:0.0 68:0.0 69:0.0 70:0.0 71:0.0 72:1.0 73:1.0 74:0.0 75:0.0 76:0.0 77:0.0 78:0.0 79:0.0 80:1.0 81:1.0 82:0.0 83:0.0 84:0.0 85:0.0 86:0.0 87:0.0 88:1.0 89:1.0 90:0.0 91:0.0 92:0.0 93:0.0 94:0.0 95:0.0 96:1.0 97:1.0 98:1.0 99:1.0 100:1.0 101:1.0 102:1.0 103:1.0 104:1.0 105:0.0 106:0.0 107:0.0 108:0.0 109:0.0 110:0.0 111:0.0 112:0.0 113:0.0 114:0.0 115:0.0 116:0.0 117:0.0 118:0.0 119:0.0 120:0.0 121:0.0 122:0.0 123:0.0 124:0.0 125:0.0 126:0.0 127:0.0 128:0.0 
0.0 0.0 0.0 0.0 0.0 0.0035313035352037515 0.0 0.0 0.0 0.0 0.0 0.0 0.0 0.0 0.0 0.0 0.0 0.0 0.0 0.0 0.0 0.0 0.0 0.0 0.0 1:0.0 2:0.0 3:1.0 4:1.0 5:1.0 6:1.0 7:1.0 8:0.0 9:0.0 10:0.0 11:1.0 12:0.0 13:0.0 14:0.0 15:1.0 16:1.0 17:0.0 18:1.0 19:1.0 20:1.0 21:1.0 22:1.0 23:1.0 24:1.0 25:0.0 26:1.0 27:0.0 28:0.0 29:0.0 30:0.0 31:0.0 32:1.0 33:1.0 34:1.0 35:0.0 36:0.0 37:0.0 38:0.0 39:0.0 40:1.0 41:1.0 42:0.0 43:0.0 44:0.0 45:0.0 46:0.0 47:0.0 48:1.0 49:1.0 50:0.0 51:0.0 52:0.0 53:0.0 54:0.0 55:0.0 56:1.0 57:1.0 58:0.0 59:0.0 60:0.0 61:0.0 62:0.0 63:0.0 64:1.0 65:1.0 66:0.0 67:0.0 68:0.0 69:0.0 70:0.0 71:0.0 72:1.0 73:1.0 74:0.0 75:0.0 76:0.0 77:0.0 78:0.0 79:0.0 80:1.0 81:1.0 82:0.0 83:0.0 84:0.0 85:0.0 86:0.0 87:1.0 88:1.0 89:1.0 90:0.0 91:0.0 92:0.0 93:0.0 94:1.0 95:1.0 96:0.0 97:1.0 98:0.0 99:0.0 100:0.0 101:0.0 102:1.0 103:0.0 104:0.0 105:1.0 106:0.0 107:0.0 108:1.0 109:1.0 110:1.0 111:0.0 112:0.0 113:1.0 114:0.0 115:0.0 116:1.0 117:0.0 118:0.0 119:0.0 120:0.0 121:1.0 122:1.0 123:1.0 124:1.0 125:0.0 126:0.0 127:0.0 128:0.0 
0.0 0.0 0.0 0.02449066675081615 0.0 0.0 0.0 0.0 0.0 0.0 0.0 0.0 0.0 0.0 0.0 0.0 0.0 0.0 0.0 0.0 0.0 0.0 0.0 0.0 0.0 1:0.0 2:0.0 3:0.0 4:0.0 5:0.0 6:0.0 7:0.0 8:0.0 9:0.0 10:0.0 11:0.0 12:0.0 13:0.0 14:0.0 15:0.0 16:0.0 17:0.0 18:0.0 19:0.0 20:0.0 21:0.0 22:0.0 23:0.0 24:0.0 25:0.0 26:0.0 27:0.0 28:0.0 29:1.0 30:1.0 31:0.0 32:0.0 33:0.0 34:0.0 35:0.0 36:0.0 37:1.0 38:1.0 39:1.0 40:0.0 41:0.0 42:0.0 43:1.0 44:1.0 45:1.0 46:0.0 47:0.0 48:1.0 49:0.0 50:1.0 51:1.0 52:0.0 53:0.0 54:0.0 55:0.0 56:1.0 57:0.0 58:1.0 59:0.0 60:0.0 61:0.0 62:0.0 63:0.0 64:1.0 65:1.0 66:0.0 67:0.0 68:0.0 69:0.0 70:0.0 71:0.0 72:1.0 73:1.0 74:0.0 75:0.0 76:0.0 77:0.0 78:0.0 79:1.0 80:1.0 81:1.0 82:0.0 83:0.0 84:0.0 85:0.0 86:1.0 87:1.0 88:0.0 89:1.0 90:0.0 91:1.0 92:1.0 93:1.0 94:1.0 95:0.0 96:0.0 97:1.0 98:1.0 99:1.0 100:0.0 101:0.0 102:0.0 103:0.0 104:0.0 105:0.0 106:0.0 107:0.0 108:0.0 109:0.0 110:0.0 111:0.0 112:0.0 113:0.0 114:0.0 115:0.0 116:0.0 117:0.0 118:0.0 119:0.0 120:0.0 121:0.0 122:0.0 123:0.0 124:0.0 125:0.0 126:0.0 127:0.0 128:0.0 
0.0 0.0 0.0 0.0 0.0 0.0 0.0 0.0 0.0 0.0 0.0 0.0 0.0 0.0 0.0 0.0 0.06455923901609817 0.0 0.0 0.0 0.0 0.0 0.0 0.0016779660181334213 0.0 1:0.0 2:0.0 3:0.0 4:0.0 5:0.0 6:0.0 7:0.0 8:0.0 9:0.0 10:0.0 11:0.0 12:0.0 13:0.0 14:0.0 15:0.0 16:0.0 17:0.0 18:0.0 19:0.0 20:0.0 21:0.0 22:0.0 23:0.0 24:0.0 25:0.0 26:0.0 27:0.0 28:0.0 29:0.0 30:0.0 31:0.0 32:0.0 33:0.0 34:0.0 35:0.0 36:0.0 37:0.0 38:0.0 39:0.0 40:0.0 41:1.0 42:1.0 43:1.0 44:1.0 45:1.0 46:1.0 47:1.0 48:0.0 49:1.0 50:0.0 51:0.0 52:0.0 53:0.0 54:0.0 55:1.0 56:1.0 57:1.0 58:0.0 59:0.0 60:0.0 61:0.0 62:0.0 63:0.0 64:1.0 65:1.0 66:0.0 67:0.0 68:0.0 69:0.0 70:0.0 71:0.0 72:1.0 73:1.0 74:0.0 75:0.0 76:0.0 77:0.0 78:0.0 79:1.0 80:1.0 81:1.0 82:1.0 83:1.0 84:1.0 85:1.0 86:1.0 87:1.0 88:0.0 89:0.0 90:0.0 91:0.0 92:0.0 93:0.0 94:0.0 95:0.0 96:0.0 97:0.0 98:0.0 99:0.0 100:0.0 101:0.0 102:0.0 103:0.0 104:0.0 105:0.0 106:0.0 107:0.0 108:0.0 109:0.0 110:0.0 111:0.0 112:0.0 113:0.0 114:0.0 115:0.0 116:0.0 117:0.0 118:0.0 119:0.0 120:0.0 121:0.0 122:0.0 123:0.0 124:0.0 125:0.0 126:0.0 127:0.0 128:0.0 
0.0 0.0 0.0 0.0 0.0 0.0 0.0 0.0 0.0 0.0 0.0 0.0 0.0 0.0 0.0 0.0 0.1 0.0 0.0 0.0 0.0 0.0 0.0 0.0 0.0 1:0.0 2:0.0 3:0.0 4:0.0 5:0.0 6:0.0 7:0.0 8:0.0 9:0.0 10:0.0 11:0.0 12:0.0 13:0.0 14:0.0 15:0.0 16:0.0 17:0.0 18:0.0 19:0.0 20:0.0 21:0.0 22:0.0 23:0.0 24:0.0 25:0.0 26:0.0 27:0.0 28:0.0 29:1.0 30:1.0 31:1.0 32:0.0 33:0.0 34:1.0 35:1.0 36:1.0 37:0.0 38:0.0 39:1.0 40:1.0 41:1.0 42:0.0 43:0.0 44:0.0 45:0.0 46:0.0 47:0.0 48:1.0 49:1.0 50:0.0 51:0.0 52:0.0 53:0.0 54:0.0 55:0.0 56:1.0 57:1.0 58:0.0 59:0.0 60:0.0 61:0.0 62:0.0 63:0.0 64:1.0 65:1.0 66:0.0 67:0.0 68:0.0 69:0.0 70:0.0 71:1.0 72:1.0 73:1.0 74:0.0 75:0.0 76:0.0 77:0.0 78:0.0 79:1.0 80:0.0 81:1.0 82:0.0 83:0.0 84:0.0 85:0.0 86:1.0 87:1.0 88:0.0 89:1.0 90:0.0 91:0.0 92:1.0 93:1.0 94:1.0 95:0.0 96:0.0 97:1.0 98:1.0 99:1.0 100:1.0 101:0.0 102:0.0 103:0.0 104:0.0 105:0.0 106:0.0 107:0.0 108:0.0 109:0.0 110:0.0 111:0.0 112:0.0 113:0.0 114:0.0 115:0.0 116:0.0 117:0.0 118:0.0 119:0.0 120:0.0 121:0.0 122:0.0 123:0.0 124:0.0 125:0.0 126:0.0 127:0.0 128:0.0 
0.0 0.0 0.0 0.0722796628336276 0.0 0.015125785574449995 0.0038225571295583834 0.0 0.0 0.0 0.0 0.0 0.011926686251878043 0.0 0.03734831011250393 0.0 0.0 0.0 0.004322107745728728 0.0 0.0 0.03336861040722123 0.0 0.0 0.0 1:0.0 2:0.0 3:0.0 4:1.0 5:1.0 6:0.0 7:0.0 8:0.0 9:0.0 10:0.0 11:1.0 12:1.0 13:0.0 14:0.0 15:0.0 16:0.0 17:1.0 18:1.0 19:1.0 20:1.0 21:1.0 22:1.0 23:0.0 24:0.0 25:1.0 26:1.0 27:0.0 28:0.0 29:0.0 30:1.0 31:1.0 32:1.0 33:0.0 34:1.0 35:0.0 36:0.0 37:0.0 38:0.0 39:0.0 40:1.0 41:0.0 42:1.0 43:0.0 44:0.0 45:0.0 46:0.0 47:0.0 48:1.0 49:0.0 50:1.0 51:0.0 52:0.0 53:0.0 54:0.0 55:0.0 56:1.0 57:0.0 58:1.0 59:0.0 60:0.0 61:0.0 62:0.0 63:0.0 64:1.0 65:0.0 66:1.0 67:0.0 68:0.0 69:0.0 70:0.0 71:0.0 72:1.0 73:0.0 74:1.0 75:0.0 76:0.0 77:0.0 78:0.0 79:1.0 80:1.0 81:0.0 82:1.0 83:0.0 84:0.0 85:0.0 86:0.0 87:1.0 88:0.0 89:0.0 90:1.0 91:0.0 92:0.0 93:0.0 94:0.0 95:1.0 96:0.0 97:0.0 98:1.0 99:0.0 100:0.0 101:0.0 102:1.0 103:1.0 104:0.0 105:0.0 106:1.0 107:0.0 108:0.0 109:1.0 110:1.0 111:0.0 112:0.0 113:0.0 114:1.0 115:1.0 116:1.0 117:1.0 118:0.0 119:0.0 120:0.0 121:0.0 122:0.0 123:0.0 124:1.0 125:0.0 126:0.0 127:0.0 128:0.0 
0.0372677381519096 0.0 0.0 0.0023553694154211397 0.0 0.0 0.0 0.0 0.0 0.0 0.0 0.0 0.0 0.0 0.0 0.0 0.0 0.0 0.0 0.0 0.0 0.0 0.0 0.0 0.0 1:0.0 2:0.0 3:0.0 4:0.0 5:0.0 6:0.0 7:0.0 8:0.0 9:0.0 10:0.0 11:0.0 12:0.0 13:0.0 14:0.0 15:0.0 16:1.0 17:0.0 18:0.0 19:0.0 20:0.0 21:0.0 22:0.0 23:0.0 24:1.0 25:0.0 26:0.0 27:0.0 28:0.0 29:0.0 30:0.0 31:0.0 32:1.0 33:0.0 34:0.0 35:0.0 36:0.0 37:0.0 38:0.0 39:0.0 40:1.0 41:0.0 42:0.0 43:0.0 44:1.0 45:1.0 46:1.0 47:0.0 48:1.0 49:0.0 50:0.0 51:1.0 52:1.0 53:0.0 54:1.0 55:1.0 56:1.0 57:0.0 58:1.0 59:1.0 60:0.0 61:0.0 62:0.0 63:1.0 64:1.0 65:1.0 66:0.0 67:0.0 68:0.0 69:0.0 70:0.0 71:1.0 72:1.0 73:1.0 74:0.0 75:0.0 76:0.0 77:0.0 78:0.0 79:0.0 80:1.0 81:1.0 82:0.0 83:0.0 84:0.0 85:0.0 86:0.0 87:0.0 88:1.0 89:1.0 90:0.0 91:0.0 92:0.0 93:0.0 94:0.0 95:1.0 96:1.0 97:1.0 98:1.0 99:0.0 100:0.0 101:0.0 102:1.0 103:1.0 104:0.0 105:0.0 106:1.0 107:0.0 108:0.0 109:1.0 110:1.0 111:0.0 112:0.0 113:0.0 114:1.0 115:1.0 116:1.0 117:1.0 118:0.0 119:0.0 120:0.0 121:0.0 122:0.0 123:0.0 124:0.0 125:0.0 126:0.0 127:0.0 128:0.0 
0.0 0.0 0.0 0.0 0.0 0.0 0.0 0.0 0.0 0.0 0.0 0.0 0.0 0.0 0.009120530244278993 0.0 0.0 0.0 0.0 0.0 0.0 0.0 0.0 0.0 0.0 1:0.0 2:0.0 3:0.0 4:0.0 5:0.0 6:0.0 7:0.0 8:0.0 9:0.0 10:0.0 11:0.0 12:0.0 13:0.0 14:0.0 15:0.0 16:0.0 17:0.0 18:1.0 19:1.0 20:1.0 21:1.0 22:1.0 23:0.0 24:0.0 25:1.0 26:1.0 27:0.0 28:0.0 29:0.0 30:1.0 31:1.0 32:0.0 33:1.0 34:0.0 35:0.0 36:0.0 37:0.0 38:0.0 39:1.0 40:1.0 41:1.0 42:0.0 43:0.0 44:0.0 45:0.0 46:0.0 47:0.0 48:1.0 49:1.0 50:0.0 51:0.0 52:0.0 53:0.0 54:0.0 55:0.0 56:1.0 57:1.0 58:0.0 59:0.0 60:0.0 61:0.0 62:0.0 63:0.0 64:1.0 65:1.0 66:0.0 67:0.0 68:0.0 69:0.0 70:0.0 71:0.0 72:1.0 73:1.0 74:0.0 75:0.0 76:0.0 77:0.0 78:0.0 79:0.0 80:1.0 81:1.0 82:0.0 83:0.0 84:0.0 85:0.0 86:0.0 87:0.0 88:1.0 89:0.0 90:1.0 91:0.0 92:0.0 93:0.0 94:0.0 95:0.0 96:1.0 97:0.0 98:1.0 99:1.0 100:0.0 101:0.0 102:1.0 103:0.0 104:0.0 105:0.0 106:0.0 107:1.0 108:1.0 109:1.0 110:1.0 111:0.0 112:0.0 113:0.0 114:0.0 115:0.0 116:0.0 117:0.0 118:0.0 119:0.0 120:0.0 121:0.0 122:0.0 123:0.0 124:0.0 125:0.0 126:0.0 127:0.0 128:0.0 
0.0 0.0 0.093786082796258 0.0 0.0 0.0 0.0 0.0 0.0 0.0 0.0 0.0 0.0 0.0 0.0 0.0 0.0 0.0 0.0 0.0 0.0 0.0 0.0 0.0 0.0 1:0.0 2:0.0 3:0.0 4:0.0 5:0.0 6:0.0 7:0.0 8:0.0 9:0.0 10:0.0 11:0.0 12:0.0 13:0.0 14:0.0 15:0.0 16:0.0 17:0.0 18:0.0 19:0.0 20:0.0 21:0.0 22:0.0 23:0.0 24:0.0 25:0.0 26:0.0 27:0.0 28:0.0 29:0.0 30:0.0 31:0.0 32:0.0 33:0.0 34:1.0 35:1.0 36:1.0 37:1.0 38:1.0 39:1.0 40:1.0 41:1.0 42:1.0 43:1.0 44:0.0 45:0.0 46:0.0 47:0.0 48:1.0 49:1.0 50:0.0 51:0.0 52:0.0 53:0.0 54:0.0 55:0.0 56:1.0 57:1.0 58:0.0 59:0.0 60:0.0 61:0.0 62:0.0 63:0.0 64:1.0 65:1.0 66:0.0 67:0.0 68:0.0 69:0.0 70:0.0 71:0.0 72:1.0 73:1.0 74:0.0 75:0.0 76:0.0 77:0.0 78:0.0 79:0.0 80:1.0 81:1.0 82:0.0 83:0.0 84:0.0 85:0.0 86:0.0 87:0.0 88:1.0 89:1.0 90:1.0 91:1.0 92:1.0 93:1.0 94:1.0 95:1.0 96:1.0 97:0.0 98:0.0 99:0.0 100:0.0 101:0.0 102:0.0 103:0.0 104:0.0 105:0.0 106:0.0 107:0.0 108:0.0 109:0.0 110:0.0 111:0.0 112:0.0 113:0.0 114:0.0 115:0.0 116:0.0 117:0.0 118:0.0 119:0.0 120:0.0 121:0.0 122:0.0 123:0.0 124:0.0 125:0.0 126:0.0 127:0.0 128:0.0 
0.0 0.0 0.0 0.0 0.0 0.0 0.0 0.0 0.0 0.0 0.0 0.0 0.0 0.0 0.0 0.0 0.030113329756023436 0.0 0.0 0.0 0.0 0.0 0.0 0.0 0.0 1:0.0 2:0.0 3:0.0 4:0.0 5:0.0 6:0.0 7:0.0 8:0.0 9:0.0 10:0.0 11:0.0 12:0.0 13:0.0 14:0.0 15:0.0 16:0.0 17:0.0 18:0.0 19:0.0 20:0.0 21:0.0 22:0.0 23:0.0 24:0.0 25:0.0 26:0.0 27:0.0 28:0.0 29:0.0 30:0.0 31:0.0 32:0.0 33:1.0 34:1.0 35:1.0 36:1.0 37:1.0 38:0.0 39:0.0 40:0.0 41:1.0 42:0.0 43:0.0 44:0.0 45:1.0 46:1.0 47:1.0 48:0.0 49:1.0 50:0.0 51:0.0 52:0.0 53:0.0 54:0.0 55:1.0 56:1.0 57:1.0 58:0.0 59:0.0 60:0.0 61:0.0 62:0.0 63:0.0 64:1.0 65:1.0 66:0.0 67:0.0 68:0.0 69:0.0 70:0.0 71:0.0 72:1.0 73:1.0 74:1.0 75:0.0 76:0.0 77:0.0 78:0.0 79:0.0 80:1.0 81:0.0 82:1.0 83:1.0 84:1.0 85:0.0 86:0.0 87:1.0 88:1.0 89:0.0 90:0.0 91:0.0 92:1.0 93:1.0 94:1.0 95:1.0 96:0.0 97:0.0 98:0.0 99:0.0 100:0.0 101:0.0 102:0.0 103:0.0 104:0.0 105:0.0 106:0.0 107:0.0 108:0.0 109:0.0 110:0.0 111:0.0 112:0.0 113:0.0 114:0.0 115:0.0 116:0.0 117:0.0 118:0.0 119:0.0 120:0.0 121:0.0 122:0.0 123:0.0 124:0.0 125:0.0 126:0.0 127:0.0 128:0.0 
0.016131270909579217 0.0023834741570507704 0.09094799699139074 0.08537401728083553 0.0 0.0 0.0 0.0 0.0 0.0 0.0 0.035526391466252076 0.0 0.05431236018504123 0.0 0.0 0.0 0.0 0.031852561434885504 0.011841805683617961 0.018495377310580232 0.0 0.0 0.0 0.017781380294251557 1:0.0 2:1.0 3:1.0 4:1.0 5:1.0 6:0.0 7:0.0 8:0.0 9:0.0 10:1.0 11:0.0 12:0.0 13:1.0 14:0.0 15:0.0 16:0.0 17:0.0 18:1.0 19:0.0 20:0.0 21:0.0 22:1.0 23:0.0 24:0.0 25:0.0 26:1.0 27:0.0 28:0.0 29:0.0 30:1.0 31:1.0 32:0.0 33:1.0 34:1.0 35:0.0 36:0.0 37:0.0 38:0.0 39:1.0 40:0.0 41:1.0 42:0.0 43:0.0 44:0.0 45:0.0 46:0.0 47:1.0 48:1.0 49:1.0 50:0.0 51:0.0 52:0.0 53:0.0 54:0.0 55:0.0 56:1.0 57:1.0 58:0.0 59:0.0 60:0.0 61:0.0 62:0.0 63:0.0 64:1.0 65:1.0 66:0.0 67:0.0 68:0.0 69:0.0 70:0.0 71:0.0 72:1.0 73:1.0 74:0.0 75:0.0 76:0.0 77:0.0 78:0.0 79:0.0 80:1.0 81:1.0 82:0.0 83:0.0 84:0.0 85:0.0 86:0.0 87:0.0 88:1.0 89:1.0 90:0.0 91:0.0 92:0.0 93:0.0 94:0.0 95:0.0 96:1.0 97:1.0 98:0.0 99:0.0 100:0.0 101:0.0 102:0.0 103:0.0 104:1.0 105:1.0 106:0.0 107:0.0 108:0.0 109:0.0 110:0.0 111:0.0 112:1.0 113:1.0 114:0.0 115:0.0 116:0.0 117:0.0 118:0.0 119:0.0 120:1.0 121:1.0 122:1.0 123:1.0 124:1.0 125:1.0 126:1.0 127:1.0 128:1.0 
0.0 0.0 0.01928526926208162 0.06822666233572608 0.0 0.0 0.0 0.0 0.0 0.0 0.0 0.0 0.0 0.0 0.0 0.0 0.0 0.0 0.0 0.0 0.0 0.0 0.0 0.0 0.0 1:0.0 2:0.0 3:0.0 4:0.0 5:0.0 6:0.0 7:0.0 8:0.0 9:0.0 10:0.0 11:0.0 12:0.0 13:0.0 14:0.0 15:0.0 16:0.0 17:0.0 18:0.0 19:0.0 20:0.0 21:0.0 22:1.0 23:1.0 24:0.0 25:0.0 26:0.0 27:0.0 28:1.0 29:1.0 30:1.0 31:1.0 32:0.0 33:0.0 34:0.0 35:0.0 36:0.0 37:1.0 38:0.0 39:1.0 40:1.0 41:0.0 42:0.0 43:0.0 44:1.0 45:1.0 46:0.0 47:0.0 48:1.0 49:0.0 50:0.0 51:1.0 52:1.0 53:0.0 54:0.0 55:0.0 56:1.0 57:0.0 58:0.0 59:1.0 60:0.0 61:0.0 62:0.0 63:0.0 64:1.0 65:0.0 66:1.0 67:1.0 68:0.0 69:0.0 70:0.0 71:0.0 72:1.0 73:1.0 74:1.0 75:0.0 76:0.0 77:0.0 78:0.0 79:1.0 80:1.0 81:1.0 82:0.0 83:0.0 84:0.0 85:0.0 86:0.0 87:1.0 88:0.0 89:1.0 90:0.0 91:0.0 92:0.0 93:0.0 94:1.0 95:1.0 96:0.0 97:1.0 98:0.0 99:0.0 100:0.0 101:1.0 102:1.0 103:0.0 104:0.0 105:1.0 106:1.0 107:1.0 108:1.0 109:0.0 110:0.0 111:0.0 112:0.0 113:0.0 114:0.0 115:0.0 116:0.0 117:0.0 118:0.0 119:0.0 120:0.0 121:0.0 122:0.0 123:0.0 124:0.0 125:0.0 126:0.0 127:0.0 128:0.0 
0.0 0.0 0.0 0.0 0.0 0.07381145097212018 0.0 0.0 0.0 0.0 0.1 0.0 0.020367624579573702 0.0 0.03572371356333336 0.049436829967089126 0.00941461670841142 0.0 0.0 0.0115698830706052 0.0 0.0 0.0 0.0 0.0 1:0.0 2:0.0 3:0.0 4:0.0 5:0.0 6:0.0 7:0.0 8:0.0 9:0.0 10:0.0 11:0.0 12:0.0 13:0.0 14:0.0 15:0.0 16:0.0 17:0.0 18:0.0 19:0.0 20:0.0 21:1.0 22:1.0 23:1.0 24:0.0 25:0.0 26:0.0 27:1.0 28:1.0 29:0.0 30:0.0 31:0.0 32:1.0 33:0.0 34:1.0 35:1.0 36:0.0 37:0.0 38:0.0 39:0.0 40:1.0 41:1.0 42:1.0 43:0.0 44:0.0 45:0.0 46:0.0 47:0.0 48:1.0 49:0.0 50:1.0 51:0.0 52:0.0 53:0.0 54:0.0 55:0.0 56:1.0 57:0.0 58:1.0 59:0.0 60:0.0 61:0.0 62:0.0 63:0.0 64:1.0 65:0.0 66:1.0 67:0.0 68:0.0 69:0.0 70:0.0 71:1.0 72:1.0 73:0.0 74:1.0 75:0.0 76:0.0 77:0.0 78:0.0 79:1.0 80:0.0 81:0.0 82:1.0 83:0.0 84:0.0 85:0.0 86:1.0 87:1.0 88:0.0 89:0.0 90:1.0 91:1.0 92:0.0 93:1.0 94:1.0 95:0.0 96:0.0 97:0.0 98:0.0 99:1.0 100:1.0 101:1.0 102:0.0 103:0.0 104:0.0 105:0.0 106:0.0 107:0.0 108:1.0 109:0.0 110:0.0 111:0.0 112:0.0 113:0.0 114:0.0 115:0.0 116:0.0 117:0.0 118:0.0 119:0.0 120:0.0 121:0.0 122:0.0 123:0.0 124:0.0 125:0.0 126:0.0 127:0.0 128:0.0 
0.021123480710099143 0.0 0.0 0.0 0.0 0.0 0.0 0.0 0.0 0.0 0.0 0.0 0.0 0.0 0.0 0.0 0.0 0.0 0.0 0.0 0.0 0.0 0.0 0.0 0.0 1:0.0 2:0.0 3:0.0 4:0.0 5:0.0 6:0.0 7:0.0 8:0.0 9:0.0 10:0.0 11:0.0 12:0.0 13:0.0 14:0.0 15:0.0 16:0.0 17:0.0 18:0.0 19:0.0 20:0.0 21:0.0 22:0.0 23:0.0 24:0.0 25:0.0 26:0.0 27:0.0 28:0.0 29:0.0 30:0.0 31:0.0 32:0.0 33:0.0 34:0.0 35:0.0 36:0.0 37:1.0 38:1.0 39:1.0 40:1.0 41:0.0 42:0.0 43:1.0 44:1.0 45:0.0 46:0.0 47:0.0 48:1.0 49:0.0 50:1.0 51:1.0 52:1.0 53:0.0 54:0.0 55:0.0 56:1.0 57:1.0 58:0.0 59:1.0 60:1.0 61:0.0 62:0.0 63:0.0 64:1.0 65:1.0 66:0.0 67:0.0 68:0.0 69:0.0 70:0.0 71:1.0 72:1.0 73:1.0 74:0.0 75:0.0 76:0.0 77:0.0 78:0.0 79:1.0 80:0.0 81:1.0 82:0.0 83:0.0 84:0.0 85:1.0 86:1.0 87:0.0 88:0.0 89:1.0 90:1.0 91:1.0 92:1.0 93:1.0 94:0.0 95:0.0 96:0.0 97:0.0 98:0.0 99:0.0 100:0.0 101:0.0 102:0.0 103:0.0 104:0.0 105:0.0 106:0.0 107:0.0 108:0.0 109:0.0 110:0.0 111:0.0 112:0.0 113:0.0 114:0.0 115:0.0 116:0.0 117:0.0 118:0.0 119:0.0 120:0.0 121:0.0 122:0.0 123:0.0 124:0.0 125:0.0 126:0.0 127:0.0 128:0.0 
0.0 0.0 0.1 0.0 0.0 0.0 0.0 0.0 0.0 0.0 0.0 0.0 0.0 0.0 0.07077347729897432 0.0 0.0 0.0 0.0 0.0 0.013659077285538487 0.0 0.0 0.0 0.007005406813283899 1:0.0 2:1.0 3:0.0 4:0.0 5:0.0 6:0.0 7:0.0 8:0.0 9:1.0 10:1.0 11:1.0 12:1.0 13:0.0 14:0.0 15:0.0 16:0.0 17:1.0 18:0.0 19:0.0 20:1.0 21:1.0 22:1.0 23:0.0 24:0.0 25:1.0 26:0.0 27:0.0 28:0.0 29:0.0 30:1.0 31:1.0 32:0.0 33:1.0 34:0.0 35:0.0 36:0.0 37:0.0 38:0.0 39:1.0 40:1.0 41:1.0 42:0.0 43:0.0 44:0.0 45:0.0 46:0.0 47:0.0 48:1.0 49:1.0 50:0.0 51:0.0 52:0.0 53:0.0 54:0.0 55:0.0 56:1.0 57:1.0 58:0.0 59:0.0 60:0.0 61:0.0 62:0.0 63:0.0 64:1.0 65:1.0 66:0.0 67:0.0 68:0.0 69:0.0 70:0.0 71:0.0 72:1.0 73:1.0 74:0.0 75:0.0 76:0.0 77:0.0 78:0.0 79:0.0 80:1.0 81:1.0 82:0.0 83:0.0 84:0.0 85:0.0 86:0.0 87:0.0 88:1.0 89:1.0 90:0.0 91:0.0 92:0.0 93:0.0 94:0.0 95:0.0 96:1.0 97:1.0 98:0.0 99:0.0 100:0.0 101:0.0 102:0.0 103:0.0 104:1.0 105:1.0 106:0.0 107:0.0 108:0.0 109:0.0 110:0.0 111:0.0 112:1.0 113:1.0 114:0.0 115:0.0 116:0.0 117:0.0 118:0.0 119:0.0 120:1.0 121:1.0 122:1.0 123:1.0 124:1.0 125:1.0 126:1.0 127:1.0 128:1.0 
0.0 0.0 0.0 0.0 0.0 0.0 0.0 0.0 0.0 0.044421200978945634 0.0 0.0 0.0 0.0 0.0 0.0 0.0 0.0 0.0 0.0 0.0 0.0 0.0 0.0 0.0 1:0.0 2:0.0 3:0.0 4:0.0 5:0.0 6:0.0 7:0.0 8:0.0 9:0.0 10:0.0 11:0.0 12:0.0 13:0.0 14:0.0 15:0.0 16:0.0 17:0.0 18:0.0 19:1.0 20:1.0 21:1.0 22:1.0 23:1.0 24:1.0 25:1.0 26:1.0 27:1.0 28:0.0 29:0.0 30:0.0 31:0.0 32:1.0 33:1.0 34:0.0 35:0.0 36:0.0 37:0.0 38:0.0 39:0.0 40:1.0 41:1.0 42:1.0 43:1.0 44:0.0 45:0.0 46:0.0 47:0.0 48:1.0 49:1.0 50:1.0 51:1.0 52:0.0 53:0.0 54:0.0 55:0.0 56:1.0 57:1.0 58:0.0 59:0.0 60:0.0 61:0.0 62:0.0 63:0.0 64:1.0 65:1.0 66:0.0 67:0.0 68:0.0 69:0.0 70:0.0 71:0.0 72:1.0 73:1.0 74:0.0 75:0.0 76:0.0 77:0.0 78:0.0 79:1.0 80:1.0 81:1.0 82:0.0 83:0.0 84:0.0 85:0.0 86:0.0 87:1.0 88:0.0 89:1.0 90:0.0 91:0.0 92:0.0 93:0.0 94:1.0 95:1.0 96:0.0 97:1.0 98:0.0 99:0.0 100:0.0 101:1.0 102:1.0 103:0.0 104:0.0 105:1.0 106:1.0 107:1.0 108:1.0 109:1.0 110:0.0 111:0.0 112:0.0 113:0.0 114:0.0 115:0.0 116:0.0 117:0.0 118:0.0 119:0.0 120:0.0 121:0.0 122:0.0 123:0.0 124:0.0 125:0.0 126:0.0 127:0.0 128:0.0 
0.0 0.1 0.0 0.0 0.0 0.0 0.0 0.0 0.04814128958235061 0.0 0.0 0.0 0.0 0.0 0.0 0.0 0.07338225016680615 0.0 0.0 0.0 0.0 0.0 0.0 0.0 0.0 1:0.0 2:0.0 3:0.0 4:0.0 5:0.0 6:0.0 7:0.0 8:0.0 9:0.0 10:0.0 11:0.0 12:0.0 13:0.0 14:0.0 15:0.0 16:0.0 17:0.0 18:0.0 19:0.0 20:0.0 21:0.0 22:0.0 23:0.0 24:0.0 25:0.0 26:0.0 27:0.0 28:0.0 29:0.0 30:0.0 31:0.0 32:0.0 33:0.0 34:0.0 35:0.0 36:1.0 37:1.0 38:0.0 39:0.0 40:0.0 41:0.0 42:1.0 43:1.0 44:1.0 45:0.0 46:0.0 47:0.0 48:0.0 49:1.0 50:1.0 51:0.0 52:0.0 53:1.0 54:1.0 55:1.0 56:0.0 57:1.0 58:0.0 59:0.0 60:0.0 61:0.0 62:0.0 63:1.0 64:1.0 65:1.0 66:0.0 67:0.0 68:0.0 69:0.0 70:0.0 71:0.0 72:1.0 73:1.0 74:0.0 75:0.0 76:0.0 77:0.0 78:0.0 79:1.0 80:1.0 81:1.0 82:1.0 83:0.0 84:0.0 85:1.0 86:1.0 87:1.0 88:0.0 89:0.0 90:1.0 91:1.0 92:1.0 93:1.0 94:0.0 95:0.0 96:0.0 97:0.0 98:0.0 99:0.0 100:0.0 101:0.0 102:0.0 103:0.0 104:0.0 105:0.0 106:0.0 107:0.0 108:0.0 109:0.0 110:0.0 111:0.0 112:0.0 113:0.0 114:0.0 115:0.0 116:0.0 117:0.0 118:0.0 119:0.0 120:0.0 121:0.0 122:0.0 123:0.0 124:0.0 125:0.0 126:0.0 127:0.0 128:0.0 
0.0 0.0 0.047095989894203674 0.0 0.0 0.0 0.0 0.0 0.0 0.0 0.0 0.02773409781133802 0.0 0.0 0.0 0.0 0.0 0.0 0.0 0.05384584084734163 0.0 0.0 0.0 0.0 0.0 1:0.0 2:0.0 3:0.0 4:0.0 5:0.0 6:0.0 7:0.0 8:0.0 9:0.0 10:1.0 11:1.0 12:0.0 13:0.0 14:0.0 15:0.0 16:0.0 17:1.0 18:1.0 19:1.0 20:1.0 21:1.0 22:1.0 23:1.0 24:0.0 25:1.0 26:0.0 27:0.0 28:0.0 29:0.0 30:0.0 31:1.0 32:1.0 33:1.0 34:0.0 35:0.0 36:0.0 37:0.0 38:0.0 39:0.0 40:1.0 41:1.0 42:0.0 43:0.0 44:0.0 45:0.0 46:0.0 47:0.0 48:1.0 49:1.0 50:0.0 51:0.0 52:0.0 53:0.0 54:0.0 55:0.0 56:1.0 57:1.0 58:0.0 59:0.0 60:0.0 61:0.0 62:0.0 63:0.0 64:1.0 65:1.0 66:0.0 67:0.0 68:0.0 69:0.0 70:0.0 71:0.0 72:1.0 73:1.0 74:0.0 75:0.0 76:0.0 77:0.0 78:0.0 79:0.0 80:1.0 81:1.0 82:0.0 83:0.0 84:0.0 85:0.0 86:0.0 87:0.0 88:1.0 89:1.0 90:0.0 91:0.0 92:0.0 93:0.0 94:0.0 95:0.0 96:1.0 97:1.0 98:0.0 99:0.0 100:0.0 101:0.0 102:0.0 103:0.0 104:1.0 105:1.0 106:0.0 107:0.0 108:0.0 109:0.0 110:1.0 111:1.0 112:1.0 113:1.0 114:1.0 115:1.0 116:1.0 117:1.0 118:1.0 119:0.0 120:0.0 121:0.0 122:0.0 123:0.0 124:0.0 125:0.0 126:0.0 127:0.0 128:0.0 
0.04568171962316693 0.0 0.0 0.0 0.0 0.0 0.0 0.0 0.0 0.0 0.0 0.0 0.0 0.0 0.0 0.0 0.0 0.0 0.0 0.0 0.0 0.0 0.0 0.0 0.0 1:0.0 2:0.0 3:0.0 4:0.0 5:0.0 6:0.0 7:0.0 8:0.0 9:0.0 10:0.0 11:0.0 12:0.0 13:0.0 14:0.0 15:0.0 16:0.0 17:0.0 18:0.0 19:0.0 20:0.0 21:0.0 22:0.0 23:0.0 24:0.0 25:0.0 26:0.0 27:0.0 28:0.0 29:0.0 30:0.0 31:0.0 32:0.0 33:0.0 34:0.0 35:0.0 36:0.0 37:1.0 38:0.0 39:0.0 40:0.0 41:0.0 42:1.0 43:1.0 44:1.0 45:1.0 46:1.0 47:1.0 48:0.0 49:1.0 50:1.0 51:1.0 52:1.0 53:0.0 54:0.0 55:1.0 56:1.0 57:1.0 58:1.0 59:0.0 60:0.0 61:0.0 62:0.0 63:0.0 64:1.0 65:1.0 66:0.0 67:0.0 68:0.0 69:0.0 70:0.0 71:0.0 72:1.0 73:1.0 74:0.0 75:0.0 76:0.0 77:0.0 78:0.0 79:0.0 80:1.0 81:1.0 82:1.0 83:0.0 84:0.0 85:1.0 86:1.0 87:1.0 88:1.0 89:0.0 90:1.0 91:1.0 92:1.0 93:1.0 94:0.0 95:0.0 96:0.0 97:0.0 98:0.0 99:0.0 100:0.0 101:0.0 102:0.0 103:0.0 104:0.0 105:0.0 106:0.0 107:0.0 108:0.0 109:0.0 110:0.0 111:0.0 112:0.0 113:0.0 114:0.0 115:0.0 116:0.0 117:0.0 118:0.0 119:0.0 120:0.0 121:0.0 122:0.0 123:0.0 124:0.0 125:0.0 126:0.0 127:0.0 128:0.0 
0.0 0.0 0.0 0.0 0.0 0.0 0.0 0.0 0.012493198236721988 0.0 0.0 0.0 0.0 0.0 0.0 0.0 0.1 0.0 0.0 0.0 0.0 0.0 0.0 0.06098358042566014 0.0 1:0.0 2:0.0 3:0.0 4:0.0 5:0.0 6:0.0 7:0.0 8:0.0 9:0.0 10:0.0 11:0.0 12:0.0 13:0.0 14:0.0 15:0.0 16:0.0 17:0.0 18:0.0 19:0.0 20:0.0 21:0.0 22:0.0 23:0.0 24:0.0 25:0.0 26:0.0 27:1.0 28:1.0 29:1.0 30:1.0 31:1.0 32:0.0 33:1.0 34:1.0 35:0.0 36:0.0 37:0.0 38:0.0 39:1.0 40:0.0 41:1.0 42:0.0 43:0.0 44:0.0 45:0.0 46:0.0 47:0.0 48:1.0 49:1.0 50:0.0 51:0.0 52:0.0 53:0.0 54:0.0 55:0.0 56:1.0 57:1.0 58:0.0 59:0.0 60:0.0 61:0.0 62:0.0 63:0.0 64:1.0 65:1.0 66:0.0 67:0.0 68:0.0 69:0.0 70:0.0 71:0.0 72:1.0 73:1.0 74:0.0 75:0.0 76:0.0 77:0.0 78:0.0 79:0.0 80:1.0 81:1.0 82:1.0 83:0.0 84:0.0 85:0.0 86:0.0 87:0.0 88:1.0 89:0.0 90:1.0 91:1.0 92:0.0 93:0.0 94:0.0 95:1.0 96:1.0 97:0.0 98:0.0 99:1.0 100:1.0 101:1.0 102:1.0 103:0.0 104:0.0 105:0.0 106:0.0 107:0.0 108:0.0 109:0.0 110:0.0 111:0.0 112:0.0 113:0.0 114:0.0 115:0.0 116:0.0 117:0.0 118:0.0 119:0.0 120:0.0 121:0.0 122:0.0 123:0.0 124:0.0 125:0.0 126:0.0 127:0.0 128:0.0 
0.0295602096370542 0.08185220111991631 0.0 0.1 0.1 0.1 0.1 0.1 0.1 0.1 0.1 0.1 0.1 0.1 0.1 0.05779590237921428 0.0 0.1 0.1 0.0629574397935058 0.022106470962309183 0.001515762673763685 0.1 0.0 0.1 1:0.0 2:0.0 3:0.0 4:0.0 5:0.0 6:1.0 7:1.0 8:1.0 9:0.0 10:0.0 11:0.0 12:0.0 13:0.0 14:1.0 15:0.0 16:0.0 17:0.0 18:0.0 19:0.0 20:0.0 21:1.0 22:0.0 23:0.0 24:0.0 25:0.0 26:0.0 27:0.0 28:0.0 29:1.0 30:0.0 31:0.0 32:0.0 33:0.0 34:0.0 35:0.0 36:1.0 37:0.0 38:1.0 39:0.0 40:0.0 41:0.0 42:0.0 43:1.0 44:1.0 45:0.0 46:1.0 47:0.0 48:0.0 49:0.0 50:0.0 51:1.0 52:0.0 53:0.0 54:1.0 55:0.0 56:0.0 57:0.0 58:0.0 59:1.0 60:0.0 61:1.0 62:1.0 63:0.0 64:0.0 65:0.0 66:1.0 67:0.0 68:0.0 69:1.0 70:0.0 71:0.0 72:0.0 73:0.0 74:1.0 75:0.0 76:1.0 77:1.0 78:0.0 79:0.0 80:0.0 81:0.0 82:1.0 83:0.0 84:1.0 85:0.0 86:0.0 87:0.0 88:0.0 89:0.0 90:1.0 91:0.0 92:1.0 93:0.0 94:0.0 95:0.0 96:0.0 97:0.0 98:1.0 99:0.0 100:1.0 101:0.0 102:0.0 103:0.0 104:0.0 105:1.0 106:1.0 107:0.0 108:1.0 109:0.0 110:0.0 111:0.0 112:0.0 113:1.0 114:0.0 115:0.0 116:1.0 117:0.0 118:0.0 119:0.0 120:0.0 121:1.0 122:1.0 123:1.0 124:1.0 125:0.0 126:0.0 127:0.0 128:0.0 
0.0 0.0 0.0 0.0 0.0 0.0216498908855363 0.0 0.0 0.0 0.0 0.0 0.0 0.0 0.0 0.0 0.0 0.0 0.0 0.0 0.0 0.0 0.0 0.0 0.0 0.0 1:0.0 2:0.0 3:0.0 4:0.0 5:0.0 6:0.0 7:0.0 8:0.0 9:0.0 10:0.0 11:0.0 12:0.0 13:0.0 14:0.0 15:0.0 16:0.0 17:0.0 18:0.0 19:0.0 20:1.0 21:1.0 22:1.0 23:0.0 24:0.0 25:0.0 26:0.0 27:1.0 28:1.0 29:1.0 30:1.0 31:0.0 32:0.0 33:0.0 34:1.0 35:1.0 36:0.0 37:0.0 38:1.0 39:1.0 40:0.0 41:0.0 42:1.0 43:0.0 44:0.0 45:0.0 46:0.0 47:1.0 48:1.0 49:1.0 50:1.0 51:0.0 52:0.0 53:0.0 54:0.0 55:0.0 56:1.0 57:1.0 58:0.0 59:0.0 60:0.0 61:0.0 62:0.0 63:0.0 64:1.0 65:1.0 66:0.0 67:0.0 68:0.0 69:0.0 70:0.0 71:0.0 72:1.0 73:1.0 74:0.0 75:0.0 76:0.0 77:0.0 78:0.0 79:0.0 80:1.0 81:1.0 82:0.0 83:0.0 84:0.0 85:0.0 86:0.0 87:0.0 88:1.0 89:1.0 90:0.0 91:0.0 92:0.0 93:0.0 94:0.0 95:1.0 96:1.0 97:1.0 98:0.0 99:0.0 100:0.0 101:0.0 102:1.0 103:1.0 104:0.0 105:0.0 106:1.0 107:1.0 108:1.0 109:1.0 110:1.0 111:0.0 112:0.0 113:0.0 114:0.0 115:0.0 116:0.0 117:0.0 118:0.0 119:0.0 120:0.0 121:0.0 122:0.0 123:0.0 124:0.0 125:0.0 126:0.0 127:0.0 128:0.0 
0.0 0.05574366234873744 0.0916746748057246 0.0 0.0 0.012303877182881983 0.0 0.009048640531988974 0.0 0.037817274290358464 0.0 0.0 0.0 0.0 0.0 0.0 0.0 0.0 0.0 0.0 0.0 0.0 0.0 0.0 0.0 1:0.0 2:0.0 3:0.0 4:0.0 5:0.0 6:0.0 7:0.0 8:0.0 9:0.0 10:0.0 11:0.0 12:0.0 13:1.0 14:1.0 15:1.0 16:1.0 17:0.0 18:0.0 19:0.0 20:1.0 21:1.0 22:0.0 23:0.0 24:1.0 25:0.0 26:0.0 27:1.0 28:1.0 29:0.0 30:1.0 31:1.0 32:1.0 33:0.0 34:1.0 35:1.0 36:0.0 37:0.0 38:0.0 39:0.0 40:1.0 41:1.0 42:1.0 43:0.0 44:0.0 45:0.0 46:0.0 47:0.0 48:1.0 49:1.0 50:0.0 51:0.0 52:0.0 53:0.0 54:0.0 55:0.0 56:1.0 57:1.0 58:0.0 59:0.0 60:0.0 61:0.0 62:0.0 63:0.0 64:1.0 65:1.0 66:0.0 67:0.0 68:0.0 69:0.0 70:0.0 71:0.0 72:1.0 73:1.0 74:0.0 75:0.0 76:0.0 77:0.0 78:0.0 79:0.0 80:1.0 81:1.0 82:0.0 83:0.0 84:0.0 85:0.0 86:0.0 87:0.0 88:1.0 89:1.0 90:0.0 91:0.0 92:0.0 93:0.0 94:0.0 95:0.0 96:1.0 97:1.0 98:0.0 99:0.0 100:0.0 101:0.0 102:0.0 103:1.0 104:1.0 105:1.0 106:1.0 107:0.0 108:0.0 109:0.0 110:1.0 111:1.0 112:0.0 113:0.0 114:1.0 115:1.0 116:1.0 117:1.0 118:1.0 119:0.0 120:0.0 121:0.0 122:0.0 123:0.0 124:0.0 125:0.0 126:0.0 127:0.0 128:0.0 
0.0 0.1 0.1 0.0 0.0 0.0 0.0 0.0 0.0 0.0 0.0 0.0 0.0 0.0 0.0 0.046051531047216716 0.0 7.217264740961395E-4 0.0 0.0 0.0 0.0 0.0 0.0 0.0 1:0.0 2:0.0 3:0.0 4:0.0 5:0.0 6:0.0 7:0.0 8:0.0 9:0.0 10:0.0 11:0.0 12:0.0 13:0.0 14:0.0 15:0.0 16:0.0 17:0.0 18:0.0 19:0.0 20:0.0 21:0.0 22:0.0 23:0.0 24:0.0 25:0.0 26:0.0 27:0.0 28:0.0 29:0.0 30:0.0 31:0.0 32:0.0 33:1.0 34:1.0 35:1.0 36:1.0 37:1.0 38:1.0 39:0.0 40:0.0 41:1.0 42:0.0 43:0.0 44:0.0 45:1.0 46:1.0 47:1.0 48:0.0 49:1.0 50:0.0 51:0.0 52:0.0 53:0.0 54:1.0 55:1.0 56:1.0 57:1.0 58:0.0 59:0.0 60:0.0 61:0.0 62:1.0 63:0.0 64:1.0 65:1.0 66:0.0 67:0.0 68:0.0 69:0.0 70:0.0 71:0.0 72:1.0 73:1.0 74:1.0 75:0.0 76:0.0 77:0.0 78:0.0 79:0.0 80:1.0 81:0.0 82:1.0 83:1.0 84:0.0 85:0.0 86:0.0 87:0.0 88:1.0 89:0.0 90:0.0 91:1.0 92:1.0 93:1.0 94:1.0 95:1.0 96:1.0 97:0.0 98:0.0 99:0.0 100:0.0 101:0.0 102:0.0 103:0.0 104:0.0 105:0.0 106:0.0 107:0.0 108:0.0 109:0.0 110:0.0 111:0.0 112:0.0 113:0.0 114:0.0 115:0.0 116:0.0 117:0.0 118:0.0 119:0.0 120:0.0 121:0.0 122:0.0 123:0.0 124:0.0 125:0.0 126:0.0 127:0.0 128:0.0 
0.0 0.0 0.0 0.0 0.0 0.0 0.0 0.0 0.06660455820782185 0.0 0.0 0.0 0.0 0.0 0.0 0.0 0.0020358171934275974 0.0 0.0 0.0 0.0 0.0 0.0 0.1 0.0 1:0.0 2:0.0 3:0.0 4:0.0 5:0.0 6:0.0 7:0.0 8:0.0 9:0.0 10:0.0 11:0.0 12:0.0 13:0.0 14:0.0 15:0.0 16:0.0 17:0.0 18:0.0 19:0.0 20:0.0 21:0.0 22:0.0 23:0.0 24:0.0 25:0.0 26:0.0 27:0.0 28:0.0 29:0.0 30:0.0 31:0.0 32:0.0 33:0.0 34:1.0 35:1.0 36:1.0 37:1.0 38:1.0 39:1.0 40:1.0 41:0.0 42:1.0 43:0.0 44:0.0 45:0.0 46:0.0 47:0.0 48:1.0 49:1.0 50:0.0 51:0.0 52:0.0 53:0.0 54:0.0 55:0.0 56:1.0 57:1.0 58:0.0 59:0.0 60:0.0 61:0.0 62:0.0 63:0.0 64:1.0 65:1.0 66:0.0 67:0.0 68:0.0 69:0.0 70:0.0 71:0.0 72:1.0 73:1.0 74:0.0 75:0.0 76:0.0 77:0.0 78:0.0 79:0.0 80:1.0 81:1.0 82:1.0 83:1.0 84:1.0 85:0.0 86:0.0 87:1.0 88:1.0 89:0.0 90:0.0 91:0.0 92:1.0 93:1.0 94:1.0 95:1.0 96:0.0 97:0.0 98:0.0 99:0.0 100:0.0 101:0.0 102:0.0 103:0.0 104:0.0 105:0.0 106:0.0 107:0.0 108:0.0 109:0.0 110:0.0 111:0.0 112:0.0 113:0.0 114:0.0 115:0.0 116:0.0 117:0.0 118:0.0 119:0.0 120:0.0 121:0.0 122:0.0 123:0.0 124:0.0 125:0.0 126:0.0 127:0.0 128:0.0 
0.0 0.0 0.0 0.0 0.0 0.050030741736618686 0.0 0.0 0.0 0.0 0.0 0.0 0.0 0.0 0.0 0.0 0.0 0.0 0.0 0.0 0.0 0.0 0.0 0.0 0.0 1:0.0 2:0.0 3:0.0 4:0.0 5:1.0 6:1.0 7:1.0 8:0.0 9:0.0 10:0.0 11:0.0 12:0.0 13:1.0 14:0.0 15:1.0 16:0.0 17:0.0 18:0.0 19:0.0 20:1.0 21:1.0 22:1.0 23:1.0 24:0.0 25:0.0 26:0.0 27:0.0 28:1.0 29:0.0 30:0.0 31:1.0 32:1.0 33:0.0 34:1.0 35:1.0 36:1.0 37:0.0 38:0.0 39:0.0 40:1.0 41:0.0 42:1.0 43:0.0 44:0.0 45:0.0 46:0.0 47:0.0 48:1.0 49:1.0 50:1.0 51:0.0 52:0.0 53:0.0 54:0.0 55:0.0 56:1.0 57:1.0 58:0.0 59:0.0 60:0.0 61:0.0 62:0.0 63:0.0 64:1.0 65:1.0 66:0.0 67:0.0 68:0.0 69:0.0 70:0.0 71:0.0 72:1.0 73:1.0 74:0.0 75:0.0 76:0.0 77:0.0 78:0.0 79:0.0 80:1.0 81:1.0 82:0.0 83:0.0 84:0.0 85:0.0 86:0.0 87:0.0 88:1.0 89:1.0 90:0.0 91:0.0 92:0.0 93:0.0 94:0.0 95:1.0 96:1.0 97:1.0 98:0.0 99:0.0 100:0.0 101:0.0 102:0.0 103:1.0 104:0.0 105:1.0 106:0.0 107:0.0 108:0.0 109:1.0 110:1.0 111:1.0 112:0.0 113:1.0 114:0.0 115:0.0 116:1.0 117:1.0 118:0.0 119:0.0 120:0.0 121:1.0 122:1.0 123:1.0 124:1.0 125:0.0 126:0.0 127:0.0 128:0.0 
0.0 0.0 0.0 0.0 0.0 0.0 0.0 0.0 0.06313624607985144 0.0 0.0 0.008039017179813097 0.0 0.0 0.0 0.0 0.0 0.0 0.0 0.0 7.963903236873173E-4 0.0 0.0 0.0 0.0 1:0.0 2:0.0 3:0.0 4:0.0 5:0.0 6:0.0 7:0.0 8:0.0 9:0.0 10:0.0 11:0.0 12:0.0 13:0.0 14:0.0 15:0.0 16:0.0 17:0.0 18:0.0 19:0.0 20:0.0 21:0.0 22:0.0 23:0.0 24:0.0 25:0.0 26:0.0 27:0.0 28:0.0 29:0.0 30:0.0 31:0.0 32:0.0 33:1.0 34:1.0 35:1.0 36:1.0 37:1.0 38:1.0 39:1.0 40:0.0 41:1.0 42:0.0 43:0.0 44:0.0 45:0.0 46:0.0 47:1.0 48:0.0 49:1.0 50:0.0 51:0.0 52:0.0 53:0.0 54:0.0 55:0.0 56:1.0 57:0.0 58:0.0 59:0.0 60:0.0 61:0.0 62:0.0 63:0.0 64:1.0 65:1.0 66:0.0 67:0.0 68:0.0 69:0.0 70:0.0 71:0.0 72:1.0 73:1.0 74:0.0 75:0.0 76:0.0 77:0.0 78:0.0 79:1.0 80:1.0 81:1.0 82:0.0 83:0.0 84:0.0 85:1.0 86:1.0 87:0.0 88:0.0 89:1.0 90:1.0 91:1.0 92:1.0 93:1.0 94:0.0 95:0.0 96:0.0 97:0.0 98:0.0 99:0.0 100:0.0 101:0.0 102:0.0 103:0.0 104:0.0 105:0.0 106:0.0 107:0.0 108:0.0 109:0.0 110:0.0 111:0.0 112:0.0 113:0.0 114:0.0 115:0.0 116:0.0 117:0.0 118:0.0 119:0.0 120:0.0 121:0.0 122:0.0 123:0.0 124:0.0 125:0.0 126:0.0 127:0.0 128:0.0 
0.0 0.0 0.0 0.0 0.0 0.0 0.0 0.0 0.0 0.0 0.0 0.0 0.004603838885352872 0.0 0.0 0.0 0.03140646016806952 0.0 0.0 0.004514647366673099 0.0 0.0 0.0 0.0 0.0 1:0.0 2:0.0 3:1.0 4:1.0 5:1.0 6:1.0 7:0.0 8:0.0 9:0.0 10:1.0 11:1.0 12:0.0 13:0.0 14:1.0 15:1.0 16:0.0 17:0.0 18:1.0 19:0.0 20:0.0 21:0.0 22:0.0 23:1.0 24:1.0 25:1.0 26:0.0 27:0.0 28:0.0 29:0.0 30:0.0 31:0.0 32:1.0 33:1.0 34:0.0 35:0.0 36:0.0 37:0.0 38:0.0 39:0.0 40:1.0 41:1.0 42:0.0 43:0.0 44:0.0 45:0.0 46:0.0 47:0.0 48:1.0 49:1.0 50:0.0 51:0.0 52:0.0 53:0.0 54:0.0 55:0.0 56:1.0 57:1.0 58:0.0 59:0.0 60:0.0 61:0.0 62:0.0 63:0.0 64:1.0 65:1.0 66:0.0 67:0.0 68:0.0 69:0.0 70:0.0 71:0.0 72:1.0 73:1.0 74:0.0 75:0.0 76:0.0 77:0.0 78:0.0 79:0.0 80:1.0 81:1.0 82:1.0 83:0.0 84:0.0 85:0.0 86:0.0 87:0.0 88:1.0 89:0.0 90:1.0 91:1.0 92:0.0 93:0.0 94:0.0 95:0.0 96:1.0 97:0.0 98:0.0 99:0.0 100:0.0 101:0.0 102:0.0 103:1.0 104:1.0 105:1.0 106:0.0 107:0.0 108:0.0 109:0.0 110:1.0 111:1.0 112:0.0 113:1.0 114:0.0 115:0.0 116:1.0 117:1.0 118:1.0 119:0.0 120:0.0 121:1.0 122:1.0 123:1.0 124:1.0 125:0.0 126:0.0 127:0.0 128:0.0 
0.0 0.0 0.06146035853469477 0.0 0.0 0.0 0.0 0.0 0.0 0.0 0.0 0.0 0.0 0.0 0.0 0.0 0.0 0.0 0.0 0.0 0.0 0.0 0.0 0.0 0.0 1:0.0 2:0.0 3:0.0 4:0.0 5:0.0 6:0.0 7:0.0 8:0.0 9:0.0 10:0.0 11:0.0 12:0.0 13:0.0 14:0.0 15:0.0 16:0.0 17:0.0 18:0.0 19:0.0 20:0.0 21:0.0 22:0.0 23:0.0 24:1.0 25:0.0 26:0.0 27:0.0 28:0.0 29:0.0 30:0.0 31:0.0 32:1.0 33:0.0 34:0.0 35:0.0 36:1.0 37:1.0 38:1.0 39:0.0 40:1.0 41:1.0 42:1.0 43:1.0 44:1.0 45:0.0 46:1.0 47:1.0 48:1.0 49:1.0 50:0.0 51:0.0 52:0.0 53:0.0 54:0.0 55:0.0 56:1.0 57:1.0 58:0.0 59:0.0 60:0.0 61:0.0 62:0.0 63:0.0 64:1.0 65:1.0 66:0.0 67:0.0 68:0.0 69:0.0 70:0.0 71:0.0 72:1.0 73:1.0 74:0.0 75:0.0 76:0.0 77:0.0 78:0.0 79:0.0 80:1.0 81:1.0 82:0.0 83:0.0 84:0.0 85:0.0 86:0.0 87:0.0 88:1.0 89:1.0 90:1.0 91:0.0 92:0.0 93:0.0 94:0.0 95:0.0 96:1.0 97:0.0 98:1.0 99:1.0 100:0.0 101:0.0 102:0.0 103:1.0 104:1.0 105:0.0 106:0.0 107:1.0 108:1.0 109:1.0 110:1.0 111:1.0 112:0.0 113:0.0 114:0.0 115:0.0 116:0.0 117:0.0 118:0.0 119:0.0 120:0.0 121:0.0 122:0.0 123:0.0 124:0.0 125:0.0 126:0.0 127:0.0 128:0.0 
0.0 0.0 0.01973161147424727 0.0 0.0 0.0 0.04168856028954559 0.0 0.0 0.0 0.0 0.0 0.0 0.0 0.0 0.0 0.0 0.05903194827843791 0.0 0.0 0.0 0.0256900202631796 0.0 0.0 0.0 1:0.0 2:0.0 3:0.0 4:0.0 5:0.0 6:0.0 7:0.0 8:0.0 9:0.0 10:0.0 11:0.0 12:0.0 13:0.0 14:0.0 15:0.0 16:0.0 17:0.0 18:0.0 19:0.0 20:0.0 21:0.0 22:0.0 23:0.0 24:0.0 25:0.0 26:0.0 27:1.0 28:1.0 29:1.0 30:0.0 31:0.0 32:0.0 33:0.0 34:1.0 35:1.0 36:0.0 37:1.0 38:1.0 39:1.0 40:0.0 41:0.0 42:0.0 43:0.0 44:0.0 45:0.0 46:0.0 47:1.0 48:1.0 49:1.0 50:1.0 51:1.0 52:1.0 53:1.0 54:1.0 55:1.0 56:1.0 57:1.0 58:1.0 59:0.0 60:0.0 61:0.0 62:0.0 63:0.0 64:1.0 65:0.0 66:1.0 67:0.0 68:0.0 69:0.0 70:0.0 71:0.0 72:1.0 73:0.0 74:1.0 75:1.0 76:0.0 77:0.0 78:0.0 79:0.0 80:1.0 81:0.0 82:0.0 83:1.0 84:0.0 85:0.0 86:0.0 87:0.0 88:1.0 89:0.0 90:0.0 91:1.0 92:1.0 93:0.0 94:0.0 95:0.0 96:1.0 97:0.0 98:0.0 99:0.0 100:1.0 101:1.0 102:1.0 103:1.0 104:1.0 105:0.0 106:0.0 107:0.0 108:0.0 109:0.0 110:0.0 111:0.0 112:0.0 113:0.0 114:0.0 115:0.0 116:0.0 117:0.0 118:0.0 119:0.0 120:0.0 121:0.0 122:0.0 123:0.0 124:0.0 125:0.0 126:0.0 127:0.0 128:0.0 
0.0 0.0 0.0 0.0 0.0 0.0 0.0 0.0 0.0 0.0 0.0 0.0 0.0 0.0 0.0 0.0 0.053775948663237774 0.0 0.0 0.0 0.0 0.0 0.0 0.0064297316593709825 0.0 1:0.0 2:0.0 3:0.0 4:0.0 5:0.0 6:0.0 7:0.0 8:0.0 9:0.0 10:0.0 11:1.0 12:1.0 13:1.0 14:1.0 15:0.0 16:0.0 17:0.0 18:0.0 19:0.0 20:0.0 21:0.0 22:1.0 23:1.0 24:0.0 25:1.0 26:1.0 27:1.0 28:0.0 29:0.0 30:0.0 31:1.0 32:0.0 33:1.0 34:0.0 35:0.0 36:0.0 37:0.0 38:0.0 39:0.0 40:1.0 41:1.0 42:0.0 43:0.0 44:0.0 45:0.0 46:0.0 47:0.0 48:1.0 49:1.0 50:0.0 51:0.0 52:0.0 53:0.0 54:0.0 55:0.0 56:1.0 57:1.0 58:0.0 59:0.0 60:0.0 61:0.0 62:0.0 63:0.0 64:1.0 65:1.0 66:0.0 67:0.0 68:0.0 69:0.0 70:0.0 71:1.0 72:1.0 73:1.0 74:0.0 75:0.0 76:0.0 77:0.0 78:0.0 79:1.0 80:0.0 81:1.0 82:0.0 83:0.0 84:0.0 85:0.0 86:1.0 87:1.0 88:0.0 89:1.0 90:0.0 91:0.0 92:0.0 93:0.0 94:1.0 95:0.0 96:0.0 97:1.0 98:1.0 99:0.0 100:0.0 101:1.0 102:1.0 103:0.0 104:0.0 105:0.0 106:1.0 107:1.0 108:0.0 109:1.0 110:0.0 111:0.0 112:0.0 113:0.0 114:0.0 115:1.0 116:1.0 117:1.0 118:0.0 119:0.0 120:0.0 121:0.0 122:0.0 123:0.0 124:0.0 125:0.0 126:0.0 127:0.0 128:0.0 
0.0 0.021833883443609658 0.0 9.754547599628876E-4 0.0 0.0 0.0 0.0 0.0 0.0 0.0 0.0 0.0 0.0 0.0 0.0 0.0 0.0 0.0 0.0 0.0 0.0 0.0 0.0 0.0 1:0.0 2:0.0 3:0.0 4:0.0 5:0.0 6:0.0 7:0.0 8:0.0 9:0.0 10:0.0 11:0.0 12:0.0 13:0.0 14:0.0 15:0.0 16:0.0 17:0.0 18:0.0 19:0.0 20:0.0 21:0.0 22:0.0 23:0.0 24:0.0 25:0.0 26:0.0 27:0.0 28:0.0 29:0.0 30:0.0 31:0.0 32:0.0 33:0.0 34:0.0 35:0.0 36:0.0 37:0.0 38:1.0 39:1.0 40:1.0 41:0.0 42:0.0 43:0.0 44:0.0 45:1.0 46:1.0 47:1.0 48:1.0 49:0.0 50:0.0 51:1.0 52:1.0 53:0.0 54:0.0 55:0.0 56:1.0 57:0.0 58:1.0 59:1.0 60:0.0 61:0.0 62:0.0 63:0.0 64:1.0 65:0.0 66:1.0 67:0.0 68:0.0 69:0.0 70:0.0 71:1.0 72:1.0 73:1.0 74:0.0 75:0.0 76:0.0 77:0.0 78:1.0 79:1.0 80:0.0 81:1.0 82:0.0 83:0.0 84:1.0 85:1.0 86:1.0 87:0.0 88:0.0 89:1.0 90:1.0 91:1.0 92:1.0 93:0.0 94:0.0 95:0.0 96:0.0 97:0.0 98:0.0 99:0.0 100:0.0 101:0.0 102:0.0 103:0.0 104:0.0 105:0.0 106:0.0 107:0.0 108:0.0 109:0.0 110:0.0 111:0.0 112:0.0 113:0.0 114:0.0 115:0.0 116:0.0 117:0.0 118:0.0 119:0.0 120:0.0 121:0.0 122:0.0 123:0.0 124:0.0 125:0.0 126:0.0 127:0.0 128:0.0 
0.0 0.0 0.0 0.03870765464295878 0.0 0.0 0.0 0.0 0.0 0.0 0.0 0.0 0.0 0.0 0.0 0.0 0.0 0.0 0.0 0.0 0.0 0.0 0.0 0.0 0.0 1:1.0 2:1.0 3:1.0 4:1.0 5:1.0 6:1.0 7:0.0 8:0.0 9:1.0 10:0.0 11:0.0 12:0.0 13:0.0 14:1.0 15:1.0 16:0.0 17:0.0 18:0.0 19:0.0 20:0.0 21:0.0 22:0.0 23:1.0 24:1.0 25:0.0 26:0.0 27:0.0 28:0.0 29:0.0 30:0.0 31:0.0 32:1.0 33:0.0 34:0.0 35:0.0 36:0.0 37:1.0 38:0.0 39:0.0 40:1.0 41:0.0 42:0.0 43:1.0 44:1.0 45:1.0 46:0.0 47:0.0 48:1.0 49:0.0 50:1.0 51:1.0 52:0.0 53:0.0 54:0.0 55:0.0 56:1.0 57:1.0 58:1.0 59:0.0 60:0.0 61:0.0 62:0.0 63:0.0 64:1.0 65:1.0 66:0.0 67:0.0 68:0.0 69:0.0 70:0.0 71:1.0 72:1.0 73:1.0 74:0.0 75:0.0 76:0.0 77:0.0 78:0.0 79:1.0 80:0.0 81:1.0 82:0.0 83:0.0 84:0.0 85:0.0 86:0.0 87:1.0 88:0.0 89:1.0 90:0.0 91:0.0 92:0.0 93:0.0 94:1.0 95:1.0 96:0.0 97:1.0 98:0.0 99:0.0 100:0.0 101:0.0 102:1.0 103:0.0 104:0.0 105:1.0 106:0.0 107:0.0 108:0.0 109:1.0 110:1.0 111:0.0 112:0.0 113:1.0 114:0.0 115:0.0 116:1.0 117:1.0 118:0.0 119:0.0 120:0.0 121:1.0 122:1.0 123:1.0 124:1.0 125:0.0 126:0.0 127:0.0 128:0.0 
0.0 0.0 0.0 0.0 0.0 0.0 0.0 0.0 0.1 0.0 0.0 0.0 0.0 0.0 0.01809969246392808 0.0 0.0 0.0 0.0 0.0 0.0 0.0 0.0 0.0 0.0 1:0.0 2:0.0 3:0.0 4:0.0 5:0.0 6:0.0 7:0.0 8:0.0 9:0.0 10:0.0 11:0.0 12:0.0 13:0.0 14:0.0 15:0.0 16:0.0 17:0.0 18:0.0 19:0.0 20:0.0 21:0.0 22:0.0 23:0.0 24:0.0 25:0.0 26:0.0 27:0.0 28:0.0 29:0.0 30:0.0 31:0.0 32:0.0 33:0.0 34:0.0 35:0.0 36:0.0 37:0.0 38:0.0 39:0.0 40:0.0 41:1.0 42:1.0 43:1.0 44:1.0 45:1.0 46:1.0 47:1.0 48:0.0 49:1.0 50:0.0 51:0.0 52:0.0 53:0.0 54:0.0 55:1.0 56:1.0 57:1.0 58:0.0 59:0.0 60:0.0 61:0.0 62:0.0 63:0.0 64:1.0 65:1.0 66:0.0 67:0.0 68:0.0 69:0.0 70:0.0 71:0.0 72:1.0 73:1.0 74:1.0 75:0.0 76:0.0 77:0.0 78:0.0 79:1.0 80:1.0 81:0.0 82:1.0 83:1.0 84:1.0 85:1.0 86:1.0 87:1.0 88:0.0 89:0.0 90:0.0 91:0.0 92:0.0 93:0.0 94:0.0 95:0.0 96:0.0 97:0.0 98:0.0 99:0.0 100:0.0 101:0.0 102:0.0 103:0.0 104:0.0 105:0.0 106:0.0 107:0.0 108:0.0 109:0.0 110:0.0 111:0.0 112:0.0 113:0.0 114:0.0 115:0.0 116:0.0 117:0.0 118:0.0 119:0.0 120:0.0 121:0.0 122:0.0 123:0.0 124:0.0 125:0.0 126:0.0 127:0.0 128:0.0 
0.1 0.003713298249379923 0.1 0.0 0.0 0.0 0.0 0.0 0.0 0.1 0.0 0.0 0.0 0.0 0.0 0.0 0.0 0.0 0.0 0.0 0.0 0.0 0.0 0.0 0.0 1:0.0 2:0.0 3:0.0 4:0.0 5:0.0 6:0.0 7:0.0 8:0.0 9:0.0 10:0.0 11:0.0 12:0.0 13:0.0 14:0.0 15:0.0 16:0.0 17:0.0 18:0.0 19:0.0 20:0.0 21:0.0 22:0.0 23:0.0 24:0.0 25:0.0 26:0.0 27:1.0 28:1.0 29:1.0 30:1.0 31:0.0 32:0.0 33:0.0 34:0.0 35:0.0 36:1.0 37:1.0 38:1.0 39:1.0 40:0.0 41:0.0 42:1.0 43:1.0 44:0.0 45:1.0 46:0.0 47:1.0 48:1.0 49:0.0 50:1.0 51:0.0 52:1.0 53:1.0 54:0.0 55:0.0 56:1.0 57:1.0 58:1.0 59:0.0 60:1.0 61:0.0 62:0.0 63:0.0 64:1.0 65:1.0 66:0.0 67:1.0 68:1.0 69:0.0 70:0.0 71:0.0 72:1.0 73:1.0 74:0.0 75:0.0 76:0.0 77:0.0 78:0.0 79:0.0 80:1.0 81:1.0 82:0.0 83:0.0 84:0.0 85:0.0 86:0.0 87:1.0 88:1.0 89:1.0 90:1.0 91:0.0 92:0.0 93:0.0 94:1.0 95:1.0 96:0.0 97:0.0 98:0.0 99:1.0 100:1.0 101:1.0 102:0.0 103:0.0 104:0.0 105:0.0 106:0.0 107:0.0 108:0.0 109:0.0 110:0.0 111:0.0 112:0.0 113:0.0 114:0.0 115:0.0 116:0.0 117:0.0 118:0.0 119:0.0 120:0.0 121:0.0 122:0.0 123:0.0 124:0.0 125:0.0 126:0.0 127:0.0 128:0.0 
0.0 0.0 0.0 0.0 0.0 0.0 0.0 0.0 0.0 0.0 0.01201362829135294 0.0 0.0 0.0 0.0 0.0 0.0 0.0 0.0 0.0 0.0 0.0 0.0 0.0 0.0 1:0.0 2:0.0 3:0.0 4:0.0 5:0.0 6:0.0 7:0.0 8:0.0 9:0.0 10:0.0 11:0.0 12:0.0 13:0.0 14:0.0 15:0.0 16:0.0 17:0.0 18:0.0 19:0.0 20:1.0 21:1.0 22:1.0 23:1.0 24:1.0 25:0.0 26:0.0 27:1.0 28:1.0 29:0.0 30:1.0 31:1.0 32:1.0 33:0.0 34:0.0 35:1.0 36:0.0 37:0.0 38:1.0 39:0.0 40:1.0 41:0.0 42:1.0 43:1.0 44:0.0 45:0.0 46:0.0 47:0.0 48:1.0 49:1.0 50:1.0 51:0.0 52:0.0 53:0.0 54:0.0 55:0.0 56:1.0 57:1.0 58:0.0 59:0.0 60:0.0 61:0.0 62:0.0 63:0.0 64:1.0 65:1.0 66:0.0 67:0.0 68:0.0 69:0.0 70:0.0 71:1.0 72:1.0 73:1.0 74:0.0 75:0.0 76:0.0 77:0.0 78:1.0 79:1.0 80:0.0 81:1.0 82:0.0 83:0.0 84:0.0 85:0.0 86:1.0 87:0.0 88:0.0 89:1.0 90:0.0 91:0.0 92:0.0 93:1.0 94:1.0 95:0.0 96:0.0 97:1.0 98:0.0 99:0.0 100:1.0 101:1.0 102:0.0 103:0.0 104:0.0 105:1.0 106:1.0 107:1.0 108:1.0 109:0.0 110:0.0 111:0.0 112:0.0 113:0.0 114:0.0 115:0.0 116:0.0 117:0.0 118:0.0 119:0.0 120:0.0 121:0.0 122:0.0 123:0.0 124:0.0 125:0.0 126:0.0 127:0.0 128:0.0 
0.0 0.0 0.0 0.0 0.0 0.0 0.0 0.0 0.0 0.021245877860119753 0.0 0.0 0.0 0.0 0.0 0.0 0.0 0.0 0.0 0.0 0.0 0.0 0.0 0.0 0.0 1:0.0 2:0.0 3:0.0 4:0.0 5:0.0 6:0.0 7:0.0 8:0.0 9:0.0 10:0.0 11:0.0 12:0.0 13:0.0 14:0.0 15:0.0 16:0.0 17:0.0 18:0.0 19:0.0 20:0.0 21:0.0 22:0.0 23:0.0 24:0.0 25:0.0 26:1.0 27:1.0 28:0.0 29:1.0 30:1.0 31:0.0 32:0.0 33:0.0 34:1.0 35:1.0 36:1.0 37:1.0 38:1.0 39:1.0 40:1.0 41:1.0 42:1.0 43:1.0 44:0.0 45:0.0 46:0.0 47:0.0 48:1.0 49:1.0 50:0.0 51:1.0 52:0.0 53:0.0 54:0.0 55:0.0 56:1.0 57:1.0 58:0.0 59:1.0 60:0.0 61:0.0 62:0.0 63:0.0 64:1.0 65:1.0 66:0.0 67:1.0 68:0.0 69:0.0 70:0.0 71:0.0 72:1.0 73:1.0 74:0.0 75:0.0 76:0.0 77:0.0 78:0.0 79:0.0 80:1.0 81:1.0 82:0.0 83:0.0 84:0.0 85:0.0 86:0.0 87:1.0 88:1.0 89:1.0 90:0.0 91:0.0 92:0.0 93:1.0 94:1.0 95:1.0 96:0.0 97:0.0 98:1.0 99:1.0 100:1.0 101:1.0 102:0.0 103:0.0 104:0.0 105:0.0 106:0.0 107:0.0 108:0.0 109:0.0 110:0.0 111:0.0 112:0.0 113:0.0 114:0.0 115:0.0 116:0.0 117:0.0 118:0.0 119:0.0 120:0.0 121:0.0 122:0.0 123:0.0 124:0.0 125:0.0 126:0.0 127:0.0 128:0.0 
0.0 0.0 0.0 0.0 0.0 0.0 0.0 0.0 0.0 0.0 0.0 0.0 0.0 0.0 0.0 0.0 0.0 0.0 0.011700371075648135 0.0 0.0 0.0 0.0 0.0 0.0 1:0.0 2:0.0 3:1.0 4:1.0 5:1.0 6:0.0 7:0.0 8:0.0 9:0.0 10:0.0 11:1.0 12:1.0 13:1.0 14:1.0 15:0.0 16:0.0 17:0.0 18:0.0 19:1.0 20:1.0 21:1.0 22:1.0 23:1.0 24:0.0 25:0.0 26:1.0 27:1.0 28:0.0 29:0.0 30:0.0 31:1.0 32:0.0 33:0.0 34:1.0 35:0.0 36:0.0 37:0.0 38:0.0 39:1.0 40:1.0 41:0.0 42:1.0 43:0.0 44:0.0 45:0.0 46:0.0 47:0.0 48:1.0 49:1.0 50:1.0 51:0.0 52:0.0 53:0.0 54:0.0 55:0.0 56:1.0 57:1.0 58:0.0 59:0.0 60:0.0 61:0.0 62:0.0 63:0.0 64:1.0 65:1.0 66:0.0 67:0.0 68:0.0 69:0.0 70:0.0 71:0.0 72:1.0 73:1.0 74:0.0 75:0.0 76:0.0 77:0.0 78:0.0 79:1.0 80:1.0 81:1.0 82:0.0 83:0.0 84:0.0 85:0.0 86:0.0 87:1.0 88:0.0 89:1.0 90:0.0 91:0.0 92:0.0 93:0.0 94:1.0 95:1.0 96:0.0 97:1.0 98:0.0 99:0.0 100:0.0 101:1.0 102:1.0 103:0.0 104:0.0 105:1.0 106:0.0 107:0.0 108:1.0 109:1.0 110:0.0 111:0.0 112:0.0 113:1.0 114:1.0 115:1.0 116:1.0 117:0.0 118:0.0 119:0.0 120:0.0 121:0.0 122:0.0 123:1.0 124:0.0 125:0.0 126:0.0 127:0.0 128:0.0 
0.0 0.0 0.0 0.0 0.0 0.011625191157014634 0.0 0.0 0.0 0.0 0.0 0.0 0.0 0.0 0.0 0.0 0.0 0.0 0.0 0.0 0.0 0.0 0.0 0.0 0.0 1:0.0 2:0.0 3:0.0 4:1.0 5:1.0 6:0.0 7:0.0 8:0.0 9:0.0 10:0.0 11:1.0 12:1.0 13:1.0 14:0.0 15:0.0 16:0.0 17:0.0 18:1.0 19:0.0 20:1.0 21:1.0 22:1.0 23:0.0 24:0.0 25:1.0 26:1.0 27:0.0 28:0.0 29:0.0 30:1.0 31:0.0 32:0.0 33:1.0 34:0.0 35:0.0 36:0.0 37:0.0 38:1.0 39:0.0 40:0.0 41:1.0 42:0.0 43:0.0 44:0.0 45:0.0 46:1.0 47:1.0 48:0.0 49:1.0 50:0.0 51:0.0 52:0.0 53:0.0 54:0.0 55:1.0 56:0.0 57:1.0 58:0.0 59:0.0 60:0.0 61:0.0 62:0.0 63:1.0 64:1.0 65:1.0 66:0.0 67:0.0 68:0.0 69:0.0 70:0.0 71:0.0 72:1.0 73:1.0 74:0.0 75:0.0 76:0.0 77:0.0 78:0.0 79:0.0 80:1.0 81:1.0 82:0.0 83:0.0 84:0.0 85:0.0 86:0.0 87:0.0 88:1.0 89:1.0 90:1.0 91:0.0 92:0.0 93:0.0 94:0.0 95:0.0 96:1.0 97:0.0 98:1.0 99:0.0 100:0.0 101:0.0 102:0.0 103:0.0 104:1.0 105:0.0 106:1.0 107:1.0 108:0.0 109:0.0 110:0.0 111:0.0 112:1.0 113:0.0 114:0.0 115:1.0 116:1.0 117:1.0 118:1.0 119:1.0 120:1.0 121:0.0 122:0.0 123:0.0 124:0.0 125:0.0 126:1.0 127:1.0 128:0.0 
0.0 0.0 0.003251344509288854 0.0 0.0 0.0 0.0 0.0 0.0 0.08588172607920927 0.0 0.0 0.0 0.0 0.0 0.0 0.0 0.0 0.0 0.0 0.0 0.0 0.0 0.0 0.0 1:0.0 2:0.0 3:0.0 4:0.0 5:0.0 6:0.0 7:0.0 8:0.0 9:0.0 10:0.0 11:0.0 12:0.0 13:0.0 14:0.0 15:0.0 16:0.0 17:0.0 18:0.0 19:0.0 20:0.0 21:0.0 22:0.0 23:0.0 24:0.0 25:0.0 26:0.0 27:0.0 28:0.0 29:0.0 30:1.0 31:1.0 32:1.0 33:0.0 34:0.0 35:0.0 36:1.0 37:1.0 38:1.0 39:0.0 40:1.0 41:0.0 42:0.0 43:1.0 44:1.0 45:0.0 46:0.0 47:0.0 48:1.0 49:0.0 50:1.0 51:1.0 52:0.0 53:0.0 54:0.0 55:0.0 56:1.0 57:0.0 58:1.0 59:0.0 60:0.0 61:0.0 62:0.0 63:0.0 64:1.0 65:1.0 66:1.0 67:0.0 68:0.0 69:0.0 70:0.0 71:0.0 72:1.0 73:1.0 74:0.0 75:0.0 76:0.0 77:0.0 78:0.0 79:1.0 80:0.0 81:1.0 82:0.0 83:0.0 84:0.0 85:0.0 86:1.0 87:1.0 88:0.0 89:1.0 90:1.0 91:1.0 92:1.0 93:1.0 94:1.0 95:0.0 96:0.0 97:0.0 98:1.0 99:1.0 100:0.0 101:0.0 102:0.0 103:0.0 104:0.0 105:0.0 106:0.0 107:0.0 108:0.0 109:0.0 110:0.0 111:0.0 112:0.0 113:0.0 114:0.0 115:0.0 116:0.0 117:0.0 118:0.0 119:0.0 120:0.0 121:0.0 122:0.0 123:0.0 124:0.0 125:0.0 126:0.0 127:0.0 128:0.0 
0.0 0.07484982150856216 0.1 0.02866601019425009 0.007540453570987597 0.1 0.027373385171991206 0.02171077955893796 0.0 0.0 0.1 0.0 0.02106191836121566 0.09773244472084032 0.1 0.06357168711235393 0.0 0.05739472279494629 0.039146628284718966 0.0 0.0 0.024535814201507283 0.0 0.013389293405527743 0.0 1:0.0 2:0.0 3:0.0 4:0.0 5:0.0 6:0.0 7:0.0 8:0.0 9:0.0 10:0.0 11:0.0 12:0.0 13:0.0 14:0.0 15:0.0 16:0.0 17:0.0 18:0.0 19:0.0 20:0.0 21:0.0 22:0.0 23:0.0 24:0.0 25:1.0 26:1.0 27:1.0 28:1.0 29:1.0 30:0.0 31:0.0 32:0.0 33:0.0 34:0.0 35:0.0 36:0.0 37:1.0 38:1.0 39:1.0 40:0.0 41:0.0 42:1.0 43:1.0 44:0.0 45:0.0 46:0.0 47:1.0 48:1.0 49:0.0 50:1.0 51:1.0 52:0.0 53:0.0 54:0.0 55:0.0 56:1.0 57:0.0 58:0.0 59:1.0 60:0.0 61:0.0 62:0.0 63:0.0 64:1.0 65:0.0 66:0.0 67:1.0 68:0.0 69:0.0 70:0.0 71:0.0 72:1.0 73:0.0 74:0.0 75:1.0 76:1.0 77:0.0 78:0.0 79:0.0 80:1.0 81:0.0 82:0.0 83:0.0 84:1.0 85:0.0 86:0.0 87:0.0 88:1.0 89:0.0 90:0.0 91:0.0 92:1.0 93:1.0 94:0.0 95:1.0 96:1.0 97:0.0 98:0.0 99:0.0 100:0.0 101:1.0 102:1.0 103:1.0 104:0.0 105:0.0 106:0.0 107:0.0 108:0.0 109:0.0 110:0.0 111:0.0 112:0.0 113:0.0 114:0.0 115:0.0 116:0.0 117:0.0 118:0.0 119:0.0 120:0.0 121:0.0 122:0.0 123:0.0 124:0.0 125:0.0 126:0.0 127:0.0 128:0.0 
0.0 0.0 0.0 0.0 0.0 0.016180236223532082 0.0 0.0 0.0 0.0 0.0 0.0 0.0 0.0 0.03682526174054866 0.0 0.0 0.0 0.0 0.0 0.0 0.0 0.0 0.0 0.0 1:0.0 2:0.0 3:0.0 4:0.0 5:0.0 6:0.0 7:0.0 8:0.0 9:0.0 10:0.0 11:0.0 12:0.0 13:0.0 14:0.0 15:0.0 16:0.0 17:0.0 18:0.0 19:0.0 20:0.0 21:0.0 22:0.0 23:0.0 24:0.0 25:1.0 26:1.0 27:1.0 28:1.0 29:0.0 30:0.0 31:0.0 32:0.0 33:0.0 34:0.0 35:0.0 36:1.0 37:1.0 38:1.0 39:0.0 40:0.0 41:0.0 42:0.0 43:1.0 44:1.0 45:0.0 46:1.0 47:1.0 48:1.0 49:0.0 50:0.0 51:1.0 52:0.0 53:0.0 54:0.0 55:0.0 56:1.0 57:0.0 58:1.0 59:1.0 60:0.0 61:0.0 62:0.0 63:0.0 64:1.0 65:0.0 66:1.0 67:0.0 68:0.0 69:0.0 70:0.0 71:0.0 72:1.0 73:0.0 74:1.0 75:0.0 76:0.0 77:0.0 78:0.0 79:0.0 80:1.0 81:0.0 82:1.0 83:0.0 84:0.0 85:0.0 86:0.0 87:1.0 88:1.0 89:0.0 90:1.0 91:1.0 92:0.0 93:0.0 94:1.0 95:1.0 96:0.0 97:0.0 98:0.0 99:1.0 100:1.0 101:1.0 102:1.0 103:0.0 104:0.0 105:0.0 106:0.0 107:0.0 108:0.0 109:0.0 110:0.0 111:0.0 112:0.0 113:0.0 114:0.0 115:0.0 116:0.0 117:0.0 118:0.0 119:0.0 120:0.0 121:0.0 122:0.0 123:0.0 124:0.0 125:0.0 126:0.0 127:0.0 128:0.0 
