svm_type c_svc
kernel_type linear
nr_class 26
total_sv 3000
rho -2.9674499249501958 -3.5544448538601667 0.90184469401085 -2.4784603904387854 2.4132743635663814 2.953120626470712 -1.9966570379889652 2.3974429802930484 4.483530210863441 -2.4777811644756214 1.8349286921884267 2.855976595551213 0.8274975616782461 4.038348665542972 1.759884383869094 2.0712564513570415 1.7684611148440048 1.104104544120963 -0.38054891259612744 0.6774659126097442 0.8438207982329872 -0.41595728357948053 -0.009908231541948358 -2.665151074856998 -0.38551001563405685 6.838453160796041 8.939186353761695 0.1412072009358181 1.345576292897185 2.4442120108490517 0.08366071088281257 2.2730789470213613 1.716504824430312 2.8865277731392402 0.6196747213762792 1.2326412042958013 0.7387899961768547 2.7781057525816366 1.1588360353992715 1.5241567732720445 5.31110437747562 1.8370556481942004 0.4983029245739339 1.3488569160382156 0.4606668938978965 -0.14269877356862445 0.816680707007027 0.39764878805191944 1.3727136424724038 4.118532814377776 0.04775833744747925 2.269147724206241 3.929386417537929 -0.6349565523758789 2.2005507124572796 3.766262973715145 0.5360031922147317 1.669237601543467 3.1472840251677994 1.7661767486737838 4.546613483334423 2.0005728119240946 2.2524555608084422 0.6182582925885521 2.000287545372501 0.7437002396224841 2.1018213959554206 0.8403918219688036 -0.10492000452663354 0.6835102776133113 -2.7282239407517546 1.3850685534859164 -0.12366089183051117 1.6354359604761117 2.301185601054836 -0.8149341925450125 0.6982321942064185 1.5988851901874652 -0.5804430052555861 0.44199639973848565 1.6817031571887708 0.8130677809992535 3.585671139721178 1.4284274784910527 2.3673180861344956 1.0318335725847978 -0.01433099389501432 -0.20517663610708226 0.9038139952497798 0.187473625031209 -0.4185558085404707 -0.867836180698154 -3.318372569955745 1.0068722731313497 2.963219992371745 3.994794203414552 -0.6151486338890896 1.6016098327778892 1.5410357377691948 2.2109669420226212 2.284784267740976 2.9538705127384097 1.395862069528812 3.6260994112318867 2.111335261873715 1.8563970810638724 1.1457764234656036 2.3141181567819626 0.9343464292147785 1.607269132580181 2.344216893311824 -0.2527523948582306 0.8446723917832162 -0.871652397093634 0.6372246077069577 -3.353600107812352 -2.9579224935056945 -3.5969431152840685 -2.2037489829293317 -2.424125118204017 -2.7794516534330276 -4.097061259870113 -3.0821599760743066 -5.678755226192417 -2.6428032503931886 -1.836528387447973 -1.8252222065927408 -3.5093219278784775 -2.761419026461957 -3.3661199557703876 -2.6377964065000947 -2.6842715401908745 -2.5873923816253472 -1.6652213206754258 -3.0816425198234865 -1.8076857633132646 2.5941174998849763 1.2052929394618792 -0.17864703234971135 2.574126750304515 3.6903543537826287 1.1283538819135022 5.316154531741621 4.775404940265112 0.09847585122984498 -1.4621043066898567 0.6065580556395838 0.3064225237389304 0.1475931186951693 0.9618659942139683 -1.97816362264967 -1.4287166528320665 -2.2646192818422155 -1.47125310561539 1.4091599649967212 1.9589589317350367 1.5214048319281808 2.2597804118890665 3.2722898818631343 0.9339192845619587 3.597345020063073 1.4007566826421944 0.8309701803448422 1.59323477125618 2.6658862098250222 0.19778577377636578 3.071312392736689 1.5618762327900733 -0.33731229628516185 0.5218906638848018 -0.4600616851896392 0.2529316741018857 -1.364233007020958 -4.662981140679515 0.04302833101942949 2.7719521801401545 -1.3121598643091565 3.129030766846795 -0.16708333692816668 -1.5133300906360616 -1.9797561536187642 -0.5486171043258335 -3.650738061633008 0.07284677548589083 -0.28613791984292597 -0.9011334586207495 -1.9083511240343547 -1.6148925180739309 -1.3417023895390852 -7.467693650576546 -0.13885164984159823 2.1375925926390114 -1.186123204095641 0.7359145493861002 -0.29736181591383837 -0.459308050869255 -1.6840189866489998 -1.1731621023101424 -1.6999194378133178 -0.5947129461388923 -0.10673217442678327 -1.2747778712820568 -1.1484646167300778 -1.6922110084784237 -2.2906953001329478 2.071241786747041 3.890972906486634 1.53494450635398 7.5924859077167035 1.4032466542843411 1.7003575107334516 1.6365170091348948 1.5810074334292072 -1.0769186270352695 1.110786503059006 0.4519640294531353 -0.40334101828831154 -0.8564382852752507 -2.0544008401711054 -0.8538345329068384 2.385440911327844 -1.3774574392269323 1.9505223062862456 -0.10613426567312266 -0.5444577182048863 -0.5813321564195549 -1.4799122348488858 -1.3827675071873329 -0.5619430405300033 0.31082383163427924 -1.6195568831750067 -2.051984266278175 -1.2595288681057841 -1.5766361534676294 -2.604299813887389 -4.8803189273144465 -2.4940832428428292 -2.534615490454399 -2.3078812784722946 -2.7629043301891003 -2.937100359939135 -3.693872260059983 -1.5494353438921966 -2.586533800570013 -2.207927041169096 -1.5986098142017529 -3.4763895251826904 4.387598033609458 1.3087503375237604 -0.4058677295622532 -0.9663350131391791 -0.1604609025722673 -2.8688389484378143 0.024524034504097427 0.6069426380298846 -1.0610004464994374 -1.1729876741083887 -1.0775059615155576 -1.355628853191513 -2.48514182423101 -4.116763364675936 -3.1073085555922595 -7.133299045013211 -3.516147008520466 -2.333907386011993 -0.0049107329986679115 -2.841535856064968 -3.6242810327050297 -1.8063873452221024 -4.720507959213181 -0.8931609384390589 -0.6062907664082516 -2.1109385369036953 -2.7512738862819597 -0.47872514887205336 0.6734614082885774 -1.7468205882261931 -1.80173649927631 -1.2243340568605117 -1.214240469446964 -3.1569598488747745 -0.58921864016736 -0.4629723431909952 0.013288699246958517 0.36661388932501837 -0.3991326694220472 -1.5313214294448003 -2.9865843048438765 -1.2015898642826843 0.5146733775175459 -0.6638021513768606 0.9506675826992814 0.42637729181176615 -0.45944527439114796 -0.8320200555886917 -4.787662751530191 0.3252366652694952 -0.48722733379404165 -0.41045329857502894 0.670788560586983 -1.775453657392213 -1.31554775984132 -1.3881010548336492 -2.0979826958351 0.5491238563951616 0.2529141308735006 -1.1363767295600238 -0.013435130981577106 -0.5995303607840101 0.06895549117656831 0.758404323771186 -0.9879823445282426 -1.2801067832311386 -1.7050160943910202 -4.116098266959364 -0.67836659950206 -0.47138682458114184 -0.6695766407857664 -0.5570362463105333 0.23006618989459313 -0.23862428090413715 0.4065960133851903 -1.096813403576636 0.4531763833497883 1.4137261387546274
label 14 12 0 13 3 8 6 1 17 2 4 18 11 5 19 24 21 20 25 15 7 9 16 23 22 10
nr_sv 194 79 221 230 74 153 183 71 186 131 249 75 195 49 152 96 72 185 118 88 54 16 13 32 16 68
SV
0.0 0.0 0.0 0.0 0.0 0.0 0.0 0.0 0.0 0.3385332507597777 0.0 0.0 0.0 0.0 0.0 0.0 0.4081761910521739 0.0 0.0 0.0 0.0 0.0 0.0 0.0 0.0 1:0.0 2:0.0 3:0.0 4:0.0 5:0.0 6:0.0 7:0.0 8:0.0 9:0.0 10:0.0 11:0.0 12:0.0 13:0.0 14:0.0 15:0.0 16:0.0 17:0.0 18:0.0 19:0.0 20:0.0 21:0.0 22:0.0 23:0.0 24:0.0 25:0.0 26:0.0 27:1.0 28:1.0 29:1.0 30:1.0 31:0.0 32:0.0 33:0.0 34:1.0 35:1.0 36:0.0 37:0.0 38:1.0 39:1.0 40:0.0 41:0.0 42:1.0 43:0.0 44:0.0 45:0.0 46:0.0 47:0.0 48:1.0 49:1.0 50:1.0 51:0.0 52:0.0 53:0.0 54:0.0 55:0.0 56:1.0 57:1.0 58:0.0 59:0.0 60:0.0 61:0.0 62:0.0 63:0.0 64:1.0 65:1.0 66:0.0 67:0.0 68:0.0 69:0.0 70:0.0 71:0.0 72:1.0 73:1.0 74:0.0 75:0.0 76:0.0 77:0.0 78:0.0 79:0.0 80:1.0 81:1.0 82:0.0 83:0.0 84:0.0 85:0.0 86:0.0 87:1.0 88:1.0 89:1.0 90:1.0 91:0.0 92:0.0 93:0.0 94:1.0 95:1.0 96:0.0 97:0.0 98:1.0 99:1.0 100:1.0 101:1.0 102:1.0 103:0.0 104:0.0 105:0.0 106:0.0 107:0.0 108:0.0 109:0.0 110:0.0 111:0.0 112:0.0 113:0.0 114:0.0 115:0.0 116:0.0 117:0.0 118:0.0 119:0.0 120:0.0 121:0.0 122:0.0 123:0.0 124:0.0 125:0.0 126:0.0 127:0.0 128:0.0 
0.01698277639385815 0.009813116693333901 0.94165615624748 0.0 0.0 0.0 0.0 0.0 0.0 0.0 0.0 0.0 0.0 0.0 0.0 0.0 0.0 0.0 0.0 0.0 0.0 0.0 0.0 0.0 0.0 1:0.0 2:0.0 3:0.0 4:0.0 5:0.0 6:0.0 7:0.0 8:0.0 9:0.0 10:0.0 11:0.0 12:0.0 13:0.0 14:0.0 15:0.0 16:0.0 17:0.0 18:1.0 19:1.0 20:1.0 21:0.0 22:0.0 23:0.0 24:0.0 25:1.0 26:1.0 27:0.0 28:1.0 29:1.0 30:0.0 31:0.0 32:0.0 33:1.0 34:0.0 35:0.0 36:0.0 37:1.0 38:1.0 39:0.0 40:0.0 41:1.0 42:0.0 43:0.0 44:0.0 45:0.0 46:1.0 47:1.0 48:0.0 49:1.0 50:0.0 51:0.0 52:0.0 53:0.0 54:0.0 55:1.0 56:1.0 57:1.0 58:0.0 59:0.0 60:0.0 61:0.0 62:0.0 63:0.0 64:1.0 65:1.0 66:0.0 67:0.0 68:0.0 69:0.0 70:0.0 71:0.0 72:1.0 73:1.0 74:0.0 75:0.0 76:0.0 77:0.0 78:0.0 79:0.0 80:1.0 81:1.0 82:0.0 83:0.0 84:0.0 85:0.0 86:0.0 87:0.0 88:1.0 89:1.0 90:0.0 91:0.0 92:0.0 93:0.0 94:0.0 95:0.0 96:1.0 97:1.0 98:1.0 99:0.0 100:0.0 101:0.0 102:0.0 103:0.0 104:1.0 105:0.0 106:0.0 107:1.0 108:1.0 109:1.0 110:1.0 111:1.0 112:1.0 113:0.0 114:0.0 115:0.0 116:0.0 117:0.0 118:0.0 119:0.0 120:0.0 121:0.0 122:0.0 123:0.0 124:0.0 125:0.0 126:0.0 127:0.0 128:0.0 
0.5561628796791647 0.6269094248765984 1.0 0.0 0.03819732213379243 0.0 0.0 0.16703157359762205 0.0 0.0 0.0 0.0 0.0 0.0 0.0 0.0 0.3202990171397007 0.24129159459613286 0.041374740118328174 0.0 0.0 0.0 0.024238782050150922 0.11363122063200545 0.008417881537856062 1:0.0 2:0.0 3:0.0 4:0.0 5:0.0 6:0.0 7:0.0 8:0.0 9:0.0 10:0.0 11:0.0 12:0.0 13:0.0 14:0.0 15:0.0 16:0.0 17:0.0 18:0.0 19:0.0 20:0.0 21:0.0 22:0.0 23:0.0 24:0.0 25:0.0 26:0.0 27:0.0 28:0.0 29:0.0 30:0.0 31:0.0 32:0.0 33:0.0 34:0.0 35:0.0 36:0.0 37:0.0 38:0.0 39:0.0 40:0.0 41:0.0 42:0.0 43:0.0 44:0.0 45:0.0 46:0.0 47:0.0 48:0.0 49:1.0 50:1.0 51:1.0 52:1.0 53:1.0 54:1.0 55:1.0 56:1.0 57:1.0 58:0.0 59:0.0 60:0.0 61:0.0 62:0.0 63:0.0 64:1.0 65:1.0 66:1.0 67:1.0 68:1.0 69:0.0 70:0.0 71:0.0 72:1.0 73:0.0 74:0.0 75:0.0 76:1.0 77:1.0 78:1.0 79:1.0 80:1.0 81:0.0 82:0.0 83:0.0 84:0.0 85:0.0 86:0.0 87:0.0 88:0.0 89:0.0 90:0.0 91:0.0 92:0.0 93:0.0 94:0.0 95:0.0 96:0.0 97:0.0 98:0.0 99:0.0 100:0.0 101:0.0 102:0.0 103:0.0 104:0.0 105:0.0 106:0.0 107:0.0 108:0.0 109:0.0 110:0.0 111:0.0 112:0.0 113:0.0 114:0.0 115:0.0 116:0.0 117:0.0 118:0.0 119:0.0 120:0.0 121:0.0 122:0.0 123:0.0 124:0.0 125:0.0 126:0.0 127:0.0 128:0.0 
0.0 0.40797815824128325 0.0 0.0 0.0 0.0 0.0 0.0 0.0 0.0 0.0 0.0 0.0 0.0 0.0 0.0 0.0 0.0 0.0 0.0 0.0 0.0 0.0 0.0 0.0 1:0.0 2:0.0 3:0.0 4:0.0 5:0.0 6:0.0 7:0.0 8:0.0 9:0.0 10:0.0 11:0.0 12:0.0 13:0.0 14:0.0 15:0.0 16:0.0 17:0.0 18:0.0 19:0.0 20:0.0 21:0.0 22:0.0 23:0.0 24:0.0 25:0.0 26:0.0 27:0.0 28:0.0 29:0.0 30:0.0 31:0.0 32:0.0 33:0.0 34:0.0 35:0.0 36:1.0 37:1.0 38:0.0 39:0.0 40:0.0 41:0.0 42:1.0 43:1.0 44:0.0 45:1.0 46:1.0 47:0.0 48:0.0 49:0.0 50:1.0 51:0.0 52:0.0 53:0.0 54:1.0 55:1.0 56:1.0 57:1.0 58:0.0 59:0.0 60:0.0 61:0.0 62:0.0 63:0.0 64:1.0 65:1.0 66:0.0 67:0.0 68:0.0 69:0.0 70:0.0 71:1.0 72:1.0 73:1.0 74:0.0 75:1.0 76:1.0 77:1.0 78:1.0 79:1.0 80:0.0 81:1.0 82:1.0 83:1.0 84:0.0 85:1.0 86:1.0 87:0.0 88:0.0 89:1.0 90:1.0 91:1.0 92:1.0 93:1.0 94:0.0 95:0.0 96:0.0 97:0.0 98:0.0 99:0.0 100:0.0 101:0.0 102:0.0 103:0.0 104:0.0 105:0.0 106:0.0 107:0.0 108:0.0 109:0.0 110:0.0 111:0.0 112:0.0 113:0.0 114:0.0 115:0.0 116:0.0 117:0.0 118:0.0 119:0.0 120:0.0 121:0.0 122:0.0 123:0.0 124:0.0 125:0.0 126:0.0 127:0.0 128:0.0 
0.017038704230320674 0.0 0.0 0.0 0.0 0.13529394254489643 0.0 0.0 0.0 0.0 0.041025705794324255 0.0 0.0 0.0 0.0 0.0 0.0 0.0 0.0 0.0 0.0 0.0 0.0 0.0 0.0 1:0.0 2:0.0 3:0.0 4:0.0 5:0.0 6:0.0 7:0.0 8:0.0 9:0.0 10:0.0 11:0.0 12:0.0 13:0.0 14:0.0 15:0.0 16:0.0 17:0.0 18:0.0 19:0.0 20:0.0 21:0.0 22:0.0 23:0.0 24:0.0 25:0.0 26:0.0 27:0.0 28:0.0 29:0.0 30:0.0 31:0.0 32:0.0 33:0.0 34:0.0 35:1.0 36:1.0 37:1.0 38:1.0 39:0.0 40:0.0 41:0.0 42:1.0 43:1.0 44:1.0 45:1.0 46:0.0 47:0.0 48:0.0 49:1.0 50:0.0 51:0.0 52:0.0 53:1.0 54:1.0 55:0.0 56:0.0 57:1.0 58:0.0 59:0.0 60:0.0 61:0.0 62:1.0 63:1.0 64:0.0 65:1.0 66:0.0 67:0.0 68:0.0 69:0.0 70:0.0 71:1.0 72:1.0 73:1.0 74:0.0 75:0.0 76:0.0 77:0.0 78:0.0 79:0.0 80:1.0 81:1.0 82:1.0 83:1.0 84:0.0 85:0.0 86:0.0 87:0.0 88:1.0 89:0.0 90:0.0 91:1.0 92:1.0 93:1.0 94:1.0 95:1.0 96:1.0 97:0.0 98:0.0 99:0.0 100:0.0 101:0.0 102:0.0 103:0.0 104:0.0 105:0.0 106:0.0 107:0.0 108:0.0 109:0.0 110:0.0 111:0.0 112:0.0 113:0.0 114:0.0 115:0.0 116:0.0 117:0.0 118:0.0 119:0.0 120:0.0 121:0.0 122:0.0 123:0.0 124:0.0 125:0.0 126:0.0 127:0.0 128:0.0 
0.0 0.0 0.0 0.0 0.0 0.0 0.0 0.0 0.0 0.17237573147300728 0.0 0.0 0.0 0.0 0.0 0.0 0.0 0.0 0.0 0.0 0.0 0.0 0.0 0.0 0.0 1:0.0 2:0.0 3:0.0 4:0.0 5:0.0 6:0.0 7:0.0 8:0.0 9:0.0 10:0.0 11:0.0 12:0.0 13:0.0 14:0.0 15:0.0 16:0.0 17:0.0 18:0.0 19:0.0 20:0.0 21:1.0 22:1.0 23:1.0 24:0.0 25:0.0 26:0.0 27:1.0 28:1.0 29:1.0 30:1.0 31:1.0 32:1.0 33:0.0 34:1.0 35:1.0 36:0.0 37:0.0 38:0.0 39:0.0 40:1.0 41:0.0 42:1.0 43:0.0 44:0.0 45:0.0 46:0.0 47:0.0 48:1.0 49:1.0 50:1.0 51:0.0 52:0.0 53:0.0 54:0.0 55:0.0 56:1.0 57:1.0 58:0.0 59:0.0 60:0.0 61:0.0 62:0.0 63:0.0 64:1.0 65:1.0 66:0.0 67:0.0 68:0.0 69:0.0 70:0.0 71:0.0 72:1.0 73:1.0 74:0.0 75:0.0 76:0.0 77:0.0 78:0.0 79:0.0 80:1.0 81:1.0 82:0.0 83:0.0 84:0.0 85:0.0 86:0.0 87:0.0 88:1.0 89:1.0 90:1.0 91:0.0 92:0.0 93:0.0 94:0.0 95:1.0 96:1.0 97:0.0 98:1.0 99:1.0 100:0.0 101:0.0 102:1.0 103:1.0 104:0.0 105:0.0 106:0.0 107:1.0 108:1.0 109:1.0 110:1.0 111:0.0 112:0.0 113:0.0 114:0.0 115:0.0 116:0.0 117:0.0 118:0.0 119:0.0 120:0.0 121:0.0 122:0.0 123:0.0 124:0.0 125:0.0 126:0.0 127:0.0 128:0.0 
0.0 0.558500917854022 0.3999333543800712 0.18025362237570547 0.09543243808552682 0.0 0.0 0.0 0.04800586175373103 0.0 0.0 0.04896276401028604 0.0 0.0 0.0 0.4968586897974245 1.0 0.0 0.0 0.023340524077554554 0.0 0.0 0.0 0.017130785874447715 0.11993668348030496 1:0.0 2:0.0 3:0.0 4:0.0 5:0.0 6:0.0 7:0.0 8:0.0 9:0.0 10:0.0 11:0.0 12:0.0 13:0.0 14:0.0 15:0.0 16:0.0 17:0.0 18:0.0 19:0.0 20:0.0 21:0.0 22:0.0 23:0.0 24:0.0 25:0.0 26:0.0 27:0.0 28:0.0 29:0.0 30:0.0 31:0.0 32:1.0 33:0.0 34:0.0 35:0.0 36:0.0 37:0.0 38:0.0 39:0.0 40:1.0 41:0.0 42:0.0 43:0.0 44:0.0 45:0.0 46:0.0 47:0.0 48:1.0 49:0.0 50:1.0 51:1.0 52:0.0 53:0.0 54:0.0 55:0.0 56:1.0 57:1.0 58:1.0 59:0.0 60:0.0 61:0.0 62:0.0 63:1.0 64:1.0 65:1.0 66:0.0 67:0.0 68:0.0 69:0.0 70:0.0 71:1.0 72:0.0 73:1.0 74:0.0 75:0.0 76:0.0 77:0.0 78:1.0 79:1.0 80:0.0 81:1.0 82:0.0 83:0.0 84:1.0 85:1.0 86:1.0 87:0.0 88:0.0 89:1.0 90:0.0 91:1.0 92:1.0 93:0.0 94:0.0 95:0.0 96:0.0 97:1.0 98:1.0 99:1.0 100:0.0 101:0.0 102:0.0 103:0.0 104:0.0 105:0.0 106:0.0 107:0.0 108:0.0 109:0.0 110:0.0 111:0.0 112:0.0 113:0.0 114:0.0 115:0.0 116:0.0 117:0.0 118:0.0 119:0.0 120:0.0 121:0.0 122:0.0 123:0.0 124:0.0 125:0.0 126:0.0 127:0.0 128:0.0 
0.0 0.0 0.22911895478760763 0.17052732029445264 0.0 0.0 0.0 0.0 0.0 0.0 0.04916486400318641 0.09052739653801405 0.0 0.07531798566205475 0.0 0.0 0.0 0.05614723567126015 0.0 0.0 0.0 0.03145689400994392 0.04534995684538928 0.0 0.0 1:0.0 2:0.0 3:0.0 4:0.0 5:0.0 6:0.0 7:0.0 8:0.0 9:0.0 10:0.0 11:0.0 12:0.0 13:1.0 14:1.0 15:1.0 16:1.0 17:0.0 18:0.0 19:0.0 20:0.0 21:1.0 22:0.0 23:0.0 24:1.0 25:0.0 26:0.0 27:0.0 28:0.0 29:1.0 30:0.0 31:0.0 32:1.0 33:0.0 34:1.0 35:1.0 36:1.0 37:1.0 38:0.0 39:0.0 40:1.0 41:0.0 42:1.0 43:0.0 44:0.0 45:1.0 46:0.0 47:0.0 48:1.0 49:0.0 50:1.0 51:0.0 52:0.0 53:1.0 54:0.0 55:0.0 56:1.0 57:0.0 58:1.0 59:0.0 60:0.0 61:1.0 62:0.0 63:0.0 64:1.0 65:0.0 66:1.0 67:0.0 68:0.0 69:0.0 70:0.0 71:0.0 72:1.0 73:0.0 74:1.0 75:0.0 76:0.0 77:0.0 78:0.0 79:1.0 80:1.0 81:1.0 82:1.0 83:0.0 84:0.0 85:0.0 86:0.0 87:1.0 88:0.0 89:1.0 90:0.0 91:0.0 92:0.0 93:1.0 94:1.0 95:1.0 96:0.0 97:1.0 98:0.0 99:0.0 100:0.0 101:1.0 102:0.0 103:0.0 104:0.0 105:1.0 106:0.0 107:0.0 108:0.0 109:1.0 110:0.0 111:0.0 112:0.0 113:1.0 114:1.0 115:1.0 116:1.0 117:1.0 118:0.0 119:0.0 120:0.0 121:0.0 122:0.0 123:0.0 124:0.0 125:0.0 126:0.0 127:0.0 128:0.0 
0.0 0.0 0.0 0.0 0.0 0.46184414375253113 0.0 0.0 0.0 0.0 0.0 0.0 0.0 0.0 0.0 0.0 0.7773095704983124 0.0 0.0 0.0 0.0 0.0 0.0 0.0 0.0 1:0.0 2:0.0 3:0.0 4:0.0 5:0.0 6:0.0 7:0.0 8:0.0 9:0.0 10:0.0 11:0.0 12:0.0 13:0.0 14:0.0 15:0.0 16:0.0 17:0.0 18:0.0 19:0.0 20:0.0 21:0.0 22:0.0 23:0.0 24:0.0 25:0.0 26:0.0 27:0.0 28:0.0 29:0.0 30:0.0 31:0.0 32:0.0 33:1.0 34:1.0 35:1.0 36:1.0 37:1.0 38:1.0 39:0.0 40:0.0 41:1.0 42:0.0 43:0.0 44:0.0 45:0.0 46:1.0 47:1.0 48:0.0 49:1.0 50:0.0 51:0.0 52:0.0 53:0.0 54:0.0 55:1.0 56:1.0 57:1.0 58:0.0 59:0.0 60:0.0 61:0.0 62:0.0 63:0.0 64:1.0 65:1.0 66:0.0 67:0.0 68:0.0 69:0.0 70:0.0 71:0.0 72:1.0 73:1.0 74:0.0 75:0.0 76:0.0 77:0.0 78:0.0 79:0.0 80:1.0 81:1.0 82:1.0 83:1.0 84:0.0 85:0.0 86:1.0 87:1.0 88:1.0 89:0.0 90:0.0 91:1.0 92:1.0 93:1.0 94:1.0 95:0.0 96:0.0 97:0.0 98:0.0 99:0.0 100:0.0 101:0.0 102:0.0 103:0.0 104:0.0 105:0.0 106:0.0 107:0.0 108:0.0 109:0.0 110:0.0 111:0.0 112:0.0 113:0.0 114:0.0 115:0.0 116:0.0 117:0.0 118:0.0 119:0.0 120:0.0 121:0.0 122:0.0 123:0.0 124:0.0 125:0.0 126:0.0 127:0.0 128:0.0 
0.0 0.12250589206220776 0.0 0.0 0.0 0.0 0.0 0.0 0.0 0.0 0.0 0.0 0.0 0.0 0.0 0.0 0.0 0.0 0.0 0.0 0.0 0.0 0.0 0.0 0.0 1:0.0 2:0.0 3:0.0 4:0.0 5:0.0 6:0.0 7:0.0 8:0.0 9:0.0 10:0.0 11:0.0 12:0.0 13:0.0 14:0.0 15:0.0 16:0.0 17:0.0 18:0.0 19:0.0 20:0.0 21:0.0 22:0.0 23:0.0 24:0.0 25:0.0 26:0.0 27:1.0 28:1.0 29:0.0 30:0.0 31:0.0 32:0.0 33:0.0 34:1.0 35:1.0 36:1.0 37:1.0 38:0.0 39:0.0 40:0.0 41:1.0 42:1.0 43:0.0 44:0.0 45:1.0 46:1.0 47:1.0 48:1.0 49:1.0 50:0.0 51:0.0 52:0.0 53:0.0 54:0.0 55:0.0 56:1.0 57:1.0 58:0.0 59:0.0 60:0.0 61:0.0 62:0.0 63:0.0 64:1.0 65:1.0 66:0.0 67:0.0 68:0.0 69:0.0 70:0.0 71:0.0 72:1.0 73:1.0 74:0.0 75:0.0 76:0.0 77:0.0 78:0.0 79:0.0 80:1.0 81:1.0 82:0.0 83:0.0 84:0.0 85:0.0 86:0.0 87:1.0 88:1.0 89:1.0 90:0.0 91:0.0 92:0.0 93:0.0 94:1.0 95:1.0 96:0.0 97:1.0 98:1.0 99:1.0 100:1.0 101:1.0 102:1.0 103:0.0 104:0.0 105:0.0 106:0.0 107:0.0 108:0.0 109:0.0 110:0.0 111:0.0 112:0.0 113:0.0 114:0.0 115:0.0 116:0.0 117:0.0 118:0.0 119:0.0 120:0.0 121:0.0 122:0.0 123:0.0 124:0.0 125:0.0 126:0.0 127:0.0 128:0.0 
0.0 0.0 0.0 0.0 0.0 0.0 0.0 0.0 0.0 0.04291589572482328 0.0 0.0 0.0 0.0 0.0 0.0 0.0 0.0 0.0 0.0 0.0 0.0 0.0 0.0 0.0 1:0.0 2:0.0 3:0.0 4:0.0 5:0.0 6:0.0 7:0.0 8:1.0 9:0.0 10:0.0 11:0.0 12:0.0 13:0.0 14:0.0 15:0.0 16:1.0 17:0.0 18:0.0 19:0.0 20:0.0 21:1.0 22:1.0 23:1.0 24:1.0 25:0.0 26:0.0 27:0.0 28:1.0 29:1.0 30:0.0 31:0.0 32:1.0 33:0.0 34:0.0 35:1.0 36:1.0 37:0.0 38:0.0 39:0.0 40:1.0 41:0.0 42:1.0 43:1.0 44:0.0 45:0.0 46:0.0 47:0.0 48:1.0 49:1.0 50:1.0 51:0.0 52:0.0 53:0.0 54:0.0 55:0.0 56:1.0 57:1.0 58:0.0 59:0.0 60:0.0 61:0.0 62:0.0 63:0.0 64:1.0 65:1.0 66:0.0 67:0.0 68:0.0 69:0.0 70:0.0 71:0.0 72:1.0 73:1.0 74:0.0 75:0.0 76:0.0 77:0.0 78:0.0 79:0.0 80:1.0 81:1.0 82:0.0 83:0.0 84:0.0 85:0.0 86:0.0 87:0.0 88:1.0 89:1.0 90:0.0 91:0.0 92:0.0 93:0.0 94:0.0 95:0.0 96:1.0 97:1.0 98:0.0 99:0.0 100:0.0 101:0.0 102:0.0 103:0.0 104:1.0 105:1.0 106:1.0 107:0.0 108:0.0 109:0.0 110:0.0 111:1.0 112:1.0 113:0.0 114:1.0 115:1.0 116:0.0 117:0.0 118:1.0 119:1.0 120:0.0 121:0.0 122:0.0 123:1.0 124:1.0 125:1.0 126:1.0 127:0.0 128:0.0 
0.0 0.4606593249395653 0.0 0.01292756530862449 0.0 0.40091104637432406 0.0 0.0 0.0 0.0129872361211327 0.0 0.0 0.0 0.0 0.09135077942554155 0.0 0.0 0.017922924470041415 0.0 0.0 0.0 0.0 0.0 0.031017688226300886 0.0 1:0.0 2:0.0 3:0.0 4:0.0 5:0.0 6:1.0 7:1.0 8:0.0 9:0.0 10:0.0 11:0.0 12:0.0 13:1.0 14:1.0 15:1.0 16:1.0 17:0.0 18:0.0 19:0.0 20:1.0 21:1.0 22:0.0 23:0.0 24:1.0 25:1.0 26:0.0 27:0.0 28:1.0 29:0.0 30:0.0 31:0.0 32:1.0 33:1.0 34:1.0 35:0.0 36:1.0 37:0.0 38:0.0 39:0.0 40:1.0 41:1.0 42:1.0 43:0.0 44:1.0 45:0.0 46:0.0 47:0.0 48:1.0 49:1.0 50:0.0 51:0.0 52:1.0 53:0.0 54:0.0 55:0.0 56:1.0 57:1.0 58:0.0 59:0.0 60:1.0 61:0.0 62:0.0 63:0.0 64:1.0 65:1.0 66:0.0 67:0.0 68:1.0 69:0.0 70:0.0 71:0.0 72:1.0 73:1.0 74:0.0 75:0.0 76:1.0 77:0.0 78:0.0 79:1.0 80:1.0 81:1.0 82:0.0 83:0.0 84:1.0 85:0.0 86:0.0 87:1.0 88:0.0 89:1.0 90:0.0 91:0.0 92:0.0 93:0.0 94:0.0 95:1.0 96:0.0 97:1.0 98:0.0 99:0.0 100:0.0 101:0.0 102:1.0 103:1.0 104:0.0 105:1.0 106:0.0 107:0.0 108:0.0 109:1.0 110:1.0 111:0.0 112:0.0 113:1.0 114:0.0 115:0.0 116:1.0 117:1.0 118:0.0 119:0.0 120:0.0 121:1.0 122:1.0 123:1.0 124:1.0 125:0.0 126:0.0 127:0.0 128:0.0 
0.0 0.0 0.0 0.0 0.0 0.0 0.0 0.0 0.0 0.0 0.0 0.0 0.0 0.0 0.0 0.0 0.46743363571410634 0.0 0.0 0.0 0.0 0.0 0.0 0.04624104873111745 0.0 1:0.0 2:0.0 3:0.0 4:0.0 5:0.0 6:0.0 7:0.0 8:0.0 9:0.0 10:0.0 11:0.0 12:0.0 13:0.0 14:0.0 15:0.0 16:0.0 17:0.0 18:1.0 19:1.0 20:0.0 21:0.0 22:0.0 23:0.0 24:0.0 25:1.0 26:1.0 27:1.0 28:1.0 29:1.0 30:1.0 31:0.0 32:0.0 33:1.0 34:0.0 35:0.0 36:0.0 37:0.0 38:1.0 39:1.0 40:1.0 41:1.0 42:0.0 43:0.0 44:0.0 45:0.0 46:0.0 47:0.0 48:1.0 49:1.0 50:0.0 51:0.0 52:0.0 53:0.0 54:0.0 55:0.0 56:1.0 57:1.0 58:0.0 59:0.0 60:0.0 61:0.0 62:0.0 63:0.0 64:1.0 65:1.0 66:0.0 67:0.0 68:0.0 69:0.0 70:0.0 71:0.0 72:1.0 73:1.0 74:0.0 75:0.0 76:0.0 77:0.0 78:0.0 79:0.0 80:1.0 81:1.0 82:1.0 83:0.0 84:0.0 85:0.0 86:0.0 87:1.0 88:1.0 89:0.0 90:1.0 91:0.0 92:0.0 93:0.0 94:1.0 95:1.0 96:0.0 97:0.0 98:1.0 99:1.0 100:1.0 101:1.0 102:1.0 103:0.0 104:0.0 105:0.0 106:0.0 107:0.0 108:1.0 109:1.0 110:0.0 111:0.0 112:0.0 113:0.0 114:0.0 115:0.0 116:0.0 117:0.0 118:0.0 119:0.0 120:0.0 121:0.0 122:0.0 123:0.0 124:0.0 125:0.0 126:0.0 127:0.0 128:0.0 
0.0 0.0 0.16511858797108347 0.0 0.0 0.0 0.0 0.0 0.0 0.0 0.15130976563735937 0.0 0.0 0.0 0.0 0.0 0.0 0.07018644003191944 0.085976239864276 0.0 0.0 0.0013430940035906967 0.014035860038647619 0.0 0.0 1:0.0 2:0.0 3:0.0 4:0.0 5:0.0 6:0.0 7:0.0 8:0.0 9:0.0 10:0.0 11:0.0 12:0.0 13:0.0 14:0.0 15:0.0 16:0.0 17:0.0 18:1.0 19:1.0 20:1.0 21:1.0 22:1.0 23:0.0 24:0.0 25:1.0 26:1.0 27:0.0 28:0.0 29:0.0 30:1.0 31:1.0 32:0.0 33:1.0 34:1.0 35:1.0 36:1.0 37:0.0 38:0.0 39:1.0 40:1.0 41:1.0 42:1.0 43:0.0 44:0.0 45:0.0 46:0.0 47:0.0 48:1.0 49:0.0 50:1.0 51:0.0 52:0.0 53:0.0 54:0.0 55:0.0 56:1.0 57:0.0 58:1.0 59:0.0 60:0.0 61:0.0 62:0.0 63:0.0 64:1.0 65:0.0 66:1.0 67:0.0 68:0.0 69:0.0 70:0.0 71:0.0 72:1.0 73:0.0 74:1.0 75:0.0 76:0.0 77:0.0 78:0.0 79:0.0 80:1.0 81:0.0 82:1.0 83:0.0 84:0.0 85:0.0 86:0.0 87:0.0 88:1.0 89:0.0 90:1.0 91:0.0 92:0.0 93:0.0 94:0.0 95:1.0 96:1.0 97:0.0 98:1.0 99:1.0 100:0.0 101:0.0 102:0.0 103:1.0 104:0.0 105:0.0 106:0.0 107:1.0 108:1.0 109:1.0 110:1.0 111:1.0 112:0.0 113:0.0 114:0.0 115:0.0 116:0.0 117:0.0 118:0.0 119:0.0 120:0.0 121:0.0 122:0.0 123:0.0 124:0.0 125:0.0 126:0.0 127:0.0 128:0.0 
0.0 1.0 0.22532733569941957 0.0 0.0 0.0 0.0 0.0 0.0 0.0 0.0 0.0 0.0 0.0 0.0 0.0 0.026805947910503305 0.0 0.0 0.0 0.0 0.0 0.0 0.0 0.0 1:0.0 2:0.0 3:0.0 4:0.0 5:0.0 6:0.0 7:0.0 8:0.0 9:0.0 10:0.0 11:0.0 12:0.0 13:0.0 14:0.0 15:0.0 16:0.0 17:0.0 18:0.0 19:0.0 20:0.0 21:0.0 22:0.0 23:0.0 24:0.0 25:0.0 26:1.0 27:1.0 28:1.0 29:0.0 30:0.0 31:0.0 32:0.0 33:0.0 34:1.0 35:0.0 36:1.0 37:1.0 38:0.0 39:0.0 40:0.0 41:1.0 42:1.0 43:0.0 44:0.0 45:1.0 46:1.0 47:0.0 48:0.0 49:1.0 50:0.0 51:0.0 52:0.0 53:0.0 54:1.0 55:1.0 56:0.0 57:1.0 58:0.0 59:0.0 60:0.0 61:0.0 62:1.0 63:1.0 64:1.0 65:1.0 66:0.0 67:0.0 68:0.0 69:0.0 70:0.0 71:1.0 72:1.0 73:1.0 74:0.0 75:0.0 76:0.0 77:0.0 78:0.0 79:1.0 80:1.0 81:1.0 82:1.0 83:0.0 84:0.0 85:0.0 86:0.0 87:1.0 88:1.0 89:0.0 90:1.0 91:1.0 92:0.0 93:0.0 94:0.0 95:1.0 96:1.0 97:0.0 98:0.0 99:1.0 100:1.0 101:1.0 102:1.0 103:1.0 104:1.0 105:0.0 106:0.0 107:0.0 108:0.0 109:0.0 110:0.0 111:0.0 112:0.0 113:0.0 114:0.0 115:0.0 116:0.0 117:0.0 118:0.0 119:0.0 120:0.0 121:0.0 122:0.0 123:0.0 124:0.0 125:0.0 126:0.0 127:0.0 128:0.0 
0.0 0.030458928998729345 0.0 0.0 0.0 0.0 0.0 0.0 0.0 0.0 0.0 0.0 0.0 0.0 0.0 0.0 0.0 0.0 0.0 0.0 0.0 0.0 0.0 0.0 0.0 1:0.0 2:0.0 3:0.0 4:0.0 5:0.0 6:0.0 7:0.0 8:0.0 9:0.0 10:0.0 11:0.0 12:0.0 13:0.0 14:0.0 15:0.0 16:0.0 17:0.0 18:0.0 19:0.0 20:0.0 21:0.0 22:0.0 23:0.0 24:0.0 25:0.0 26:0.0 27:0.0 28:1.0 29:0.0 30:0.0 31:0.0 32:0.0 33:0.0 34:0.0 35:1.0 36:1.0 37:1.0 38:1.0 39:0.0 40:0.0 41:0.0 42:1.0 43:0.0 44:0.0 45:0.0 46:1.0 47:1.0 48:0.0 49:1.0 50:0.0 51:0.0 52:0.0 53:0.0 54:0.0 55:1.0 56:1.0 57:1.0 58:0.0 59:0.0 60:0.0 61:0.0 62:0.0 63:0.0 64:1.0 65:1.0 66:0.0 67:0.0 68:0.0 69:0.0 70:0.0 71:0.0 72:1.0 73:1.0 74:0.0 75:0.0 76:0.0 77:0.0 78:0.0 79:0.0 80:1.0 81:1.0 82:0.0 83:0.0 84:0.0 85:0.0 86:0.0 87:0.0 88:1.0 89:1.0 90:0.0 91:0.0 92:0.0 93:0.0 94:0.0 95:1.0 96:1.0 97:1.0 98:1.0 99:1.0 100:1.0 101:1.0 102:1.0 103:1.0 104:0.0 105:0.0 106:0.0 107:0.0 108:0.0 109:0.0 110:0.0 111:0.0 112:0.0 113:0.0 114:0.0 115:0.0 116:0.0 117:0.0 118:0.0 119:0.0 120:0.0 121:0.0 122:0.0 123:0.0 124:0.0 125:0.0 126:0.0 127:0.0 128:0.0 
0.0 0.0 0.0 0.0 0.0 0.14410049212330397 0.0 0.0 0.0 0.0 0.021095720184859786 0.0 0.0 0.0 0.02533295741317952 0.0 0.0 0.003675728574297176 0.0 0.0 0.0 0.0 0.0 0.0 0.0 1:0.0 2:0.0 3:0.0 4:0.0 5:0.0 6:0.0 7:0.0 8:0.0 9:0.0 10:0.0 11:0.0 12:0.0 13:0.0 14:1.0 15:1.0 16:0.0 17:0.0 18:0.0 19:0.0 20:0.0 21:1.0 22:1.0 23:1.0 24:1.0 25:0.0 26:0.0 27:0.0 28:1.0 29:1.0 30:0.0 31:0.0 32:1.0 33:0.0 34:0.0 35:0.0 36:1.0 37:1.0 38:0.0 39:0.0 40:1.0 41:0.0 42:0.0 43:1.0 44:1.0 45:0.0 46:0.0 47:0.0 48:1.0 49:0.0 50:0.0 51:1.0 52:0.0 53:0.0 54:0.0 55:0.0 56:1.0 57:0.0 58:1.0 59:1.0 60:0.0 61:0.0 62:0.0 63:0.0 64:1.0 65:0.0 66:1.0 67:0.0 68:0.0 69:0.0 70:0.0 71:1.0 72:1.0 73:1.0 74:1.0 75:0.0 76:0.0 77:0.0 78:0.0 79:1.0 80:0.0 81:1.0 82:0.0 83:0.0 84:0.0 85:0.0 86:1.0 87:1.0 88:0.0 89:1.0 90:0.0 91:0.0 92:0.0 93:1.0 94:1.0 95:0.0 96:0.0 97:1.0 98:0.0 99:0.0 100:1.0 101:1.0 102:0.0 103:0.0 104:0.0 105:1.0 106:1.0 107:1.0 108:1.0 109:0.0 110:0.0 111:0.0 112:0.0 113:0.0 114:1.0 115:0.0 116:0.0 117:0.0 118:0.0 119:0.0 120:0.0 121:0.0 122:0.0 123:0.0 124:0.0 125:0.0 126:0.0 127:0.0 128:0.0 
0.0 1.0 0.3190578128434318 0.00499259025159203 0.0 0.40402283364125324 0.0 0.0 0.0 1.0 0.03072168700009978 0.0 0.0 0.0 0.012423798104101108 0.0 0.22301329985411047 0.04869614477060707 0.10139182153931069 0.0 0.0 0.0 0.0 0.0 0.0 1:0.0 2:0.0 3:0.0 4:0.0 5:0.0 6:0.0 7:0.0 8:0.0 9:0.0 10:0.0 11:0.0 12:0.0 13:0.0 14:0.0 15:0.0 16:0.0 17:0.0 18:0.0 19:0.0 20:0.0 21:1.0 22:1.0 23:1.0 24:1.0 25:0.0 26:0.0 27:1.0 28:1.0 29:1.0 30:1.0 31:0.0 32:1.0 33:0.0 34:0.0 35:1.0 36:0.0 37:0.0 38:0.0 39:0.0 40:1.0 41:0.0 42:1.0 43:1.0 44:0.0 45:0.0 46:0.0 47:1.0 48:1.0 49:0.0 50:1.0 51:0.0 52:0.0 53:0.0 54:0.0 55:1.0 56:0.0 57:1.0 58:1.0 59:0.0 60:0.0 61:0.0 62:1.0 63:1.0 64:0.0 65:1.0 66:0.0 67:0.0 68:0.0 69:1.0 70:1.0 71:0.0 72:0.0 73:1.0 74:0.0 75:0.0 76:0.0 77:1.0 78:0.0 79:0.0 80:0.0 81:1.0 82:0.0 83:0.0 84:1.0 85:1.0 86:0.0 87:0.0 88:0.0 89:1.0 90:0.0 91:0.0 92:1.0 93:0.0 94:0.0 95:0.0 96:0.0 97:1.0 98:0.0 99:1.0 100:1.0 101:0.0 102:0.0 103:0.0 104:0.0 105:1.0 106:1.0 107:1.0 108:0.0 109:0.0 110:0.0 111:0.0 112:0.0 113:0.0 114:0.0 115:0.0 116:0.0 117:0.0 118:0.0 119:0.0 120:0.0 121:0.0 122:0.0 123:0.0 124:0.0 125:0.0 126:0.0 127:0.0 128:0.0 
0.0 0.0 0.0 0.0 0.0 0.0 0.0 0.0 0.4025228645474897 0.0 0.0 0.0 0.0 0.0 0.0 0.0 0.0 0.0 0.0 0.0 0.0 0.0 0.0 0.0 0.0 1:0.0 2:0.0 3:0.0 4:0.0 5:0.0 6:0.0 7:0.0 8:0.0 9:0.0 10:0.0 11:0.0 12:0.0 13:0.0 14:0.0 15:0.0 16:0.0 17:0.0 18:0.0 19:0.0 20:0.0 21:0.0 22:0.0 23:0.0 24:0.0 25:0.0 26:0.0 27:0.0 28:0.0 29:0.0 30:0.0 31:0.0 32:0.0 33:0.0 34:0.0 35:0.0 36:0.0 37:1.0 38:1.0 39:0.0 40:0.0 41:0.0 42:0.0 43:1.0 44:1.0 45:1.0 46:1.0 47:1.0 48:0.0 49:1.0 50:1.0 51:1.0 52:0.0 53:0.0 54:0.0 55:1.0 56:1.0 57:1.0 58:0.0 59:0.0 60:0.0 61:0.0 62:0.0 63:0.0 64:1.0 65:1.0 66:0.0 67:0.0 68:0.0 69:0.0 70:0.0 71:0.0 72:1.0 73:1.0 74:0.0 75:0.0 76:0.0 77:0.0 78:0.0 79:0.0 80:1.0 81:1.0 82:0.0 83:0.0 84:0.0 85:0.0 86:0.0 87:1.0 88:1.0 89:1.0 90:1.0 91:1.0 92:1.0 93:1.0 94:1.0 95:1.0 96:0.0 97:0.0 98:0.0 99:0.0 100:0.0 101:0.0 102:0.0 103:0.0 104:0.0 105:0.0 106:0.0 107:0.0 108:0.0 109:0.0 110:0.0 111:0.0 112:0.0 113:0.0 114:0.0 115:0.0 116:0.0 117:0.0 118:0.0 119:0.0 120:0.0 121:0.0 122:0.0 123:0.0 124:0.0 125:0.0 126:0.0 127:0.0 128:0.0 
0.0 0.0 0.8062929857099208 0.0 0.0 0.0 0.1284614634097559 0.10162973471082495 0.0 0.0 0.11362558319698667 0.0 0.0 0.0 0.11355637417345771 0.0 0.0 0.0 0.007246358597325168 0.01974335418450157 0.0 0.002984493302451263 1.6818963737619526E-4 0.0 0.05325510492815868 1:0.0 2:0.0 3:0.0 4:0.0 5:0.0 6:0.0 7:0.0 8:0.0 9:0.0 10:0.0 11:0.0 12:0.0 13:0.0 14:0.0 15:0.0 16:0.0 17:0.0 18:0.0 19:0.0 20:0.0 21:0.0 22:0.0 23:0.0 24:0.0 25:0.0 26:1.0 27:1.0 28:1.0 29:1.0 30:1.0 31:0.0 32:0.0 33:1.0 34:1.0 35:0.0 36:0.0 37:0.0 38:1.0 39:1.0 40:0.0 41:1.0 42:0.0 43:1.0 44:1.0 45:0.0 46:0.0 47:1.0 48:1.0 49:0.0 50:1.0 51:1.0 52:0.0 53:0.0 54:0.0 55:0.0 56:1.0 57:0.0 58:1.0 59:0.0 60:0.0 61:0.0 62:0.0 63:0.0 64:1.0 65:0.0 66:1.0 67:0.0 68:0.0 69:0.0 70:0.0 71:0.0 72:1.0 73:0.0 74:1.0 75:0.0 76:0.0 77:0.0 78:0.0 79:0.0 80:1.0 81:0.0 82:1.0 83:0.0 84:0.0 85:0.0 86:0.0 87:0.0 88:1.0 89:0.0 90:1.0 91:0.0 92:0.0 93:0.0 94:0.0 95:1.0 96:1.0 97:0.0 98:1.0 99:1.0 100:1.0 101:1.0 102:1.0 103:1.0 104:0.0 105:0.0 106:0.0 107:0.0 108:0.0 109:0.0 110:0.0 111:0.0 112:0.0 113:0.0 114:0.0 115:0.0 116:0.0 117:0.0 118:0.0 119:0.0 120:0.0 121:0.0 122:0.0 123:0.0 124:0.0 125:0.0 126:0.0 127:0.0 128:0.0 
0.0 0.02500664025383249 0.6542639672473654 0.0 0.0 0.0 0.0 0.0 0.0 0.0 0.044285102043781256 0.0 0.0 0.0 0.0 0.0 0.0 0.0 0.0 0.0 0.0 0.0 0.015433113520084108 0.0 0.0 1:0.0 2:0.0 3:0.0 4:0.0 5:0.0 6:0.0 7:0.0 8:0.0 9:0.0 10:0.0 11:0.0 12:0.0 13:0.0 14:0.0 15:0.0 16:0.0 17:0.0 18:0.0 19:0.0 20:0.0 21:0.0 22:0.0 23:0.0 24:0.0 25:0.0 26:0.0 27:0.0 28:0.0 29:0.0 30:0.0 31:0.0 32:0.0 33:0.0 34:0.0 35:1.0 36:1.0 37:1.0 38:1.0 39:1.0 40:1.0 41:1.0 42:1.0 43:1.0 44:1.0 45:0.0 46:0.0 47:0.0 48:1.0 49:1.0 50:0.0 51:1.0 52:0.0 53:0.0 54:0.0 55:0.0 56:1.0 57:1.0 58:1.0 59:1.0 60:0.0 61:0.0 62:0.0 63:0.0 64:1.0 65:0.0 66:1.0 67:0.0 68:0.0 69:0.0 70:0.0 71:0.0 72:1.0 73:0.0 74:1.0 75:0.0 76:0.0 77:0.0 78:0.0 79:1.0 80:1.0 81:0.0 82:1.0 83:0.0 84:0.0 85:1.0 86:1.0 87:1.0 88:0.0 89:0.0 90:1.0 91:1.0 92:1.0 93:1.0 94:0.0 95:0.0 96:0.0 97:0.0 98:0.0 99:0.0 100:0.0 101:0.0 102:0.0 103:0.0 104:0.0 105:0.0 106:0.0 107:0.0 108:0.0 109:0.0 110:0.0 111:0.0 112:0.0 113:0.0 114:0.0 115:0.0 116:0.0 117:0.0 118:0.0 119:0.0 120:0.0 121:0.0 122:0.0 123:0.0 124:0.0 125:0.0 126:0.0 127:0.0 128:0.0 
0.0 0.0 0.0 0.0 0.0 0.020981949669087705 0.0 0.0 0.0 0.0 0.0 0.0 0.0 0.0 0.0 0.0 0.0 0.0 0.0 0.0 0.0 0.0 0.0 0.0 0.0 1:0.0 2:0.0 3:0.0 4:0.0 5:0.0 6:0.0 7:0.0 8:0.0 9:0.0 10:0.0 11:0.0 12:0.0 13:0.0 14:0.0 15:0.0 16:0.0 17:0.0 18:0.0 19:0.0 20:0.0 21:0.0 22:0.0 23:0.0 24:0.0 25:1.0 26:1.0 27:1.0 28:1.0 29:0.0 30:0.0 31:0.0 32:0.0 33:1.0 34:0.0 35:0.0 36:1.0 37:1.0 38:1.0 39:0.0 40:0.0 41:1.0 42:0.0 43:0.0 44:0.0 45:0.0 46:1.0 47:1.0 48:0.0 49:1.0 50:0.0 51:0.0 52:0.0 53:0.0 54:0.0 55:1.0 56:1.0 57:1.0 58:0.0 59:0.0 60:0.0 61:0.0 62:0.0 63:0.0 64:1.0 65:1.0 66:0.0 67:0.0 68:0.0 69:0.0 70:0.0 71:0.0 72:1.0 73:1.0 74:0.0 75:0.0 76:0.0 77:0.0 78:0.0 79:0.0 80:1.0 81:1.0 82:0.0 83:0.0 84:0.0 85:0.0 86:0.0 87:0.0 88:1.0 89:1.0 90:1.0 91:0.0 92:0.0 93:0.0 94:0.0 95:1.0 96:1.0 97:0.0 98:1.0 99:1.0 100:1.0 101:1.0 102:1.0 103:1.0 104:0.0 105:0.0 106:0.0 107:0.0 108:0.0 109:0.0 110:0.0 111:0.0 112:0.0 113:0.0 114:0.0 115:0.0 116:0.0 117:0.0 118:0.0 119:0.0 120:0.0 121:0.0 122:0.0 123:0.0 124:0.0 125:0.0 126:0.0 127:0.0 128:0.0 
0.04165778223775179 0.4187906237245913 0.07248289843983373 0.04623311733114391 0.0 0.0 0.009675198756908879 0.0 0.0 0.0 0.0 0.0 0.0 0.0 0.0 0.0 0.0 0.0 0.0 0.0 0.0 0.0 0.0 0.0 0.0 1:0.0 2:0.0 3:0.0 4:0.0 5:0.0 6:0.0 7:0.0 8:0.0 9:0.0 10:1.0 11:1.0 12:0.0 13:0.0 14:0.0 15:0.0 16:0.0 17:0.0 18:0.0 19:1.0 20:0.0 21:0.0 22:0.0 23:0.0 24:0.0 25:0.0 26:0.0 27:1.0 28:1.0 29:0.0 30:0.0 31:0.0 32:0.0 33:0.0 34:1.0 35:0.0 36:1.0 37:1.0 38:0.0 39:0.0 40:0.0 41:0.0 42:1.0 43:0.0 44:0.0 45:1.0 46:1.0 47:0.0 48:0.0 49:0.0 50:1.0 51:0.0 52:0.0 53:0.0 54:1.0 55:0.0 56:0.0 57:1.0 58:1.0 59:0.0 60:0.0 61:0.0 62:1.0 63:1.0 64:0.0 65:1.0 66:0.0 67:0.0 68:0.0 69:0.0 70:0.0 71:1.0 72:0.0 73:1.0 74:0.0 75:0.0 76:0.0 77:0.0 78:0.0 79:1.0 80:1.0 81:1.0 82:0.0 83:0.0 84:0.0 85:0.0 86:0.0 87:0.0 88:1.0 89:1.0 90:0.0 91:0.0 92:0.0 93:0.0 94:0.0 95:0.0 96:1.0 97:1.0 98:0.0 99:0.0 100:0.0 101:0.0 102:0.0 103:0.0 104:1.0 105:1.0 106:1.0 107:0.0 108:0.0 109:0.0 110:1.0 111:1.0 112:1.0 113:0.0 114:1.0 115:1.0 116:1.0 117:1.0 118:1.0 119:0.0 120:0.0 121:0.0 122:0.0 123:0.0 124:0.0 125:0.0 126:0.0 127:0.0 128:0.0 
0.0 0.0 0.0 0.07546272918360482 0.0 0.0 0.0 0.0 0.0 0.0 0.0 0.0 0.0 0.0 0.0 0.0 0.0 0.0 0.0 0.0 0.0 0.0 0.0 0.0 0.0 1:0.0 2:0.0 3:0.0 4:0.0 5:0.0 6:0.0 7:0.0 8:0.0 9:0.0 10:0.0 11:0.0 12:0.0 13:0.0 14:0.0 15:0.0 16:0.0 17:0.0 18:0.0 19:0.0 20:0.0 21:0.0 22:0.0 23:0.0 24:0.0 25:0.0 26:1.0 27:1.0 28:1.0 29:1.0 30:1.0 31:0.0 32:1.0 33:0.0 34:1.0 35:0.0 36:0.0 37:0.0 38:1.0 39:1.0 40:1.0 41:0.0 42:1.0 43:0.0 44:0.0 45:0.0 46:0.0 47:1.0 48:1.0 49:1.0 50:1.0 51:0.0 52:0.0 53:1.0 54:1.0 55:1.0 56:1.0 57:1.0 58:0.0 59:0.0 60:0.0 61:0.0 62:0.0 63:0.0 64:1.0 65:1.0 66:0.0 67:0.0 68:0.0 69:0.0 70:0.0 71:1.0 72:1.0 73:1.0 74:0.0 75:0.0 76:0.0 77:0.0 78:0.0 79:1.0 80:0.0 81:1.0 82:1.0 83:0.0 84:0.0 85:0.0 86:0.0 87:1.0 88:0.0 89:0.0 90:1.0 91:0.0 92:0.0 93:0.0 94:0.0 95:1.0 96:0.0 97:0.0 98:1.0 99:1.0 100:1.0 101:1.0 102:1.0 103:1.0 104:0.0 105:0.0 106:0.0 107:0.0 108:0.0 109:0.0 110:0.0 111:0.0 112:0.0 113:0.0 114:0.0 115:0.0 116:0.0 117:0.0 118:0.0 119:0.0 120:0.0 121:0.0 122:0.0 123:0.0 124:0.0 125:0.0 126:0.0 127:0.0 128:0.0 
0.0 0.0 0.0 0.0 0.0 0.0 0.0 0.0 0.0 0.0 0.0 0.0 0.0 0.0067892334185798466 0.0 0.0 0.0 0.0 0.0 0.06270156590524821 0.0 0.0 0.0 0.03755447793832399 0.0 1:0.0 2:0.0 3:0.0 4:0.0 5:0.0 6:0.0 7:0.0 8:0.0 9:0.0 10:0.0 11:0.0 12:0.0 13:0.0 14:0.0 15:0.0 16:0.0 17:0.0 18:0.0 19:0.0 20:0.0 21:0.0 22:0.0 23:0.0 24:0.0 25:0.0 26:0.0 27:0.0 28:0.0 29:0.0 30:1.0 31:0.0 32:0.0 33:1.0 34:1.0 35:1.0 36:1.0 37:1.0 38:1.0 39:0.0 40:0.0 41:1.0 42:0.0 43:0.0 44:0.0 45:0.0 46:0.0 47:1.0 48:0.0 49:1.0 50:0.0 51:0.0 52:0.0 53:0.0 54:0.0 55:1.0 56:1.0 57:1.0 58:0.0 59:0.0 60:0.0 61:0.0 62:0.0 63:0.0 64:1.0 65:1.0 66:0.0 67:0.0 68:0.0 69:0.0 70:0.0 71:0.0 72:1.0 73:1.0 74:1.0 75:0.0 76:0.0 77:0.0 78:0.0 79:0.0 80:1.0 81:0.0 82:1.0 83:1.0 84:0.0 85:0.0 86:0.0 87:0.0 88:1.0 89:0.0 90:0.0 91:1.0 92:1.0 93:1.0 94:0.0 95:1.0 96:1.0 97:0.0 98:0.0 99:0.0 100:0.0 101:1.0 102:1.0 103:1.0 104:0.0 105:0.0 106:0.0 107:0.0 108:0.0 109:0.0 110:0.0 111:0.0 112:0.0 113:0.0 114:0.0 115:0.0 116:0.0 117:0.0 118:0.0 119:0.0 120:0.0 121:0.0 122:0.0 123:0.0 124:0.0 125:0.0 126:0.0 127:0.0 128:0.0 
0.0 0.0 0.0 0.04708293617383068 0.0 0.019487811318954606 0.0 0.0 0.0 0.0 0.03015155896985985 0.02833473539481623 0.030267131663751577 0.0 0.0 0.0 0.0 0.0 0.0 0.0 0.0 0.0 0.0 0.0 0.0 1:0.0 2:0.0 3:0.0 4:0.0 5:0.0 6:1.0 7:1.0 8:0.0 9:0.0 10:0.0 11:0.0 12:0.0 13:0.0 14:1.0 15:1.0 16:0.0 17:0.0 18:0.0 19:0.0 20:0.0 21:1.0 22:1.0 23:1.0 24:0.0 25:0.0 26:0.0 27:0.0 28:0.0 29:1.0 30:0.0 31:1.0 32:1.0 33:0.0 34:0.0 35:0.0 36:1.0 37:0.0 38:0.0 39:0.0 40:1.0 41:0.0 42:0.0 43:1.0 44:1.0 45:0.0 46:0.0 47:0.0 48:1.0 49:0.0 50:0.0 51:1.0 52:0.0 53:0.0 54:0.0 55:0.0 56:1.0 57:0.0 58:1.0 59:1.0 60:0.0 61:0.0 62:0.0 63:0.0 64:1.0 65:0.0 66:1.0 67:0.0 68:0.0 69:0.0 70:0.0 71:0.0 72:1.0 73:1.0 74:1.0 75:0.0 76:0.0 77:0.0 78:0.0 79:0.0 80:1.0 81:1.0 82:0.0 83:0.0 84:0.0 85:0.0 86:0.0 87:0.0 88:1.0 89:1.0 90:0.0 91:0.0 92:0.0 93:0.0 94:0.0 95:1.0 96:1.0 97:1.0 98:0.0 99:0.0 100:0.0 101:0.0 102:1.0 103:1.0 104:0.0 105:1.0 106:0.0 107:0.0 108:0.0 109:1.0 110:1.0 111:0.0 112:0.0 113:1.0 114:1.0 115:1.0 116:1.0 117:1.0 118:0.0 119:0.0 120:0.0 121:1.0 122:1.0 123:0.0 124:0.0 125:0.0 126:0.0 127:0.0 128:0.0 
0.0 0.0 0.0 0.24322666270246254 0.19882454116796205 0.5617916497207208 0.24786074117512139 0.05223546663887563 0.21733126749881754 0.5631709472992198 0.21683436167195602 0.35384027189510825 0.2561138739814169 0.46664654984703113 0.18814467097671 0.0 0.11621682472668628 0.270642142703731 0.2163622117098976 0.09942418126892312 0.06994475388628524 0.07626707021505609 0.02958247040228573 0.0 0.01977793003426894 1:0.0 2:0.0 3:1.0 4:1.0 5:1.0 6:1.0 7:0.0 8:0.0 9:0.0 10:0.0 11:1.0 12:0.0 13:0.0 14:1.0 15:0.0 16:0.0 17:0.0 18:0.0 19:1.0 20:0.0 21:0.0 22:1.0 23:0.0 24:0.0 25:0.0 26:0.0 27:1.0 28:0.0 29:0.0 30:1.0 31:0.0 32:0.0 33:0.0 34:0.0 35:1.0 36:0.0 37:0.0 38:1.0 39:0.0 40:0.0 41:0.0 42:0.0 43:1.0 44:0.0 45:0.0 46:1.0 47:0.0 48:0.0 49:0.0 50:0.0 51:1.0 52:0.0 53:0.0 54:1.0 55:0.0 56:0.0 57:0.0 58:0.0 59:1.0 60:0.0 61:0.0 62:1.0 63:0.0 64:0.0 65:0.0 66:0.0 67:1.0 68:0.0 69:0.0 70:1.0 71:0.0 72:0.0 73:0.0 74:0.0 75:1.0 76:0.0 77:0.0 78:1.0 79:0.0 80:0.0 81:0.0 82:0.0 83:1.0 84:0.0 85:0.0 86:1.0 87:0.0 88:0.0 89:0.0 90:0.0 91:1.0 92:0.0 93:0.0 94:1.0 95:0.0 96:0.0 97:0.0 98:0.0 99:1.0 100:0.0 101:0.0 102:1.0 103:0.0 104:0.0 105:0.0 106:0.0 107:1.0 108:0.0 109:0.0 110:1.0 111:0.0 112:0.0 113:0.0 114:0.0 115:1.0 116:0.0 117:0.0 118:1.0 119:0.0 120:0.0 121:0.0 122:0.0 123:1.0 124:1.0 125:1.0 126:1.0 127:0.0 128:0.0 
0.0 0.0 0.0 0.0 0.0 0.0 0.0 0.0 0.0 0.0 0.0 0.0 0.0 0.0 0.0 0.061265691568277734 0.0 0.0 0.0 0.0 0.0 0.0 0.0 0.05925997118335581 0.0 1:0.0 2:0.0 3:0.0 4:0.0 5:0.0 6:0.0 7:0.0 8:0.0 9:0.0 10:0.0 11:0.0 12:0.0 13:0.0 14:0.0 15:0.0 16:0.0 17:0.0 18:0.0 19:0.0 20:0.0 21:0.0 22:0.0 23:0.0 24:0.0 25:0.0 26:0.0 27:0.0 28:0.0 29:0.0 30:0.0 31:0.0 32:0.0 33:1.0 34:1.0 35:1.0 36:1.0 37:1.0 38:1.0 39:1.0 40:1.0 41:1.0 42:0.0 43:0.0 44:0.0 45:0.0 46:0.0 47:0.0 48:1.0 49:1.0 50:0.0 51:0.0 52:0.0 53:0.0 54:0.0 55:0.0 56:1.0 57:1.0 58:0.0 59:0.0 60:0.0 61:0.0 62:0.0 63:0.0 64:1.0 65:1.0 66:0.0 67:0.0 68:0.0 69:0.0 70:0.0 71:0.0 72:1.0 73:1.0 74:1.0 75:0.0 76:0.0 77:0.0 78:0.0 79:1.0 80:1.0 81:0.0 82:1.0 83:1.0 84:0.0 85:0.0 86:1.0 87:1.0 88:0.0 89:0.0 90:0.0 91:1.0 92:1.0 93:1.0 94:1.0 95:0.0 96:0.0 97:0.0 98:0.0 99:0.0 100:1.0 101:1.0 102:0.0 103:0.0 104:0.0 105:0.0 106:0.0 107:0.0 108:0.0 109:0.0 110:0.0 111:0.0 112:0.0 113:0.0 114:0.0 115:0.0 116:0.0 117:0.0 118:0.0 119:0.0 120:0.0 121:0.0 122:0.0 123:0.0 124:0.0 125:0.0 126:0.0 127:0.0 128:0.0 
0.0 0.0 0.0 0.0 0.0 0.0 0.0 0.0 0.0 0.0 0.0 0.0 0.0 0.0 0.0 0.0 0.3830907939155611 0.0 0.0 0.0 0.020518535435387848 0.0 0.0 0.0 0.0 1:0.0 2:1.0 3:1.0 4:1.0 5:1.0 6:0.0 7:0.0 8:0.0 9:0.0 10:1.0 11:0.0 12:0.0 13:1.0 14:0.0 15:0.0 16:0.0 17:1.0 18:1.0 19:0.0 20:0.0 21:0.0 22:0.0 23:0.0 24:0.0 25:1.0 26:0.0 27:0.0 28:0.0 29:0.0 30:0.0 31:1.0 32:0.0 33:1.0 34:0.0 35:0.0 36:0.0 37:0.0 38:0.0 39:0.0 40:1.0 41:1.0 42:0.0 43:0.0 44:0.0 45:0.0 46:0.0 47:0.0 48:1.0 49:1.0 50:0.0 51:0.0 52:0.0 53:0.0 54:0.0 55:0.0 56:1.0 57:1.0 58:0.0 59:0.0 60:0.0 61:0.0 62:0.0 63:0.0 64:1.0 65:1.0 66:0.0 67:0.0 68:0.0 69:0.0 70:0.0 71:0.0 72:1.0 73:1.0 74:0.0 75:0.0 76:0.0 77:0.0 78:0.0 79:0.0 80:1.0 81:1.0 82:0.0 83:0.0 84:0.0 85:0.0 86:0.0 87:0.0 88:1.0 89:1.0 90:0.0 91:0.0 92:0.0 93:0.0 94:0.0 95:0.0 96:1.0 97:1.0 98:0.0 99:0.0 100:0.0 101:0.0 102:0.0 103:0.0 104:1.0 105:1.0 106:1.0 107:0.0 108:0.0 109:0.0 110:0.0 111:0.0 112:1.0 113:0.0 114:1.0 115:0.0 116:0.0 117:0.0 118:0.0 119:1.0 120:1.0 121:0.0 122:1.0 123:1.0 124:1.0 125:1.0 126:1.0 127:1.0 128:0.0 
0.0 0.0 0.0 0.0 0.0 0.3511218324878439 0.0 0.0 0.0 0.0 0.0 0.0 0.0 0.0 0.0 0.0 0.08423235142874097 0.0 0.0 0.0 0.0 0.0 0.0 0.0 0.0 1:0.0 2:0.0 3:0.0 4:0.0 5:0.0 6:1.0 7:1.0 8:1.0 9:0.0 10:0.0 11:0.0 12:0.0 13:1.0 14:1.0 15:1.0 16:0.0 17:0.0 18:0.0 19:0.0 20:1.0 21:1.0 22:0.0 23:1.0 24:1.0 25:0.0 26:0.0 27:1.0 28:1.0 29:0.0 30:0.0 31:0.0 32:1.0 33:0.0 34:0.0 35:1.0 36:0.0 37:0.0 38:0.0 39:0.0 40:1.0 41:0.0 42:0.0 43:1.0 44:0.0 45:0.0 46:0.0 47:0.0 48:1.0 49:0.0 50:1.0 51:0.0 52:0.0 53:0.0 54:0.0 55:0.0 56:1.0 57:0.0 58:1.0 59:0.0 60:0.0 61:0.0 62:0.0 63:0.0 64:1.0 65:1.0 66:1.0 67:0.0 68:0.0 69:0.0 70:0.0 71:0.0 72:1.0 73:1.0 74:0.0 75:0.0 76:0.0 77:0.0 78:0.0 79:0.0 80:1.0 81:1.0 82:0.0 83:0.0 84:0.0 85:0.0 86:0.0 87:1.0 88:1.0 89:1.0 90:0.0 91:0.0 92:0.0 93:0.0 94:0.0 95:1.0 96:0.0 97:1.0 98:0.0 99:0.0 100:0.0 101:0.0 102:1.0 103:1.0 104:0.0 105:1.0 106:0.0 107:0.0 108:0.0 109:0.0 110:1.0 111:0.0 112:0.0 113:1.0 114:0.0 115:0.0 116:0.0 117:1.0 118:1.0 119:0.0 120:0.0 121:1.0 122:1.0 123:1.0 124:1.0 125:1.0 126:0.0 127:0.0 128:0.0 
0.0 0.0 0.0 0.0 0.0 0.0 0.0 0.0 0.0 0.0 0.0 0.0 0.0 0.007751546707361954 0.0 0.0 0.0 0.0 0.0 0.0 0.0 0.0 0.0 0.0 0.0 1:0.0 2:0.0 3:0.0 4:0.0 5:0.0 6:0.0 7:0.0 8:0.0 9:0.0 10:0.0 11:0.0 12:0.0 13:0.0 14:0.0 15:0.0 16:0.0 17:0.0 18:0.0 19:0.0 20:0.0 21:0.0 22:0.0 23:0.0 24:0.0 25:0.0 26:0.0 27:0.0 28:0.0 29:0.0 30:0.0 31:0.0 32:0.0 33:0.0 34:1.0 35:1.0 36:1.0 37:1.0 38:0.0 39:0.0 40:0.0 41:0.0 42:0.0 43:0.0 44:0.0 45:1.0 46:1.0 47:1.0 48:0.0 49:0.0 50:1.0 51:0.0 52:0.0 53:0.0 54:0.0 55:1.0 56:1.0 57:1.0 58:1.0 59:0.0 60:0.0 61:0.0 62:0.0 63:0.0 64:1.0 65:1.0 66:0.0 67:0.0 68:0.0 69:0.0 70:0.0 71:0.0 72:1.0 73:1.0 74:0.0 75:0.0 76:0.0 77:0.0 78:0.0 79:0.0 80:1.0 81:1.0 82:0.0 83:0.0 84:0.0 85:0.0 86:0.0 87:1.0 88:1.0 89:1.0 90:1.0 91:1.0 92:1.0 93:1.0 94:1.0 95:1.0 96:0.0 97:0.0 98:0.0 99:0.0 100:0.0 101:0.0 102:0.0 103:0.0 104:0.0 105:0.0 106:0.0 107:0.0 108:0.0 109:0.0 110:0.0 111:0.0 112:0.0 113:0.0 114:0.0 115:0.0 116:0.0 117:0.0 118:0.0 119:0.0 120:0.0 121:0.0 122:0.0 123:0.0 124:0.0 125:0.0 126:0.0 127:0.0 128:0.0 
0.0 0.0 0.03834669436522797 0.0 0.0 0.0 0.0 0.0 0.0 0.0 0.0 0.0 0.0 0.0 0.0 0.0 0.0 0.0 0.0 0.0 0.0 0.0 0.0 0.0 0.0 1:0.0 2:0.0 3:0.0 4:0.0 5:0.0 6:0.0 7:0.0 8:0.0 9:0.0 10:0.0 11:0.0 12:0.0 13:1.0 14:1.0 15:0.0 16:0.0 17:0.0 18:0.0 19:0.0 20:1.0 21:1.0 22:1.0 23:1.0 24:0.0 25:0.0 26:0.0 27:1.0 28:1.0 29:0.0 30:0.0 31:1.0 32:0.0 33:0.0 34:1.0 35:1.0 36:0.0 37:0.0 38:0.0 39:1.0 40:1.0 41:0.0 42:1.0 43:0.0 44:0.0 45:0.0 46:0.0 47:0.0 48:1.0 49:1.0 50:1.0 51:0.0 52:0.0 53:0.0 54:0.0 55:0.0 56:1.0 57:1.0 58:0.0 59:0.0 60:0.0 61:0.0 62:0.0 63:0.0 64:1.0 65:1.0 66:0.0 67:0.0 68:0.0 69:0.0 70:0.0 71:0.0 72:1.0 73:1.0 74:0.0 75:0.0 76:0.0 77:0.0 78:0.0 79:0.0 80:1.0 81:1.0 82:0.0 83:0.0 84:0.0 85:0.0 86:0.0 87:0.0 88:1.0 89:1.0 90:0.0 91:0.0 92:0.0 93:0.0 94:0.0 95:0.0 96:1.0 97:1.0 98:1.0 99:0.0 100:0.0 101:0.0 102:0.0 103:1.0 104:1.0 105:0.0 106:1.0 107:1.0 108:0.0 109:0.0 110:0.0 111:1.0 112:0.0 113:0.0 114:0.0 115:0.0 116:1.0 117:1.0 118:1.0 119:0.0 120:0.0 121:0.0 122:0.0 123:0.0 124:0.0 125:0.0 126:0.0 127:0.0 128:0.0 
0.0 0.0 0.0 0.0 0.0 0.0 0.0 0.0 0.0 0.0 0.0 0.0 0.0 0.0 0.0 0.0 0.0 0.0 0.0 0.0 0.0 0.0 0.0 0.01910146364741904 0.0 1:0.0 2:0.0 3:0.0 4:0.0 5:0.0 6:0.0 7:0.0 8:0.0 9:0.0 10:0.0 11:0.0 12:0.0 13:0.0 14:0.0 15:0.0 16:0.0 17:0.0 18:0.0 19:0.0 20:0.0 21:0.0 22:0.0 23:0.0 24:0.0 25:0.0 26:0.0 27:0.0 28:0.0 29:0.0 30:0.0 31:0.0 32:0.0 33:0.0 34:1.0 35:1.0 36:1.0 37:1.0 38:1.0 39:1.0 40:1.0 41:1.0 42:1.0 43:0.0 44:0.0 45:0.0 46:0.0 47:0.0 48:1.0 49:1.0 50:0.0 51:0.0 52:0.0 53:0.0 54:0.0 55:0.0 56:1.0 57:1.0 58:0.0 59:0.0 60:0.0 61:0.0 62:0.0 63:0.0 64:1.0 65:1.0 66:0.0 67:0.0 68:0.0 69:0.0 70:0.0 71:0.0 72:1.0 73:1.0 74:0.0 75:0.0 76:0.0 77:0.0 78:0.0 79:0.0 80:1.0 81:1.0 82:0.0 83:0.0 84:0.0 85:0.0 86:0.0 87:1.0 88:1.0 89:1.0 90:1.0 91:1.0 92:1.0 93:1.0 94:1.0 95:1.0 96:0.0 97:0.0 98:0.0 99:0.0 100:0.0 101:0.0 102:0.0 103:0.0 104:0.0 105:0.0 106:0.0 107:0.0 108:0.0 109:0.0 110:0.0 111:0.0 112:0.0 113:0.0 114:0.0 115:0.0 116:0.0 117:0.0 118:0.0 119:0.0 120:0.0 121:0.0 122:0.0 123:0.0 124:0.0 125:0.0 126:0.0 127:0.0 128:0.0 
0.0 0.0 0.0 0.0 0.0 0.0 0.0 0.0 0.0 0.0 0.0 0.0 0.0 0.0 0.0 0.0 0.48019889671121563 0.0 0.0 0.0 0.0 0.0 0.0 0.0 0.0 1:0.0 2:0.0 3:0.0 4:0.0 5:0.0 6:0.0 7:0.0 8:0.0 9:0.0 10:0.0 11:0.0 12:0.0 13:0.0 14:0.0 15:0.0 16:0.0 17:0.0 18:0.0 19:0.0 20:0.0 21:0.0 22:0.0 23:0.0 24:0.0 25:0.0 26:0.0 27:1.0 28:1.0 29:1.0 30:1.0 31:1.0 32:0.0 33:0.0 34:1.0 35:1.0 36:0.0 37:0.0 38:0.0 39:0.0 40:0.0 41:1.0 42:1.0 43:0.0 44:0.0 45:0.0 46:0.0 47:0.0 48:1.0 49:1.0 50:0.0 51:0.0 52:0.0 53:0.0 54:0.0 55:0.0 56:1.0 57:1.0 58:0.0 59:0.0 60:0.0 61:0.0 62:0.0 63:0.0 64:1.0 65:1.0 66:0.0 67:0.0 68:0.0 69:0.0 70:0.0 71:0.0 72:1.0 73:1.0 74:0.0 75:0.0 76:0.0 77:0.0 78:0.0 79:1.0 80:1.0 81:1.0 82:0.0 83:0.0 84:0.0 85:0.0 86:0.0 87:1.0 88:0.0 89:1.0 90:0.0 91:0.0 92:0.0 93:1.0 94:1.0 95:1.0 96:0.0 97:1.0 98:1.0 99:1.0 100:1.0 101:1.0 102:0.0 103:0.0 104:0.0 105:0.0 106:0.0 107:0.0 108:0.0 109:0.0 110:0.0 111:0.0 112:0.0 113:0.0 114:0.0 115:0.0 116:0.0 117:0.0 118:0.0 119:0.0 120:0.0 121:0.0 122:0.0 123:0.0 124:0.0 125:0.0 126:0.0 127:0.0 128:0.0 
0.0 0.0 1.0 0.0 0.0 0.0 0.0 0.11366788846333513 0.0 1.0 0.0 0.0 0.0 0.0 0.0 0.0 0.6540265686619582 0.0 0.005586254375981229 0.0 0.0 0.0 0.0 0.0 0.0 1:0.0 2:0.0 3:0.0 4:0.0 5:0.0 6:0.0 7:0.0 8:0.0 9:0.0 10:0.0 11:0.0 12:0.0 13:0.0 14:0.0 15:0.0 16:0.0 17:0.0 18:0.0 19:0.0 20:0.0 21:0.0 22:0.0 23:0.0 24:0.0 25:0.0 26:0.0 27:0.0 28:0.0 29:0.0 30:0.0 31:0.0 32:0.0 33:0.0 34:1.0 35:1.0 36:1.0 37:1.0 38:1.0 39:1.0 40:1.0 41:1.0 42:1.0 43:0.0 44:0.0 45:0.0 46:0.0 47:0.0 48:1.0 49:1.0 50:1.0 51:0.0 52:0.0 53:0.0 54:0.0 55:0.0 56:1.0 57:1.0 58:1.0 59:0.0 60:0.0 61:0.0 62:0.0 63:0.0 64:1.0 65:1.0 66:1.0 67:0.0 68:0.0 69:0.0 70:0.0 71:0.0 72:1.0 73:0.0 74:1.0 75:0.0 76:0.0 77:0.0 78:0.0 79:0.0 80:1.0 81:0.0 82:1.0 83:0.0 84:0.0 85:0.0 86:0.0 87:1.0 88:1.0 89:0.0 90:1.0 91:1.0 92:1.0 93:1.0 94:1.0 95:1.0 96:0.0 97:0.0 98:0.0 99:0.0 100:0.0 101:0.0 102:0.0 103:0.0 104:0.0 105:0.0 106:0.0 107:0.0 108:0.0 109:0.0 110:0.0 111:0.0 112:0.0 113:0.0 114:0.0 115:0.0 116:0.0 117:0.0 118:0.0 119:0.0 120:0.0 121:0.0 122:0.0 123:0.0 124:0.0 125:0.0 126:0.0 127:0.0 128:0.0 
0.0 0.0 0.0 0.07895931643177347 0.0 0.0 0.0 0.0 0.0 0.0 0.0 0.0 0.0 0.0 0.0 0.0 0.0 0.0 0.0 0.0 0.0 0.0 0.0 0.0 0.0 1:0.0 2:0.0 3:0.0 4:0.0 5:0.0 6:0.0 7:0.0 8:0.0 9:0.0 10:0.0 11:0.0 12:0.0 13:0.0 14:0.0 15:0.0 16:0.0 17:0.0 18:0.0 19:0.0 20:0.0 21:0.0 22:0.0 23:0.0 24:0.0 25:0.0 26:0.0 27:0.0 28:0.0 29:0.0 30:0.0 31:0.0 32:0.0 33:0.0 34:0.0 35:0.0 36:0.0 37:0.0 38:1.0 39:1.0 40:1.0 41:0.0 42:0.0 43:0.0 44:0.0 45:1.0 46:1.0 47:0.0 48:1.0 49:0.0 50:0.0 51:0.0 52:1.0 53:1.0 54:0.0 55:0.0 56:1.0 57:0.0 58:0.0 59:1.0 60:1.0 61:0.0 62:0.0 63:1.0 64:1.0 65:0.0 66:1.0 67:1.0 68:0.0 69:0.0 70:1.0 71:1.0 72:0.0 73:1.0 74:1.0 75:0.0 76:1.0 77:1.0 78:1.0 79:0.0 80:0.0 81:1.0 82:0.0 83:1.0 84:1.0 85:0.0 86:0.0 87:0.0 88:0.0 89:1.0 90:1.0 91:1.0 92:0.0 93:0.0 94:0.0 95:0.0 96:0.0 97:0.0 98:0.0 99:0.0 100:0.0 101:0.0 102:0.0 103:0.0 104:0.0 105:0.0 106:0.0 107:0.0 108:0.0 109:0.0 110:0.0 111:0.0 112:0.0 113:0.0 114:0.0 115:0.0 116:0.0 117:0.0 118:0.0 119:0.0 120:0.0 121:0.0 122:0.0 123:0.0 124:0.0 125:0.0 126:0.0 127:0.0 128:0.0 
0.0 0.0 0.0 0.055208978727461964 0.0 0.48476563829358355 0.0 0.0 0.0 0.0 0.0 0.0 0.0 0.0 0.0 0.0 0.0 0.0 0.0 0.0 0.0 0.0 0.0 0.0 0.0 1:0.0 2:0.0 3:0.0 4:0.0 5:0.0 6:0.0 7:0.0 8:0.0 9:0.0 10:0.0 11:0.0 12:0.0 13:0.0 14:0.0 15:0.0 16:0.0 17:0.0 18:0.0 19:0.0 20:0.0 21:0.0 22:0.0 23:0.0 24:0.0 25:0.0 26:0.0 27:0.0 28:1.0 29:1.0 30:0.0 31:0.0 32:0.0 33:0.0 34:0.0 35:1.0 36:1.0 37:1.0 38:1.0 39:1.0 40:1.0 41:0.0 42:1.0 43:1.0 44:0.0 45:0.0 46:0.0 47:0.0 48:1.0 49:0.0 50:1.0 51:0.0 52:0.0 53:0.0 54:0.0 55:0.0 56:1.0 57:0.0 58:1.0 59:0.0 60:0.0 61:0.0 62:0.0 63:0.0 64:1.0 65:1.0 66:1.0 67:0.0 68:0.0 69:0.0 70:0.0 71:1.0 72:1.0 73:1.0 74:0.0 75:0.0 76:0.0 77:0.0 78:1.0 79:1.0 80:0.0 81:1.0 82:0.0 83:0.0 84:0.0 85:1.0 86:1.0 87:0.0 88:0.0 89:1.0 90:0.0 91:0.0 92:1.0 93:1.0 94:0.0 95:0.0 96:0.0 97:1.0 98:1.0 99:1.0 100:1.0 101:0.0 102:0.0 103:0.0 104:0.0 105:0.0 106:0.0 107:0.0 108:0.0 109:0.0 110:0.0 111:0.0 112:0.0 113:0.0 114:0.0 115:0.0 116:0.0 117:0.0 118:0.0 119:0.0 120:0.0 121:0.0 122:0.0 123:0.0 124:0.0 125:0.0 126:0.0 127:0.0 128:0.0 
0.3895540215688772 0.8931363341919735 0.2037722897597621 0.025012122000255082 0.0 0.0 0.0372654435018102 0.028075038323632763 0.0 0.0 0.39584501916422005 0.03925468366451844 0.039337308459408346 0.0447723400857066 0.06551368131775759 0.12769482787230746 0.9838718537483212 0.2921874910027621 0.0 0.0 0.002048170253267453 0.03081998518326247 0.059046233895804254 0.012122326627949624 0.0 1:0.0 2:0.0 3:0.0 4:0.0 5:0.0 6:0.0 7:0.0 8:0.0 9:0.0 10:0.0 11:0.0 12:0.0 13:0.0 14:0.0 15:0.0 16:0.0 17:0.0 18:0.0 19:0.0 20:0.0 21:0.0 22:0.0 23:0.0 24:0.0 25:0.0 26:0.0 27:0.0 28:0.0 29:0.0 30:0.0 31:0.0 32:0.0 33:0.0 34:1.0 35:0.0 36:0.0 37:0.0 38:0.0 39:0.0 40:0.0 41:1.0 42:1.0 43:1.0 44:1.0 45:0.0 46:0.0 47:0.0 48:0.0 49:1.0 50:0.0 51:0.0 52:1.0 53:1.0 54:0.0 55:0.0 56:0.0 57:1.0 58:0.0 59:0.0 60:0.0 61:1.0 62:1.0 63:1.0 64:0.0 65:1.0 66:0.0 67:0.0 68:0.0 69:0.0 70:0.0 71:1.0 72:1.0 73:1.0 74:1.0 75:0.0 76:0.0 77:0.0 78:0.0 79:0.0 80:1.0 81:0.0 82:0.0 83:1.0 84:1.0 85:1.0 86:0.0 87:1.0 88:1.0 89:0.0 90:0.0 91:0.0 92:0.0 93:1.0 94:1.0 95:0.0 96:0.0 97:0.0 98:0.0 99:0.0 100:0.0 101:0.0 102:0.0 103:0.0 104:0.0 105:0.0 106:0.0 107:0.0 108:0.0 109:0.0 110:0.0 111:0.0 112:0.0 113:0.0 114:0.0 115:0.0 116:0.0 117:0.0 118:0.0 119:0.0 120:0.0 121:0.0 122:0.0 123:0.0 124:0.0 125:0.0 126:0.0 127:0.0 128:0.0 
0.010838976641506475 0.0 0.30093008395249454 0.0 0.0 0.0 0.04734415369210841 0.0 0.0 0.0 0.0 0.0 0.0 0.0 0.0 0.0 0.05248094859093261 0.0 0.0 0.0 0.026396866460209337 0.0 0.0 0.0 0.0 1:0.0 2:0.0 3:0.0 4:0.0 5:0.0 6:0.0 7:1.0 8:0.0 9:0.0 10:0.0 11:0.0 12:0.0 13:0.0 14:0.0 15:1.0 16:0.0 17:0.0 18:0.0 19:0.0 20:0.0 21:0.0 22:0.0 23:1.0 24:1.0 25:0.0 26:0.0 27:0.0 28:0.0 29:0.0 30:0.0 31:0.0 32:1.0 33:0.0 34:0.0 35:0.0 36:0.0 37:1.0 38:0.0 39:0.0 40:1.0 41:0.0 42:0.0 43:1.0 44:1.0 45:1.0 46:0.0 47:0.0 48:1.0 49:0.0 50:1.0 51:1.0 52:0.0 53:0.0 54:0.0 55:0.0 56:1.0 57:1.0 58:1.0 59:0.0 60:0.0 61:0.0 62:0.0 63:0.0 64:1.0 65:1.0 66:0.0 67:0.0 68:0.0 69:0.0 70:0.0 71:0.0 72:1.0 73:1.0 74:0.0 75:0.0 76:0.0 77:0.0 78:0.0 79:0.0 80:1.0 81:1.0 82:0.0 83:0.0 84:0.0 85:0.0 86:0.0 87:0.0 88:1.0 89:1.0 90:0.0 91:0.0 92:0.0 93:0.0 94:0.0 95:0.0 96:1.0 97:1.0 98:0.0 99:0.0 100:0.0 101:0.0 102:0.0 103:1.0 104:1.0 105:1.0 106:0.0 107:0.0 108:0.0 109:0.0 110:0.0 111:1.0 112:0.0 113:1.0 114:0.0 115:0.0 116:0.0 117:1.0 118:1.0 119:1.0 120:0.0 121:1.0 122:1.0 123:1.0 124:1.0 125:1.0 126:0.0 127:0.0 128:0.0 
0.0 0.0 0.0 0.025050131320412766 0.04574007239909302 0.5779152586875766 0.008395374649635249 0.07306073996898532 0.056314495795794096 0.05927232475144425 0.052398383503676656 0.10399695751228717 0.05247108169326035 0.038885241072609295 0.030471539144215107 0.0 0.0 0.040838262131682755 0.15325637617311394 0.0 0.0 0.0 0.008323492609529217 0.0 0.06531404759495689 1:0.0 2:1.0 3:1.0 4:1.0 5:1.0 6:1.0 7:0.0 8:0.0 9:0.0 10:0.0 11:1.0 12:1.0 13:1.0 14:1.0 15:1.0 16:0.0 17:0.0 18:0.0 19:1.0 20:0.0 21:0.0 22:0.0 23:1.0 24:0.0 25:0.0 26:0.0 27:1.0 28:0.0 29:0.0 30:0.0 31:1.0 32:0.0 33:0.0 34:0.0 35:1.0 36:0.0 37:0.0 38:0.0 39:1.0 40:0.0 41:0.0 42:0.0 43:1.0 44:0.0 45:0.0 46:0.0 47:1.0 48:0.0 49:0.0 50:1.0 51:1.0 52:0.0 53:0.0 54:0.0 55:1.0 56:0.0 57:0.0 58:1.0 59:0.0 60:0.0 61:0.0 62:0.0 63:1.0 64:0.0 65:0.0 66:1.0 67:0.0 68:0.0 69:0.0 70:0.0 71:1.0 72:0.0 73:0.0 74:1.0 75:0.0 76:0.0 77:0.0 78:0.0 79:1.0 80:0.0 81:0.0 82:1.0 83:0.0 84:0.0 85:0.0 86:0.0 87:1.0 88:0.0 89:0.0 90:1.0 91:0.0 92:0.0 93:0.0 94:1.0 95:0.0 96:0.0 97:0.0 98:1.0 99:0.0 100:0.0 101:0.0 102:1.0 103:0.0 104:0.0 105:0.0 106:1.0 107:0.0 108:0.0 109:1.0 110:0.0 111:0.0 112:0.0 113:0.0 114:1.0 115:0.0 116:1.0 117:1.0 118:0.0 119:0.0 120:0.0 121:0.0 122:1.0 123:1.0 124:1.0 125:0.0 126:0.0 127:0.0 128:0.0 
0.015638298932979727 0.6503838556094589 0.0 0.0 0.0 0.17298149369084856 0.0 0.0 0.14021856291263451 0.0 0.0 0.0 0.0 0.0 0.0 0.0 0.0 0.0 0.0 0.0 0.004252368204572685 0.0 0.0 0.0 0.0 1:0.0 2:0.0 3:0.0 4:0.0 5:0.0 6:0.0 7:0.0 8:0.0 9:0.0 10:0.0 11:0.0 12:0.0 13:0.0 14:0.0 15:0.0 16:0.0 17:0.0 18:0.0 19:0.0 20:0.0 21:0.0 22:1.0 23:0.0 24:0.0 25:0.0 26:0.0 27:0.0 28:0.0 29:1.0 30:1.0 31:0.0 32:0.0 33:0.0 34:0.0 35:0.0 36:1.0 37:1.0 38:1.0 39:0.0 40:0.0 41:0.0 42:0.0 43:1.0 44:1.0 45:0.0 46:1.0 47:0.0 48:0.0 49:0.0 50:1.0 51:1.0 52:0.0 53:0.0 54:1.0 55:1.0 56:0.0 57:1.0 58:1.0 59:0.0 60:0.0 61:0.0 62:0.0 63:1.0 64:0.0 65:1.0 66:0.0 67:0.0 68:0.0 69:0.0 70:0.0 71:1.0 72:1.0 73:1.0 74:0.0 75:0.0 76:0.0 77:0.0 78:0.0 79:0.0 80:1.0 81:1.0 82:0.0 83:0.0 84:0.0 85:0.0 86:0.0 87:0.0 88:1.0 89:1.0 90:1.0 91:0.0 92:0.0 93:0.0 94:0.0 95:0.0 96:1.0 97:0.0 98:1.0 99:1.0 100:1.0 101:0.0 102:0.0 103:0.0 104:1.0 105:0.0 106:0.0 107:0.0 108:1.0 109:1.0 110:1.0 111:1.0 112:1.0 113:0.0 114:0.0 115:0.0 116:0.0 117:0.0 118:0.0 119:0.0 120:0.0 121:0.0 122:0.0 123:0.0 124:0.0 125:0.0 126:0.0 127:0.0 128:0.0 
0.0 0.0 0.0 0.0 0.0 0.0 0.0 0.0 0.0 0.0 0.0 0.0 0.0 0.0 0.0 0.0 0.024063239381000644 0.0 0.029921016474163162 0.0 0.0 0.0054749343215855515 0.0 0.0 0.0 1:0.0 2:1.0 3:1.0 4:1.0 5:1.0 6:0.0 7:0.0 8:0.0 9:1.0 10:1.0 11:0.0 12:0.0 13:1.0 14:1.0 15:0.0 16:0.0 17:1.0 18:0.0 19:0.0 20:0.0 21:0.0 22:1.0 23:1.0 24:0.0 25:1.0 26:0.0 27:0.0 28:0.0 29:0.0 30:0.0 31:1.0 32:0.0 33:1.0 34:0.0 35:0.0 36:0.0 37:0.0 38:0.0 39:0.0 40:1.0 41:1.0 42:0.0 43:0.0 44:0.0 45:0.0 46:0.0 47:0.0 48:1.0 49:1.0 50:0.0 51:0.0 52:0.0 53:0.0 54:0.0 55:0.0 56:1.0 57:1.0 58:0.0 59:0.0 60:0.0 61:0.0 62:0.0 63:0.0 64:1.0 65:1.0 66:0.0 67:0.0 68:0.0 69:0.0 70:0.0 71:0.0 72:1.0 73:1.0 74:0.0 75:0.0 76:0.0 77:0.0 78:0.0 79:0.0 80:1.0 81:1.0 82:0.0 83:0.0 84:0.0 85:0.0 86:0.0 87:0.0 88:1.0 89:1.0 90:0.0 91:0.0 92:0.0 93:0.0 94:0.0 95:0.0 96:1.0 97:1.0 98:0.0 99:0.0 100:0.0 101:0.0 102:0.0 103:0.0 104:1.0 105:0.0 106:1.0 107:1.0 108:0.0 109:0.0 110:0.0 111:0.0 112:1.0 113:0.0 114:0.0 115:1.0 116:1.0 117:1.0 118:0.0 119:1.0 120:1.0 121:0.0 122:0.0 123:0.0 124:0.0 125:1.0 126:1.0 127:1.0 128:0.0 
0.0 0.03658154515173238 0.0 0.0 0.0 0.0 0.0 0.0 0.0 0.0 0.0 0.018342564756053916 0.0 0.0 0.0 0.0 0.0491103347182206 0.0 0.0 0.0 0.007931423370600288 0.0 0.0 0.0 0.0 1:0.0 2:0.0 3:0.0 4:0.0 5:1.0 6:0.0 7:0.0 8:0.0 9:0.0 10:0.0 11:0.0 12:1.0 13:1.0 14:0.0 15:0.0 16:0.0 17:0.0 18:0.0 19:1.0 20:1.0 21:1.0 22:0.0 23:0.0 24:0.0 25:0.0 26:1.0 27:1.0 28:0.0 29:1.0 30:1.0 31:0.0 32:0.0 33:0.0 34:1.0 35:0.0 36:0.0 37:0.0 38:1.0 39:0.0 40:0.0 41:1.0 42:1.0 43:0.0 44:0.0 45:0.0 46:1.0 47:1.0 48:0.0 49:1.0 50:0.0 51:0.0 52:0.0 53:0.0 54:0.0 55:1.0 56:0.0 57:1.0 58:0.0 59:0.0 60:0.0 61:0.0 62:0.0 63:1.0 64:0.0 65:1.0 66:0.0 67:0.0 68:0.0 69:0.0 70:0.0 71:1.0 72:0.0 73:1.0 74:0.0 75:0.0 76:0.0 77:0.0 78:0.0 79:1.0 80:1.0 81:1.0 82:0.0 83:0.0 84:0.0 85:0.0 86:0.0 87:0.0 88:1.0 89:1.0 90:0.0 91:0.0 92:0.0 93:0.0 94:0.0 95:0.0 96:1.0 97:1.0 98:1.0 99:0.0 100:0.0 101:0.0 102:0.0 103:1.0 104:1.0 105:0.0 106:1.0 107:1.0 108:0.0 109:0.0 110:0.0 111:1.0 112:0.0 113:0.0 114:0.0 115:1.0 116:1.0 117:0.0 118:1.0 119:1.0 120:0.0 121:0.0 122:0.0 123:0.0 124:1.0 125:1.0 126:1.0 127:0.0 128:0.0 
0.0 0.0 0.10466572177981918 0.0 0.0 0.0 0.0 0.0 0.0 0.0 0.050494663117999126 0.0 0.0019297297525201085 0.0 0.0 0.0 0.0 0.0 0.0 0.0 0.0 0.0 0.05002981726006772 0.0 0.0 1:0.0 2:0.0 3:0.0 4:0.0 5:0.0 6:0.0 7:1.0 8:0.0 9:0.0 10:0.0 11:0.0 12:0.0 13:0.0 14:1.0 15:1.0 16:0.0 17:0.0 18:0.0 19:0.0 20:0.0 21:0.0 22:1.0 23:1.0 24:0.0 25:0.0 26:0.0 27:0.0 28:0.0 29:1.0 30:1.0 31:1.0 32:0.0 33:0.0 34:0.0 35:0.0 36:0.0 37:1.0 38:0.0 39:1.0 40:1.0 41:0.0 42:0.0 43:0.0 44:1.0 45:1.0 46:0.0 47:0.0 48:1.0 49:0.0 50:0.0 51:0.0 52:1.0 53:0.0 54:0.0 55:0.0 56:1.0 57:0.0 58:0.0 59:1.0 60:1.0 61:0.0 62:0.0 63:0.0 64:1.0 65:0.0 66:0.0 67:1.0 68:0.0 69:0.0 70:0.0 71:0.0 72:1.0 73:0.0 74:1.0 75:1.0 76:0.0 77:0.0 78:0.0 79:0.0 80:1.0 81:0.0 82:1.0 83:0.0 84:0.0 85:0.0 86:0.0 87:0.0 88:1.0 89:1.0 90:1.0 91:0.0 92:0.0 93:0.0 94:0.0 95:1.0 96:1.0 97:1.0 98:0.0 99:0.0 100:0.0 101:0.0 102:0.0 103:1.0 104:0.0 105:1.0 106:0.0 107:0.0 108:0.0 109:0.0 110:1.0 111:0.0 112:0.0 113:1.0 114:0.0 115:0.0 116:1.0 117:1.0 118:1.0 119:0.0 120:0.0 121:1.0 122:1.0 123:1.0 124:1.0 125:0.0 126:0.0 127:0.0 128:0.0 
0.0 0.0 0.0 0.02004511120569032 0.0230498472348079 0.4129267794213738 0.10774226019713055 0.0 0.0 0.0 0.0637202491793976 0.0 0.018310225058166683 0.26102936062111404 0.020729288036895232 0.0 0.0 0.26972499973201036 0.0 0.1967691761008473 0.0 0.05320941061760746 0.02254729297449837 0.0 0.028772872516824022 1:1.0 2:1.0 3:0.0 4:1.0 5:0.0 6:0.0 7:0.0 8:0.0 9:1.0 10:1.0 11:1.0 12:0.0 13:0.0 14:0.0 15:0.0 16:0.0 17:0.0 18:0.0 19:1.0 20:1.0 21:0.0 22:0.0 23:0.0 24:0.0 25:0.0 26:0.0 27:1.0 28:1.0 29:1.0 30:0.0 31:0.0 32:0.0 33:0.0 34:0.0 35:1.0 36:0.0 37:1.0 38:0.0 39:0.0 40:0.0 41:0.0 42:0.0 43:1.0 44:0.0 45:0.0 46:1.0 47:0.0 48:0.0 49:0.0 50:0.0 51:1.0 52:0.0 53:0.0 54:1.0 55:1.0 56:0.0 57:0.0 58:0.0 59:1.0 60:0.0 61:0.0 62:0.0 63:1.0 64:0.0 65:0.0 66:0.0 67:1.0 68:0.0 69:0.0 70:0.0 71:1.0 72:0.0 73:0.0 74:0.0 75:1.0 76:0.0 77:0.0 78:0.0 79:1.0 80:1.0 81:0.0 82:0.0 83:1.0 84:0.0 85:0.0 86:0.0 87:0.0 88:1.0 89:0.0 90:0.0 91:1.0 92:0.0 93:0.0 94:0.0 95:0.0 96:1.0 97:0.0 98:0.0 99:1.0 100:1.0 101:0.0 102:0.0 103:0.0 104:1.0 105:0.0 106:0.0 107:0.0 108:1.0 109:0.0 110:0.0 111:0.0 112:1.0 113:0.0 114:0.0 115:0.0 116:1.0 117:1.0 118:0.0 119:0.0 120:1.0 121:0.0 122:0.0 123:0.0 124:0.0 125:1.0 126:1.0 127:1.0 128:1.0 
0.0 0.0 0.0 0.0 0.0 0.0 0.05508515792818255 0.0 0.0 0.24067460920170827 0.0 0.0 0.0 0.0 0.0 0.0 0.0 0.0 0.0 0.0 0.0 0.0 0.0 0.0 0.0 1:0.0 2:0.0 3:0.0 4:0.0 5:0.0 6:0.0 7:0.0 8:0.0 9:0.0 10:0.0 11:0.0 12:0.0 13:1.0 14:1.0 15:0.0 16:0.0 17:0.0 18:0.0 19:1.0 20:1.0 21:1.0 22:1.0 23:1.0 24:1.0 25:0.0 26:1.0 27:1.0 28:0.0 29:0.0 30:0.0 31:0.0 32:1.0 33:0.0 34:1.0 35:1.0 36:1.0 37:0.0 38:0.0 39:0.0 40:1.0 41:1.0 42:1.0 43:1.0 44:0.0 45:0.0 46:0.0 47:0.0 48:1.0 49:1.0 50:1.0 51:1.0 52:0.0 53:0.0 54:0.0 55:0.0 56:1.0 57:1.0 58:1.0 59:0.0 60:0.0 61:0.0 62:0.0 63:0.0 64:1.0 65:1.0 66:1.0 67:0.0 68:0.0 69:0.0 70:0.0 71:0.0 72:1.0 73:1.0 74:1.0 75:0.0 76:0.0 77:0.0 78:0.0 79:1.0 80:1.0 81:1.0 82:0.0 83:0.0 84:0.0 85:0.0 86:1.0 87:1.0 88:0.0 89:1.0 90:0.0 91:0.0 92:0.0 93:1.0 94:1.0 95:0.0 96:0.0 97:1.0 98:0.0 99:0.0 100:1.0 101:1.0 102:0.0 103:0.0 104:0.0 105:1.0 106:1.0 107:1.0 108:1.0 109:0.0 110:0.0 111:0.0 112:0.0 113:1.0 114:1.0 115:1.0 116:0.0 117:0.0 118:0.0 119:0.0 120:0.0 121:0.0 122:0.0 123:0.0 124:0.0 125:0.0 126:0.0 127:0.0 128:0.0 
0.1697740712589424 1.0 0.9526836324566219 0.018832859330705422 0.03653583212778724 0.26954381843656694 0.13146113619754513 0.0 0.042624735851346 0.6127127385320141 0.0 0.0 0.0 0.0 0.0 0.0 0.0196464612501853 0.0016196103245538138 0.0 0.11775813293452148 0.0 0.0 0.06016820749734186 0.0 0.05326964026180773 1:0.0 2:0.0 3:0.0 4:0.0 5:0.0 6:0.0 7:0.0 8:0.0 9:0.0 10:0.0 11:0.0 12:0.0 13:0.0 14:0.0 15:0.0 16:0.0 17:0.0 18:0.0 19:0.0 20:0.0 21:0.0 22:0.0 23:0.0 24:0.0 25:0.0 26:0.0 27:0.0 28:0.0 29:0.0 30:0.0 31:0.0 32:0.0 33:0.0 34:1.0 35:1.0 36:0.0 37:0.0 38:0.0 39:0.0 40:0.0 41:1.0 42:1.0 43:1.0 44:0.0 45:0.0 46:0.0 47:0.0 48:0.0 49:1.0 50:0.0 51:1.0 52:1.0 53:1.0 54:0.0 55:0.0 56:0.0 57:1.0 58:0.0 59:0.0 60:0.0 61:1.0 62:1.0 63:1.0 64:0.0 65:1.0 66:0.0 67:0.0 68:0.0 69:0.0 70:0.0 71:1.0 72:1.0 73:1.0 74:0.0 75:0.0 76:0.0 77:0.0 78:0.0 79:0.0 80:1.0 81:1.0 82:1.0 83:1.0 84:0.0 85:0.0 86:0.0 87:0.0 88:1.0 89:0.0 90:0.0 91:1.0 92:1.0 93:1.0 94:1.0 95:1.0 96:1.0 97:0.0 98:0.0 99:0.0 100:0.0 101:0.0 102:0.0 103:0.0 104:0.0 105:0.0 106:0.0 107:0.0 108:0.0 109:0.0 110:0.0 111:0.0 112:0.0 113:0.0 114:0.0 115:0.0 116:0.0 117:0.0 118:0.0 119:0.0 120:0.0 121:0.0 122:0.0 123:0.0 124:0.0 125:0.0 126:0.0 127:0.0 128:0.0 
0.06584852229779752 0.14852649695937808 0.008522209445865368 0.0 0.0 0.0 0.0 0.0 0.0 0.0 0.0 0.0 0.0 0.0 0.0 0.0 0.0 0.0 0.0 0.0 0.0 0.0 0.0 0.0 0.0 1:0.0 2:0.0 3:0.0 4:0.0 5:0.0 6:0.0 7:0.0 8:0.0 9:0.0 10:0.0 11:0.0 12:0.0 13:0.0 14:0.0 15:0.0 16:0.0 17:0.0 18:0.0 19:0.0 20:0.0 21:0.0 22:0.0 23:0.0 24:0.0 25:0.0 26:0.0 27:0.0 28:0.0 29:0.0 30:0.0 31:0.0 32:0.0 33:0.0 34:0.0 35:0.0 36:0.0 37:0.0 38:0.0 39:0.0 40:0.0 41:0.0 42:0.0 43:1.0 44:1.0 45:1.0 46:1.0 47:0.0 48:0.0 49:0.0 50:1.0 51:1.0 52:0.0 53:0.0 54:1.0 55:1.0 56:0.0 57:1.0 58:1.0 59:0.0 60:0.0 61:0.0 62:0.0 63:1.0 64:1.0 65:1.0 66:0.0 67:0.0 68:0.0 69:0.0 70:0.0 71:0.0 72:1.0 73:1.0 74:0.0 75:0.0 76:0.0 77:0.0 78:1.0 79:1.0 80:1.0 81:1.0 82:1.0 83:1.0 84:1.0 85:1.0 86:1.0 87:0.0 88:0.0 89:0.0 90:0.0 91:0.0 92:0.0 93:0.0 94:0.0 95:0.0 96:0.0 97:0.0 98:0.0 99:0.0 100:0.0 101:0.0 102:0.0 103:0.0 104:0.0 105:0.0 106:0.0 107:0.0 108:0.0 109:0.0 110:0.0 111:0.0 112:0.0 113:0.0 114:0.0 115:0.0 116:0.0 117:0.0 118:0.0 119:0.0 120:0.0 121:0.0 122:0.0 123:0.0 124:0.0 125:0.0 126:0.0 127:0.0 128:0.0 
0.17843840282701576 0.0 0.0 0.0 0.0 0.0 0.0 0.0 0.0 0.0 0.0 0.0 0.0 0.0 0.0 0.0 0.0 0.0 0.0 0.0 0.0 0.0 0.0 0.0 0.0 1:0.0 2:0.0 3:0.0 4:0.0 5:0.0 6:0.0 7:0.0 8:0.0 9:0.0 10:0.0 11:0.0 12:0.0 13:0.0 14:0.0 15:0.0 16:0.0 17:0.0 18:0.0 19:0.0 20:0.0 21:0.0 22:0.0 23:0.0 24:0.0 25:0.0 26:0.0 27:0.0 28:0.0 29:0.0 30:0.0 31:0.0 32:0.0 33:0.0 34:0.0 35:0.0 36:0.0 37:1.0 38:0.0 39:0.0 40:0.0 41:0.0 42:0.0 43:1.0 44:1.0 45:1.0 46:1.0 47:0.0 48:0.0 49:0.0 50:1.0 51:1.0 52:1.0 53:0.0 54:1.0 55:1.0 56:0.0 57:1.0 58:1.0 59:0.0 60:0.0 61:0.0 62:0.0 63:1.0 64:1.0 65:1.0 66:0.0 67:0.0 68:0.0 69:0.0 70:0.0 71:0.0 72:1.0 73:1.0 74:0.0 75:0.0 76:0.0 77:0.0 78:0.0 79:0.0 80:1.0 81:1.0 82:0.0 83:0.0 84:0.0 85:0.0 86:1.0 87:1.0 88:1.0 89:1.0 90:1.0 91:1.0 92:1.0 93:1.0 94:1.0 95:0.0 96:0.0 97:0.0 98:0.0 99:0.0 100:0.0 101:0.0 102:0.0 103:0.0 104:0.0 105:0.0 106:0.0 107:0.0 108:0.0 109:0.0 110:0.0 111:0.0 112:0.0 113:0.0 114:0.0 115:0.0 116:0.0 117:0.0 118:0.0 119:0.0 120:0.0 121:0.0 122:0.0 123:0.0 124:0.0 125:0.0 126:0.0 127:0.0 128:0.0 
0.0 0.0 0.0 0.0 0.0 0.0 0.0 0.05360470925416117 0.03254544164246431 0.33374273131335785 0.0 0.0 0.0 0.0 0.0 0.10997947438001557 0.19642521883899688 0.0 0.0 0.0 0.0 0.0 0.0 0.0 0.017960918804246967 1:0.0 2:0.0 3:0.0 4:0.0 5:0.0 6:0.0 7:0.0 8:0.0 9:0.0 10:0.0 11:1.0 12:1.0 13:1.0 14:1.0 15:1.0 16:0.0 17:0.0 18:1.0 19:0.0 20:0.0 21:0.0 22:0.0 23:1.0 24:1.0 25:1.0 26:1.0 27:0.0 28:0.0 29:0.0 30:0.0 31:0.0 32:1.0 33:1.0 34:0.0 35:0.0 36:0.0 37:0.0 38:0.0 39:0.0 40:1.0 41:1.0 42:0.0 43:0.0 44:0.0 45:0.0 46:0.0 47:0.0 48:1.0 49:1.0 50:0.0 51:0.0 52:0.0 53:0.0 54:0.0 55:0.0 56:1.0 57:1.0 58:0.0 59:0.0 60:0.0 61:0.0 62:0.0 63:1.0 64:1.0 65:1.0 66:0.0 67:0.0 68:0.0 69:0.0 70:0.0 71:1.0 72:0.0 73:1.0 74:1.0 75:0.0 76:0.0 77:0.0 78:0.0 79:1.0 80:0.0 81:0.0 82:1.0 83:1.0 84:0.0 85:0.0 86:1.0 87:1.0 88:0.0 89:0.0 90:0.0 91:1.0 92:0.0 93:1.0 94:1.0 95:0.0 96:0.0 97:0.0 98:0.0 99:0.0 100:0.0 101:1.0 102:0.0 103:0.0 104:0.0 105:0.0 106:0.0 107:0.0 108:1.0 109:1.0 110:0.0 111:0.0 112:0.0 113:0.0 114:0.0 115:0.0 116:1.0 117:0.0 118:0.0 119:0.0 120:0.0 121:0.0 122:0.0 123:0.0 124:0.0 125:0.0 126:0.0 127:0.0 128:0.0 
0.6716934225245852 1.0 1.0 0.0 0.0 0.25921748589812843 0.0 0.0 0.0 1.0 0.0 0.0 0.0 0.05797541271823778 0.0 0.0 0.0 0.0 0.0 0.0 0.0 0.0 0.0 0.0 0.0 1:0.0 2:0.0 3:0.0 4:0.0 5:0.0 6:0.0 7:0.0 8:0.0 9:0.0 10:0.0 11:0.0 12:0.0 13:0.0 14:0.0 15:0.0 16:0.0 17:0.0 18:0.0 19:0.0 20:0.0 21:0.0 22:0.0 23:0.0 24:0.0 25:0.0 26:0.0 27:0.0 28:0.0 29:0.0 30:0.0 31:0.0 32:0.0 33:0.0 34:0.0 35:0.0 36:0.0 37:0.0 38:0.0 39:0.0 40:0.0 41:0.0 42:0.0 43:0.0 44:0.0 45:1.0 46:0.0 47:0.0 48:0.0 49:0.0 50:1.0 51:1.0 52:1.0 53:1.0 54:1.0 55:1.0 56:1.0 57:1.0 58:1.0 59:1.0 60:0.0 61:0.0 62:0.0 63:0.0 64:1.0 65:1.0 66:0.0 67:0.0 68:0.0 69:1.0 70:1.0 71:1.0 72:1.0 73:1.0 74:1.0 75:1.0 76:1.0 77:1.0 78:0.0 79:0.0 80:0.0 81:1.0 82:0.0 83:0.0 84:0.0 85:0.0 86:0.0 87:0.0 88:0.0 89:0.0 90:0.0 91:0.0 92:0.0 93:0.0 94:0.0 95:0.0 96:0.0 97:0.0 98:0.0 99:0.0 100:0.0 101:0.0 102:0.0 103:0.0 104:0.0 105:0.0 106:0.0 107:0.0 108:0.0 109:0.0 110:0.0 111:0.0 112:0.0 113:0.0 114:0.0 115:0.0 116:0.0 117:0.0 118:0.0 119:0.0 120:0.0 121:0.0 122:0.0 123:0.0 124:0.0 125:0.0 126:0.0 127:0.0 128:0.0 
0.0 1.0 1.0 0.04410762137341253 0.0706211738216973 0.0 0.0 0.019269245468135104 0.0 0.0 0.0 0.0 0.0 0.1633558901209449 0.0 0.0 0.9541195333069282 0.0 0.12316292697025355 0.0 0.0 0.0 0.0 0.0 0.0 1:0.0 2:0.0 3:0.0 4:0.0 5:0.0 6:0.0 7:0.0 8:0.0 9:0.0 10:0.0 11:0.0 12:0.0 13:0.0 14:0.0 15:0.0 16:0.0 17:0.0 18:0.0 19:0.0 20:0.0 21:0.0 22:0.0 23:0.0 24:0.0 25:0.0 26:0.0 27:0.0 28:0.0 29:0.0 30:0.0 31:0.0 32:0.0 33:0.0 34:0.0 35:0.0 36:0.0 37:0.0 38:0.0 39:0.0 40:0.0 41:0.0 42:0.0 43:0.0 44:0.0 45:0.0 46:0.0 47:0.0 48:0.0 49:0.0 50:0.0 51:1.0 52:1.0 53:1.0 54:1.0 55:1.0 56:1.0 57:1.0 58:1.0 59:0.0 60:0.0 61:1.0 62:0.0 63:0.0 64:1.0 65:1.0 66:0.0 67:0.0 68:0.0 69:0.0 70:0.0 71:1.0 72:1.0 73:1.0 74:1.0 75:1.0 76:1.0 77:1.0 78:1.0 79:1.0 80:0.0 81:0.0 82:0.0 83:0.0 84:0.0 85:0.0 86:0.0 87:0.0 88:0.0 89:0.0 90:0.0 91:0.0 92:0.0 93:0.0 94:0.0 95:0.0 96:0.0 97:0.0 98:0.0 99:0.0 100:0.0 101:0.0 102:0.0 103:0.0 104:0.0 105:0.0 106:0.0 107:0.0 108:0.0 109:0.0 110:0.0 111:0.0 112:0.0 113:0.0 114:0.0 115:0.0 116:0.0 117:0.0 118:0.0 119:0.0 120:0.0 121:0.0 122:0.0 123:0.0 124:0.0 125:0.0 126:0.0 127:0.0 128:0.0 
0.0 0.12693784900286484 0.5222611924546721 0.0 0.0 0.0 0.0 0.0 0.6971774657795622 0.0 0.0 0.0 0.0 0.0 0.0 0.0 0.0 0.0 0.0 0.0 0.0 0.0 0.0 0.0 0.0 1:0.0 2:0.0 3:0.0 4:0.0 5:0.0 6:0.0 7:0.0 8:0.0 9:0.0 10:0.0 11:0.0 12:0.0 13:0.0 14:0.0 15:0.0 16:0.0 17:0.0 18:0.0 19:0.0 20:0.0 21:0.0 22:0.0 23:0.0 24:0.0 25:0.0 26:0.0 27:0.0 28:0.0 29:0.0 30:0.0 31:0.0 32:0.0 33:0.0 34:0.0 35:0.0 36:0.0 37:0.0 38:0.0 39:0.0 40:0.0 41:0.0 42:1.0 43:1.0 44:1.0 45:1.0 46:1.0 47:1.0 48:0.0 49:1.0 50:1.0 51:0.0 52:0.0 53:0.0 54:0.0 55:0.0 56:1.0 57:1.0 58:1.0 59:0.0 60:0.0 61:0.0 62:0.0 63:0.0 64:1.0 65:1.0 66:0.0 67:0.0 68:0.0 69:0.0 70:0.0 71:0.0 72:1.0 73:1.0 74:0.0 75:0.0 76:0.0 77:0.0 78:1.0 79:1.0 80:1.0 81:1.0 82:1.0 83:1.0 84:1.0 85:1.0 86:1.0 87:0.0 88:0.0 89:0.0 90:0.0 91:0.0 92:0.0 93:0.0 94:0.0 95:0.0 96:0.0 97:0.0 98:0.0 99:0.0 100:0.0 101:0.0 102:0.0 103:0.0 104:0.0 105:0.0 106:0.0 107:0.0 108:0.0 109:0.0 110:0.0 111:0.0 112:0.0 113:0.0 114:0.0 115:0.0 116:0.0 117:0.0 118:0.0 119:0.0 120:0.0 121:0.0 122:0.0 123:0.0 124:0.0 125:0.0 126:0.0 127:0.0 128:0.0 
0.33197766220873304 0.9819257042072232 1.0 0.0 0.007511415072477162 0.6147643869640194 0.0 0.573990268028544 0.2606626273135501 1.0 0.0 0.1193410370592665 0.05838237560295499 0.34331852398873186 0.0 0.0738960805727585 0.8770246587189942 0.24506628590852508 0.20122994178874246 0.051154951268785276 0.0 0.0 0.05706008483986871 0.0 0.1617976284539881 1:0.0 2:0.0 3:0.0 4:0.0 5:0.0 6:0.0 7:0.0 8:0.0 9:0.0 10:0.0 11:0.0 12:0.0 13:0.0 14:0.0 15:0.0 16:0.0 17:0.0 18:0.0 19:0.0 20:0.0 21:0.0 22:0.0 23:0.0 24:0.0 25:0.0 26:0.0 27:0.0 28:0.0 29:0.0 30:0.0 31:0.0 32:0.0 33:0.0 34:0.0 35:0.0 36:0.0 37:0.0 38:0.0 39:0.0 40:1.0 41:0.0 42:0.0 43:0.0 44:0.0 45:1.0 46:1.0 47:1.0 48:1.0 49:0.0 50:0.0 51:0.0 52:1.0 53:1.0 54:1.0 55:0.0 56:0.0 57:0.0 58:0.0 59:1.0 60:1.0 61:0.0 62:1.0 63:0.0 64:0.0 65:0.0 66:1.0 67:1.0 68:0.0 69:1.0 70:1.0 71:0.0 72:0.0 73:1.0 74:1.0 75:0.0 76:1.0 77:1.0 78:0.0 79:0.0 80:0.0 81:1.0 82:1.0 83:1.0 84:1.0 85:0.0 86:0.0 87:0.0 88:0.0 89:1.0 90:1.0 91:0.0 92:0.0 93:0.0 94:0.0 95:0.0 96:0.0 97:0.0 98:0.0 99:0.0 100:0.0 101:0.0 102:0.0 103:0.0 104:0.0 105:0.0 106:0.0 107:0.0 108:0.0 109:0.0 110:0.0 111:0.0 112:0.0 113:0.0 114:0.0 115:0.0 116:0.0 117:0.0 118:0.0 119:0.0 120:0.0 121:0.0 122:0.0 123:0.0 124:0.0 125:0.0 126:0.0 127:0.0 128:0.0 
0.02069247631391614 1.0 0.6857691211680205 0.31859205807376134 0.044092860555314264 1.0 0.0 0.014668051498445063 0.0 0.9891602774401612 0.0 0.0 0.10071874384482411 0.10727538009484769 0.30483796507108385 0.08806288223655284 0.2635188173516408 0.4282407817495002 0.26923046966466246 0.18762377474273814 0.04962454925380262 0.021731929268233932 0.19461439366092764 0.15170322221248683 0.04778701462466015 1:0.0 2:0.0 3:0.0 4:0.0 5:0.0 6:0.0 7:0.0 8:0.0 9:0.0 10:0.0 11:0.0 12:0.0 13:0.0 14:0.0 15:0.0 16:0.0 17:0.0 18:0.0 19:0.0 20:0.0 21:0.0 22:0.0 23:0.0 24:0.0 25:0.0 26:0.0 27:0.0 28:0.0 29:0.0 30:0.0 31:0.0 32:0.0 33:0.0 34:0.0 35:0.0 36:0.0 37:0.0 38:1.0 39:1.0 40:1.0 41:0.0 42:0.0 43:0.0 44:1.0 45:1.0 46:1.0 47:1.0 48:1.0 49:0.0 50:0.0 51:0.0 52:0.0 53:1.0 54:1.0 55:1.0 56:0.0 57:0.0 58:0.0 59:0.0 60:1.0 61:0.0 62:1.0 63:0.0 64:0.0 65:0.0 66:0.0 67:1.0 68:1.0 69:1.0 70:1.0 71:0.0 72:0.0 73:0.0 74:1.0 75:1.0 76:1.0 77:1.0 78:0.0 79:0.0 80:0.0 81:1.0 82:1.0 83:1.0 84:1.0 85:0.0 86:0.0 87:0.0 88:0.0 89:1.0 90:1.0 91:1.0 92:0.0 93:0.0 94:0.0 95:0.0 96:0.0 97:0.0 98:0.0 99:0.0 100:0.0 101:0.0 102:0.0 103:0.0 104:0.0 105:0.0 106:0.0 107:0.0 108:0.0 109:0.0 110:0.0 111:0.0 112:0.0 113:0.0 114:0.0 115:0.0 116:0.0 117:0.0 118:0.0 119:0.0 120:0.0 121:0.0 122:0.0 123:0.0 124:0.0 125:0.0 126:0.0 127:0.0 128:0.0 
0.0 0.0 0.0 0.0 0.07032393128532871 0.0 0.0 0.0 0.0 0.0 0.0 0.0 0.0 0.0 0.0 0.0 0.0 0.0 0.0 0.0 0.0 0.0 0.0 0.0 0.0 1:0.0 2:0.0 3:0.0 4:0.0 5:0.0 6:0.0 7:0.0 8:0.0 9:0.0 10:0.0 11:0.0 12:0.0 13:0.0 14:0.0 15:0.0 16:0.0 17:0.0 18:0.0 19:0.0 20:0.0 21:0.0 22:0.0 23:0.0 24:0.0 25:0.0 26:0.0 27:0.0 28:0.0 29:0.0 30:0.0 31:0.0 32:0.0 33:0.0 34:0.0 35:0.0 36:0.0 37:0.0 38:1.0 39:1.0 40:1.0 41:0.0 42:0.0 43:1.0 44:1.0 45:1.0 46:1.0 47:0.0 48:1.0 49:0.0 50:1.0 51:1.0 52:0.0 53:0.0 54:0.0 55:0.0 56:1.0 57:1.0 58:1.0 59:0.0 60:0.0 61:0.0 62:0.0 63:0.0 64:1.0 65:1.0 66:0.0 67:0.0 68:0.0 69:0.0 70:0.0 71:1.0 72:1.0 73:1.0 74:0.0 75:0.0 76:0.0 77:0.0 78:1.0 79:1.0 80:0.0 81:1.0 82:1.0 83:0.0 84:1.0 85:1.0 86:1.0 87:0.0 88:0.0 89:0.0 90:1.0 91:1.0 92:1.0 93:0.0 94:0.0 95:0.0 96:0.0 97:0.0 98:0.0 99:0.0 100:0.0 101:0.0 102:0.0 103:0.0 104:0.0 105:0.0 106:0.0 107:0.0 108:0.0 109:0.0 110:0.0 111:0.0 112:0.0 113:0.0 114:0.0 115:0.0 116:0.0 117:0.0 118:0.0 119:0.0 120:0.0 121:0.0 122:0.0 123:0.0 124:0.0 125:0.0 126:0.0 127:0.0 128:0.0 
0.0 0.0 0.4628682621181601 0.0 0.09490584290835848 0.0 0.0 0.0 0.0 0.0 0.0 0.0 0.0 0.0 0.0 0.0 0.0 0.0 0.0 0.0 0.0 0.0 0.020588503524993033 0.0 0.06241490998956686 1:0.0 2:0.0 3:0.0 4:0.0 5:0.0 6:0.0 7:0.0 8:0.0 9:0.0 10:0.0 11:0.0 12:0.0 13:0.0 14:0.0 15:0.0 16:0.0 17:0.0 18:0.0 19:0.0 20:0.0 21:0.0 22:0.0 23:0.0 24:0.0 25:0.0 26:0.0 27:0.0 28:0.0 29:0.0 30:0.0 31:0.0 32:0.0 33:0.0 34:0.0 35:0.0 36:0.0 37:0.0 38:0.0 39:0.0 40:0.0 41:0.0 42:0.0 43:0.0 44:0.0 45:0.0 46:0.0 47:0.0 48:0.0 49:0.0 50:0.0 51:1.0 52:1.0 53:1.0 54:1.0 55:1.0 56:1.0 57:1.0 58:1.0 59:1.0 60:0.0 61:0.0 62:0.0 63:0.0 64:1.0 65:1.0 66:0.0 67:0.0 68:0.0 69:0.0 70:0.0 71:1.0 72:1.0 73:1.0 74:1.0 75:1.0 76:1.0 77:1.0 78:1.0 79:1.0 80:0.0 81:0.0 82:0.0 83:0.0 84:0.0 85:0.0 86:0.0 87:0.0 88:0.0 89:0.0 90:0.0 91:0.0 92:0.0 93:0.0 94:0.0 95:0.0 96:0.0 97:0.0 98:0.0 99:0.0 100:0.0 101:0.0 102:0.0 103:0.0 104:0.0 105:0.0 106:0.0 107:0.0 108:0.0 109:0.0 110:0.0 111:0.0 112:0.0 113:0.0 114:0.0 115:0.0 116:0.0 117:0.0 118:0.0 119:0.0 120:0.0 121:0.0 122:0.0 123:0.0 124:0.0 125:0.0 126:0.0 127:0.0 128:0.0 
0.0 0.0 0.14007195072459833 0.0 0.0 0.0 0.0 0.0 0.0 0.0 9.927886193922962E-4 0.0 0.0 0.0 0.0 0.0 0.0 0.0 0.0 0.0 0.0 0.0 0.0 0.0 0.0 1:0.0 2:0.0 3:0.0 4:0.0 5:0.0 6:0.0 7:0.0 8:0.0 9:0.0 10:0.0 11:0.0 12:0.0 13:0.0 14:0.0 15:0.0 16:0.0 17:1.0 18:1.0 19:1.0 20:1.0 21:0.0 22:0.0 23:0.0 24:0.0 25:1.0 26:1.0 27:1.0 28:1.0 29:1.0 30:0.0 31:0.0 32:0.0 33:1.0 34:0.0 35:0.0 36:0.0 37:1.0 38:1.0 39:0.0 40:0.0 41:1.0 42:0.0 43:0.0 44:0.0 45:0.0 46:1.0 47:1.0 48:0.0 49:1.0 50:0.0 51:0.0 52:0.0 53:0.0 54:0.0 55:1.0 56:0.0 57:1.0 58:0.0 59:0.0 60:0.0 61:0.0 62:0.0 63:1.0 64:1.0 65:1.0 66:0.0 67:0.0 68:0.0 69:0.0 70:0.0 71:0.0 72:1.0 73:1.0 74:0.0 75:0.0 76:0.0 77:0.0 78:0.0 79:0.0 80:1.0 81:1.0 82:0.0 83:0.0 84:0.0 85:0.0 86:0.0 87:0.0 88:1.0 89:1.0 90:0.0 91:0.0 92:0.0 93:0.0 94:0.0 95:1.0 96:1.0 97:1.0 98:1.0 99:0.0 100:0.0 101:0.0 102:1.0 103:1.0 104:0.0 105:0.0 106:1.0 107:1.0 108:1.0 109:1.0 110:1.0 111:0.0 112:0.0 113:0.0 114:0.0 115:0.0 116:0.0 117:0.0 118:0.0 119:0.0 120:0.0 121:0.0 122:0.0 123:0.0 124:0.0 125:0.0 126:0.0 127:0.0 128:0.0 
0.0 0.0 0.0 0.0 0.0 0.0 0.0 0.007251948014495442 0.0 0.0 0.0 0.0 0.0 0.0 0.0 0.0 0.0 0.0 0.0 0.0 0.0 0.016423313425021735 0.0 0.0 0.0 1:0.0 2:0.0 3:0.0 4:0.0 5:0.0 6:0.0 7:0.0 8:0.0 9:1.0 10:1.0 11:1.0 12:1.0 13:0.0 14:0.0 15:0.0 16:0.0 17:1.0 18:1.0 19:1.0 20:1.0 21:1.0 22:0.0 23:0.0 24:0.0 25:1.0 26:0.0 27:1.0 28:0.0 29:1.0 30:1.0 31:0.0 32:0.0 33:1.0 34:0.0 35:0.0 36:0.0 37:0.0 38:1.0 39:1.0 40:0.0 41:1.0 42:0.0 43:0.0 44:0.0 45:0.0 46:0.0 47:1.0 48:1.0 49:1.0 50:0.0 51:0.0 52:0.0 53:0.0 54:0.0 55:0.0 56:1.0 57:1.0 58:0.0 59:0.0 60:0.0 61:0.0 62:0.0 63:0.0 64:1.0 65:1.0 66:0.0 67:0.0 68:0.0 69:0.0 70:0.0 71:0.0 72:1.0 73:1.0 74:0.0 75:0.0 76:0.0 77:0.0 78:0.0 79:0.0 80:1.0 81:1.0 82:0.0 83:0.0 84:0.0 85:0.0 86:0.0 87:0.0 88:1.0 89:1.0 90:0.0 91:0.0 92:0.0 93:0.0 94:0.0 95:0.0 96:1.0 97:1.0 98:1.0 99:0.0 100:0.0 101:0.0 102:0.0 103:0.0 104:1.0 105:0.0 106:1.0 107:1.0 108:0.0 109:0.0 110:1.0 111:1.0 112:1.0 113:0.0 114:0.0 115:1.0 116:1.0 117:1.0 118:1.0 119:0.0 120:0.0 121:0.0 122:0.0 123:0.0 124:0.0 125:0.0 126:0.0 127:0.0 128:0.0 
0.0 0.0 0.001161583080255373 0.036801030551326004 0.0 0.0 0.0 0.0 0.0 0.0 0.0 0.0 0.0 0.0 0.0 0.0 0.0 0.0 0.0 0.0 0.0 0.0 0.0 0.0 0.0 1:0.0 2:0.0 3:0.0 4:0.0 5:0.0 6:0.0 7:0.0 8:0.0 9:0.0 10:0.0 11:0.0 12:0.0 13:0.0 14:0.0 15:0.0 16:0.0 17:0.0 18:0.0 19:0.0 20:1.0 21:1.0 22:1.0 23:0.0 24:0.0 25:0.0 26:0.0 27:0.0 28:1.0 29:0.0 30:1.0 31:1.0 32:0.0 33:0.0 34:0.0 35:1.0 36:1.0 37:0.0 38:1.0 39:1.0 40:0.0 41:0.0 42:0.0 43:1.0 44:0.0 45:0.0 46:0.0 47:1.0 48:0.0 49:0.0 50:1.0 51:1.0 52:0.0 53:0.0 54:0.0 55:1.0 56:1.0 57:0.0 58:1.0 59:0.0 60:0.0 61:0.0 62:0.0 63:0.0 64:1.0 65:1.0 66:1.0 67:0.0 68:0.0 69:0.0 70:0.0 71:0.0 72:1.0 73:1.0 74:0.0 75:0.0 76:0.0 77:0.0 78:0.0 79:0.0 80:1.0 81:1.0 82:0.0 83:0.0 84:0.0 85:0.0 86:0.0 87:0.0 88:1.0 89:1.0 90:0.0 91:0.0 92:0.0 93:0.0 94:0.0 95:0.0 96:1.0 97:1.0 98:0.0 99:0.0 100:0.0 101:0.0 102:1.0 103:1.0 104:0.0 105:1.0 106:1.0 107:1.0 108:1.0 109:1.0 110:1.0 111:0.0 112:0.0 113:0.0 114:0.0 115:0.0 116:0.0 117:0.0 118:0.0 119:0.0 120:0.0 121:0.0 122:0.0 123:0.0 124:0.0 125:0.0 126:0.0 127:0.0 128:0.0 
0.0 0.0 0.0 0.0 0.0 0.0 0.0 0.0 0.0 0.0 0.0 0.0 0.0 0.0 0.0 0.0 0.0 0.0 0.0 0.0 0.0 0.0 0.0 0.00782339785252622 0.0 1:0.0 2:0.0 3:0.0 4:0.0 5:0.0 6:0.0 7:0.0 8:0.0 9:0.0 10:0.0 11:0.0 12:0.0 13:0.0 14:0.0 15:0.0 16:0.0 17:0.0 18:0.0 19:0.0 20:0.0 21:0.0 22:0.0 23:0.0 24:0.0 25:0.0 26:1.0 27:1.0 28:1.0 29:1.0 30:1.0 31:1.0 32:0.0 33:1.0 34:1.0 35:1.0 36:0.0 37:0.0 38:0.0 39:1.0 40:1.0 41:1.0 42:0.0 43:0.0 44:0.0 45:0.0 46:0.0 47:0.0 48:1.0 49:1.0 50:0.0 51:0.0 52:0.0 53:0.0 54:0.0 55:0.0 56:1.0 57:1.0 58:0.0 59:0.0 60:0.0 61:0.0 62:0.0 63:0.0 64:1.0 65:1.0 66:0.0 67:0.0 68:0.0 69:0.0 70:0.0 71:0.0 72:1.0 73:1.0 74:0.0 75:0.0 76:0.0 77:0.0 78:0.0 79:0.0 80:1.0 81:1.0 82:0.0 83:0.0 84:0.0 85:0.0 86:0.0 87:1.0 88:1.0 89:1.0 90:0.0 91:0.0 92:0.0 93:1.0 94:1.0 95:1.0 96:0.0 97:1.0 98:1.0 99:1.0 100:1.0 101:1.0 102:0.0 103:0.0 104:0.0 105:0.0 106:0.0 107:0.0 108:0.0 109:0.0 110:0.0 111:0.0 112:0.0 113:0.0 114:0.0 115:0.0 116:0.0 117:0.0 118:0.0 119:0.0 120:0.0 121:0.0 122:0.0 123:0.0 124:0.0 125:0.0 126:0.0 127:0.0 128:0.0 
0.0 0.005673538651876463 0.0 0.0 0.0 0.0 0.0 0.0 0.0 0.0 0.0 0.0 0.0 0.0 0.0 0.0 0.18351369318128385 0.0 0.0 0.0 0.0 0.0 0.0 0.0 0.0 1:0.0 2:0.0 3:0.0 4:0.0 5:0.0 6:0.0 7:0.0 8:0.0 9:0.0 10:0.0 11:0.0 12:0.0 13:0.0 14:0.0 15:0.0 16:0.0 17:0.0 18:1.0 19:1.0 20:1.0 21:1.0 22:1.0 23:1.0 24:0.0 25:0.0 26:1.0 27:0.0 28:1.0 29:0.0 30:0.0 31:1.0 32:1.0 33:1.0 34:1.0 35:0.0 36:0.0 37:0.0 38:0.0 39:0.0 40:1.0 41:1.0 42:0.0 43:0.0 44:0.0 45:0.0 46:0.0 47:0.0 48:1.0 49:1.0 50:0.0 51:0.0 52:0.0 53:0.0 54:0.0 55:0.0 56:1.0 57:1.0 58:0.0 59:0.0 60:0.0 61:0.0 62:0.0 63:0.0 64:1.0 65:1.0 66:0.0 67:0.0 68:0.0 69:0.0 70:0.0 71:0.0 72:1.0 73:1.0 74:0.0 75:0.0 76:0.0 77:0.0 78:0.0 79:0.0 80:1.0 81:1.0 82:0.0 83:0.0 84:0.0 85:0.0 86:0.0 87:1.0 88:1.0 89:1.0 90:0.0 91:0.0 92:0.0 93:0.0 94:1.0 95:1.0 96:0.0 97:1.0 98:1.0 99:0.0 100:0.0 101:1.0 102:1.0 103:0.0 104:0.0 105:0.0 106:1.0 107:1.0 108:1.0 109:1.0 110:0.0 111:0.0 112:0.0 113:0.0 114:0.0 115:0.0 116:0.0 117:0.0 118:0.0 119:0.0 120:0.0 121:0.0 122:0.0 123:0.0 124:0.0 125:0.0 126:0.0 127:0.0 128:0.0 
0.0 0.0 1.0 0.0 0.0 0.0 0.0 0.0 0.0 0.0 0.0 0.0 0.0 0.0 0.0 0.0 0.0 0.0 0.0 0.004775847665367855 0.0 0.0 0.0 0.0 0.010205194047665773 1:0.0 2:0.0 3:0.0 4:0.0 5:0.0 6:0.0 7:0.0 8:0.0 9:0.0 10:0.0 11:0.0 12:0.0 13:0.0 14:0.0 15:0.0 16:0.0 17:0.0 18:0.0 19:0.0 20:0.0 21:0.0 22:0.0 23:0.0 24:0.0 25:0.0 26:0.0 27:0.0 28:0.0 29:0.0 30:0.0 31:0.0 32:0.0 33:0.0 34:0.0 35:0.0 36:0.0 37:0.0 38:0.0 39:0.0 40:0.0 41:1.0 42:1.0 43:1.0 44:1.0 45:1.0 46:1.0 47:0.0 48:0.0 49:1.0 50:0.0 51:0.0 52:0.0 53:0.0 54:1.0 55:1.0 56:0.0 57:0.0 58:0.0 59:0.0 60:0.0 61:0.0 62:0.0 63:1.0 64:1.0 65:1.0 66:0.0 67:0.0 68:0.0 69:0.0 70:0.0 71:0.0 72:1.0 73:1.0 74:1.0 75:0.0 76:0.0 77:0.0 78:0.0 79:0.0 80:1.0 81:0.0 82:1.0 83:1.0 84:1.0 85:1.0 86:1.0 87:1.0 88:1.0 89:0.0 90:0.0 91:0.0 92:0.0 93:0.0 94:0.0 95:0.0 96:0.0 97:0.0 98:0.0 99:0.0 100:0.0 101:0.0 102:0.0 103:0.0 104:0.0 105:0.0 106:0.0 107:0.0 108:0.0 109:0.0 110:0.0 111:0.0 112:0.0 113:0.0 114:0.0 115:0.0 116:0.0 117:0.0 118:0.0 119:0.0 120:0.0 121:0.0 122:0.0 123:0.0 124:0.0 125:0.0 126:0.0 127:0.0 128:0.0 
0.0 0.0 0.0 0.0 0.2608031130154574 1.0 0.010413987068913886 0.0 0.08916542402008994 0.0 0.43029107553004087 0.1791452248373849 0.20686431446201223 0.5846915761021991 0.27022161321303784 0.23670619067037094 0.0 0.5925059062368611 0.04948718956745166 0.23219133418973986 0.06381895055404488 0.008999204184543462 0.14168434125083157 0.0 0.009980167365328084 1:0.0 2:0.0 3:0.0 4:0.0 5:0.0 6:0.0 7:0.0 8:0.0 9:0.0 10:0.0 11:0.0 12:0.0 13:0.0 14:0.0 15:0.0 16:0.0 17:0.0 18:0.0 19:0.0 20:0.0 21:0.0 22:0.0 23:0.0 24:0.0 25:0.0 26:0.0 27:0.0 28:0.0 29:0.0 30:0.0 31:0.0 32:0.0 33:0.0 34:0.0 35:0.0 36:0.0 37:0.0 38:0.0 39:0.0 40:0.0 41:0.0 42:0.0 43:0.0 44:0.0 45:0.0 46:0.0 47:0.0 48:0.0 49:1.0 50:1.0 51:1.0 52:1.0 53:1.0 54:1.0 55:0.0 56:0.0 57:0.0 58:0.0 59:0.0 60:0.0 61:0.0 62:0.0 63:1.0 64:1.0 65:0.0 66:0.0 67:0.0 68:0.0 69:0.0 70:0.0 71:0.0 72:1.0 73:0.0 74:0.0 75:1.0 76:1.0 77:1.0 78:1.0 79:1.0 80:1.0 81:0.0 82:0.0 83:0.0 84:0.0 85:0.0 86:0.0 87:0.0 88:0.0 89:0.0 90:0.0 91:0.0 92:0.0 93:0.0 94:0.0 95:0.0 96:0.0 97:0.0 98:0.0 99:0.0 100:0.0 101:0.0 102:0.0 103:0.0 104:0.0 105:0.0 106:0.0 107:0.0 108:0.0 109:0.0 110:0.0 111:0.0 112:0.0 113:0.0 114:0.0 115:0.0 116:0.0 117:0.0 118:0.0 119:0.0 120:0.0 121:0.0 122:0.0 123:0.0 124:0.0 125:0.0 126:0.0 127:0.0 128:0.0 
0.0 0.0 0.0 0.0 0.0 0.0 0.0 0.0 0.0 0.0 0.006597455147005902 0.0 0.0 0.0 0.0 0.0 0.0 0.0 0.0 0.0 0.0 0.0 0.0 0.0 0.0 1:0.0 2:0.0 3:0.0 4:0.0 5:0.0 6:0.0 7:0.0 8:0.0 9:0.0 10:0.0 11:0.0 12:0.0 13:0.0 14:0.0 15:0.0 16:0.0 17:0.0 18:0.0 19:0.0 20:0.0 21:0.0 22:0.0 23:0.0 24:0.0 25:0.0 26:0.0 27:0.0 28:0.0 29:0.0 30:0.0 31:0.0 32:0.0 33:0.0 34:0.0 35:1.0 36:1.0 37:0.0 38:0.0 39:0.0 40:0.0 41:0.0 42:1.0 43:1.0 44:1.0 45:1.0 46:1.0 47:0.0 48:0.0 49:1.0 50:0.0 51:0.0 52:0.0 53:0.0 54:1.0 55:1.0 56:0.0 57:1.0 58:0.0 59:0.0 60:0.0 61:0.0 62:0.0 63:1.0 64:1.0 65:1.0 66:0.0 67:0.0 68:0.0 69:0.0 70:0.0 71:0.0 72:1.0 73:1.0 74:0.0 75:0.0 76:0.0 77:0.0 78:0.0 79:0.0 80:1.0 81:1.0 82:0.0 83:0.0 84:0.0 85:0.0 86:0.0 87:0.0 88:1.0 89:1.0 90:1.0 91:1.0 92:1.0 93:1.0 94:1.0 95:1.0 96:1.0 97:0.0 98:0.0 99:0.0 100:0.0 101:0.0 102:0.0 103:0.0 104:0.0 105:0.0 106:0.0 107:0.0 108:0.0 109:0.0 110:0.0 111:0.0 112:0.0 113:0.0 114:0.0 115:0.0 116:0.0 117:0.0 118:0.0 119:0.0 120:0.0 121:0.0 122:0.0 123:0.0 124:0.0 125:0.0 126:0.0 127:0.0 128:0.0 
0.0 0.0 0.0 0.0 0.0 0.0 0.0 0.0 0.0 0.5085921580135256 0.0 0.0 0.0 0.0 0.0 0.0 0.0 0.005824486268669803 0.0 0.0 0.0 0.0 0.0 0.0 0.0 1:0.0 2:0.0 3:0.0 4:0.0 5:0.0 6:0.0 7:0.0 8:0.0 9:0.0 10:0.0 11:0.0 12:0.0 13:0.0 14:0.0 15:0.0 16:0.0 17:0.0 18:0.0 19:0.0 20:1.0 21:1.0 22:1.0 23:0.0 24:0.0 25:0.0 26:1.0 27:1.0 28:1.0 29:0.0 30:1.0 31:0.0 32:0.0 33:0.0 34:1.0 35:0.0 36:0.0 37:0.0 38:1.0 39:1.0 40:0.0 41:0.0 42:1.0 43:0.0 44:0.0 45:0.0 46:0.0 47:1.0 48:0.0 49:1.0 50:1.0 51:0.0 52:0.0 53:0.0 54:0.0 55:1.0 56:1.0 57:1.0 58:0.0 59:0.0 60:0.0 61:0.0 62:0.0 63:0.0 64:1.0 65:1.0 66:0.0 67:0.0 68:0.0 69:0.0 70:0.0 71:0.0 72:1.0 73:1.0 74:1.0 75:0.0 76:0.0 77:0.0 78:0.0 79:0.0 80:1.0 81:0.0 82:1.0 83:1.0 84:0.0 85:0.0 86:0.0 87:0.0 88:1.0 89:0.0 90:0.0 91:1.0 92:1.0 93:0.0 94:0.0 95:0.0 96:1.0 97:0.0 98:0.0 99:0.0 100:1.0 101:1.0 102:0.0 103:1.0 104:1.0 105:0.0 106:0.0 107:0.0 108:0.0 109:1.0 110:1.0 111:1.0 112:0.0 113:0.0 114:0.0 115:0.0 116:0.0 117:0.0 118:0.0 119:0.0 120:0.0 121:0.0 122:0.0 123:0.0 124:0.0 125:0.0 126:0.0 127:0.0 128:0.0 
0.0 0.0 0.0 0.0 0.0 0.0 0.0 0.0 0.0 0.014599341497014875 0.0 0.0 0.0 0.0 0.0 0.0 0.0 0.0 0.0 0.0 0.0 0.0 0.0 0.0 0.0 1:0.0 2:0.0 3:0.0 4:0.0 5:0.0 6:0.0 7:0.0 8:0.0 9:0.0 10:0.0 11:0.0 12:0.0 13:0.0 14:0.0 15:0.0 16:0.0 17:0.0 18:0.0 19:0.0 20:0.0 21:0.0 22:0.0 23:0.0 24:0.0 25:0.0 26:1.0 27:1.0 28:1.0 29:0.0 30:0.0 31:0.0 32:0.0 33:0.0 34:1.0 35:0.0 36:1.0 37:1.0 38:1.0 39:1.0 40:0.0 41:1.0 42:1.0 43:0.0 44:0.0 45:0.0 46:0.0 47:1.0 48:1.0 49:1.0 50:0.0 51:0.0 52:0.0 53:0.0 54:0.0 55:0.0 56:1.0 57:1.0 58:0.0 59:0.0 60:0.0 61:0.0 62:0.0 63:0.0 64:1.0 65:1.0 66:0.0 67:0.0 68:0.0 69:0.0 70:0.0 71:0.0 72:1.0 73:1.0 74:0.0 75:0.0 76:0.0 77:0.0 78:0.0 79:0.0 80:1.0 81:1.0 82:0.0 83:0.0 84:0.0 85:0.0 86:0.0 87:0.0 88:1.0 89:1.0 90:1.0 91:0.0 92:0.0 93:0.0 94:1.0 95:1.0 96:0.0 97:0.0 98:1.0 99:1.0 100:1.0 101:1.0 102:1.0 103:0.0 104:0.0 105:0.0 106:0.0 107:0.0 108:0.0 109:0.0 110:0.0 111:0.0 112:0.0 113:0.0 114:0.0 115:0.0 116:0.0 117:0.0 118:0.0 119:0.0 120:0.0 121:0.0 122:0.0 123:0.0 124:0.0 125:0.0 126:0.0 127:0.0 128:0.0 
0.0 0.0 0.3517764062824049 0.34891304844743654 0.17475932794485144 0.6405247823528579 0.28098113434693794 0.14057890053926247 0.0 0.0 0.05499857937214578 0.13950053294353748 0.08086396508125218 0.14095672761673853 0.16682198083709346 0.0 0.0 0.5345883871076199 0.08001717621875458 0.11206954274038368 0.03915568864077062 0.034170126148580865 0.11648874123372271 0.0 0.13649965028327593 1:0.0 2:0.0 3:0.0 4:0.0 5:0.0 6:0.0 7:0.0 8:0.0 9:0.0 10:0.0 11:0.0 12:0.0 13:0.0 14:0.0 15:0.0 16:0.0 17:0.0 18:0.0 19:0.0 20:0.0 21:0.0 22:1.0 23:1.0 24:1.0 25:0.0 26:0.0 27:0.0 28:0.0 29:0.0 30:1.0 31:1.0 32:0.0 33:0.0 34:0.0 35:0.0 36:0.0 37:1.0 38:1.0 39:0.0 40:0.0 41:0.0 42:0.0 43:0.0 44:0.0 45:1.0 46:1.0 47:0.0 48:0.0 49:0.0 50:0.0 51:0.0 52:1.0 53:1.0 54:1.0 55:0.0 56:0.0 57:0.0 58:0.0 59:1.0 60:1.0 61:0.0 62:1.0 63:0.0 64:0.0 65:0.0 66:1.0 67:1.0 68:0.0 69:0.0 70:1.0 71:0.0 72:0.0 73:0.0 74:1.0 75:0.0 76:0.0 77:1.0 78:1.0 79:0.0 80:0.0 81:1.0 82:1.0 83:0.0 84:1.0 85:1.0 86:0.0 87:0.0 88:0.0 89:1.0 90:0.0 91:1.0 92:1.0 93:0.0 94:0.0 95:0.0 96:0.0 97:1.0 98:0.0 99:1.0 100:0.0 101:0.0 102:0.0 103:0.0 104:0.0 105:1.0 106:1.0 107:1.0 108:0.0 109:0.0 110:0.0 111:0.0 112:0.0 113:0.0 114:0.0 115:0.0 116:0.0 117:0.0 118:0.0 119:0.0 120:0.0 121:0.0 122:0.0 123:0.0 124:0.0 125:0.0 126:0.0 127:0.0 128:0.0 
0.0 0.0 0.0 0.0 0.0 0.0 0.0 0.0 0.0 0.04248389807869755 0.0 0.0 0.0 0.0 0.0 0.0 0.0 0.0 0.0 0.0 0.0 0.0 0.0 0.0 0.0 1:0.0 2:0.0 3:0.0 4:0.0 5:0.0 6:0.0 7:0.0 8:0.0 9:0.0 10:0.0 11:0.0 12:0.0 13:0.0 14:0.0 15:0.0 16:0.0 17:0.0 18:0.0 19:0.0 20:0.0 21:0.0 22:0.0 23:0.0 24:0.0 25:0.0 26:0.0 27:0.0 28:0.0 29:1.0 30:1.0 31:1.0 32:1.0 33:0.0 34:1.0 35:1.0 36:1.0 37:1.0 38:0.0 39:0.0 40:1.0 41:1.0 42:1.0 43:1.0 44:0.0 45:0.0 46:0.0 47:0.0 48:1.0 49:0.0 50:1.0 51:0.0 52:0.0 53:0.0 54:0.0 55:0.0 56:1.0 57:1.0 58:0.0 59:0.0 60:0.0 61:0.0 62:0.0 63:0.0 64:1.0 65:1.0 66:0.0 67:0.0 68:0.0 69:0.0 70:0.0 71:0.0 72:1.0 73:1.0 74:0.0 75:0.0 76:0.0 77:0.0 78:0.0 79:0.0 80:1.0 81:1.0 82:0.0 83:0.0 84:0.0 85:0.0 86:0.0 87:1.0 88:1.0 89:1.0 90:0.0 91:0.0 92:0.0 93:0.0 94:1.0 95:0.0 96:0.0 97:1.0 98:1.0 99:1.0 100:1.0 101:1.0 102:1.0 103:0.0 104:0.0 105:0.0 106:0.0 107:0.0 108:0.0 109:0.0 110:0.0 111:0.0 112:0.0 113:0.0 114:0.0 115:0.0 116:0.0 117:0.0 118:0.0 119:0.0 120:0.0 121:0.0 122:0.0 123:0.0 124:0.0 125:0.0 126:0.0 127:0.0 128:0.0 
0.07715807561890163 0.0 0.0 0.0 0.0 0.0 0.0 0.0 0.0 0.0 0.0 0.0 0.0 0.0 0.0 0.0 0.0 0.0 0.0 0.0 0.0 0.0 0.0 0.10251432853125055 0.0 1:0.0 2:0.0 3:0.0 4:0.0 5:0.0 6:0.0 7:0.0 8:0.0 9:0.0 10:0.0 11:0.0 12:0.0 13:0.0 14:0.0 15:0.0 16:0.0 17:0.0 18:0.0 19:0.0 20:0.0 21:0.0 22:0.0 23:0.0 24:0.0 25:0.0 26:0.0 27:0.0 28:0.0 29:0.0 30:0.0 31:0.0 32:0.0 33:0.0 34:0.0 35:0.0 36:0.0 37:0.0 38:0.0 39:0.0 40:0.0 41:0.0 42:0.0 43:0.0 44:0.0 45:0.0 46:0.0 47:0.0 48:0.0 49:1.0 50:1.0 51:1.0 52:1.0 53:1.0 54:1.0 55:1.0 56:0.0 57:1.0 58:1.0 59:0.0 60:0.0 61:0.0 62:0.0 63:1.0 64:1.0 65:1.0 66:0.0 67:0.0 68:0.0 69:0.0 70:0.0 71:0.0 72:1.0 73:1.0 74:1.0 75:1.0 76:1.0 77:1.0 78:1.0 79:1.0 80:1.0 81:0.0 82:0.0 83:0.0 84:0.0 85:0.0 86:0.0 87:0.0 88:0.0 89:0.0 90:0.0 91:0.0 92:0.0 93:0.0 94:0.0 95:0.0 96:0.0 97:0.0 98:0.0 99:0.0 100:0.0 101:0.0 102:0.0 103:0.0 104:0.0 105:0.0 106:0.0 107:0.0 108:0.0 109:0.0 110:0.0 111:0.0 112:0.0 113:0.0 114:0.0 115:0.0 116:0.0 117:0.0 118:0.0 119:0.0 120:0.0 121:0.0 122:0.0 123:0.0 124:0.0 125:0.0 126:0.0 127:0.0 128:0.0 
0.0 0.0 0.0 0.0 0.0 0.0 0.0 0.0 0.0 0.0 0.0 0.0 0.0 0.0 0.0 0.11326263260612564 0.3724022593960741 0.0 0.0 0.0 0.0 0.0 0.0 0.08556961751340542 0.0 1:0.0 2:0.0 3:0.0 4:0.0 5:0.0 6:0.0 7:0.0 8:0.0 9:0.0 10:0.0 11:0.0 12:0.0 13:0.0 14:0.0 15:0.0 16:0.0 17:0.0 18:0.0 19:0.0 20:1.0 21:1.0 22:1.0 23:1.0 24:0.0 25:0.0 26:0.0 27:0.0 28:0.0 29:0.0 30:0.0 31:1.0 32:1.0 33:0.0 34:0.0 35:0.0 36:0.0 37:0.0 38:0.0 39:0.0 40:1.0 41:1.0 42:0.0 43:0.0 44:0.0 45:0.0 46:0.0 47:0.0 48:1.0 49:1.0 50:0.0 51:0.0 52:0.0 53:0.0 54:0.0 55:0.0 56:1.0 57:1.0 58:0.0 59:0.0 60:0.0 61:0.0 62:0.0 63:0.0 64:1.0 65:1.0 66:0.0 67:0.0 68:0.0 69:0.0 70:0.0 71:1.0 72:1.0 73:1.0 74:0.0 75:0.0 76:0.0 77:0.0 78:1.0 79:1.0 80:0.0 81:1.0 82:0.0 83:0.0 84:0.0 85:1.0 86:1.0 87:0.0 88:0.0 89:1.0 90:0.0 91:1.0 92:1.0 93:1.0 94:0.0 95:0.0 96:0.0 97:1.0 98:1.0 99:0.0 100:0.0 101:0.0 102:0.0 103:0.0 104:0.0 105:1.0 106:0.0 107:0.0 108:0.0 109:0.0 110:0.0 111:0.0 112:0.0 113:0.0 114:0.0 115:0.0 116:0.0 117:0.0 118:0.0 119:0.0 120:0.0 121:0.0 122:0.0 123:0.0 124:0.0 125:0.0 126:0.0 127:0.0 128:0.0 
0.0 0.0 0.0 0.0 0.0 0.0 0.0 0.0 0.0 0.0 0.0 0.0 0.0 0.0 0.0 0.04427790753183759 0.0 0.0 0.0 0.0 0.0 0.0 0.0 0.0 0.0 1:0.0 2:0.0 3:0.0 4:0.0 5:0.0 6:0.0 7:0.0 8:0.0 9:0.0 10:0.0 11:0.0 12:0.0 13:0.0 14:0.0 15:0.0 16:0.0 17:0.0 18:0.0 19:0.0 20:0.0 21:0.0 22:0.0 23:0.0 24:0.0 25:0.0 26:0.0 27:0.0 28:0.0 29:0.0 30:0.0 31:0.0 32:0.0 33:0.0 34:1.0 35:0.0 36:0.0 37:0.0 38:0.0 39:0.0 40:0.0 41:1.0 42:1.0 43:1.0 44:1.0 45:1.0 46:1.0 47:1.0 48:1.0 49:1.0 50:0.0 51:0.0 52:0.0 53:0.0 54:0.0 55:0.0 56:1.0 57:1.0 58:0.0 59:0.0 60:0.0 61:0.0 62:0.0 63:0.0 64:1.0 65:1.0 66:0.0 67:0.0 68:0.0 69:0.0 70:0.0 71:0.0 72:1.0 73:1.0 74:0.0 75:0.0 76:0.0 77:0.0 78:0.0 79:1.0 80:1.0 81:1.0 82:1.0 83:0.0 84:0.0 85:1.0 86:1.0 87:0.0 88:0.0 89:0.0 90:1.0 91:1.0 92:1.0 93:1.0 94:0.0 95:0.0 96:0.0 97:0.0 98:0.0 99:0.0 100:0.0 101:0.0 102:0.0 103:0.0 104:0.0 105:0.0 106:0.0 107:0.0 108:0.0 109:0.0 110:0.0 111:0.0 112:0.0 113:0.0 114:0.0 115:0.0 116:0.0 117:0.0 118:0.0 119:0.0 120:0.0 121:0.0 122:0.0 123:0.0 124:0.0 125:0.0 126:0.0 127:0.0 128:0.0 
0.0 0.0 0.0 0.0 0.0 0.0 0.0 0.0 0.0 0.0 0.0 0.0 0.0 0.0 0.0 0.0 0.0 0.0 0.060788327878810965 0.0 0.0 0.0 0.0 0.0 0.0 1:0.0 2:0.0 3:0.0 4:0.0 5:0.0 6:0.0 7:0.0 8:0.0 9:0.0 10:0.0 11:0.0 12:0.0 13:0.0 14:0.0 15:0.0 16:0.0 17:0.0 18:0.0 19:0.0 20:1.0 21:1.0 22:1.0 23:1.0 24:0.0 25:0.0 26:0.0 27:1.0 28:1.0 29:1.0 30:1.0 31:1.0 32:1.0 33:0.0 34:0.0 35:1.0 36:0.0 37:1.0 38:0.0 39:1.0 40:1.0 41:0.0 42:0.0 43:1.0 44:1.0 45:1.0 46:0.0 47:1.0 48:1.0 49:0.0 50:0.0 51:1.0 52:1.0 53:0.0 54:0.0 55:0.0 56:1.0 57:0.0 58:0.0 59:1.0 60:0.0 61:0.0 62:0.0 63:0.0 64:1.0 65:0.0 66:1.0 67:1.0 68:0.0 69:0.0 70:0.0 71:1.0 72:1.0 73:0.0 74:1.0 75:0.0 76:0.0 77:0.0 78:1.0 79:1.0 80:0.0 81:1.0 82:1.0 83:0.0 84:0.0 85:0.0 86:1.0 87:0.0 88:0.0 89:1.0 90:0.0 91:0.0 92:0.0 93:1.0 94:0.0 95:0.0 96:0.0 97:1.0 98:0.0 99:0.0 100:0.0 101:1.0 102:0.0 103:0.0 104:0.0 105:1.0 106:1.0 107:1.0 108:1.0 109:1.0 110:0.0 111:0.0 112:0.0 113:0.0 114:0.0 115:0.0 116:0.0 117:0.0 118:0.0 119:0.0 120:0.0 121:0.0 122:0.0 123:0.0 124:0.0 125:0.0 126:0.0 127:0.0 128:0.0 
0.0 0.0 0.0 0.0 0.0 0.1343988759358486 0.0 0.0 0.0 0.0 0.0 0.0 0.0 0.0 0.0 0.0 0.0 0.0 0.0 0.0 0.0 0.0 0.0 0.0 0.0 1:0.0 2:0.0 3:0.0 4:0.0 5:0.0 6:0.0 7:0.0 8:0.0 9:0.0 10:0.0 11:0.0 12:0.0 13:0.0 14:0.0 15:0.0 16:0.0 17:0.0 18:0.0 19:0.0 20:0.0 21:0.0 22:0.0 23:0.0 24:0.0 25:0.0 26:0.0 27:0.0 28:1.0 29:1.0 30:1.0 31:1.0 32:1.0 33:0.0 34:0.0 35:1.0 36:1.0 37:1.0 38:0.0 39:1.0 40:1.0 41:0.0 42:1.0 43:1.0 44:0.0 45:0.0 46:0.0 47:0.0 48:1.0 49:1.0 50:1.0 51:0.0 52:0.0 53:0.0 54:0.0 55:0.0 56:1.0 57:1.0 58:0.0 59:0.0 60:0.0 61:0.0 62:0.0 63:0.0 64:1.0 65:1.0 66:0.0 67:0.0 68:0.0 69:0.0 70:0.0 71:1.0 72:1.0 73:1.0 74:0.0 75:0.0 76:0.0 77:0.0 78:0.0 79:1.0 80:0.0 81:1.0 82:0.0 83:0.0 84:0.0 85:0.0 86:1.0 87:1.0 88:0.0 89:1.0 90:0.0 91:0.0 92:0.0 93:1.0 94:1.0 95:0.0 96:0.0 97:1.0 98:1.0 99:1.0 100:1.0 101:1.0 102:0.0 103:0.0 104:0.0 105:0.0 106:0.0 107:0.0 108:0.0 109:0.0 110:0.0 111:0.0 112:0.0 113:0.0 114:0.0 115:0.0 116:0.0 117:0.0 118:0.0 119:0.0 120:0.0 121:0.0 122:0.0 123:0.0 124:0.0 125:0.0 126:0.0 127:0.0 128:0.0 
0.16957167223236919 0.0 0.0 0.0 0.0 0.0 0.0 0.0 0.0 0.05020214402206837 0.0 0.0 0.0 0.0 0.0 0.0 0.0 0.0 0.0 0.0 0.0 0.0 0.0 0.03967809449467066 0.0 1:0.0 2:0.0 3:0.0 4:0.0 5:0.0 6:0.0 7:0.0 8:0.0 9:0.0 10:0.0 11:0.0 12:0.0 13:0.0 14:0.0 15:0.0 16:0.0 17:0.0 18:0.0 19:0.0 20:0.0 21:0.0 22:0.0 23:0.0 24:0.0 25:0.0 26:0.0 27:0.0 28:0.0 29:0.0 30:0.0 31:0.0 32:0.0 33:0.0 34:0.0 35:1.0 36:1.0 37:0.0 38:0.0 39:0.0 40:0.0 41:0.0 42:1.0 43:1.0 44:1.0 45:1.0 46:1.0 47:1.0 48:1.0 49:1.0 50:1.0 51:1.0 52:1.0 53:0.0 54:0.0 55:0.0 56:1.0 57:1.0 58:0.0 59:0.0 60:1.0 61:1.0 62:0.0 63:0.0 64:1.0 65:1.0 66:0.0 67:0.0 68:0.0 69:0.0 70:0.0 71:0.0 72:1.0 73:1.0 74:0.0 75:0.0 76:0.0 77:0.0 78:0.0 79:1.0 80:1.0 81:1.0 82:1.0 83:0.0 84:0.0 85:1.0 86:1.0 87:1.0 88:0.0 89:0.0 90:1.0 91:1.0 92:1.0 93:1.0 94:0.0 95:0.0 96:0.0 97:0.0 98:0.0 99:0.0 100:0.0 101:0.0 102:0.0 103:0.0 104:0.0 105:0.0 106:0.0 107:0.0 108:0.0 109:0.0 110:0.0 111:0.0 112:0.0 113:0.0 114:0.0 115:0.0 116:0.0 117:0.0 118:0.0 119:0.0 120:0.0 121:0.0 122:0.0 123:0.0 124:0.0 125:0.0 126:0.0 127:0.0 128:0.0 
0.0 0.0 0.0 0.0 0.0 0.0 0.02584969030235771 0.0 0.0 0.0 0.0 0.0 0.0 0.0 0.0 0.0 0.0 0.0 0.0 0.03439084291651737 0.0 0.0 0.0 0.0 0.0 1:0.0 2:0.0 3:0.0 4:0.0 5:0.0 6:0.0 7:0.0 8:0.0 9:0.0 10:0.0 11:0.0 12:0.0 13:0.0 14:0.0 15:0.0 16:0.0 17:1.0 18:1.0 19:0.0 20:0.0 21:0.0 22:0.0 23:0.0 24:0.0 25:1.0 26:1.0 27:1.0 28:1.0 29:0.0 30:0.0 31:0.0 32:0.0 33:0.0 34:0.0 35:0.0 36:0.0 37:1.0 38:1.0 39:0.0 40:0.0 41:0.0 42:0.0 43:0.0 44:0.0 45:0.0 46:1.0 47:1.0 48:0.0 49:0.0 50:0.0 51:1.0 52:1.0 53:0.0 54:0.0 55:0.0 56:1.0 57:0.0 58:1.0 59:1.0 60:0.0 61:0.0 62:0.0 63:0.0 64:1.0 65:0.0 66:1.0 67:0.0 68:0.0 69:0.0 70:0.0 71:0.0 72:1.0 73:1.0 74:1.0 75:0.0 76:0.0 77:0.0 78:0.0 79:0.0 80:1.0 81:1.0 82:0.0 83:0.0 84:0.0 85:0.0 86:0.0 87:0.0 88:1.0 89:1.0 90:1.0 91:0.0 92:0.0 93:0.0 94:0.0 95:1.0 96:0.0 97:0.0 98:1.0 99:1.0 100:0.0 101:0.0 102:1.0 103:1.0 104:0.0 105:0.0 106:0.0 107:1.0 108:1.0 109:1.0 110:1.0 111:0.0 112:0.0 113:0.0 114:0.0 115:0.0 116:0.0 117:0.0 118:0.0 119:0.0 120:0.0 121:0.0 122:0.0 123:0.0 124:0.0 125:0.0 126:0.0 127:0.0 128:0.0 
0.0 0.0 0.0 0.0 0.0 0.0 0.0 0.0 0.0 0.0 0.0 0.0 0.0 0.05439482976209109 0.0 0.0 0.0 0.0 0.0 0.0 0.0 0.0 0.0 0.0 0.0 1:0.0 2:0.0 3:0.0 4:0.0 5:0.0 6:0.0 7:0.0 8:0.0 9:0.0 10:0.0 11:0.0 12:0.0 13:0.0 14:0.0 15:0.0 16:0.0 17:0.0 18:0.0 19:0.0 20:0.0 21:0.0 22:0.0 23:0.0 24:0.0 25:0.0 26:0.0 27:0.0 28:0.0 29:0.0 30:0.0 31:0.0 32:0.0 33:1.0 34:1.0 35:1.0 36:1.0 37:1.0 38:1.0 39:0.0 40:0.0 41:1.0 42:1.0 43:0.0 44:0.0 45:0.0 46:1.0 47:1.0 48:0.0 49:1.0 50:0.0 51:0.0 52:0.0 53:0.0 54:0.0 55:1.0 56:1.0 57:1.0 58:0.0 59:0.0 60:0.0 61:0.0 62:0.0 63:0.0 64:1.0 65:1.0 66:0.0 67:0.0 68:0.0 69:0.0 70:0.0 71:0.0 72:1.0 73:1.0 74:1.0 75:0.0 76:0.0 77:0.0 78:0.0 79:0.0 80:1.0 81:0.0 82:1.0 83:0.0 84:0.0 85:0.0 86:0.0 87:1.0 88:1.0 89:0.0 90:1.0 91:1.0 92:1.0 93:1.0 94:1.0 95:1.0 96:0.0 97:0.0 98:0.0 99:0.0 100:0.0 101:0.0 102:0.0 103:0.0 104:0.0 105:0.0 106:0.0 107:0.0 108:0.0 109:0.0 110:0.0 111:0.0 112:0.0 113:0.0 114:0.0 115:0.0 116:0.0 117:0.0 118:0.0 119:0.0 120:0.0 121:0.0 122:0.0 123:0.0 124:0.0 125:0.0 126:0.0 127:0.0 128:0.0 
0.0 1.0 0.0 0.0 0.09507594938471457 0.0 0.0 0.007873066764555329 0.769612960358051 1.0 0.0 0.0 0.0 0.09036134364163732 0.0 0.05358868741511785 0.0 0.014529426418330238 0.0 0.0 0.0 0.0 0.0 0.0 0.04687564999495501 1:0.0 2:0.0 3:0.0 4:0.0 5:0.0 6:0.0 7:0.0 8:0.0 9:0.0 10:0.0 11:0.0 12:0.0 13:0.0 14:0.0 15:0.0 16:0.0 17:0.0 18:0.0 19:0.0 20:0.0 21:0.0 22:0.0 23:0.0 24:0.0 25:0.0 26:0.0 27:0.0 28:0.0 29:0.0 30:0.0 31:0.0 32:0.0 33:0.0 34:0.0 35:0.0 36:1.0 37:1.0 38:1.0 39:1.0 40:0.0 41:0.0 42:1.0 43:1.0 44:1.0 45:0.0 46:0.0 47:1.0 48:0.0 49:1.0 50:1.0 51:0.0 52:0.0 53:0.0 54:0.0 55:1.0 56:0.0 57:1.0 58:0.0 59:0.0 60:0.0 61:0.0 62:0.0 63:1.0 64:0.0 65:1.0 66:0.0 67:0.0 68:0.0 69:0.0 70:0.0 71:1.0 72:0.0 73:1.0 74:0.0 75:0.0 76:0.0 77:0.0 78:1.0 79:1.0 80:0.0 81:1.0 82:1.0 83:1.0 84:1.0 85:1.0 86:0.0 87:0.0 88:0.0 89:0.0 90:0.0 91:0.0 92:0.0 93:1.0 94:1.0 95:1.0 96:1.0 97:0.0 98:0.0 99:0.0 100:0.0 101:0.0 102:0.0 103:0.0 104:0.0 105:0.0 106:0.0 107:0.0 108:0.0 109:0.0 110:0.0 111:0.0 112:0.0 113:0.0 114:0.0 115:0.0 116:0.0 117:0.0 118:0.0 119:0.0 120:0.0 121:0.0 122:0.0 123:0.0 124:0.0 125:0.0 126:0.0 127:0.0 128:0.0 
0.0 0.0 0.9585082943642109 0.0 0.0 0.0 0.0 0.0495968225384963 0.0 0.0 0.0 0.0 0.0 0.0 0.0 0.0035015920211346153 0.0 0.0 0.0 0.0 0.0 0.0 0.0 0.02089112290754257 0.0 1:0.0 2:0.0 3:0.0 4:0.0 5:0.0 6:0.0 7:0.0 8:0.0 9:0.0 10:0.0 11:0.0 12:0.0 13:0.0 14:0.0 15:0.0 16:0.0 17:0.0 18:0.0 19:0.0 20:0.0 21:0.0 22:0.0 23:0.0 24:0.0 25:0.0 26:0.0 27:0.0 28:0.0 29:0.0 30:0.0 31:0.0 32:0.0 33:0.0 34:1.0 35:1.0 36:0.0 37:0.0 38:0.0 39:0.0 40:0.0 41:1.0 42:1.0 43:1.0 44:1.0 45:1.0 46:1.0 47:0.0 48:0.0 49:1.0 50:0.0 51:0.0 52:0.0 53:0.0 54:1.0 55:1.0 56:1.0 57:1.0 58:0.0 59:0.0 60:0.0 61:0.0 62:0.0 63:0.0 64:1.0 65:1.0 66:1.0 67:0.0 68:0.0 69:0.0 70:0.0 71:0.0 72:1.0 73:0.0 74:1.0 75:1.0 76:0.0 77:0.0 78:0.0 79:0.0 80:1.0 81:0.0 82:0.0 83:1.0 84:1.0 85:0.0 86:0.0 87:0.0 88:1.0 89:0.0 90:0.0 91:0.0 92:0.0 93:1.0 94:1.0 95:1.0 96:1.0 97:0.0 98:0.0 99:0.0 100:0.0 101:0.0 102:0.0 103:0.0 104:0.0 105:0.0 106:0.0 107:0.0 108:0.0 109:0.0 110:0.0 111:0.0 112:0.0 113:0.0 114:0.0 115:0.0 116:0.0 117:0.0 118:0.0 119:0.0 120:0.0 121:0.0 122:0.0 123:0.0 124:0.0 125:0.0 126:0.0 127:0.0 128:0.0 
0.0 0.3111488096939516 0.0 0.0 0.0 0.0 0.0 0.0 0.041469460939833475 0.0 0.0 0.0 0.0 0.0 0.0 0.0 0.0 0.0 0.0 0.0 0.0 0.0 0.0 0.0 0.0 1:0.0 2:0.0 3:0.0 4:0.0 5:0.0 6:0.0 7:0.0 8:0.0 9:0.0 10:0.0 11:0.0 12:0.0 13:0.0 14:0.0 15:0.0 16:0.0 17:0.0 18:0.0 19:0.0 20:1.0 21:1.0 22:1.0 23:1.0 24:1.0 25:0.0 26:0.0 27:1.0 28:1.0 29:0.0 30:0.0 31:1.0 32:1.0 33:0.0 34:0.0 35:1.0 36:0.0 37:0.0 38:0.0 39:0.0 40:1.0 41:0.0 42:0.0 43:1.0 44:0.0 45:0.0 46:0.0 47:0.0 48:1.0 49:0.0 50:1.0 51:1.0 52:0.0 53:0.0 54:0.0 55:0.0 56:1.0 57:0.0 58:1.0 59:0.0 60:0.0 61:0.0 62:0.0 63:0.0 64:1.0 65:1.0 66:1.0 67:0.0 68:0.0 69:0.0 70:0.0 71:0.0 72:1.0 73:1.0 74:0.0 75:0.0 76:0.0 77:0.0 78:0.0 79:1.0 80:1.0 81:1.0 82:0.0 83:0.0 84:0.0 85:0.0 86:1.0 87:1.0 88:0.0 89:1.0 90:0.0 91:0.0 92:0.0 93:0.0 94:1.0 95:0.0 96:0.0 97:1.0 98:0.0 99:0.0 100:0.0 101:1.0 102:0.0 103:0.0 104:0.0 105:1.0 106:1.0 107:1.0 108:1.0 109:1.0 110:0.0 111:0.0 112:0.0 113:0.0 114:0.0 115:0.0 116:0.0 117:0.0 118:0.0 119:0.0 120:0.0 121:0.0 122:0.0 123:0.0 124:0.0 125:0.0 126:0.0 127:0.0 128:0.0 
0.0 0.0 0.31901283438386957 0.0 0.0 0.0 0.0 0.0 0.0 0.17227995632433163 0.0 0.0 0.0 0.0 0.0 0.0 0.0 0.0 0.0 0.0 0.0 0.0 0.0 0.0 0.0 1:0.0 2:0.0 3:0.0 4:0.0 5:0.0 6:0.0 7:0.0 8:0.0 9:0.0 10:0.0 11:0.0 12:0.0 13:0.0 14:0.0 15:0.0 16:0.0 17:0.0 18:0.0 19:1.0 20:1.0 21:1.0 22:1.0 23:1.0 24:1.0 25:0.0 26:0.0 27:1.0 28:0.0 29:1.0 30:0.0 31:0.0 32:1.0 33:0.0 34:1.0 35:0.0 36:1.0 37:1.0 38:0.0 39:0.0 40:1.0 41:0.0 42:1.0 43:1.0 44:0.0 45:0.0 46:0.0 47:0.0 48:1.0 49:0.0 50:1.0 51:1.0 52:0.0 53:0.0 54:0.0 55:0.0 56:1.0 57:0.0 58:1.0 59:0.0 60:0.0 61:0.0 62:0.0 63:1.0 64:1.0 65:1.0 66:1.0 67:0.0 68:0.0 69:0.0 70:0.0 71:1.0 72:0.0 73:1.0 74:0.0 75:0.0 76:0.0 77:0.0 78:1.0 79:1.0 80:0.0 81:1.0 82:0.0 83:0.0 84:0.0 85:0.0 86:1.0 87:0.0 88:0.0 89:1.0 90:0.0 91:0.0 92:0.0 93:1.0 94:1.0 95:0.0 96:0.0 97:1.0 98:0.0 99:0.0 100:1.0 101:1.0 102:0.0 103:0.0 104:0.0 105:1.0 106:1.0 107:1.0 108:1.0 109:0.0 110:0.0 111:0.0 112:0.0 113:0.0 114:0.0 115:0.0 116:0.0 117:0.0 118:0.0 119:0.0 120:0.0 121:0.0 122:0.0 123:0.0 124:0.0 125:0.0 126:0.0 127:0.0 128:0.0 
0.0 0.0 0.3023544126409307 0.0 0.0 0.0 0.0 0.0 0.0 0.0 0.0 0.0 0.0 0.0 0.0 0.0 0.0 0.0 0.0 0.0 0.0 0.0 0.0 0.0 0.0 1:0.0 2:0.0 3:0.0 4:0.0 5:0.0 6:0.0 7:0.0 8:0.0 9:0.0 10:0.0 11:1.0 12:1.0 13:1.0 14:0.0 15:0.0 16:0.0 17:0.0 18:1.0 19:1.0 20:1.0 21:1.0 22:0.0 23:0.0 24:0.0 25:1.0 26:1.0 27:0.0 28:0.0 29:1.0 30:1.0 31:0.0 32:0.0 33:1.0 34:0.0 35:0.0 36:0.0 37:0.0 38:1.0 39:0.0 40:0.0 41:1.0 42:0.0 43:0.0 44:0.0 45:0.0 46:1.0 47:1.0 48:0.0 49:1.0 50:0.0 51:0.0 52:0.0 53:0.0 54:0.0 55:1.0 56:1.0 57:1.0 58:0.0 59:0.0 60:0.0 61:0.0 62:0.0 63:0.0 64:1.0 65:1.0 66:0.0 67:0.0 68:0.0 69:0.0 70:0.0 71:0.0 72:1.0 73:1.0 74:0.0 75:0.0 76:0.0 77:0.0 78:0.0 79:0.0 80:1.0 81:1.0 82:0.0 83:0.0 84:0.0 85:0.0 86:0.0 87:0.0 88:1.0 89:1.0 90:0.0 91:0.0 92:0.0 93:0.0 94:0.0 95:0.0 96:1.0 97:1.0 98:0.0 99:0.0 100:0.0 101:0.0 102:1.0 103:1.0 104:1.0 105:1.0 106:0.0 107:0.0 108:1.0 109:1.0 110:1.0 111:0.0 112:0.0 113:1.0 114:1.0 115:1.0 116:0.0 117:0.0 118:0.0 119:0.0 120:0.0 121:0.0 122:0.0 123:0.0 124:0.0 125:0.0 126:0.0 127:0.0 128:0.0 
0.0 0.0 0.03724407296963536 0.0 0.0 0.0 0.0 0.0 0.0 0.0 0.0 0.0 0.0 0.0 0.0 0.0 0.019637772780350303 0.0 0.0 0.0 0.0 0.0 0.0 0.0 0.0 1:0.0 2:0.0 3:0.0 4:0.0 5:0.0 6:0.0 7:0.0 8:0.0 9:0.0 10:0.0 11:0.0 12:0.0 13:0.0 14:0.0 15:0.0 16:1.0 17:0.0 18:0.0 19:0.0 20:0.0 21:0.0 22:0.0 23:0.0 24:1.0 25:0.0 26:0.0 27:1.0 28:1.0 29:1.0 30:1.0 31:1.0 32:1.0 33:0.0 34:0.0 35:1.0 36:0.0 37:0.0 38:0.0 39:0.0 40:1.0 41:0.0 42:1.0 43:1.0 44:0.0 45:0.0 46:0.0 47:0.0 48:1.0 49:1.0 50:1.0 51:0.0 52:0.0 53:0.0 54:0.0 55:0.0 56:1.0 57:1.0 58:0.0 59:0.0 60:0.0 61:0.0 62:0.0 63:0.0 64:1.0 65:1.0 66:0.0 67:0.0 68:0.0 69:0.0 70:0.0 71:0.0 72:1.0 73:1.0 74:0.0 75:0.0 76:0.0 77:0.0 78:0.0 79:0.0 80:1.0 81:1.0 82:0.0 83:0.0 84:0.0 85:0.0 86:0.0 87:0.0 88:1.0 89:1.0 90:0.0 91:0.0 92:0.0 93:0.0 94:0.0 95:0.0 96:1.0 97:1.0 98:0.0 99:0.0 100:0.0 101:0.0 102:0.0 103:1.0 104:1.0 105:1.0 106:1.0 107:1.0 108:0.0 109:1.0 110:1.0 111:0.0 112:0.0 113:0.0 114:0.0 115:1.0 116:1.0 117:1.0 118:0.0 119:0.0 120:0.0 121:0.0 122:0.0 123:0.0 124:0.0 125:0.0 126:0.0 127:0.0 128:0.0 
0.0 0.0 0.0 0.10487480443034021 0.0 0.0 0.0 0.0 0.0 0.0 0.04307385704168622 0.0 0.0 0.0 0.0 0.0 0.0 0.0 0.0 0.0 0.0749339448789987 0.0 0.0 0.0 0.0 1:0.0 2:0.0 3:0.0 4:0.0 5:0.0 6:0.0 7:0.0 8:0.0 9:0.0 10:0.0 11:0.0 12:0.0 13:0.0 14:0.0 15:0.0 16:0.0 17:0.0 18:0.0 19:0.0 20:0.0 21:0.0 22:0.0 23:0.0 24:0.0 25:0.0 26:0.0 27:0.0 28:1.0 29:1.0 30:1.0 31:0.0 32:0.0 33:0.0 34:0.0 35:1.0 36:0.0 37:0.0 38:1.0 39:1.0 40:0.0 41:0.0 42:1.0 43:0.0 44:0.0 45:0.0 46:0.0 47:1.0 48:0.0 49:1.0 50:0.0 51:0.0 52:0.0 53:0.0 54:0.0 55:1.0 56:1.0 57:1.0 58:0.0 59:0.0 60:0.0 61:0.0 62:0.0 63:0.0 64:1.0 65:1.0 66:0.0 67:0.0 68:0.0 69:0.0 70:0.0 71:0.0 72:1.0 73:1.0 74:0.0 75:0.0 76:0.0 77:0.0 78:0.0 79:0.0 80:1.0 81:1.0 82:0.0 83:0.0 84:0.0 85:0.0 86:0.0 87:0.0 88:1.0 89:1.0 90:0.0 91:0.0 92:0.0 93:0.0 94:0.0 95:1.0 96:1.0 97:1.0 98:1.0 99:1.0 100:1.0 101:1.0 102:1.0 103:1.0 104:0.0 105:0.0 106:0.0 107:0.0 108:0.0 109:0.0 110:0.0 111:0.0 112:0.0 113:0.0 114:0.0 115:0.0 116:0.0 117:0.0 118:0.0 119:0.0 120:0.0 121:0.0 122:0.0 123:0.0 124:0.0 125:0.0 126:0.0 127:0.0 128:0.0 
0.0 0.0 0.0 0.0 0.0 0.5286043209326786 0.0 0.0 0.0 0.0 0.0 0.0 0.0 0.0 0.0 0.0 0.0 0.0 0.0 0.0 0.0 0.0 0.0 0.0 0.0 1:0.0 2:0.0 3:0.0 4:0.0 5:0.0 6:0.0 7:0.0 8:0.0 9:0.0 10:0.0 11:0.0 12:0.0 13:0.0 14:0.0 15:0.0 16:0.0 17:0.0 18:1.0 19:1.0 20:1.0 21:1.0 22:1.0 23:0.0 24:0.0 25:0.0 26:0.0 27:0.0 28:1.0 29:0.0 30:1.0 31:1.0 32:1.0 33:0.0 34:0.0 35:1.0 36:1.0 37:0.0 38:0.0 39:0.0 40:1.0 41:0.0 42:0.0 43:1.0 44:0.0 45:0.0 46:0.0 47:0.0 48:1.0 49:0.0 50:1.0 51:1.0 52:0.0 53:0.0 54:0.0 55:0.0 56:1.0 57:0.0 58:1.0 59:0.0 60:0.0 61:0.0 62:0.0 63:0.0 64:1.0 65:1.0 66:0.0 67:0.0 68:0.0 69:0.0 70:0.0 71:0.0 72:1.0 73:1.0 74:0.0 75:0.0 76:0.0 77:0.0 78:0.0 79:0.0 80:1.0 81:1.0 82:0.0 83:0.0 84:0.0 85:0.0 86:0.0 87:0.0 88:1.0 89:1.0 90:0.0 91:0.0 92:0.0 93:0.0 94:0.0 95:1.0 96:1.0 97:1.0 98:0.0 99:0.0 100:0.0 101:0.0 102:1.0 103:1.0 104:0.0 105:1.0 106:1.0 107:1.0 108:1.0 109:1.0 110:1.0 111:0.0 112:0.0 113:0.0 114:0.0 115:0.0 116:0.0 117:0.0 118:0.0 119:0.0 120:0.0 121:0.0 122:0.0 123:0.0 124:0.0 125:0.0 126:0.0 127:0.0 128:0.0 
0.0 0.0 0.0 0.0 0.0 0.19676990007650272 0.0 0.0 0.0 0.0 0.0 0.0 0.0 0.0 0.02834250761727932 0.0 0.0 0.0 0.0 0.0 0.0 0.0 0.0 0.0 0.0 1:0.0 2:0.0 3:0.0 4:0.0 5:0.0 6:0.0 7:0.0 8:0.0 9:0.0 10:1.0 11:0.0 12:0.0 13:0.0 14:0.0 15:0.0 16:0.0 17:1.0 18:1.0 19:0.0 20:0.0 21:0.0 22:0.0 23:0.0 24:0.0 25:1.0 26:0.0 27:0.0 28:0.0 29:0.0 30:0.0 31:0.0 32:0.0 33:1.0 34:1.0 35:1.0 36:1.0 37:1.0 38:1.0 39:0.0 40:0.0 41:1.0 42:0.0 43:0.0 44:0.0 45:0.0 46:1.0 47:1.0 48:0.0 49:1.0 50:0.0 51:0.0 52:0.0 53:0.0 54:0.0 55:1.0 56:1.0 57:1.0 58:0.0 59:0.0 60:0.0 61:0.0 62:0.0 63:0.0 64:1.0 65:1.0 66:0.0 67:0.0 68:0.0 69:0.0 70:0.0 71:0.0 72:1.0 73:1.0 74:0.0 75:0.0 76:0.0 77:0.0 78:0.0 79:0.0 80:1.0 81:1.0 82:0.0 83:0.0 84:0.0 85:0.0 86:0.0 87:0.0 88:1.0 89:1.0 90:0.0 91:0.0 92:0.0 93:0.0 94:0.0 95:0.0 96:1.0 97:1.0 98:0.0 99:0.0 100:0.0 101:0.0 102:0.0 103:1.0 104:1.0 105:1.0 106:0.0 107:0.0 108:0.0 109:0.0 110:1.0 111:1.0 112:0.0 113:1.0 114:1.0 115:1.0 116:1.0 117:1.0 118:1.0 119:0.0 120:0.0 121:0.0 122:0.0 123:0.0 124:0.0 125:0.0 126:0.0 127:0.0 128:0.0 
