svm_type c_svc
kernel_type linear
nr_class 26
total_sv 3711
rho -0.5323271697251087 -0.31541214888548835 0.5504752619917929 -0.5157798902467519 1.2711862435976113 0.9035860613908849 -0.23310651966725163 0.9813679810332493 1.2083222237863744 0.38761268294581624 0.8466580880858559 1.1230951518270396 0.5181020829820874 1.1787731740969083 0.8310828239437367 0.031920676280080246 0.7805320479028172 0.38870593839023254 0.025913005171898332 0.06446772716633618 -0.21985325511276574 -0.8054863367043305 0.03353316487824135 -1.062375268968604 -0.10289595160751482 1.010722395699434 2.231178114944132 -0.14076818744541922 0.953536172377467 0.4240012982804406 -0.20784668545507157 1.1309366213108552 0.6529933115239189 0.8886746761265376 0.46347991710225944 0.9246059867412778 0.2850630365313786 1.2840936908721807 0.5559516508941119 0.2779185592519096 1.0100643362960438 0.5614818307887198 -0.037482901883739934 0.06805019184624489 -0.04534208996522731 -0.5506776855779806 0.296141175397359 -0.8140934203835634 0.05703684968630151 0.9642966253508763 -0.28278647553194614 1.353429790279693 0.5946153853994911 -0.444776969788845 1.0016816991767383 1.0088141814555478 0.5123056007213318 0.7801088060982465 1.1818430125452946 0.25827316127350763 1.4036727081141345 0.9294386015228476 0.03143148227336687 0.506818220737147 0.7073161535622626 -0.18150097850178462 -0.058856584934888316 -0.2953024095142438 -0.7983257320241705 -0.3233724547615833 -1.1684767895529258 -0.28634303707612324 -0.5488366327959769 1.0874371767277586 -0.10112075929501717 -0.49375918446418626 1.0386628809095182 0.7923375190974028 -0.06615146221433688 0.16299229962482317 0.8991754654515861 0.17790868723811012 0.9445664507792616 0.5545542195113911 -0.15256315032802906 0.09897650359757097 0.27622810702045003 -0.31107674897356086 -0.20570613007232263 -0.3523883068125537 -0.8627819448380667 -0.40589679064504863 -1.1850549214158752 -0.19189852524217876 1.871944890218803 1.1024966439193622 0.0034930867452634866 0.7901310256294211 0.7301828576141937 0.6991083702118256 1.1511774695850534 1.6970109639241544 0.7703700633421258 1.6607260648089532 1.2461408108752419 0.47351318536018444 0.6683649594639427 0.8884197308157168 0.24464394943258222 0.37350059661650903 -0.5025921741607672 -0.6746102095158071 0.3910616914079536 -0.539547316082708 0.18421954423520245 -1.7609420862302914 -1.732456730839701 -1.0742216668415872 -1.009860585825306 -1.5120409580772851 -1.3312246469943074 -1.3982758655098666 -1.7545496263900777 -1.4850815982585266 -1.4097315163188264 -1.1702832599118032 -1.1074969000490553 -1.42196412031836 -1.890399184142705 -1.6277480223044323 -1.194767679951594 -1.3946909481234986 -1.338662721519468 -1.161137090407738 -1.671821254705786 -0.46393609681386627 0.9237688558624455 0.4330432318925084 0.23095530511534976 0.540459445064083 1.6258316484131292 0.3923289994543944 1.6401815711191732 0.6980784986749394 -0.2552004028576494 0.06917658268146104 0.40896593465396996 -0.03853013717128709 -0.11040074587666891 -0.6935918320209683 -1.0946394847134762 -0.2521990431509323 -1.1426007016075759 -0.05606273604579536 0.6195188957496329 0.876607506301842 0.5576925340210572 0.8814925963042468 1.510535971363446 0.5986538954748658 1.2930364945100172 0.7240528745459185 0.1552896585733229 0.9049335874136382 0.7326114859108732 -0.05987995462265146 0.8210533785158034 -0.4258145625234885 -0.9220268509624004 0.1632081475666905 -0.6091023904727658 0.22224110221065244 -0.24360816779377162 -1.5809503431241145 -0.23440094401111738 0.669927612416569 -0.5386532509047235 0.4517697162337899 -0.23357232495876548 -0.677796741126204 -0.6541400292590122 -0.4858751615141097 -1.879348309077982 -0.5164069881452324 -0.6226431332476456 -1.0813517881035695 -0.8574757518176565 -1.0783614530118193 -0.9430166180796031 -1.6112510118647314 0.14041215274504293 0.6116598219450399 -0.19258486438694036 0.5656787841259647 0.2284068401579036 -0.48580191549176605 -0.38436482113048387 -0.15550784714012303 -0.8644972435268995 -0.5645303421121308 -0.47765983274886753 -0.9050601944890074 -0.45292850666843876 -1.0326735003332912 -1.0405213716095119 0.4382619880114333 1.3314184715299293 -0.016246347657851868 1.488140335965602 0.6582142454783474 -0.22422411809720047 0.3313989324321736 0.24285632272773044 -0.8218126303223817 -0.3298086128143919 -0.44574734074919425 -0.9918503692252723 -0.6478687631292898 -1.153167986422042 -0.7341369002576282 1.0210869974476566 -0.2866419223815275 0.8628373159061183 0.10630399857408829 -0.5643156042725814 -0.21307254315689172 -0.19222535475436453 -0.8106396530761454 -0.5760159845545169 -0.8850149698056133 -1.2234914230679867 -0.7508434945247845 -0.9356307415174896 -0.6540384790591797 -1.4669289480746324 -1.0397695050530398 -1.0190397655142374 -0.8953760707065194 -0.8009791282039851 -1.2440229236944769 -1.6802973552829705 -1.2590502901067644 -1.0401180832450072 -1.2888853447936475 -1.1971223150644161 -1.1009630441811944 -1.4343376673939308 1.0952385882565525 0.2712721095902847 -0.25806779209157094 0.06759722599445836 0.07129977217566932 -0.9200291058065775 -0.3151097089519315 -0.5333950040589563 -1.1542741549919584 -0.4570026461427726 -0.8549175720936544 -0.5561508441946345 -0.9697755258243145 -1.016469919601109 -0.8485326049636431 -1.450855843288351 -1.7414133785930033 -1.1053702886690437 -0.9549480780816461 -1.3475307492947324 -1.5424042204905777 -1.3009084767231434 -1.2475508778486142 -0.4253493606052425 -0.38776151031445094 -0.4119248684478711 -1.0767840771021147 -0.4762440633133583 -0.7685368539880155 -1.2024404139335478 -0.8155457490671784 -0.8992090308075493 -0.6470470177336967 0.5617548484263977 0.25812123305665563 -0.39324336489909106 0.11364320238066365 -0.18462063670449122 -0.7357806964430177 -0.13686034090673696 -1.1346508548524352 -0.11602079674665386 0.1421655352309665 -0.5447681212610767 -0.40225392905430507 -0.4034277615605858 -0.8192797123456952 -0.35220207652456326 -1.4044057424976668 -0.6203357254591992 -0.6026426881911838 -0.4748035645119675 -0.5946546409342166 -1.1452886528271875 -0.9915509804435793 -1.0686975051689205 -0.678994400826337 0.3368247734789257 -0.13828356766765487 -1.0277368918610335 0.06467574877858698 -0.40615061530737884 0.283795570731776 -0.44199817707782485 -0.9899775560542712 -0.14030600505387358 -0.8630565511262277 -0.4283858882267689 -0.7606705703054463 0.16181405665603302 -0.3714585928170313 0.18189184988519472 0.7293689732313972 0.2038902231131379 0.8484558074516164 -0.6951946210588669 -0.03486984119279398 0.7657829698877905
label 14 12 0 13 3 8 6 1 17 2 4 18 11 5 19 24 21 20 25 15 7 9 16 23 22 10
nr_sv 253 133 235 346 81 267 221 83 227 158 309 89 228 66 150 119 58 201 105 126 75 16 13 47 20 85
SV
9.101035964554505E-4 0.0 0.01 0.0 0.0027219693091157086 0.01 0.006815892056583779 0.008657381178252715 0.0 0.0 0.00812089169968723 0.00477881760101854 0.0 0.0 0.01 0.0 0.01 0.0 0.01 0.006581776081532198 0.0 0.0 0.0 0.0 9.022483296141952E-4 1:0.0 2:0.0 3:0.0 4:0.0 5:1.0 6:1.0 7:1.0 8:1.0 9:0.0 10:0.0 11:1.0 12:1.0 13:1.0 14:0.0 15:0.0 16:1.0 17:0.0 18:1.0 19:1.0 20:0.0 21:0.0 22:0.0 23:0.0 24:1.0 25:1.0 26:1.0 27:0.0 28:0.0 29:0.0 30:0.0 31:0.0 32:1.0 33:1.0 34:0.0 35:0.0 36:0.0 37:0.0 38:0.0 39:0.0 40:1.0 41:1.0 42:0.0 43:0.0 44:0.0 45:0.0 46:0.0 47:0.0 48:1.0 49:1.0 50:0.0 51:0.0 52:0.0 53:0.0 54:0.0 55:0.0 56:1.0 57:1.0 58:0.0 59:0.0 60:0.0 61:0.0 62:0.0 63:0.0 64:1.0 65:1.0 66:0.0 67:0.0 68:0.0 69:0.0 70:0.0 71:0.0 72:1.0 73:1.0 74:0.0 75:0.0 76:0.0 77:0.0 78:0.0 79:0.0 80:1.0 81:1.0 82:0.0 83:0.0 84:0.0 85:0.0 86:0.0 87:0.0 88:1.0 89:1.0 90:0.0 91:0.0 92:0.0 93:0.0 94:0.0 95:0.0 96:1.0 97:1.0 98:0.0 99:0.0 100:0.0 101:0.0 102:0.0 103:0.0 104:1.0 105:1.0 106:0.0 107:0.0 108:0.0 109:0.0 110:0.0 111:1.0 112:1.0 113:1.0 114:1.0 115:0.0 116:0.0 117:0.0 118:0.0 119:1.0 120:0.0 121:0.0 122:1.0 123:1.0 124:1.0 125:1.0 126:1.0 127:1.0 128:0.0 
0.0 0.0 0.0 0.0 0.0 0.0015917095219737563 0.0 0.0 0.0 0.0 0.0 0.0 0.0 0.0 0.0 0.0 0.01 0.0 0.0 0.0 0.0 0.0 0.0 0.0 0.0 1:0.0 2:0.0 3:0.0 4:0.0 5:0.0 6:0.0 7:0.0 8:0.0 9:0.0 10:0.0 11:0.0 12:0.0 13:0.0 14:0.0 15:0.0 16:0.0 17:0.0 18:0.0 19:0.0 20:0.0 21:0.0 22:0.0 23:0.0 24:0.0 25:0.0 26:0.0 27:0.0 28:1.0 29:1.0 30:1.0 31:1.0 32:0.0 33:1.0 34:1.0 35:1.0 36:1.0 37:0.0 38:0.0 39:1.0 40:1.0 41:1.0 42:0.0 43:0.0 44:0.0 45:0.0 46:0.0 47:0.0 48:1.0 49:1.0 50:0.0 51:0.0 52:0.0 53:0.0 54:0.0 55:0.0 56:1.0 57:1.0 58:0.0 59:0.0 60:0.0 61:0.0 62:0.0 63:0.0 64:1.0 65:1.0 66:0.0 67:0.0 68:0.0 69:0.0 70:0.0 71:0.0 72:1.0 73:0.0 74:0.0 75:0.0 76:0.0 77:0.0 78:0.0 79:1.0 80:1.0 81:1.0 82:0.0 83:0.0 84:0.0 85:0.0 86:1.0 87:1.0 88:0.0 89:1.0 90:0.0 91:0.0 92:1.0 93:1.0 94:1.0 95:0.0 96:0.0 97:1.0 98:1.0 99:1.0 100:1.0 101:0.0 102:0.0 103:0.0 104:0.0 105:0.0 106:0.0 107:0.0 108:0.0 109:0.0 110:0.0 111:0.0 112:0.0 113:0.0 114:0.0 115:0.0 116:0.0 117:0.0 118:0.0 119:0.0 120:0.0 121:0.0 122:0.0 123:0.0 124:0.0 125:0.0 126:0.0 127:0.0 128:0.0 
0.0 0.0 0.0 0.0 0.0 0.0 0.0 0.0 0.0 0.0 0.0 0.0 0.0 0.0 0.0 0.0 0.01 0.0 0.0 0.0 0.0 0.0 0.0 1.486816770475861E-4 0.0 1:0.0 2:0.0 3:0.0 4:0.0 5:0.0 6:0.0 7:0.0 8:0.0 9:0.0 10:0.0 11:0.0 12:0.0 13:0.0 14:0.0 15:0.0 16:0.0 17:0.0 18:0.0 19:0.0 20:0.0 21:0.0 22:0.0 23:0.0 24:0.0 25:1.0 26:0.0 27:0.0 28:0.0 29:0.0 30:0.0 31:0.0 32:0.0 33:1.0 34:0.0 35:1.0 36:1.0 37:1.0 38:1.0 39:0.0 40:0.0 41:1.0 42:0.0 43:0.0 44:0.0 45:0.0 46:1.0 47:1.0 48:1.0 49:1.0 50:0.0 51:0.0 52:0.0 53:0.0 54:0.0 55:0.0 56:1.0 57:1.0 58:0.0 59:0.0 60:0.0 61:0.0 62:0.0 63:0.0 64:1.0 65:1.0 66:0.0 67:0.0 68:0.0 69:0.0 70:0.0 71:0.0 72:1.0 73:1.0 74:0.0 75:0.0 76:0.0 77:0.0 78:0.0 79:0.0 80:1.0 81:1.0 82:0.0 83:0.0 84:0.0 85:0.0 86:0.0 87:1.0 88:1.0 89:1.0 90:1.0 91:1.0 92:0.0 93:1.0 94:1.0 95:1.0 96:0.0 97:0.0 98:0.0 99:1.0 100:1.0 101:1.0 102:0.0 103:0.0 104:0.0 105:0.0 106:0.0 107:0.0 108:0.0 109:0.0 110:0.0 111:0.0 112:0.0 113:0.0 114:0.0 115:0.0 116:0.0 117:0.0 118:0.0 119:0.0 120:0.0 121:0.0 122:0.0 123:0.0 124:0.0 125:0.0 126:0.0 127:0.0 128:0.0 
0.0 0.0 0.01 0.0 0.0 0.0 0.0 0.0 0.0 0.0 0.0 0.0 0.0 0.0 0.0 0.0 0.0 0.0 0.0 0.0 0.0 0.0 0.0 0.0 0.0 1:0.0 2:0.0 3:0.0 4:0.0 5:0.0 6:0.0 7:0.0 8:0.0 9:0.0 10:0.0 11:0.0 12:0.0 13:0.0 14:0.0 15:0.0 16:0.0 17:0.0 18:0.0 19:0.0 20:0.0 21:0.0 22:0.0 23:0.0 24:0.0 25:0.0 26:0.0 27:0.0 28:0.0 29:0.0 30:0.0 31:0.0 32:0.0 33:0.0 34:0.0 35:1.0 36:1.0 37:1.0 38:0.0 39:0.0 40:0.0 41:1.0 42:1.0 43:1.0 44:1.0 45:1.0 46:1.0 47:1.0 48:0.0 49:1.0 50:0.0 51:0.0 52:1.0 53:0.0 54:0.0 55:1.0 56:1.0 57:1.0 58:0.0 59:0.0 60:0.0 61:0.0 62:0.0 63:0.0 64:1.0 65:1.0 66:0.0 67:0.0 68:0.0 69:0.0 70:0.0 71:0.0 72:1.0 73:1.0 74:1.0 75:0.0 76:0.0 77:0.0 78:0.0 79:0.0 80:1.0 81:0.0 82:1.0 83:1.0 84:1.0 85:0.0 86:1.0 87:1.0 88:1.0 89:0.0 90:0.0 91:0.0 92:1.0 93:1.0 94:1.0 95:0.0 96:0.0 97:0.0 98:0.0 99:0.0 100:0.0 101:0.0 102:0.0 103:0.0 104:0.0 105:0.0 106:0.0 107:0.0 108:0.0 109:0.0 110:0.0 111:0.0 112:0.0 113:0.0 114:0.0 115:0.0 116:0.0 117:0.0 118:0.0 119:0.0 120:0.0 121:0.0 122:0.0 123:0.0 124:0.0 125:0.0 126:0.0 127:0.0 128:0.0 
6.213725322983889E-5 0.01 0.01 0.0 0.0 0.0 0.0 0.0 0.0 0.01 0.0 0.0 0.0 0.0 0.0 0.0 0.0 0.0 0.0 0.0 0.0 0.0 0.0 0.0 0.0 1:0.0 2:0.0 3:0.0 4:0.0 5:0.0 6:0.0 7:0.0 8:0.0 9:0.0 10:0.0 11:0.0 12:0.0 13:0.0 14:0.0 15:0.0 16:0.0 17:0.0 18:0.0 19:0.0 20:0.0 21:0.0 22:0.0 23:0.0 24:0.0 25:0.0 26:0.0 27:0.0 28:0.0 29:0.0 30:0.0 31:0.0 32:0.0 33:0.0 34:0.0 35:1.0 36:1.0 37:1.0 38:1.0 39:1.0 40:1.0 41:0.0 42:0.0 43:1.0 44:1.0 45:1.0 46:0.0 47:0.0 48:1.0 49:0.0 50:0.0 51:1.0 52:1.0 53:0.0 54:0.0 55:0.0 56:1.0 57:0.0 58:1.0 59:1.0 60:0.0 61:0.0 62:0.0 63:0.0 64:1.0 65:0.0 66:1.0 67:0.0 68:0.0 69:0.0 70:0.0 71:0.0 72:1.0 73:1.0 74:1.0 75:0.0 76:0.0 77:0.0 78:0.0 79:0.0 80:1.0 81:1.0 82:0.0 83:0.0 84:0.0 85:0.0 86:0.0 87:1.0 88:1.0 89:1.0 90:1.0 91:1.0 92:1.0 93:1.0 94:1.0 95:1.0 96:0.0 97:0.0 98:0.0 99:0.0 100:0.0 101:0.0 102:0.0 103:0.0 104:0.0 105:0.0 106:0.0 107:0.0 108:0.0 109:0.0 110:0.0 111:0.0 112:0.0 113:0.0 114:0.0 115:0.0 116:0.0 117:0.0 118:0.0 119:0.0 120:0.0 121:0.0 122:0.0 123:0.0 124:0.0 125:0.0 126:0.0 127:0.0 128:0.0 
0.0 0.01 0.0 0.0 0.0 0.0 0.0 0.0 0.01 0.009540001808077151 0.01 0.001179199612888624 0.0 0.00642739656563793 0.0 0.01 0.01 0.0 0.0 0.0 0.0 0.0013686309050225038 0.0 6.82677179465735E-4 0.00643175249117684 1:0.0 2:0.0 3:0.0 4:0.0 5:0.0 6:0.0 7:0.0 8:0.0 9:0.0 10:0.0 11:0.0 12:0.0 13:0.0 14:0.0 15:0.0 16:0.0 17:0.0 18:1.0 19:1.0 20:1.0 21:1.0 22:1.0 23:0.0 24:0.0 25:1.0 26:0.0 27:0.0 28:0.0 29:0.0 30:1.0 31:0.0 32:1.0 33:1.0 34:0.0 35:0.0 36:0.0 37:0.0 38:0.0 39:0.0 40:1.0 41:1.0 42:0.0 43:0.0 44:0.0 45:0.0 46:0.0 47:0.0 48:1.0 49:1.0 50:0.0 51:0.0 52:0.0 53:0.0 54:0.0 55:0.0 56:1.0 57:1.0 58:0.0 59:0.0 60:0.0 61:0.0 62:0.0 63:1.0 64:1.0 65:1.0 66:0.0 67:0.0 68:0.0 69:0.0 70:0.0 71:1.0 72:0.0 73:1.0 74:0.0 75:0.0 76:0.0 77:0.0 78:1.0 79:1.0 80:0.0 81:1.0 82:0.0 83:0.0 84:0.0 85:0.0 86:1.0 87:0.0 88:0.0 89:1.0 90:0.0 91:0.0 92:0.0 93:1.0 94:1.0 95:0.0 96:0.0 97:1.0 98:0.0 99:0.0 100:1.0 101:1.0 102:0.0 103:0.0 104:0.0 105:0.0 106:1.0 107:1.0 108:1.0 109:0.0 110:0.0 111:0.0 112:0.0 113:0.0 114:0.0 115:0.0 116:0.0 117:0.0 118:0.0 119:0.0 120:0.0 121:0.0 122:0.0 123:0.0 124:0.0 125:0.0 126:0.0 127:0.0 128:0.0 
0.0 0.0 0.0 0.0 0.0 0.0 0.0 0.0 0.0 0.0 0.0 0.0 0.0 0.0 0.0 0.0 0.0 0.0 0.0 0.0 0.0 0.003366052195306932 0.0 0.0 0.0 1:0.0 2:0.0 3:0.0 4:0.0 5:0.0 6:0.0 7:0.0 8:0.0 9:0.0 10:0.0 11:0.0 12:0.0 13:0.0 14:0.0 15:0.0 16:0.0 17:0.0 18:1.0 19:1.0 20:1.0 21:1.0 22:1.0 23:0.0 24:0.0 25:1.0 26:1.0 27:0.0 28:0.0 29:0.0 30:1.0 31:1.0 32:0.0 33:1.0 34:1.0 35:1.0 36:1.0 37:0.0 38:0.0 39:1.0 40:1.0 41:1.0 42:1.0 43:1.0 44:0.0 45:0.0 46:0.0 47:0.0 48:1.0 49:1.0 50:0.0 51:0.0 52:0.0 53:0.0 54:0.0 55:0.0 56:1.0 57:1.0 58:0.0 59:0.0 60:0.0 61:0.0 62:0.0 63:0.0 64:1.0 65:1.0 66:0.0 67:0.0 68:0.0 69:0.0 70:0.0 71:0.0 72:1.0 73:1.0 74:0.0 75:0.0 76:0.0 77:0.0 78:0.0 79:1.0 80:1.0 81:1.0 82:0.0 83:0.0 84:0.0 85:0.0 86:0.0 87:1.0 88:0.0 89:1.0 90:0.0 91:0.0 92:0.0 93:0.0 94:1.0 95:1.0 96:0.0 97:1.0 98:0.0 99:0.0 100:0.0 101:1.0 102:1.0 103:0.0 104:0.0 105:1.0 106:1.0 107:1.0 108:1.0 109:1.0 110:0.0 111:0.0 112:0.0 113:0.0 114:0.0 115:0.0 116:0.0 117:0.0 118:0.0 119:0.0 120:0.0 121:0.0 122:0.0 123:0.0 124:0.0 125:0.0 126:0.0 127:0.0 128:0.0 
0.002132678545300547 0.01 0.006315756343117817 0.01 0.01 0.01 0.01 0.01 0.01 0.01 0.01 0.01 0.01 0.01 0.01 0.01 0.01 0.01 0.01 0.01 0.01 0.005342901438085733 0.01 0.0 0.01 1:0.0 2:0.0 3:0.0 4:0.0 5:0.0 6:0.0 7:1.0 8:1.0 9:0.0 10:0.0 11:0.0 12:0.0 13:0.0 14:1.0 15:1.0 16:1.0 17:0.0 18:0.0 19:0.0 20:0.0 21:0.0 22:1.0 23:1.0 24:1.0 25:0.0 26:0.0 27:0.0 28:0.0 29:1.0 30:0.0 31:1.0 32:0.0 33:0.0 34:0.0 35:0.0 36:0.0 37:1.0 38:0.0 39:1.0 40:0.0 41:0.0 42:0.0 43:0.0 44:1.0 45:1.0 46:0.0 47:1.0 48:0.0 49:0.0 50:0.0 51:0.0 52:1.0 53:0.0 54:0.0 55:1.0 56:0.0 57:0.0 58:0.0 59:1.0 60:0.0 61:0.0 62:1.0 63:1.0 64:0.0 65:0.0 66:0.0 67:1.0 68:0.0 69:0.0 70:1.0 71:0.0 72:0.0 73:0.0 74:1.0 75:0.0 76:0.0 77:1.0 78:1.0 79:0.0 80:0.0 81:0.0 82:1.0 83:0.0 84:0.0 85:1.0 86:0.0 87:0.0 88:0.0 89:1.0 90:1.0 91:0.0 92:1.0 93:1.0 94:0.0 95:0.0 96:0.0 97:1.0 98:0.0 99:1.0 100:1.0 101:0.0 102:0.0 103:0.0 104:0.0 105:1.0 106:0.0 107:1.0 108:0.0 109:0.0 110:0.0 111:0.0 112:0.0 113:1.0 114:1.0 115:1.0 116:0.0 117:0.0 118:0.0 119:0.0 120:0.0 121:1.0 122:1.0 123:0.0 124:0.0 125:0.0 126:0.0 127:0.0 128:0.0 
0.0 0.01 0.01 0.0 0.0 0.01 0.0 0.0 0.0 0.0 0.0 0.0 0.0 0.0 0.0 0.0 0.0 0.0 0.0 0.0 0.0 0.0 0.0 0.0 0.0 1:0.0 2:0.0 3:0.0 4:0.0 5:0.0 6:0.0 7:0.0 8:0.0 9:0.0 10:0.0 11:0.0 12:0.0 13:0.0 14:0.0 15:0.0 16:0.0 17:0.0 18:0.0 19:0.0 20:0.0 21:0.0 22:0.0 23:0.0 24:0.0 25:0.0 26:0.0 27:1.0 28:1.0 29:1.0 30:1.0 31:0.0 32:0.0 33:0.0 34:1.0 35:1.0 36:1.0 37:1.0 38:1.0 39:0.0 40:0.0 41:0.0 42:1.0 43:0.0 44:0.0 45:0.0 46:1.0 47:1.0 48:0.0 49:1.0 50:1.0 51:0.0 52:0.0 53:0.0 54:0.0 55:1.0 56:1.0 57:1.0 58:0.0 59:0.0 60:0.0 61:0.0 62:0.0 63:0.0 64:1.0 65:1.0 66:0.0 67:0.0 68:0.0 69:0.0 70:0.0 71:0.0 72:1.0 73:1.0 74:0.0 75:0.0 76:0.0 77:0.0 78:0.0 79:0.0 80:1.0 81:1.0 82:0.0 83:0.0 84:0.0 85:0.0 86:0.0 87:0.0 88:1.0 89:1.0 90:0.0 91:0.0 92:0.0 93:0.0 94:0.0 95:1.0 96:1.0 97:1.0 98:1.0 99:1.0 100:1.0 101:1.0 102:1.0 103:1.0 104:0.0 105:0.0 106:0.0 107:0.0 108:0.0 109:0.0 110:0.0 111:0.0 112:0.0 113:0.0 114:0.0 115:0.0 116:0.0 117:0.0 118:0.0 119:0.0 120:0.0 121:0.0 122:0.0 123:0.0 124:0.0 125:0.0 126:0.0 127:0.0 128:0.0 
0.0 0.004835229625528198 0.01 0.01 0.01 0.01 0.01 0.0021105772987076296 0.0 0.0028274514228466972 0.01 0.01 0.003535856071177782 0.01 0.01 0.0014499388762450667 0.0 0.01 0.01 0.01 0.01 0.01 0.004507035135262965 0.0 0.01 1:0.0 2:1.0 3:1.0 4:0.0 5:0.0 6:0.0 7:0.0 8:0.0 9:0.0 10:1.0 11:1.0 12:1.0 13:1.0 14:0.0 15:0.0 16:0.0 17:1.0 18:1.0 19:1.0 20:0.0 21:1.0 22:1.0 23:0.0 24:0.0 25:0.0 26:1.0 27:0.0 28:0.0 29:0.0 30:1.0 31:0.0 32:0.0 33:0.0 34:1.0 35:0.0 36:0.0 37:0.0 38:1.0 39:1.0 40:0.0 41:0.0 42:1.0 43:0.0 44:0.0 45:0.0 46:0.0 47:1.0 48:0.0 49:0.0 50:1.0 51:0.0 52:0.0 53:0.0 54:0.0 55:1.0 56:0.0 57:0.0 58:1.0 59:0.0 60:0.0 61:0.0 62:0.0 63:1.0 64:1.0 65:0.0 66:1.0 67:0.0 68:0.0 69:0.0 70:0.0 71:0.0 72:1.0 73:0.0 74:1.0 75:0.0 76:0.0 77:0.0 78:0.0 79:0.0 80:1.0 81:0.0 82:1.0 83:0.0 84:0.0 85:0.0 86:0.0 87:0.0 88:1.0 89:0.0 90:1.0 91:0.0 92:0.0 93:0.0 94:0.0 95:1.0 96:1.0 97:0.0 98:1.0 99:0.0 100:0.0 101:0.0 102:0.0 103:1.0 104:0.0 105:0.0 106:1.0 107:1.0 108:0.0 109:0.0 110:0.0 111:1.0 112:0.0 113:0.0 114:0.0 115:1.0 116:0.0 117:0.0 118:1.0 119:1.0 120:0.0 121:0.0 122:0.0 123:1.0 124:1.0 125:1.0 126:1.0 127:0.0 128:0.0 
0.0 0.006935213020830442 0.0 0.0 0.0 0.0 0.0 0.0 0.0 0.0 0.0 0.0 0.0 0.0 0.0 0.0 0.01 0.0 0.0 0.0 0.0 0.0 0.0 0.0075685521324243155 0.0 1:0.0 2:0.0 3:0.0 4:0.0 5:0.0 6:0.0 7:0.0 8:0.0 9:0.0 10:0.0 11:0.0 12:0.0 13:0.0 14:0.0 15:0.0 16:0.0 17:0.0 18:0.0 19:0.0 20:0.0 21:0.0 22:0.0 23:0.0 24:0.0 25:0.0 26:0.0 27:0.0 28:0.0 29:0.0 30:0.0 31:0.0 32:0.0 33:0.0 34:0.0 35:1.0 36:1.0 37:1.0 38:1.0 39:0.0 40:0.0 41:1.0 42:0.0 43:0.0 44:0.0 45:0.0 46:1.0 47:1.0 48:1.0 49:1.0 50:0.0 51:0.0 52:0.0 53:0.0 54:0.0 55:0.0 56:1.0 57:1.0 58:0.0 59:0.0 60:0.0 61:0.0 62:0.0 63:0.0 64:1.0 65:1.0 66:0.0 67:0.0 68:0.0 69:0.0 70:0.0 71:0.0 72:1.0 73:1.0 74:0.0 75:0.0 76:0.0 77:0.0 78:1.0 79:1.0 80:1.0 81:1.0 82:0.0 83:0.0 84:1.0 85:1.0 86:1.0 87:0.0 88:0.0 89:1.0 90:1.0 91:1.0 92:1.0 93:0.0 94:0.0 95:0.0 96:0.0 97:0.0 98:0.0 99:0.0 100:0.0 101:0.0 102:0.0 103:0.0 104:0.0 105:0.0 106:0.0 107:0.0 108:0.0 109:0.0 110:0.0 111:0.0 112:0.0 113:0.0 114:0.0 115:0.0 116:0.0 117:0.0 118:0.0 119:0.0 120:0.0 121:0.0 122:0.0 123:0.0 124:0.0 125:0.0 126:0.0 127:0.0 128:0.0 
7.627605610620015E-4 0.0 0.01 0.007975253881509407 0.01 0.01 0.01 0.01 0.01 0.0054648237104874585 0.01 0.01 0.0 0.01 0.01 0.0 0.0 0.0018968241221055627 0.01 0.008695661709587011 0.01 0.01 0.0 0.0 0.01 1:0.0 2:0.0 3:1.0 4:1.0 5:1.0 6:1.0 7:1.0 8:0.0 9:0.0 10:1.0 11:1.0 12:0.0 13:0.0 14:0.0 15:0.0 16:0.0 17:0.0 18:1.0 19:0.0 20:1.0 21:0.0 22:0.0 23:0.0 24:0.0 25:1.0 26:1.0 27:0.0 28:1.0 29:1.0 30:0.0 31:0.0 32:0.0 33:1.0 34:0.0 35:0.0 36:0.0 37:1.0 38:0.0 39:0.0 40:0.0 41:1.0 42:0.0 43:0.0 44:0.0 45:1.0 46:1.0 47:0.0 48:0.0 49:1.0 50:0.0 51:0.0 52:0.0 53:0.0 54:1.0 55:1.0 56:0.0 57:1.0 58:0.0 59:0.0 60:0.0 61:0.0 62:0.0 63:1.0 64:0.0 65:1.0 66:0.0 67:0.0 68:0.0 69:0.0 70:0.0 71:0.0 72:1.0 73:1.0 74:0.0 75:0.0 76:0.0 77:0.0 78:0.0 79:0.0 80:1.0 81:1.0 82:0.0 83:0.0 84:0.0 85:0.0 86:0.0 87:0.0 88:1.0 89:1.0 90:0.0 91:0.0 92:0.0 93:0.0 94:0.0 95:0.0 96:1.0 97:1.0 98:0.0 99:0.0 100:0.0 101:0.0 102:0.0 103:1.0 104:1.0 105:1.0 106:0.0 107:0.0 108:0.0 109:0.0 110:1.0 111:1.0 112:0.0 113:1.0 114:1.0 115:0.0 116:0.0 117:1.0 118:1.0 119:0.0 120:0.0 121:0.0 122:1.0 123:1.0 124:1.0 125:1.0 126:0.0 127:0.0 128:0.0 
0.0 0.0 0.0 0.0 0.0 0.01 0.0 0.01 0.01 0.01 0.004723426799616027 0.01 0.0 0.0 0.0 0.0 0.0 0.0021318741273933816 0.0 0.0013219596506960376 0.0 0.0 0.0 0.0 0.005541958874658415 1:0.0 2:0.0 3:0.0 4:0.0 5:0.0 6:0.0 7:0.0 8:0.0 9:0.0 10:0.0 11:0.0 12:0.0 13:0.0 14:0.0 15:0.0 16:0.0 17:0.0 18:1.0 19:1.0 20:1.0 21:1.0 22:0.0 23:0.0 24:0.0 25:0.0 26:1.0 27:0.0 28:0.0 29:1.0 30:0.0 31:0.0 32:0.0 33:1.0 34:1.0 35:0.0 36:0.0 37:1.0 38:1.0 39:0.0 40:0.0 41:1.0 42:0.0 43:0.0 44:0.0 45:0.0 46:0.0 47:1.0 48:0.0 49:1.0 50:0.0 51:0.0 52:0.0 53:0.0 54:0.0 55:0.0 56:1.0 57:1.0 58:0.0 59:0.0 60:0.0 61:0.0 62:0.0 63:0.0 64:1.0 65:1.0 66:0.0 67:0.0 68:0.0 69:0.0 70:0.0 71:0.0 72:1.0 73:1.0 74:0.0 75:0.0 76:0.0 77:0.0 78:0.0 79:0.0 80:1.0 81:1.0 82:0.0 83:0.0 84:0.0 85:0.0 86:0.0 87:0.0 88:1.0 89:1.0 90:1.0 91:0.0 92:0.0 93:0.0 94:0.0 95:0.0 96:1.0 97:0.0 98:1.0 99:1.0 100:0.0 101:0.0 102:0.0 103:1.0 104:1.0 105:0.0 106:0.0 107:1.0 108:1.0 109:1.0 110:1.0 111:1.0 112:0.0 113:0.0 114:0.0 115:0.0 116:0.0 117:0.0 118:0.0 119:0.0 120:0.0 121:0.0 122:0.0 123:0.0 124:0.0 125:0.0 126:0.0 127:0.0 128:0.0 
0.0 0.0 0.0 0.0 0.0 0.0 0.0 0.01 0.01 0.0 0.0 0.0 0.0 0.0 0.0 0.0 0.0 0.0 0.0 0.0 0.0 0.0 0.0 0.0 0.0 1:0.0 2:0.0 3:0.0 4:0.0 5:0.0 6:0.0 7:0.0 8:0.0 9:0.0 10:0.0 11:0.0 12:0.0 13:0.0 14:0.0 15:0.0 16:0.0 17:0.0 18:0.0 19:0.0 20:0.0 21:0.0 22:0.0 23:0.0 24:0.0 25:0.0 26:1.0 27:1.0 28:1.0 29:1.0 30:1.0 31:1.0 32:0.0 33:0.0 34:1.0 35:1.0 36:0.0 37:0.0 38:0.0 39:1.0 40:1.0 41:1.0 42:1.0 43:0.0 44:0.0 45:0.0 46:0.0 47:0.0 48:1.0 49:1.0 50:0.0 51:0.0 52:0.0 53:0.0 54:0.0 55:0.0 56:1.0 57:1.0 58:0.0 59:0.0 60:0.0 61:0.0 62:0.0 63:0.0 64:1.0 65:1.0 66:0.0 67:0.0 68:0.0 69:0.0 70:0.0 71:0.0 72:1.0 73:1.0 74:0.0 75:0.0 76:0.0 77:0.0 78:0.0 79:0.0 80:1.0 81:1.0 82:0.0 83:0.0 84:0.0 85:0.0 86:0.0 87:1.0 88:0.0 89:1.0 90:0.0 91:0.0 92:0.0 93:1.0 94:1.0 95:1.0 96:0.0 97:1.0 98:1.0 99:1.0 100:1.0 101:1.0 102:0.0 103:0.0 104:0.0 105:0.0 106:0.0 107:0.0 108:0.0 109:0.0 110:0.0 111:0.0 112:0.0 113:0.0 114:0.0 115:0.0 116:0.0 117:0.0 118:0.0 119:0.0 120:0.0 121:0.0 122:0.0 123:0.0 124:0.0 125:0.0 126:0.0 127:0.0 128:0.0 
0.0 0.0 0.0 0.01 0.0 0.0 0.01 0.0 0.0 0.0 0.0 0.0 0.0 0.0 0.0 0.0 0.0 0.0 0.0 0.0 0.0 0.0 0.0 0.0 0.0 1:1.0 2:1.0 3:1.0 4:1.0 5:0.0 6:0.0 7:0.0 8:0.0 9:1.0 10:0.0 11:0.0 12:1.0 13:1.0 14:0.0 15:0.0 16:0.0 17:1.0 18:0.0 19:0.0 20:0.0 21:0.0 22:1.0 23:0.0 24:0.0 25:0.0 26:1.0 27:0.0 28:0.0 29:0.0 30:1.0 31:1.0 32:0.0 33:1.0 34:1.0 35:0.0 36:0.0 37:0.0 38:0.0 39:1.0 40:0.0 41:1.0 42:0.0 43:0.0 44:0.0 45:0.0 46:0.0 47:1.0 48:1.0 49:1.0 50:0.0 51:0.0 52:0.0 53:0.0 54:0.0 55:0.0 56:1.0 57:1.0 58:0.0 59:0.0 60:0.0 61:0.0 62:0.0 63:0.0 64:1.0 65:1.0 66:0.0 67:0.0 68:0.0 69:0.0 70:0.0 71:0.0 72:1.0 73:1.0 74:0.0 75:0.0 76:0.0 77:0.0 78:0.0 79:0.0 80:1.0 81:1.0 82:0.0 83:0.0 84:0.0 85:0.0 86:0.0 87:0.0 88:1.0 89:1.0 90:0.0 91:0.0 92:0.0 93:0.0 94:0.0 95:1.0 96:1.0 97:1.0 98:0.0 99:0.0 100:0.0 101:0.0 102:0.0 103:1.0 104:0.0 105:1.0 106:0.0 107:0.0 108:0.0 109:0.0 110:1.0 111:1.0 112:0.0 113:1.0 114:1.0 115:0.0 116:1.0 117:1.0 118:1.0 119:0.0 120:0.0 121:0.0 122:1.0 123:1.0 124:1.0 125:0.0 126:0.0 127:0.0 128:0.0 
0.0 0.01 0.00100947630346993 0.01 0.01 0.01 0.007870216894476131 0.01 0.01 0.01 0.01 0.01 0.01 0.01 0.01 0.0011313336709944416 0.0 0.01 0.01 0.01 0.01 0.003099062462575439 0.0019691675548341157 0.0 0.0013575048585656613 1:0.0 2:0.0 3:0.0 4:0.0 5:0.0 6:1.0 7:0.0 8:0.0 9:0.0 10:0.0 11:1.0 12:1.0 13:1.0 14:1.0 15:0.0 16:0.0 17:0.0 18:0.0 19:0.0 20:1.0 21:1.0 22:1.0 23:1.0 24:0.0 25:0.0 26:0.0 27:0.0 28:1.0 29:0.0 30:0.0 31:1.0 32:0.0 33:0.0 34:0.0 35:0.0 36:1.0 37:0.0 38:0.0 39:1.0 40:0.0 41:0.0 42:0.0 43:1.0 44:1.0 45:0.0 46:0.0 47:1.0 48:0.0 49:0.0 50:0.0 51:1.0 52:0.0 53:0.0 54:0.0 55:1.0 56:0.0 57:0.0 58:0.0 59:1.0 60:0.0 61:0.0 62:0.0 63:1.0 64:0.0 65:0.0 66:1.0 67:1.0 68:0.0 69:0.0 70:0.0 71:1.0 72:0.0 73:0.0 74:1.0 75:0.0 76:0.0 77:0.0 78:0.0 79:1.0 80:0.0 81:0.0 82:1.0 83:0.0 84:0.0 85:0.0 86:1.0 87:1.0 88:0.0 89:0.0 90:1.0 91:0.0 92:0.0 93:0.0 94:1.0 95:0.0 96:0.0 97:0.0 98:1.0 99:0.0 100:0.0 101:1.0 102:1.0 103:0.0 104:0.0 105:0.0 106:1.0 107:0.0 108:0.0 109:1.0 110:0.0 111:0.0 112:0.0 113:0.0 114:1.0 115:0.0 116:1.0 117:1.0 118:0.0 119:0.0 120:0.0 121:0.0 122:1.0 123:1.0 124:1.0 125:0.0 126:0.0 127:0.0 128:0.0 
0.0 0.0053326130417198974 0.0 0.0 0.0 0.0 0.0 0.0 5.732244628564832E-4 0.01 0.0 0.0 0.0 0.0 0.0 0.0 0.0 0.0 0.0 0.0 0.0 0.0 0.0 0.0 0.0 1:0.0 2:0.0 3:0.0 4:0.0 5:0.0 6:0.0 7:0.0 8:0.0 9:0.0 10:0.0 11:0.0 12:0.0 13:0.0 14:0.0 15:0.0 16:0.0 17:0.0 18:0.0 19:0.0 20:0.0 21:0.0 22:0.0 23:0.0 24:0.0 25:0.0 26:0.0 27:0.0 28:0.0 29:0.0 30:0.0 31:0.0 32:0.0 33:0.0 34:0.0 35:0.0 36:0.0 37:1.0 38:1.0 39:1.0 40:0.0 41:0.0 42:1.0 43:1.0 44:1.0 45:1.0 46:0.0 47:0.0 48:1.0 49:0.0 50:1.0 51:1.0 52:1.0 53:0.0 54:0.0 55:0.0 56:1.0 57:1.0 58:1.0 59:0.0 60:0.0 61:0.0 62:0.0 63:0.0 64:1.0 65:1.0 66:0.0 67:0.0 68:0.0 69:0.0 70:0.0 71:0.0 72:1.0 73:1.0 74:0.0 75:0.0 76:0.0 77:0.0 78:1.0 79:1.0 80:1.0 81:1.0 82:0.0 83:0.0 84:1.0 85:1.0 86:1.0 87:0.0 88:0.0 89:1.0 90:1.0 91:1.0 92:1.0 93:0.0 94:0.0 95:0.0 96:0.0 97:0.0 98:0.0 99:0.0 100:0.0 101:0.0 102:0.0 103:0.0 104:0.0 105:0.0 106:0.0 107:0.0 108:0.0 109:0.0 110:0.0 111:0.0 112:0.0 113:0.0 114:0.0 115:0.0 116:0.0 117:0.0 118:0.0 119:0.0 120:0.0 121:0.0 122:0.0 123:0.0 124:0.0 125:0.0 126:0.0 127:0.0 128:0.0 
0.0 0.0 0.01 0.0 0.0 0.0 0.0 0.0 0.0 0.0 0.0 0.0 0.0 0.0 0.0 0.0 0.0 0.0 0.0 0.0 0.0 0.0 0.0 0.0 0.0 1:0.0 2:0.0 3:0.0 4:0.0 5:0.0 6:0.0 7:0.0 8:0.0 9:0.0 10:0.0 11:0.0 12:0.0 13:0.0 14:0.0 15:0.0 16:0.0 17:0.0 18:0.0 19:0.0 20:0.0 21:0.0 22:0.0 23:0.0 24:0.0 25:0.0 26:0.0 27:0.0 28:0.0 29:0.0 30:0.0 31:0.0 32:0.0 33:0.0 34:0.0 35:0.0 36:0.0 37:0.0 38:0.0 39:0.0 40:0.0 41:0.0 42:0.0 43:1.0 44:1.0 45:1.0 46:1.0 47:1.0 48:0.0 49:1.0 50:1.0 51:1.0 52:1.0 53:0.0 54:0.0 55:1.0 56:1.0 57:1.0 58:0.0 59:0.0 60:0.0 61:0.0 62:0.0 63:0.0 64:1.0 65:1.0 66:0.0 67:0.0 68:0.0 69:0.0 70:0.0 71:0.0 72:1.0 73:1.0 74:0.0 75:0.0 76:0.0 77:0.0 78:0.0 79:1.0 80:1.0 81:1.0 82:1.0 83:1.0 84:1.0 85:1.0 86:1.0 87:1.0 88:0.0 89:0.0 90:0.0 91:0.0 92:0.0 93:0.0 94:0.0 95:0.0 96:0.0 97:0.0 98:0.0 99:0.0 100:0.0 101:0.0 102:0.0 103:0.0 104:0.0 105:0.0 106:0.0 107:0.0 108:0.0 109:0.0 110:0.0 111:0.0 112:0.0 113:0.0 114:0.0 115:0.0 116:0.0 117:0.0 118:0.0 119:0.0 120:0.0 121:0.0 122:0.0 123:0.0 124:0.0 125:0.0 126:0.0 127:0.0 128:0.0 
0.0 0.0 4.634359959668801E-4 0.0 0.0 0.0 0.0 0.0 0.0 0.0 0.0 0.0 0.0 0.0 0.0 0.0 0.0 0.0 0.0 0.0 0.0 0.0 0.0 0.0 0.0 1:0.0 2:0.0 3:0.0 4:0.0 5:0.0 6:0.0 7:0.0 8:0.0 9:0.0 10:1.0 11:1.0 12:1.0 13:0.0 14:0.0 15:0.0 16:0.0 17:0.0 18:1.0 19:0.0 20:1.0 21:1.0 22:1.0 23:0.0 24:0.0 25:1.0 26:1.0 27:0.0 28:0.0 29:0.0 30:1.0 31:1.0 32:0.0 33:1.0 34:0.0 35:0.0 36:0.0 37:0.0 38:0.0 39:1.0 40:0.0 41:1.0 42:0.0 43:0.0 44:0.0 45:0.0 46:0.0 47:1.0 48:1.0 49:1.0 50:0.0 51:0.0 52:0.0 53:0.0 54:0.0 55:0.0 56:1.0 57:1.0 58:0.0 59:0.0 60:0.0 61:0.0 62:0.0 63:0.0 64:1.0 65:1.0 66:0.0 67:0.0 68:0.0 69:0.0 70:0.0 71:0.0 72:1.0 73:1.0 74:0.0 75:0.0 76:0.0 77:0.0 78:0.0 79:0.0 80:1.0 81:1.0 82:0.0 83:0.0 84:0.0 85:0.0 86:0.0 87:0.0 88:1.0 89:1.0 90:0.0 91:0.0 92:0.0 93:0.0 94:0.0 95:0.0 96:1.0 97:1.0 98:0.0 99:0.0 100:0.0 101:0.0 102:0.0 103:1.0 104:1.0 105:1.0 106:1.0 107:1.0 108:0.0 109:0.0 110:1.0 111:1.0 112:0.0 113:0.0 114:0.0 115:1.0 116:1.0 117:1.0 118:1.0 119:0.0 120:0.0 121:0.0 122:0.0 123:0.0 124:0.0 125:0.0 126:0.0 127:0.0 128:0.0 
0.0 0.0 0.01 0.0 0.0 0.0 0.0 0.0 0.0 0.0 0.0 0.0 0.0 0.0 0.0 0.0 0.0 0.0 0.0 0.0 0.0 0.0 0.0 0.0 0.0 1:0.0 2:0.0 3:0.0 4:0.0 5:0.0 6:0.0 7:0.0 8:0.0 9:0.0 10:0.0 11:1.0 12:1.0 13:1.0 14:0.0 15:0.0 16:0.0 17:0.0 18:1.0 19:1.0 20:1.0 21:1.0 22:1.0 23:0.0 24:0.0 25:1.0 26:1.0 27:0.0 28:0.0 29:0.0 30:1.0 31:1.0 32:0.0 33:1.0 34:0.0 35:0.0 36:0.0 37:0.0 38:0.0 39:1.0 40:1.0 41:1.0 42:0.0 43:0.0 44:0.0 45:0.0 46:0.0 47:0.0 48:1.0 49:1.0 50:0.0 51:0.0 52:0.0 53:0.0 54:0.0 55:0.0 56:1.0 57:1.0 58:0.0 59:0.0 60:0.0 61:0.0 62:0.0 63:0.0 64:1.0 65:1.0 66:0.0 67:0.0 68:0.0 69:0.0 70:0.0 71:0.0 72:1.0 73:1.0 74:0.0 75:0.0 76:0.0 77:0.0 78:0.0 79:0.0 80:1.0 81:1.0 82:0.0 83:0.0 84:0.0 85:0.0 86:0.0 87:0.0 88:1.0 89:1.0 90:0.0 91:0.0 92:0.0 93:0.0 94:0.0 95:0.0 96:1.0 97:1.0 98:0.0 99:0.0 100:0.0 101:0.0 102:0.0 103:0.0 104:1.0 105:1.0 106:1.0 107:0.0 108:0.0 109:0.0 110:1.0 111:1.0 112:1.0 113:0.0 114:1.0 115:1.0 116:1.0 117:1.0 118:1.0 119:0.0 120:0.0 121:0.0 122:0.0 123:0.0 124:0.0 125:0.0 126:0.0 127:0.0 128:0.0 
0.0 0.01 0.01 0.0 0.0 0.01 0.0 0.0 0.0 0.01 0.0 0.0 0.0 0.0 0.004794487164339846 0.0 0.0 0.0 0.0 0.0 0.0 0.0 0.0 0.0 0.0 1:0.0 2:0.0 3:0.0 4:0.0 5:0.0 6:0.0 7:0.0 8:0.0 9:0.0 10:0.0 11:0.0 12:0.0 13:0.0 14:0.0 15:0.0 16:0.0 17:0.0 18:0.0 19:0.0 20:0.0 21:1.0 22:1.0 23:1.0 24:1.0 25:0.0 26:0.0 27:0.0 28:1.0 29:1.0 30:1.0 31:1.0 32:0.0 33:0.0 34:0.0 35:1.0 36:1.0 37:0.0 38:0.0 39:1.0 40:0.0 41:0.0 42:0.0 43:1.0 44:0.0 45:0.0 46:0.0 47:1.0 48:1.0 49:0.0 50:1.0 51:1.0 52:0.0 53:0.0 54:0.0 55:0.0 56:1.0 57:1.0 58:1.0 59:0.0 60:0.0 61:0.0 62:0.0 63:0.0 64:1.0 65:1.0 66:0.0 67:0.0 68:0.0 69:0.0 70:0.0 71:0.0 72:1.0 73:1.0 74:0.0 75:0.0 76:0.0 77:0.0 78:0.0 79:0.0 80:1.0 81:1.0 82:1.0 83:0.0 84:0.0 85:0.0 86:0.0 87:0.0 88:1.0 89:0.0 90:0.0 91:1.0 92:1.0 93:0.0 94:0.0 95:0.0 96:1.0 97:0.0 98:0.0 99:0.0 100:0.0 101:1.0 102:1.0 103:0.0 104:1.0 105:0.0 106:0.0 107:0.0 108:0.0 109:0.0 110:1.0 111:1.0 112:1.0 113:0.0 114:0.0 115:0.0 116:0.0 117:0.0 118:0.0 119:0.0 120:0.0 121:0.0 122:0.0 123:0.0 124:0.0 125:0.0 126:0.0 127:0.0 128:0.0 
0.0 0.01 0.01 0.0029112919103927914 0.002582777432147594 0.01 0.007754479296542525 0.01 0.01 0.01 0.01 0.01 0.001230400019007576 0.01 0.01 0.0 0.0 0.01 0.0 0.009246701896695513 0.0 0.0023364725729405796 0.003203995706788787 0.0 0.005033340826759024 1:0.0 2:0.0 3:0.0 4:0.0 5:0.0 6:0.0 7:0.0 8:0.0 9:0.0 10:0.0 11:0.0 12:1.0 13:0.0 14:0.0 15:1.0 16:0.0 17:0.0 18:0.0 19:0.0 20:1.0 21:1.0 22:1.0 23:1.0 24:0.0 25:0.0 26:0.0 27:1.0 28:1.0 29:1.0 30:0.0 31:0.0 32:0.0 33:0.0 34:1.0 35:1.0 36:0.0 37:1.0 38:1.0 39:0.0 40:0.0 41:1.0 42:1.0 43:0.0 44:0.0 45:0.0 46:1.0 47:0.0 48:0.0 49:1.0 50:0.0 51:0.0 52:0.0 53:0.0 54:1.0 55:0.0 56:0.0 57:1.0 58:0.0 59:0.0 60:0.0 61:0.0 62:0.0 63:1.0 64:0.0 65:1.0 66:0.0 67:0.0 68:0.0 69:0.0 70:0.0 71:1.0 72:0.0 73:1.0 74:0.0 75:0.0 76:0.0 77:0.0 78:0.0 79:1.0 80:1.0 81:1.0 82:0.0 83:0.0 84:0.0 85:0.0 86:0.0 87:0.0 88:1.0 89:1.0 90:0.0 91:0.0 92:0.0 93:0.0 94:0.0 95:0.0 96:1.0 97:1.0 98:0.0 99:0.0 100:0.0 101:0.0 102:0.0 103:0.0 104:1.0 105:1.0 106:1.0 107:0.0 108:0.0 109:0.0 110:0.0 111:0.0 112:1.0 113:0.0 114:1.0 115:1.0 116:1.0 117:1.0 118:1.0 119:1.0 120:1.0 121:0.0 122:0.0 123:0.0 124:0.0 125:0.0 126:0.0 127:0.0 128:0.0 
0.0 0.01 0.01 0.0 0.0 0.0 0.0 0.004712233382403099 0.01 0.01 0.009568750926834813 9.550083982744331E-4 0.0 0.00781466671676941 0.0 0.0 0.01 0.0 0.0 0.0 2.158416365320175E-4 0.0029542432412699993 0.0 0.0 0.0 1:0.0 2:0.0 3:0.0 4:0.0 5:0.0 6:0.0 7:0.0 8:0.0 9:0.0 10:0.0 11:0.0 12:0.0 13:0.0 14:0.0 15:0.0 16:0.0 17:0.0 18:0.0 19:0.0 20:0.0 21:0.0 22:0.0 23:0.0 24:0.0 25:0.0 26:0.0 27:0.0 28:1.0 29:1.0 30:1.0 31:0.0 32:0.0 33:0.0 34:0.0 35:1.0 36:1.0 37:0.0 38:1.0 39:0.0 40:0.0 41:1.0 42:1.0 43:1.0 44:0.0 45:0.0 46:0.0 47:0.0 48:1.0 49:1.0 50:0.0 51:0.0 52:0.0 53:0.0 54:0.0 55:0.0 56:1.0 57:1.0 58:0.0 59:0.0 60:0.0 61:0.0 62:0.0 63:1.0 64:1.0 65:1.0 66:0.0 67:0.0 68:0.0 69:0.0 70:0.0 71:1.0 72:0.0 73:1.0 74:0.0 75:0.0 76:0.0 77:0.0 78:0.0 79:1.0 80:0.0 81:1.0 82:0.0 83:0.0 84:0.0 85:0.0 86:1.0 87:1.0 88:0.0 89:1.0 90:1.0 91:0.0 92:0.0 93:1.0 94:1.0 95:0.0 96:0.0 97:0.0 98:1.0 99:1.0 100:1.0 101:1.0 102:0.0 103:0.0 104:0.0 105:0.0 106:0.0 107:0.0 108:0.0 109:0.0 110:0.0 111:0.0 112:0.0 113:0.0 114:0.0 115:0.0 116:0.0 117:0.0 118:0.0 119:0.0 120:0.0 121:0.0 122:0.0 123:0.0 124:0.0 125:0.0 126:0.0 127:0.0 128:0.0 
0.0 0.01 0.01 0.01 0.01 0.01 0.005759298857927511 0.01 0.01 0.01 0.01 0.01 0.01 0.01 0.01 0.0 0.0 0.01 0.0 0.008213110415388582 0.005149349847705055 0.0 0.01 0.0 0.01 1:0.0 2:0.0 3:0.0 4:0.0 5:0.0 6:0.0 7:0.0 8:0.0 9:0.0 10:0.0 11:0.0 12:0.0 13:0.0 14:0.0 15:1.0 16:1.0 17:0.0 18:0.0 19:0.0 20:0.0 21:0.0 22:0.0 23:1.0 24:0.0 25:0.0 26:0.0 27:0.0 28:0.0 29:0.0 30:1.0 31:1.0 32:0.0 33:0.0 34:0.0 35:0.0 36:0.0 37:1.0 38:1.0 39:0.0 40:0.0 41:0.0 42:0.0 43:0.0 44:1.0 45:1.0 46:0.0 47:0.0 48:0.0 49:0.0 50:0.0 51:1.0 52:1.0 53:0.0 54:0.0 55:0.0 56:0.0 57:0.0 58:1.0 59:1.0 60:0.0 61:0.0 62:0.0 63:0.0 64:0.0 65:0.0 66:1.0 67:0.0 68:0.0 69:0.0 70:0.0 71:1.0 72:1.0 73:0.0 74:1.0 75:0.0 76:0.0 77:0.0 78:0.0 79:1.0 80:0.0 81:1.0 82:1.0 83:0.0 84:0.0 85:0.0 86:1.0 87:1.0 88:0.0 89:1.0 90:0.0 91:0.0 92:0.0 93:0.0 94:1.0 95:0.0 96:0.0 97:1.0 98:0.0 99:0.0 100:0.0 101:1.0 102:1.0 103:0.0 104:0.0 105:1.0 106:0.0 107:0.0 108:1.0 109:1.0 110:0.0 111:0.0 112:0.0 113:1.0 114:1.0 115:1.0 116:0.0 117:0.0 118:0.0 119:0.0 120:0.0 121:0.0 122:0.0 123:0.0 124:0.0 125:0.0 126:0.0 127:0.0 128:0.0 
0.01 0.01 0.01 0.01 0.0 0.01 0.0 0.01 0.01 0.01 0.0 0.0 0.0019233613484196692 0.01 0.01 0.01 0.01 0.01 0.01 0.0 0.0 0.0 0.01 0.0 0.01 1:0.0 2:0.0 3:0.0 4:0.0 5:0.0 6:0.0 7:0.0 8:0.0 9:0.0 10:0.0 11:0.0 12:0.0 13:0.0 14:0.0 15:0.0 16:0.0 17:0.0 18:0.0 19:0.0 20:0.0 21:0.0 22:0.0 23:0.0 24:0.0 25:0.0 26:0.0 27:0.0 28:0.0 29:0.0 30:0.0 31:0.0 32:0.0 33:0.0 34:0.0 35:0.0 36:1.0 37:1.0 38:0.0 39:1.0 40:1.0 41:0.0 42:0.0 43:1.0 44:0.0 45:1.0 46:1.0 47:1.0 48:1.0 49:0.0 50:1.0 51:1.0 52:0.0 53:0.0 54:0.0 55:0.0 56:1.0 57:0.0 58:1.0 59:0.0 60:0.0 61:0.0 62:0.0 63:1.0 64:1.0 65:1.0 66:1.0 67:0.0 68:0.0 69:0.0 70:1.0 71:1.0 72:0.0 73:1.0 74:0.0 75:0.0 76:0.0 77:1.0 78:1.0 79:0.0 80:0.0 81:1.0 82:0.0 83:1.0 84:1.0 85:1.0 86:0.0 87:0.0 88:0.0 89:1.0 90:1.0 91:1.0 92:0.0 93:0.0 94:0.0 95:0.0 96:0.0 97:0.0 98:0.0 99:0.0 100:0.0 101:0.0 102:0.0 103:0.0 104:0.0 105:0.0 106:0.0 107:0.0 108:0.0 109:0.0 110:0.0 111:0.0 112:0.0 113:0.0 114:0.0 115:0.0 116:0.0 117:0.0 118:0.0 119:0.0 120:0.0 121:0.0 122:0.0 123:0.0 124:0.0 125:0.0 126:0.0 127:0.0 128:0.0 
0.005762117533593119 0.0 0.01 0.0 0.01 0.0 0.0 0.01 0.01 0.01 0.0 0.01 0.0 0.006874428753730731 0.0 0.01 0.01 0.0 0.0 0.0 0.0 0.0 0.0 0.0 1.214569840363943E-4 1:0.0 2:0.0 3:0.0 4:0.0 5:0.0 6:0.0 7:0.0 8:0.0 9:0.0 10:0.0 11:0.0 12:0.0 13:0.0 14:0.0 15:0.0 16:0.0 17:0.0 18:0.0 19:0.0 20:0.0 21:0.0 22:0.0 23:0.0 24:0.0 25:0.0 26:0.0 27:0.0 28:0.0 29:0.0 30:0.0 31:0.0 32:0.0 33:0.0 34:0.0 35:0.0 36:0.0 37:0.0 38:0.0 39:0.0 40:1.0 41:0.0 42:1.0 43:1.0 44:0.0 45:0.0 46:0.0 47:0.0 48:1.0 49:1.0 50:1.0 51:0.0 52:0.0 53:0.0 54:0.0 55:0.0 56:1.0 57:1.0 58:0.0 59:0.0 60:0.0 61:0.0 62:0.0 63:0.0 64:1.0 65:1.0 66:0.0 67:0.0 68:0.0 69:0.0 70:0.0 71:0.0 72:1.0 73:1.0 74:0.0 75:0.0 76:0.0 77:0.0 78:0.0 79:0.0 80:1.0 81:1.0 82:0.0 83:0.0 84:0.0 85:0.0 86:0.0 87:1.0 88:0.0 89:0.0 90:1.0 91:1.0 92:1.0 93:1.0 94:1.0 95:0.0 96:0.0 97:0.0 98:0.0 99:0.0 100:0.0 101:0.0 102:0.0 103:0.0 104:0.0 105:0.0 106:0.0 107:0.0 108:0.0 109:0.0 110:0.0 111:0.0 112:0.0 113:0.0 114:0.0 115:0.0 116:0.0 117:0.0 118:0.0 119:0.0 120:0.0 121:0.0 122:0.0 123:0.0 124:0.0 125:0.0 126:0.0 127:0.0 128:0.0 
0.0 0.0 0.0 0.0 0.0 0.0 0.0 0.0 0.0 0.0 0.0 0.0 0.0012733329208522758 0.0 0.0 0.01 0.01 0.0 0.0 0.0 0.0 0.0 0.0 0.0 0.0 1:0.0 2:0.0 3:0.0 4:0.0 5:0.0 6:0.0 7:0.0 8:0.0 9:0.0 10:0.0 11:0.0 12:0.0 13:0.0 14:0.0 15:0.0 16:0.0 17:0.0 18:0.0 19:0.0 20:0.0 21:0.0 22:0.0 23:1.0 24:1.0 25:0.0 26:0.0 27:1.0 28:1.0 29:1.0 30:1.0 31:0.0 32:1.0 33:0.0 34:0.0 35:1.0 36:0.0 37:0.0 38:1.0 39:0.0 40:1.0 41:0.0 42:1.0 43:0.0 44:0.0 45:0.0 46:0.0 47:0.0 48:1.0 49:0.0 50:1.0 51:0.0 52:0.0 53:0.0 54:0.0 55:0.0 56:1.0 57:0.0 58:1.0 59:0.0 60:0.0 61:0.0 62:0.0 63:0.0 64:1.0 65:1.0 66:1.0 67:0.0 68:0.0 69:0.0 70:0.0 71:0.0 72:1.0 73:1.0 74:0.0 75:0.0 76:0.0 77:0.0 78:0.0 79:1.0 80:1.0 81:1.0 82:1.0 83:0.0 84:0.0 85:0.0 86:1.0 87:1.0 88:0.0 89:0.0 90:1.0 91:0.0 92:0.0 93:1.0 94:1.0 95:0.0 96:0.0 97:0.0 98:1.0 99:0.0 100:1.0 101:1.0 102:0.0 103:0.0 104:0.0 105:0.0 106:1.0 107:1.0 108:1.0 109:0.0 110:0.0 111:0.0 112:0.0 113:0.0 114:0.0 115:0.0 116:0.0 117:0.0 118:0.0 119:0.0 120:0.0 121:0.0 122:0.0 123:0.0 124:0.0 125:0.0 126:0.0 127:0.0 128:0.0 
0.0 0.01 0.0 0.01 0.0060463512015228645 0.01 0.0 0.01 0.01 0.01 0.006122200355998392 0.004207810186791481 0.01 0.01 0.0 0.0 0.01 0.0 0.01 0.0 0.0 0.0 0.0 0.0 0.004467689289182418 1:0.0 2:0.0 3:0.0 4:1.0 5:1.0 6:1.0 7:1.0 8:0.0 9:0.0 10:0.0 11:0.0 12:1.0 13:0.0 14:0.0 15:1.0 16:0.0 17:0.0 18:0.0 19:1.0 20:1.0 21:0.0 22:0.0 23:1.0 24:0.0 25:0.0 26:1.0 27:1.0 28:0.0 29:0.0 30:0.0 31:1.0 32:0.0 33:0.0 34:1.0 35:0.0 36:0.0 37:0.0 38:0.0 39:1.0 40:1.0 41:1.0 42:1.0 43:0.0 44:0.0 45:0.0 46:0.0 47:0.0 48:1.0 49:1.0 50:0.0 51:0.0 52:0.0 53:0.0 54:0.0 55:1.0 56:1.0 57:1.0 58:0.0 59:0.0 60:0.0 61:0.0 62:0.0 63:1.0 64:0.0 65:1.0 66:0.0 67:0.0 68:0.0 69:0.0 70:1.0 71:1.0 72:0.0 73:1.0 74:0.0 75:0.0 76:0.0 77:0.0 78:1.0 79:0.0 80:0.0 81:1.0 82:0.0 83:0.0 84:0.0 85:1.0 86:1.0 87:0.0 88:0.0 89:1.0 90:0.0 91:0.0 92:0.0 93:1.0 94:0.0 95:0.0 96:0.0 97:1.0 98:0.0 99:0.0 100:1.0 101:1.0 102:0.0 103:0.0 104:0.0 105:1.0 106:0.0 107:0.0 108:1.0 109:0.0 110:0.0 111:0.0 112:0.0 113:1.0 114:0.0 115:1.0 116:1.0 117:0.0 118:0.0 119:0.0 120:0.0 121:1.0 122:1.0 123:1.0 124:0.0 125:0.0 126:0.0 127:0.0 128:0.0 
0.01 0.01 0.01 0.0 0.0 0.01 0.01 0.0 0.0 0.01 0.01 0.0 0.0 0.0 0.0 0.0 0.0 0.007595655032499513 0.0 0.01 0.0 0.0 0.0 0.0 0.0014098152013855697 1:0.0 2:0.0 3:0.0 4:0.0 5:0.0 6:0.0 7:0.0 8:0.0 9:0.0 10:0.0 11:0.0 12:0.0 13:0.0 14:0.0 15:0.0 16:0.0 17:0.0 18:0.0 19:1.0 20:1.0 21:0.0 22:0.0 23:0.0 24:0.0 25:0.0 26:0.0 27:0.0 28:1.0 29:0.0 30:0.0 31:0.0 32:0.0 33:0.0 34:1.0 35:1.0 36:0.0 37:1.0 38:0.0 39:0.0 40:0.0 41:1.0 42:1.0 43:1.0 44:0.0 45:1.0 46:1.0 47:0.0 48:0.0 49:1.0 50:0.0 51:0.0 52:0.0 53:0.0 54:1.0 55:1.0 56:0.0 57:1.0 58:0.0 59:0.0 60:0.0 61:0.0 62:0.0 63:1.0 64:1.0 65:1.0 66:0.0 67:0.0 68:0.0 69:0.0 70:0.0 71:0.0 72:1.0 73:1.0 74:0.0 75:0.0 76:0.0 77:0.0 78:0.0 79:0.0 80:1.0 81:1.0 82:0.0 83:0.0 84:0.0 85:0.0 86:0.0 87:0.0 88:1.0 89:1.0 90:1.0 91:0.0 92:0.0 93:0.0 94:0.0 95:0.0 96:1.0 97:0.0 98:1.0 99:1.0 100:0.0 101:0.0 102:0.0 103:0.0 104:1.0 105:0.0 106:0.0 107:1.0 108:1.0 109:1.0 110:1.0 111:1.0 112:1.0 113:0.0 114:0.0 115:0.0 116:0.0 117:0.0 118:0.0 119:0.0 120:0.0 121:0.0 122:0.0 123:0.0 124:0.0 125:0.0 126:0.0 127:0.0 128:0.0 
0.0 0.0 0.0 0.0 0.0 0.0 0.0 0.0 0.0 0.0 0.0 0.0 0.0 0.0 0.0 0.0 0.01 0.0 0.0 0.0 0.0 0.0 0.0 0.0 0.0 1:0.0 2:0.0 3:0.0 4:0.0 5:0.0 6:0.0 7:0.0 8:0.0 9:0.0 10:0.0 11:0.0 12:0.0 13:0.0 14:0.0 15:0.0 16:0.0 17:0.0 18:0.0 19:0.0 20:0.0 21:0.0 22:0.0 23:0.0 24:0.0 25:0.0 26:1.0 27:1.0 28:1.0 29:1.0 30:1.0 31:1.0 32:0.0 33:1.0 34:1.0 35:0.0 36:0.0 37:0.0 38:0.0 39:1.0 40:1.0 41:1.0 42:0.0 43:0.0 44:0.0 45:0.0 46:0.0 47:0.0 48:1.0 49:1.0 50:0.0 51:0.0 52:0.0 53:0.0 54:0.0 55:0.0 56:1.0 57:1.0 58:0.0 59:0.0 60:0.0 61:0.0 62:0.0 63:0.0 64:1.0 65:1.0 66:0.0 67:0.0 68:0.0 69:0.0 70:0.0 71:0.0 72:1.0 73:1.0 74:0.0 75:0.0 76:0.0 77:0.0 78:0.0 79:1.0 80:1.0 81:1.0 82:0.0 83:0.0 84:0.0 85:0.0 86:1.0 87:1.0 88:0.0 89:1.0 90:0.0 91:0.0 92:0.0 93:1.0 94:1.0 95:0.0 96:0.0 97:1.0 98:1.0 99:1.0 100:1.0 101:1.0 102:0.0 103:0.0 104:0.0 105:0.0 106:0.0 107:0.0 108:0.0 109:0.0 110:0.0 111:0.0 112:0.0 113:0.0 114:0.0 115:0.0 116:0.0 117:0.0 118:0.0 119:0.0 120:0.0 121:0.0 122:0.0 123:0.0 124:0.0 125:0.0 126:0.0 127:0.0 128:0.0 
0.004617089741241902 0.0 0.01 0.0 0.0 0.0 0.0 0.01 0.0 0.01 0.0 0.0 0.0 0.0 0.0 0.0 0.0 0.0 0.0 0.0 0.0 0.0 0.0 0.0 0.0 1:0.0 2:0.0 3:0.0 4:0.0 5:0.0 6:0.0 7:0.0 8:0.0 9:0.0 10:0.0 11:0.0 12:0.0 13:0.0 14:0.0 15:0.0 16:0.0 17:0.0 18:0.0 19:0.0 20:0.0 21:0.0 22:0.0 23:0.0 24:0.0 25:0.0 26:0.0 27:1.0 28:1.0 29:1.0 30:0.0 31:0.0 32:0.0 33:0.0 34:1.0 35:1.0 36:0.0 37:1.0 38:1.0 39:1.0 40:0.0 41:1.0 42:1.0 43:1.0 44:0.0 45:0.0 46:0.0 47:1.0 48:1.0 49:0.0 50:1.0 51:0.0 52:0.0 53:0.0 54:0.0 55:0.0 56:1.0 57:0.0 58:1.0 59:0.0 60:0.0 61:0.0 62:0.0 63:0.0 64:1.0 65:1.0 66:1.0 67:0.0 68:0.0 69:0.0 70:0.0 71:0.0 72:1.0 73:1.0 74:0.0 75:0.0 76:0.0 77:0.0 78:0.0 79:0.0 80:1.0 81:1.0 82:0.0 83:0.0 84:0.0 85:0.0 86:0.0 87:0.0 88:1.0 89:1.0 90:0.0 91:0.0 92:0.0 93:0.0 94:1.0 95:1.0 96:0.0 97:1.0 98:1.0 99:1.0 100:1.0 101:1.0 102:1.0 103:0.0 104:0.0 105:0.0 106:0.0 107:0.0 108:0.0 109:0.0 110:0.0 111:0.0 112:0.0 113:0.0 114:0.0 115:0.0 116:0.0 117:0.0 118:0.0 119:0.0 120:0.0 121:0.0 122:0.0 123:0.0 124:0.0 125:0.0 126:0.0 127:0.0 128:0.0 
0.0 0.01 0.01 0.0 0.0 0.005441398488729993 0.0 0.0 0.01 0.01 0.01 0.0036986217380006333 0.0 0.0 0.0 0.0 0.01 0.01 0.0 0.0 0.0 0.0 0.0030421044917331485 0.0 0.01 1:0.0 2:0.0 3:0.0 4:0.0 5:0.0 6:0.0 7:0.0 8:0.0 9:0.0 10:0.0 11:0.0 12:0.0 13:0.0 14:0.0 15:0.0 16:0.0 17:0.0 18:0.0 19:0.0 20:0.0 21:0.0 22:0.0 23:0.0 24:0.0 25:0.0 26:0.0 27:0.0 28:0.0 29:0.0 30:0.0 31:0.0 32:0.0 33:0.0 34:0.0 35:0.0 36:0.0 37:1.0 38:1.0 39:0.0 40:0.0 41:1.0 42:1.0 43:1.0 44:1.0 45:0.0 46:1.0 47:1.0 48:0.0 49:1.0 50:0.0 51:0.0 52:1.0 53:0.0 54:0.0 55:1.0 56:0.0 57:1.0 58:0.0 59:0.0 60:0.0 61:0.0 62:0.0 63:0.0 64:1.0 65:1.0 66:0.0 67:0.0 68:0.0 69:0.0 70:0.0 71:0.0 72:1.0 73:1.0 74:1.0 75:0.0 76:0.0 77:0.0 78:0.0 79:0.0 80:1.0 81:0.0 82:1.0 83:1.0 84:1.0 85:0.0 86:0.0 87:0.0 88:1.0 89:0.0 90:0.0 91:0.0 92:1.0 93:1.0 94:1.0 95:1.0 96:1.0 97:0.0 98:0.0 99:0.0 100:0.0 101:0.0 102:0.0 103:0.0 104:0.0 105:0.0 106:0.0 107:0.0 108:0.0 109:0.0 110:0.0 111:0.0 112:0.0 113:0.0 114:0.0 115:0.0 116:0.0 117:0.0 118:0.0 119:0.0 120:0.0 121:0.0 122:0.0 123:0.0 124:0.0 125:0.0 126:0.0 127:0.0 128:0.0 
0.01 0.01 0.01 0.0016772168251028194 0.01 0.01 0.0025755024370694465 0.007585054309522932 0.0 0.01 0.0 0.01 0.01 0.01 0.0049636848460528574 0.0 0.01 0.01 0.005541021927470369 0.0 0.0029577460219945674 0.0 0.007627557469457458 0.005866009166786804 0.0 1:0.0 2:0.0 3:0.0 4:0.0 5:0.0 6:0.0 7:0.0 8:0.0 9:0.0 10:0.0 11:0.0 12:0.0 13:0.0 14:0.0 15:0.0 16:0.0 17:0.0 18:0.0 19:0.0 20:0.0 21:0.0 22:0.0 23:0.0 24:0.0 25:0.0 26:0.0 27:0.0 28:0.0 29:0.0 30:0.0 31:0.0 32:0.0 33:0.0 34:0.0 35:0.0 36:0.0 37:0.0 38:0.0 39:0.0 40:0.0 41:0.0 42:0.0 43:0.0 44:1.0 45:1.0 46:1.0 47:0.0 48:0.0 49:0.0 50:0.0 51:1.0 52:1.0 53:0.0 54:1.0 55:1.0 56:1.0 57:1.0 58:1.0 59:0.0 60:0.0 61:0.0 62:1.0 63:0.0 64:1.0 65:1.0 66:0.0 67:0.0 68:0.0 69:0.0 70:0.0 71:0.0 72:1.0 73:1.0 74:0.0 75:0.0 76:1.0 77:1.0 78:1.0 79:1.0 80:1.0 81:1.0 82:1.0 83:1.0 84:1.0 85:0.0 86:0.0 87:0.0 88:0.0 89:0.0 90:0.0 91:0.0 92:0.0 93:0.0 94:0.0 95:0.0 96:0.0 97:0.0 98:0.0 99:0.0 100:0.0 101:0.0 102:0.0 103:0.0 104:0.0 105:0.0 106:0.0 107:0.0 108:0.0 109:0.0 110:0.0 111:0.0 112:0.0 113:0.0 114:0.0 115:0.0 116:0.0 117:0.0 118:0.0 119:0.0 120:0.0 121:0.0 122:0.0 123:0.0 124:0.0 125:0.0 126:0.0 127:0.0 128:0.0 
0.0044792587152993986 0.01 0.01 0.01 0.01 0.01 0.01 0.01 0.01 0.01 0.01 0.01 0.01 0.01 0.01 0.01 0.01 0.01 0.01 0.01 0.01 0.01 0.01 0.0 0.00800083597773653 1:0.0 2:0.0 3:0.0 4:1.0 5:1.0 6:1.0 7:1.0 8:0.0 9:0.0 10:0.0 11:1.0 12:1.0 13:0.0 14:0.0 15:1.0 16:0.0 17:0.0 18:0.0 19:1.0 20:0.0 21:0.0 22:0.0 23:1.0 24:0.0 25:0.0 26:0.0 27:1.0 28:0.0 29:0.0 30:0.0 31:1.0 32:0.0 33:0.0 34:1.0 35:1.0 36:0.0 37:0.0 38:0.0 39:1.0 40:0.0 41:0.0 42:1.0 43:0.0 44:0.0 45:0.0 46:0.0 47:1.0 48:0.0 49:0.0 50:1.0 51:0.0 52:0.0 53:0.0 54:0.0 55:1.0 56:0.0 57:0.0 58:1.0 59:0.0 60:0.0 61:0.0 62:0.0 63:1.0 64:0.0 65:0.0 66:1.0 67:0.0 68:0.0 69:0.0 70:0.0 71:1.0 72:0.0 73:0.0 74:1.0 75:0.0 76:0.0 77:0.0 78:0.0 79:1.0 80:0.0 81:0.0 82:0.0 83:0.0 84:0.0 85:0.0 86:0.0 87:1.0 88:0.0 89:0.0 90:0.0 91:0.0 92:0.0 93:0.0 94:0.0 95:1.0 96:0.0 97:0.0 98:0.0 99:0.0 100:0.0 101:0.0 102:0.0 103:1.0 104:0.0 105:0.0 106:0.0 107:0.0 108:0.0 109:0.0 110:0.0 111:1.0 112:0.0 113:0.0 114:0.0 115:0.0 116:1.0 117:0.0 118:1.0 119:1.0 120:0.0 121:0.0 122:0.0 123:0.0 124:1.0 125:1.0 126:1.0 127:0.0 128:0.0 
0.0 0.0 0.01 0.01 0.0 0.01 0.0 0.0 0.0 0.0 0.01 0.005009658571204463 0.004773731305617121 0.0 0.01 0.0013059733758787955 0.0 0.01 1.772634157871834E-4 0.01 0.0 0.0 0.0014748827992167046 0.0 0.0 1:0.0 2:0.0 3:0.0 4:0.0 5:0.0 6:0.0 7:0.0 8:0.0 9:0.0 10:0.0 11:0.0 12:0.0 13:0.0 14:0.0 15:0.0 16:0.0 17:0.0 18:0.0 19:0.0 20:0.0 21:0.0 22:0.0 23:0.0 24:0.0 25:0.0 26:0.0 27:0.0 28:1.0 29:1.0 30:1.0 31:1.0 32:0.0 33:0.0 34:0.0 35:1.0 36:1.0 37:0.0 38:0.0 39:1.0 40:1.0 41:0.0 42:1.0 43:1.0 44:0.0 45:0.0 46:0.0 47:0.0 48:1.0 49:0.0 50:1.0 51:0.0 52:0.0 53:0.0 54:0.0 55:0.0 56:1.0 57:0.0 58:1.0 59:0.0 60:0.0 61:0.0 62:0.0 63:0.0 64:1.0 65:0.0 66:1.0 67:0.0 68:0.0 69:0.0 70:0.0 71:0.0 72:1.0 73:0.0 74:1.0 75:0.0 76:0.0 77:0.0 78:0.0 79:0.0 80:1.0 81:0.0 82:1.0 83:1.0 84:0.0 85:0.0 86:0.0 87:1.0 88:1.0 89:0.0 90:0.0 91:0.0 92:0.0 93:0.0 94:1.0 95:1.0 96:0.0 97:1.0 98:1.0 99:1.0 100:1.0 101:1.0 102:1.0 103:0.0 104:0.0 105:0.0 106:0.0 107:0.0 108:0.0 109:0.0 110:0.0 111:0.0 112:0.0 113:0.0 114:0.0 115:0.0 116:0.0 117:0.0 118:0.0 119:0.0 120:0.0 121:0.0 122:0.0 123:0.0 124:0.0 125:0.0 126:0.0 127:0.0 128:0.0 
0.01 0.01 0.01 0.0 0.01 0.01 0.01 0.01 0.01 0.01 0.01 0.01 0.01 0.01 0.01 0.01 0.01 0.01 0.01 0.01 0.0 0.0036771140950467487 0.01 0.0 0.01 1:0.0 2:0.0 3:0.0 4:0.0 5:0.0 6:0.0 7:0.0 8:0.0 9:0.0 10:0.0 11:0.0 12:0.0 13:0.0 14:0.0 15:0.0 16:0.0 17:0.0 18:0.0 19:0.0 20:0.0 21:0.0 22:0.0 23:0.0 24:0.0 25:0.0 26:0.0 27:0.0 28:0.0 29:0.0 30:0.0 31:0.0 32:0.0 33:0.0 34:0.0 35:0.0 36:0.0 37:0.0 38:0.0 39:0.0 40:0.0 41:0.0 42:1.0 43:1.0 44:1.0 45:1.0 46:1.0 47:1.0 48:0.0 49:0.0 50:1.0 51:0.0 52:1.0 53:0.0 54:0.0 55:1.0 56:0.0 57:1.0 58:1.0 59:0.0 60:0.0 61:0.0 62:0.0 63:1.0 64:1.0 65:1.0 66:0.0 67:0.0 68:0.0 69:0.0 70:1.0 71:1.0 72:1.0 73:1.0 74:1.0 75:0.0 76:1.0 77:1.0 78:1.0 79:0.0 80:0.0 81:0.0 82:1.0 83:1.0 84:1.0 85:0.0 86:0.0 87:0.0 88:0.0 89:0.0 90:0.0 91:0.0 92:0.0 93:0.0 94:0.0 95:0.0 96:0.0 97:0.0 98:0.0 99:0.0 100:0.0 101:0.0 102:0.0 103:0.0 104:0.0 105:0.0 106:0.0 107:0.0 108:0.0 109:0.0 110:0.0 111:0.0 112:0.0 113:0.0 114:0.0 115:0.0 116:0.0 117:0.0 118:0.0 119:0.0 120:0.0 121:0.0 122:0.0 123:0.0 124:0.0 125:0.0 126:0.0 127:0.0 128:0.0 
0.0 0.0 0.01 0.01 0.01 0.01 0.01 0.006358121206961487 0.0 0.01 0.01 0.01 0.01 0.01 0.01 0.01 0.01 0.01 0.0 0.01 0.008245254231484056 0.0013251722260662067 0.01 0.01 0.0 1:0.0 2:0.0 3:0.0 4:0.0 5:0.0 6:0.0 7:0.0 8:0.0 9:0.0 10:0.0 11:0.0 12:0.0 13:0.0 14:0.0 15:0.0 16:0.0 17:0.0 18:0.0 19:0.0 20:0.0 21:0.0 22:0.0 23:0.0 24:0.0 25:0.0 26:0.0 27:0.0 28:0.0 29:0.0 30:0.0 31:0.0 32:0.0 33:1.0 34:1.0 35:1.0 36:1.0 37:1.0 38:1.0 39:1.0 40:1.0 41:1.0 42:0.0 43:0.0 44:0.0 45:0.0 46:0.0 47:0.0 48:1.0 49:1.0 50:0.0 51:0.0 52:0.0 53:0.0 54:0.0 55:0.0 56:1.0 57:1.0 58:0.0 59:0.0 60:0.0 61:0.0 62:0.0 63:0.0 64:1.0 65:0.0 66:0.0 67:0.0 68:0.0 69:0.0 70:0.0 71:0.0 72:1.0 73:0.0 74:0.0 75:1.0 76:0.0 77:0.0 78:0.0 79:0.0 80:1.0 81:0.0 82:0.0 83:1.0 84:0.0 85:0.0 86:0.0 87:1.0 88:1.0 89:0.0 90:0.0 91:1.0 92:1.0 93:1.0 94:1.0 95:1.0 96:0.0 97:0.0 98:0.0 99:0.0 100:0.0 101:0.0 102:0.0 103:0.0 104:0.0 105:0.0 106:0.0 107:0.0 108:0.0 109:0.0 110:0.0 111:0.0 112:0.0 113:0.0 114:0.0 115:0.0 116:0.0 117:0.0 118:0.0 119:0.0 120:0.0 121:0.0 122:0.0 123:0.0 124:0.0 125:0.0 126:0.0 127:0.0 128:0.0 
0.0 0.01 0.0 0.0 0.0 0.0 0.01 0.0 0.01 0.01 0.0 0.0 0.0 0.0 0.0 0.0 0.01 0.0 0.0 0.005137801593450874 0.0 0.0 0.0 0.0 0.008804839652725643 1:0.0 2:0.0 3:0.0 4:0.0 5:0.0 6:0.0 7:0.0 8:0.0 9:0.0 10:0.0 11:0.0 12:0.0 13:0.0 14:0.0 15:0.0 16:0.0 17:0.0 18:0.0 19:0.0 20:0.0 21:0.0 22:0.0 23:0.0 24:0.0 25:0.0 26:0.0 27:0.0 28:0.0 29:0.0 30:0.0 31:0.0 32:0.0 33:0.0 34:0.0 35:1.0 36:0.0 37:0.0 38:0.0 39:0.0 40:0.0 41:0.0 42:1.0 43:1.0 44:1.0 45:1.0 46:0.0 47:0.0 48:1.0 49:1.0 50:1.0 51:0.0 52:0.0 53:0.0 54:0.0 55:0.0 56:1.0 57:1.0 58:0.0 59:0.0 60:0.0 61:0.0 62:0.0 63:0.0 64:1.0 65:1.0 66:0.0 67:0.0 68:0.0 69:0.0 70:0.0 71:1.0 72:1.0 73:1.0 74:0.0 75:0.0 76:0.0 77:0.0 78:1.0 79:1.0 80:0.0 81:1.0 82:1.0 83:0.0 84:1.0 85:1.0 86:1.0 87:0.0 88:0.0 89:0.0 90:1.0 91:1.0 92:1.0 93:0.0 94:0.0 95:0.0 96:0.0 97:0.0 98:0.0 99:0.0 100:0.0 101:0.0 102:0.0 103:0.0 104:0.0 105:0.0 106:0.0 107:0.0 108:0.0 109:0.0 110:0.0 111:0.0 112:0.0 113:0.0 114:0.0 115:0.0 116:0.0 117:0.0 118:0.0 119:0.0 120:0.0 121:0.0 122:0.0 123:0.0 124:0.0 125:0.0 126:0.0 127:0.0 128:0.0 
0.0033581389802939537 0.0 0.004137793221946471 0.004820495878762207 0.0 0.0 0.0 0.0 0.0 0.0 0.0 0.0 0.0 0.0 0.0 0.0 0.01 0.0 0.0 0.0 0.0 0.0 0.0 0.0 0.0 1:1.0 2:1.0 3:1.0 4:1.0 5:1.0 6:1.0 7:0.0 8:0.0 9:0.0 10:0.0 11:0.0 12:0.0 13:0.0 14:0.0 15:1.0 16:1.0 17:0.0 18:0.0 19:0.0 20:0.0 21:0.0 22:0.0 23:0.0 24:1.0 25:0.0 26:0.0 27:0.0 28:0.0 29:0.0 30:0.0 31:0.0 32:1.0 33:0.0 34:1.0 35:0.0 36:0.0 37:0.0 38:0.0 39:0.0 40:1.0 41:0.0 42:1.0 43:0.0 44:0.0 45:0.0 46:0.0 47:0.0 48:1.0 49:1.0 50:1.0 51:0.0 52:0.0 53:0.0 54:0.0 55:0.0 56:1.0 57:1.0 58:0.0 59:0.0 60:0.0 61:0.0 62:0.0 63:0.0 64:1.0 65:1.0 66:0.0 67:0.0 68:0.0 69:0.0 70:0.0 71:0.0 72:1.0 73:1.0 74:0.0 75:0.0 76:0.0 77:0.0 78:0.0 79:0.0 80:1.0 81:1.0 82:0.0 83:0.0 84:0.0 85:0.0 86:0.0 87:0.0 88:1.0 89:1.0 90:0.0 91:0.0 92:0.0 93:0.0 94:0.0 95:1.0 96:1.0 97:1.0 98:0.0 99:0.0 100:0.0 101:0.0 102:0.0 103:1.0 104:0.0 105:1.0 106:0.0 107:0.0 108:0.0 109:0.0 110:1.0 111:0.0 112:0.0 113:1.0 114:0.0 115:0.0 116:1.0 117:1.0 118:0.0 119:0.0 120:0.0 121:1.0 122:1.0 123:1.0 124:1.0 125:0.0 126:0.0 127:0.0 128:0.0 
0.0 0.0 0.0 0.0 0.0 0.0 0.0 0.0 0.0 0.0 0.0 0.0 0.0 0.0 0.0 0.0 0.009549555944855303 0.0 0.0 0.0 0.0 0.0 0.0 0.0 0.0 1:0.0 2:0.0 3:0.0 4:0.0 5:0.0 6:0.0 7:0.0 8:0.0 9:0.0 10:0.0 11:0.0 12:0.0 13:0.0 14:0.0 15:0.0 16:0.0 17:0.0 18:0.0 19:0.0 20:1.0 21:1.0 22:1.0 23:0.0 24:0.0 25:0.0 26:1.0 27:1.0 28:1.0 29:0.0 30:1.0 31:1.0 32:0.0 33:1.0 34:1.0 35:0.0 36:0.0 37:0.0 38:0.0 39:1.0 40:1.0 41:1.0 42:0.0 43:0.0 44:0.0 45:0.0 46:0.0 47:0.0 48:1.0 49:1.0 50:0.0 51:0.0 52:0.0 53:0.0 54:0.0 55:0.0 56:1.0 57:1.0 58:0.0 59:0.0 60:0.0 61:0.0 62:0.0 63:0.0 64:1.0 65:1.0 66:0.0 67:0.0 68:0.0 69:0.0 70:0.0 71:1.0 72:1.0 73:1.0 74:0.0 75:0.0 76:0.0 77:0.0 78:0.0 79:1.0 80:0.0 81:1.0 82:1.0 83:0.0 84:0.0 85:0.0 86:0.0 87:1.0 88:0.0 89:0.0 90:1.0 91:1.0 92:0.0 93:0.0 94:1.0 95:1.0 96:0.0 97:0.0 98:0.0 99:1.0 100:1.0 101:1.0 102:1.0 103:1.0 104:0.0 105:0.0 106:0.0 107:0.0 108:0.0 109:0.0 110:1.0 111:0.0 112:0.0 113:0.0 114:0.0 115:0.0 116:0.0 117:0.0 118:0.0 119:0.0 120:0.0 121:0.0 122:0.0 123:0.0 124:0.0 125:0.0 126:0.0 127:0.0 128:0.0 
0.0 0.0 0.0 0.0 0.0 0.0 0.0 0.0 0.0 0.0 0.0 0.0 0.0 0.0 0.0 0.0 0.0 0.0 0.008665864229212308 0.0 0.0 0.0 0.0 0.0 0.0 1:0.0 2:0.0 3:0.0 4:1.0 5:1.0 6:1.0 7:1.0 8:0.0 9:0.0 10:0.0 11:0.0 12:1.0 13:0.0 14:0.0 15:1.0 16:0.0 17:0.0 18:0.0 19:1.0 20:1.0 21:1.0 22:0.0 23:1.0 24:1.0 25:0.0 26:0.0 27:1.0 28:0.0 29:0.0 30:0.0 31:0.0 32:1.0 33:0.0 34:1.0 35:1.0 36:0.0 37:0.0 38:0.0 39:0.0 40:1.0 41:0.0 42:1.0 43:0.0 44:0.0 45:0.0 46:0.0 47:0.0 48:1.0 49:0.0 50:1.0 51:0.0 52:0.0 53:0.0 54:0.0 55:0.0 56:1.0 57:1.0 58:1.0 59:0.0 60:0.0 61:0.0 62:0.0 63:0.0 64:1.0 65:1.0 66:0.0 67:0.0 68:0.0 69:0.0 70:0.0 71:0.0 72:1.0 73:1.0 74:0.0 75:0.0 76:0.0 77:0.0 78:0.0 79:1.0 80:0.0 81:1.0 82:0.0 83:0.0 84:0.0 85:0.0 86:0.0 87:1.0 88:0.0 89:1.0 90:0.0 91:0.0 92:0.0 93:0.0 94:1.0 95:1.0 96:0.0 97:1.0 98:0.0 99:0.0 100:0.0 101:0.0 102:1.0 103:0.0 104:0.0 105:1.0 106:0.0 107:0.0 108:0.0 109:1.0 110:1.0 111:0.0 112:0.0 113:1.0 114:0.0 115:0.0 116:1.0 117:1.0 118:0.0 119:0.0 120:0.0 121:1.0 122:1.0 123:1.0 124:1.0 125:0.0 126:0.0 127:0.0 128:0.0 
0.0 0.0 0.01 0.0 0.0 0.01 0.0 0.0 0.0 0.0 0.0 0.0 0.0 0.0 0.0017861673194114606 0.0 0.0 0.0 0.0 0.0 0.0 0.0 0.0 0.0 0.0 1:0.0 2:0.0 3:0.0 4:0.0 5:0.0 6:1.0 7:1.0 8:0.0 9:0.0 10:0.0 11:0.0 12:0.0 13:0.0 14:1.0 15:0.0 16:0.0 17:0.0 18:0.0 19:0.0 20:1.0 21:1.0 22:1.0 23:1.0 24:1.0 25:0.0 26:0.0 27:1.0 28:1.0 29:0.0 30:1.0 31:0.0 32:1.0 33:0.0 34:0.0 35:1.0 36:0.0 37:0.0 38:1.0 39:0.0 40:1.0 41:0.0 42:0.0 43:1.0 44:0.0 45:0.0 46:0.0 47:0.0 48:1.0 49:0.0 50:1.0 51:1.0 52:0.0 53:0.0 54:0.0 55:0.0 56:1.0 57:0.0 58:1.0 59:0.0 60:0.0 61:0.0 62:0.0 63:0.0 64:1.0 65:1.0 66:1.0 67:0.0 68:0.0 69:0.0 70:0.0 71:0.0 72:1.0 73:1.0 74:0.0 75:0.0 76:0.0 77:0.0 78:0.0 79:0.0 80:1.0 81:1.0 82:0.0 83:0.0 84:0.0 85:0.0 86:0.0 87:0.0 88:1.0 89:1.0 90:0.0 91:0.0 92:0.0 93:0.0 94:0.0 95:1.0 96:1.0 97:1.0 98:0.0 99:0.0 100:0.0 101:0.0 102:0.0 103:1.0 104:0.0 105:1.0 106:0.0 107:0.0 108:0.0 109:0.0 110:1.0 111:1.0 112:0.0 113:1.0 114:0.0 115:0.0 116:0.0 117:1.0 118:1.0 119:0.0 120:0.0 121:1.0 122:1.0 123:1.0 124:1.0 125:1.0 126:0.0 127:0.0 128:0.0 
0.0 0.0 0.009087585137896762 0.0 0.0 0.0 0.0 0.0 0.0 0.0 0.0 0.0 0.0 0.0 0.0 0.0 0.0 0.0 0.0 0.0 0.0 0.0 0.0 0.0 0.0 1:0.0 2:0.0 3:0.0 4:0.0 5:0.0 6:0.0 7:0.0 8:0.0 9:0.0 10:0.0 11:0.0 12:0.0 13:0.0 14:1.0 15:1.0 16:1.0 17:0.0 18:0.0 19:0.0 20:0.0 21:1.0 22:1.0 23:0.0 24:1.0 25:0.0 26:0.0 27:1.0 28:1.0 29:0.0 30:0.0 31:0.0 32:1.0 33:0.0 34:0.0 35:1.0 36:0.0 37:0.0 38:0.0 39:0.0 40:1.0 41:0.0 42:1.0 43:1.0 44:0.0 45:0.0 46:0.0 47:0.0 48:1.0 49:0.0 50:1.0 51:1.0 52:0.0 53:0.0 54:0.0 55:0.0 56:1.0 57:0.0 58:1.0 59:1.0 60:0.0 61:0.0 62:0.0 63:0.0 64:1.0 65:1.0 66:1.0 67:0.0 68:0.0 69:0.0 70:0.0 71:0.0 72:1.0 73:1.0 74:1.0 75:0.0 76:0.0 77:0.0 78:0.0 79:1.0 80:1.0 81:1.0 82:0.0 83:0.0 84:0.0 85:0.0 86:0.0 87:1.0 88:0.0 89:1.0 90:0.0 91:0.0 92:0.0 93:0.0 94:1.0 95:1.0 96:0.0 97:1.0 98:0.0 99:0.0 100:0.0 101:1.0 102:1.0 103:0.0 104:0.0 105:1.0 106:0.0 107:1.0 108:1.0 109:1.0 110:0.0 111:0.0 112:0.0 113:1.0 114:1.0 115:1.0 116:0.0 117:0.0 118:0.0 119:0.0 120:0.0 121:0.0 122:0.0 123:0.0 124:0.0 125:0.0 126:0.0 127:0.0 128:0.0 
0.0 0.0 0.006669886113380998 0.0 0.0 0.004547241532078827 0.00784215431986772 0.0 1.655092561263114E-5 0.0 0.0030063454819289127 0.0 0.0 0.0 0.0014344368122602865 2.546663264923492E-5 0.01 0.0 0.006235693079459081 0.0 0.006419270825860923 0.0 0.0 0.0 0.0 1:0.0 2:0.0 3:1.0 4:1.0 5:1.0 6:1.0 7:0.0 8:0.0 9:0.0 10:1.0 11:1.0 12:0.0 13:0.0 14:1.0 15:1.0 16:0.0 17:0.0 18:1.0 19:0.0 20:0.0 21:0.0 22:0.0 23:0.0 24:1.0 25:1.0 26:1.0 27:0.0 28:0.0 29:0.0 30:0.0 31:0.0 32:1.0 33:1.0 34:0.0 35:0.0 36:0.0 37:0.0 38:0.0 39:0.0 40:1.0 41:1.0 42:0.0 43:0.0 44:0.0 45:0.0 46:0.0 47:0.0 48:1.0 49:1.0 50:0.0 51:0.0 52:0.0 53:0.0 54:0.0 55:0.0 56:1.0 57:1.0 58:0.0 59:0.0 60:0.0 61:0.0 62:0.0 63:0.0 64:1.0 65:1.0 66:0.0 67:0.0 68:0.0 69:0.0 70:0.0 71:0.0 72:1.0 73:1.0 74:0.0 75:0.0 76:0.0 77:0.0 78:0.0 79:0.0 80:1.0 81:1.0 82:0.0 83:0.0 84:0.0 85:0.0 86:0.0 87:0.0 88:1.0 89:1.0 90:0.0 91:0.0 92:0.0 93:0.0 94:0.0 95:0.0 96:1.0 97:1.0 98:0.0 99:0.0 100:0.0 101:0.0 102:0.0 103:1.0 104:1.0 105:1.0 106:0.0 107:0.0 108:0.0 109:0.0 110:1.0 111:1.0 112:0.0 113:1.0 114:1.0 115:1.0 116:0.0 117:0.0 118:1.0 119:0.0 120:0.0 121:0.0 122:0.0 123:1.0 124:1.0 125:1.0 126:1.0 127:0.0 128:0.0 
0.0 0.0 0.0 0.0 0.0 0.0 0.0 0.0 0.0017130074509017264 0.0 0.0 0.0 0.0 0.0 0.0 0.0 0.01 0.0 0.0 0.0 0.0 0.0 0.0 0.0 0.0 1:0.0 2:0.0 3:0.0 4:0.0 5:0.0 6:0.0 7:0.0 8:0.0 9:0.0 10:0.0 11:0.0 12:0.0 13:0.0 14:0.0 15:0.0 16:0.0 17:0.0 18:0.0 19:0.0 20:0.0 21:0.0 22:0.0 23:0.0 24:0.0 25:0.0 26:0.0 27:0.0 28:0.0 29:0.0 30:0.0 31:0.0 32:0.0 33:0.0 34:1.0 35:0.0 36:1.0 37:1.0 38:1.0 39:1.0 40:1.0 41:1.0 42:1.0 43:0.0 44:0.0 45:0.0 46:0.0 47:0.0 48:1.0 49:1.0 50:0.0 51:0.0 52:0.0 53:0.0 54:0.0 55:0.0 56:1.0 57:1.0 58:0.0 59:0.0 60:0.0 61:0.0 62:0.0 63:0.0 64:1.0 65:1.0 66:0.0 67:0.0 68:0.0 69:0.0 70:0.0 71:0.0 72:1.0 73:1.0 74:0.0 75:0.0 76:0.0 77:0.0 78:0.0 79:1.0 80:1.0 81:1.0 82:0.0 83:0.0 84:0.0 85:0.0 86:1.0 87:1.0 88:0.0 89:1.0 90:1.0 91:1.0 92:1.0 93:1.0 94:1.0 95:0.0 96:0.0 97:0.0 98:0.0 99:0.0 100:0.0 101:0.0 102:0.0 103:0.0 104:0.0 105:0.0 106:0.0 107:0.0 108:0.0 109:0.0 110:0.0 111:0.0 112:0.0 113:0.0 114:0.0 115:0.0 116:0.0 117:0.0 118:0.0 119:0.0 120:0.0 121:0.0 122:0.0 123:0.0 124:0.0 125:0.0 126:0.0 127:0.0 128:0.0 
0.0 0.0 0.0 0.0 0.0 0.0 0.0 0.0 0.0 0.0 0.0 0.0 0.0 0.0 0.0 0.0 0.01 0.0 0.0 0.0 0.0 0.0 0.0 0.0 0.0 1:0.0 2:0.0 3:0.0 4:0.0 5:0.0 6:0.0 7:0.0 8:0.0 9:0.0 10:0.0 11:0.0 12:0.0 13:0.0 14:0.0 15:0.0 16:0.0 17:0.0 18:0.0 19:0.0 20:0.0 21:0.0 22:0.0 23:0.0 24:0.0 25:0.0 26:0.0 27:0.0 28:1.0 29:1.0 30:1.0 31:1.0 32:0.0 33:0.0 34:1.0 35:0.0 36:0.0 37:0.0 38:0.0 39:1.0 40:0.0 41:1.0 42:1.0 43:0.0 44:0.0 45:0.0 46:0.0 47:1.0 48:1.0 49:1.0 50:0.0 51:0.0 52:0.0 53:0.0 54:0.0 55:0.0 56:1.0 57:1.0 58:0.0 59:0.0 60:0.0 61:0.0 62:0.0 63:0.0 64:1.0 65:1.0 66:0.0 67:0.0 68:0.0 69:0.0 70:0.0 71:0.0 72:1.0 73:1.0 74:0.0 75:0.0 76:0.0 77:0.0 78:0.0 79:0.0 80:1.0 81:1.0 82:0.0 83:0.0 84:0.0 85:0.0 86:0.0 87:0.0 88:1.0 89:1.0 90:1.0 91:0.0 92:0.0 93:0.0 94:0.0 95:1.0 96:1.0 97:0.0 98:1.0 99:1.0 100:1.0 101:1.0 102:1.0 103:0.0 104:0.0 105:0.0 106:0.0 107:0.0 108:0.0 109:0.0 110:0.0 111:0.0 112:0.0 113:0.0 114:0.0 115:0.0 116:0.0 117:0.0 118:0.0 119:0.0 120:0.0 121:0.0 122:0.0 123:0.0 124:0.0 125:0.0 126:0.0 127:0.0 128:0.0 
0.0 0.0 0.01 0.0 0.0 0.0 0.0 0.0 0.01 0.0 0.0 0.0 0.0 0.0 0.0 0.0 0.0 0.0 0.0 0.0 0.0 0.0 0.0 0.0 0.0 1:0.0 2:0.0 3:0.0 4:0.0 5:0.0 6:0.0 7:0.0 8:0.0 9:0.0 10:0.0 11:0.0 12:0.0 13:0.0 14:0.0 15:0.0 16:0.0 17:0.0 18:0.0 19:0.0 20:0.0 21:0.0 22:0.0 23:0.0 24:0.0 25:0.0 26:0.0 27:0.0 28:1.0 29:1.0 30:1.0 31:0.0 32:0.0 33:0.0 34:1.0 35:1.0 36:0.0 37:0.0 38:1.0 39:1.0 40:0.0 41:1.0 42:1.0 43:0.0 44:0.0 45:0.0 46:0.0 47:1.0 48:1.0 49:1.0 50:0.0 51:0.0 52:0.0 53:0.0 54:0.0 55:0.0 56:1.0 57:1.0 58:0.0 59:0.0 60:0.0 61:0.0 62:0.0 63:0.0 64:1.0 65:1.0 66:0.0 67:0.0 68:0.0 69:0.0 70:0.0 71:0.0 72:1.0 73:1.0 74:0.0 75:0.0 76:0.0 77:0.0 78:0.0 79:0.0 80:1.0 81:1.0 82:0.0 83:0.0 84:0.0 85:0.0 86:0.0 87:0.0 88:1.0 89:1.0 90:1.0 91:0.0 92:0.0 93:0.0 94:0.0 95:1.0 96:1.0 97:0.0 98:1.0 99:1.0 100:1.0 101:1.0 102:1.0 103:1.0 104:0.0 105:0.0 106:0.0 107:0.0 108:0.0 109:0.0 110:0.0 111:0.0 112:0.0 113:0.0 114:0.0 115:0.0 116:0.0 117:0.0 118:0.0 119:0.0 120:0.0 121:0.0 122:0.0 123:0.0 124:0.0 125:0.0 126:0.0 127:0.0 128:0.0 
0.0 0.0 0.007906838920036637 0.0 0.0 0.0 0.0 0.0 0.0 0.0 0.0 0.0 0.0 0.0 0.0 0.0 0.0 0.0 0.0 0.0 0.0 0.0 0.0 0.0 0.0 1:0.0 2:0.0 3:0.0 4:0.0 5:0.0 6:0.0 7:0.0 8:0.0 9:0.0 10:0.0 11:0.0 12:0.0 13:0.0 14:0.0 15:0.0 16:0.0 17:0.0 18:0.0 19:0.0 20:0.0 21:0.0 22:0.0 23:0.0 24:0.0 25:0.0 26:0.0 27:0.0 28:0.0 29:1.0 30:1.0 31:1.0 32:1.0 33:0.0 34:0.0 35:0.0 36:0.0 37:1.0 38:1.0 39:1.0 40:1.0 41:0.0 42:0.0 43:1.0 44:1.0 45:0.0 46:0.0 47:0.0 48:1.0 49:0.0 50:1.0 51:1.0 52:0.0 53:0.0 54:0.0 55:0.0 56:1.0 57:1.0 58:1.0 59:0.0 60:0.0 61:0.0 62:0.0 63:0.0 64:1.0 65:1.0 66:0.0 67:0.0 68:0.0 69:0.0 70:0.0 71:0.0 72:1.0 73:1.0 74:0.0 75:0.0 76:0.0 77:0.0 78:0.0 79:1.0 80:1.0 81:1.0 82:0.0 83:0.0 84:0.0 85:0.0 86:1.0 87:1.0 88:0.0 89:1.0 90:0.0 91:0.0 92:0.0 93:0.0 94:1.0 95:0.0 96:0.0 97:1.0 98:1.0 99:1.0 100:1.0 101:1.0 102:0.0 103:0.0 104:0.0 105:0.0 106:0.0 107:0.0 108:0.0 109:0.0 110:0.0 111:0.0 112:0.0 113:0.0 114:0.0 115:0.0 116:0.0 117:0.0 118:0.0 119:0.0 120:0.0 121:0.0 122:0.0 123:0.0 124:0.0 125:0.0 126:0.0 127:0.0 128:0.0 
0.0 0.0 0.0 0.0 0.0 0.01 0.0 0.0 0.0 0.0 0.0 0.0 0.0 0.0 0.0 0.0 0.0 0.0 0.0 0.0 0.0 0.0 0.0 0.0 0.0 1:0.0 2:0.0 3:0.0 4:1.0 5:1.0 6:0.0 7:0.0 8:0.0 9:0.0 10:0.0 11:1.0 12:1.0 13:1.0 14:1.0 15:0.0 16:0.0 17:0.0 18:1.0 19:1.0 20:0.0 21:1.0 22:1.0 23:1.0 24:0.0 25:0.0 26:1.0 27:0.0 28:0.0 29:1.0 30:0.0 31:1.0 32:1.0 33:0.0 34:1.0 35:0.0 36:1.0 37:1.0 38:0.0 39:0.0 40:1.0 41:0.0 42:1.0 43:0.0 44:0.0 45:0.0 46:0.0 47:0.0 48:1.0 49:1.0 50:1.0 51:0.0 52:0.0 53:0.0 54:0.0 55:0.0 56:1.0 57:1.0 58:0.0 59:0.0 60:0.0 61:0.0 62:0.0 63:0.0 64:1.0 65:1.0 66:0.0 67:0.0 68:0.0 69:0.0 70:0.0 71:0.0 72:1.0 73:1.0 74:0.0 75:0.0 76:0.0 77:0.0 78:0.0 79:0.0 80:1.0 81:1.0 82:0.0 83:0.0 84:0.0 85:0.0 86:0.0 87:0.0 88:1.0 89:1.0 90:0.0 91:0.0 92:0.0 93:0.0 94:0.0 95:1.0 96:1.0 97:1.0 98:0.0 99:0.0 100:0.0 101:0.0 102:0.0 103:1.0 104:0.0 105:1.0 106:0.0 107:0.0 108:0.0 109:0.0 110:1.0 111:1.0 112:0.0 113:1.0 114:0.0 115:0.0 116:0.0 117:1.0 118:1.0 119:0.0 120:0.0 121:0.0 122:1.0 123:1.0 124:1.0 125:1.0 126:0.0 127:0.0 128:0.0 
0.0 0.01 0.0 0.01 0.01 0.01 0.01 0.01 0.01 0.01 0.01 0.01 0.01 0.01 0.01 0.01 0.01 0.01 0.01 0.01 0.01 0.01 0.01 0.006698212869742786 0.01 1:0.0 2:0.0 3:0.0 4:0.0 5:1.0 6:1.0 7:1.0 8:0.0 9:0.0 10:0.0 11:0.0 12:0.0 13:1.0 14:0.0 15:1.0 16:0.0 17:0.0 18:0.0 19:0.0 20:0.0 21:1.0 22:0.0 23:1.0 24:0.0 25:0.0 26:0.0 27:0.0 28:0.0 29:1.0 30:0.0 31:1.0 32:0.0 33:0.0 34:0.0 35:0.0 36:0.0 37:1.0 38:0.0 39:1.0 40:0.0 41:0.0 42:0.0 43:0.0 44:0.0 45:1.0 46:0.0 47:1.0 48:0.0 49:0.0 50:0.0 51:0.0 52:0.0 53:1.0 54:0.0 55:1.0 56:0.0 57:0.0 58:0.0 59:0.0 60:1.0 61:1.0 62:0.0 63:1.0 64:0.0 65:0.0 66:0.0 67:0.0 68:1.0 69:0.0 70:0.0 71:1.0 72:0.0 73:0.0 74:0.0 75:1.0 76:1.0 77:0.0 78:0.0 79:1.0 80:0.0 81:0.0 82:0.0 83:1.0 84:0.0 85:0.0 86:0.0 87:1.0 88:0.0 89:0.0 90:1.0 91:1.0 92:0.0 93:0.0 94:1.0 95:1.0 96:0.0 97:0.0 98:1.0 99:0.0 100:0.0 101:1.0 102:1.0 103:0.0 104:0.0 105:0.0 106:1.0 107:0.0 108:0.0 109:1.0 110:0.0 111:0.0 112:0.0 113:0.0 114:1.0 115:0.0 116:1.0 117:1.0 118:0.0 119:0.0 120:0.0 121:0.0 122:1.0 123:1.0 124:1.0 125:0.0 126:0.0 127:0.0 128:0.0 
0.01 0.01 0.01 0.0 0.0 0.0 0.0 0.01 0.004903612378698092 0.01 0.0 0.0 0.0 0.01 0.0 0.007053642994335723 0.01 0.0 0.0 0.0 0.0 0.0 0.0 0.0 0.0 1:0.0 2:0.0 3:0.0 4:0.0 5:0.0 6:0.0 7:0.0 8:0.0 9:0.0 10:0.0 11:0.0 12:0.0 13:0.0 14:0.0 15:0.0 16:0.0 17:0.0 18:0.0 19:0.0 20:0.0 21:0.0 22:0.0 23:0.0 24:0.0 25:0.0 26:0.0 27:0.0 28:0.0 29:0.0 30:0.0 31:0.0 32:0.0 33:0.0 34:0.0 35:0.0 36:0.0 37:0.0 38:0.0 39:0.0 40:0.0 41:0.0 42:1.0 43:1.0 44:1.0 45:1.0 46:1.0 47:1.0 48:1.0 49:1.0 50:1.0 51:0.0 52:0.0 53:0.0 54:0.0 55:0.0 56:1.0 57:1.0 58:0.0 59:0.0 60:0.0 61:0.0 62:0.0 63:0.0 64:1.0 65:1.0 66:0.0 67:0.0 68:0.0 69:0.0 70:0.0 71:1.0 72:1.0 73:1.0 74:0.0 75:0.0 76:1.0 77:1.0 78:1.0 79:1.0 80:0.0 81:1.0 82:1.0 83:1.0 84:1.0 85:0.0 86:0.0 87:0.0 88:0.0 89:0.0 90:0.0 91:0.0 92:0.0 93:0.0 94:0.0 95:0.0 96:0.0 97:0.0 98:0.0 99:0.0 100:0.0 101:0.0 102:0.0 103:0.0 104:0.0 105:0.0 106:0.0 107:0.0 108:0.0 109:0.0 110:0.0 111:0.0 112:0.0 113:0.0 114:0.0 115:0.0 116:0.0 117:0.0 118:0.0 119:0.0 120:0.0 121:0.0 122:0.0 123:0.0 124:0.0 125:0.0 126:0.0 127:0.0 128:0.0 
0.0 0.0 0.0 0.0 0.0 0.0 0.0 0.0 0.0 0.0 0.0 0.0 0.0 0.0 0.0 0.0 0.01 0.0 0.0 0.0 0.0 0.0 0.0 0.005351517138371394 0.0 1:0.0 2:0.0 3:0.0 4:0.0 5:0.0 6:0.0 7:0.0 8:0.0 9:0.0 10:0.0 11:0.0 12:0.0 13:0.0 14:0.0 15:0.0 16:0.0 17:0.0 18:0.0 19:0.0 20:0.0 21:0.0 22:0.0 23:0.0 24:0.0 25:0.0 26:1.0 27:1.0 28:1.0 29:1.0 30:1.0 31:1.0 32:0.0 33:1.0 34:1.0 35:0.0 36:0.0 37:0.0 38:0.0 39:1.0 40:1.0 41:1.0 42:0.0 43:0.0 44:0.0 45:0.0 46:0.0 47:0.0 48:1.0 49:1.0 50:0.0 51:0.0 52:0.0 53:0.0 54:0.0 55:0.0 56:1.0 57:1.0 58:0.0 59:0.0 60:0.0 61:0.0 62:0.0 63:0.0 64:1.0 65:1.0 66:0.0 67:0.0 68:0.0 69:0.0 70:0.0 71:0.0 72:1.0 73:1.0 74:0.0 75:0.0 76:0.0 77:0.0 78:0.0 79:1.0 80:1.0 81:1.0 82:0.0 83:0.0 84:0.0 85:0.0 86:1.0 87:1.0 88:0.0 89:1.0 90:1.0 91:0.0 92:1.0 93:1.0 94:1.0 95:0.0 96:0.0 97:0.0 98:1.0 99:1.0 100:1.0 101:0.0 102:0.0 103:0.0 104:0.0 105:0.0 106:0.0 107:0.0 108:0.0 109:0.0 110:0.0 111:0.0 112:0.0 113:0.0 114:0.0 115:0.0 116:0.0 117:0.0 118:0.0 119:0.0 120:0.0 121:0.0 122:0.0 123:0.0 124:0.0 125:0.0 126:0.0 127:0.0 128:0.0 
0.0 0.0 0.01 0.0 0.0 0.01 0.00461333636342404 0.005864629523755711 0.0033497939291062934 0.0 0.0 0.005125201114730817 0.0 0.0 0.01 0.0 0.01 0.0 0.01 0.004137405523537969 0.0 0.0 0.0 0.0 0.0 1:0.0 2:0.0 3:1.0 4:1.0 5:1.0 6:1.0 7:0.0 8:0.0 9:0.0 10:1.0 11:1.0 12:0.0 13:1.0 14:1.0 15:0.0 16:0.0 17:1.0 18:1.0 19:0.0 20:0.0 21:0.0 22:1.0 23:1.0 24:0.0 25:1.0 26:0.0 27:0.0 28:0.0 29:0.0 30:0.0 31:1.0 32:1.0 33:1.0 34:0.0 35:0.0 36:0.0 37:0.0 38:0.0 39:0.0 40:1.0 41:1.0 42:0.0 43:0.0 44:0.0 45:0.0 46:0.0 47:0.0 48:1.0 49:1.0 50:0.0 51:0.0 52:0.0 53:0.0 54:0.0 55:0.0 56:1.0 57:1.0 58:0.0 59:0.0 60:0.0 61:0.0 62:0.0 63:0.0 64:1.0 65:1.0 66:0.0 67:0.0 68:0.0 69:0.0 70:0.0 71:0.0 72:1.0 73:1.0 74:0.0 75:0.0 76:0.0 77:0.0 78:0.0 79:0.0 80:1.0 81:1.0 82:0.0 83:0.0 84:0.0 85:0.0 86:0.0 87:0.0 88:1.0 89:1.0 90:0.0 91:0.0 92:0.0 93:0.0 94:0.0 95:0.0 96:1.0 97:1.0 98:0.0 99:0.0 100:0.0 101:0.0 102:0.0 103:0.0 104:1.0 105:1.0 106:1.0 107:0.0 108:0.0 109:0.0 110:0.0 111:1.0 112:1.0 113:0.0 114:1.0 115:1.0 116:0.0 117:0.0 118:0.0 119:1.0 120:0.0 121:0.0 122:0.0 123:1.0 124:1.0 125:1.0 126:1.0 127:1.0 128:0.0 
0.0 0.0 0.0 0.0 0.0 0.0 0.0 0.0 0.0 0.008778541857162037 0.0 0.0 0.0 0.0 0.0 0.0 0.0 0.0 0.0 0.0 0.0 0.0 0.0 0.0 0.0 1:0.0 2:0.0 3:0.0 4:0.0 5:0.0 6:0.0 7:0.0 8:0.0 9:0.0 10:0.0 11:0.0 12:0.0 13:0.0 14:0.0 15:0.0 16:0.0 17:0.0 18:0.0 19:0.0 20:0.0 21:0.0 22:0.0 23:0.0 24:0.0 25:0.0 26:0.0 27:1.0 28:1.0 29:1.0 30:1.0 31:1.0 32:0.0 33:0.0 34:1.0 35:1.0 36:0.0 37:0.0 38:0.0 39:1.0 40:1.0 41:1.0 42:1.0 43:1.0 44:1.0 45:0.0 46:0.0 47:0.0 48:1.0 49:1.0 50:1.0 51:0.0 52:0.0 53:0.0 54:0.0 55:0.0 56:1.0 57:1.0 58:1.0 59:0.0 60:0.0 61:0.0 62:0.0 63:0.0 64:1.0 65:1.0 66:0.0 67:0.0 68:0.0 69:0.0 70:0.0 71:0.0 72:1.0 73:1.0 74:0.0 75:0.0 76:0.0 77:0.0 78:0.0 79:0.0 80:1.0 81:1.0 82:0.0 83:0.0 84:0.0 85:0.0 86:1.0 87:1.0 88:1.0 89:1.0 90:1.0 91:0.0 92:0.0 93:1.0 94:1.0 95:0.0 96:0.0 97:0.0 98:1.0 99:1.0 100:1.0 101:1.0 102:0.0 103:0.0 104:0.0 105:0.0 106:0.0 107:0.0 108:0.0 109:0.0 110:0.0 111:0.0 112:0.0 113:0.0 114:0.0 115:0.0 116:0.0 117:0.0 118:0.0 119:0.0 120:0.0 121:0.0 122:0.0 123:0.0 124:0.0 125:0.0 126:0.0 127:0.0 128:0.0 
0.0 0.0 0.01 0.0 0.0 0.0 0.0 0.0018761853574416325 0.0 0.0 0.0 0.0 0.0 0.0 0.0 0.0 0.01 0.0 0.007322487705457364 0.0 0.0 0.0 0.0 0.0 0.0 1:0.0 2:0.0 3:0.0 4:0.0 5:0.0 6:0.0 7:0.0 8:0.0 9:0.0 10:0.0 11:0.0 12:0.0 13:0.0 14:0.0 15:0.0 16:0.0 17:1.0 18:1.0 19:1.0 20:1.0 21:1.0 22:1.0 23:1.0 24:1.0 25:1.0 26:0.0 27:1.0 28:0.0 29:0.0 30:0.0 31:0.0 32:1.0 33:1.0 34:1.0 35:1.0 36:0.0 37:0.0 38:0.0 39:0.0 40:1.0 41:1.0 42:1.0 43:0.0 44:0.0 45:0.0 46:0.0 47:0.0 48:1.0 49:1.0 50:0.0 51:0.0 52:0.0 53:0.0 54:0.0 55:0.0 56:1.0 57:1.0 58:0.0 59:0.0 60:0.0 61:0.0 62:0.0 63:0.0 64:1.0 65:1.0 66:0.0 67:0.0 68:0.0 69:0.0 70:0.0 71:0.0 72:1.0 73:1.0 74:0.0 75:0.0 76:0.0 77:0.0 78:0.0 79:0.0 80:1.0 81:1.0 82:0.0 83:0.0 84:0.0 85:0.0 86:0.0 87:0.0 88:1.0 89:1.0 90:0.0 91:0.0 92:0.0 93:0.0 94:0.0 95:1.0 96:1.0 97:1.0 98:0.0 99:0.0 100:0.0 101:1.0 102:1.0 103:1.0 104:0.0 105:1.0 106:1.0 107:1.0 108:1.0 109:1.0 110:0.0 111:0.0 112:0.0 113:0.0 114:0.0 115:0.0 116:0.0 117:0.0 118:0.0 119:0.0 120:0.0 121:0.0 122:0.0 123:0.0 124:0.0 125:0.0 126:0.0 127:0.0 128:0.0 
0.0 0.0 0.0 0.0 0.0 0.008980957746650134 0.0 0.0 0.0 0.0 0.0 0.0 0.009937475630530716 0.0 0.0 0.01 0.01 0.0 0.01 0.0 0.0 0.0047830339490904745 0.0 0.0 0.0 1:0.0 2:0.0 3:1.0 4:1.0 5:1.0 6:1.0 7:1.0 8:0.0 9:0.0 10:1.0 11:1.0 12:0.0 13:0.0 14:0.0 15:1.0 16:1.0 17:0.0 18:1.0 19:0.0 20:0.0 21:0.0 22:0.0 23:0.0 24:1.0 25:1.0 26:1.0 27:0.0 28:0.0 29:0.0 30:0.0 31:0.0 32:1.0 33:1.0 34:0.0 35:0.0 36:0.0 37:0.0 38:0.0 39:0.0 40:1.0 41:1.0 42:0.0 43:0.0 44:0.0 45:0.0 46:0.0 47:0.0 48:1.0 49:1.0 50:0.0 51:0.0 52:0.0 53:0.0 54:0.0 55:0.0 56:1.0 57:1.0 58:0.0 59:0.0 60:0.0 61:0.0 62:0.0 63:0.0 64:1.0 65:1.0 66:0.0 67:0.0 68:0.0 69:0.0 70:0.0 71:0.0 72:1.0 73:1.0 74:0.0 75:0.0 76:0.0 77:0.0 78:0.0 79:0.0 80:1.0 81:1.0 82:0.0 83:0.0 84:0.0 85:0.0 86:0.0 87:1.0 88:1.0 89:1.0 90:0.0 91:0.0 92:0.0 93:0.0 94:0.0 95:1.0 96:0.0 97:1.0 98:0.0 99:0.0 100:0.0 101:0.0 102:1.0 103:0.0 104:0.0 105:0.0 106:1.0 107:0.0 108:0.0 109:1.0 110:1.0 111:0.0 112:0.0 113:0.0 114:1.0 115:1.0 116:1.0 117:1.0 118:0.0 119:0.0 120:0.0 121:0.0 122:0.0 123:0.0 124:1.0 125:1.0 126:0.0 127:0.0 128:0.0 
0.01 0.01 0.01 0.01 0.01 0.01 0.01 0.01 0.01 0.01 0.01 0.01 0.01 0.01 0.01 0.0 0.01 0.01 0.009766233235073932 0.01 0.003073815483512277 0.0011084248969112692 0.01 0.0 0.01 1:0.0 2:0.0 3:0.0 4:0.0 5:0.0 6:0.0 7:0.0 8:0.0 9:0.0 10:0.0 11:0.0 12:0.0 13:0.0 14:0.0 15:0.0 16:0.0 17:0.0 18:0.0 19:0.0 20:0.0 21:0.0 22:0.0 23:0.0 24:0.0 25:0.0 26:0.0 27:0.0 28:1.0 29:0.0 30:0.0 31:0.0 32:0.0 33:0.0 34:0.0 35:0.0 36:1.0 37:0.0 38:0.0 39:0.0 40:0.0 41:0.0 42:0.0 43:0.0 44:1.0 45:1.0 46:0.0 47:0.0 48:0.0 49:0.0 50:1.0 51:1.0 52:1.0 53:1.0 54:1.0 55:0.0 56:0.0 57:1.0 58:1.0 59:0.0 60:0.0 61:0.0 62:1.0 63:1.0 64:0.0 65:1.0 66:0.0 67:0.0 68:0.0 69:0.0 70:0.0 71:1.0 72:0.0 73:1.0 74:0.0 75:0.0 76:0.0 77:0.0 78:0.0 79:1.0 80:1.0 81:1.0 82:0.0 83:0.0 84:0.0 85:0.0 86:0.0 87:0.0 88:1.0 89:1.0 90:1.0 91:0.0 92:0.0 93:0.0 94:0.0 95:0.0 96:1.0 97:0.0 98:1.0 99:1.0 100:1.0 101:1.0 102:1.0 103:1.0 104:1.0 105:0.0 106:0.0 107:0.0 108:0.0 109:0.0 110:0.0 111:0.0 112:0.0 113:0.0 114:0.0 115:0.0 116:0.0 117:0.0 118:0.0 119:0.0 120:0.0 121:0.0 122:0.0 123:0.0 124:0.0 125:0.0 126:0.0 127:0.0 128:0.0 
0.0 0.0 0.0 0.004647600128339868 0.0 0.0 0.0 0.0 0.0 0.0 0.0 0.0 0.0 0.0 0.0 0.0 0.01 0.0 0.0 0.0 0.0 0.0 0.0 0.0 0.0 1:0.0 2:0.0 3:0.0 4:0.0 5:0.0 6:0.0 7:0.0 8:0.0 9:0.0 10:0.0 11:0.0 12:0.0 13:0.0 14:0.0 15:0.0 16:0.0 17:0.0 18:0.0 19:0.0 20:0.0 21:0.0 22:0.0 23:0.0 24:0.0 25:1.0 26:1.0 27:1.0 28:1.0 29:1.0 30:1.0 31:0.0 32:0.0 33:1.0 34:0.0 35:0.0 36:0.0 37:0.0 38:1.0 39:1.0 40:0.0 41:1.0 42:0.0 43:0.0 44:0.0 45:0.0 46:0.0 47:1.0 48:1.0 49:1.0 50:0.0 51:0.0 52:0.0 53:0.0 54:0.0 55:0.0 56:1.0 57:1.0 58:0.0 59:0.0 60:0.0 61:0.0 62:0.0 63:0.0 64:1.0 65:1.0 66:0.0 67:0.0 68:0.0 69:0.0 70:0.0 71:1.0 72:1.0 73:1.0 74:0.0 75:0.0 76:0.0 77:0.0 78:0.0 79:1.0 80:0.0 81:1.0 82:0.0 83:0.0 84:0.0 85:0.0 86:1.0 87:1.0 88:0.0 89:1.0 90:1.0 91:0.0 92:0.0 93:0.0 94:1.0 95:0.0 96:0.0 97:0.0 98:1.0 99:1.0 100:1.0 101:1.0 102:1.0 103:0.0 104:0.0 105:0.0 106:0.0 107:0.0 108:0.0 109:0.0 110:0.0 111:0.0 112:0.0 113:0.0 114:0.0 115:0.0 116:0.0 117:0.0 118:0.0 119:0.0 120:0.0 121:0.0 122:0.0 123:0.0 124:0.0 125:0.0 126:0.0 127:0.0 128:0.0 
0.01 0.01 0.01 0.0057839659296763145 0.0 0.01 7.718057225282303E-5 0.0 0.0 0.0 0.0 0.0010702013405305185 0.0 0.0 0.01 0.0 0.0 0.0 0.0 0.01 0.0 0.0 0.0 0.0 8.76849042679067E-5 1:0.0 2:1.0 3:1.0 4:1.0 5:0.0 6:0.0 7:0.0 8:0.0 9:0.0 10:1.0 11:0.0 12:0.0 13:1.0 14:0.0 15:0.0 16:0.0 17:0.0 18:1.0 19:0.0 20:1.0 21:1.0 22:1.0 23:0.0 24:0.0 25:1.0 26:1.0 27:0.0 28:0.0 29:0.0 30:1.0 31:0.0 32:0.0 33:1.0 34:0.0 35:0.0 36:0.0 37:0.0 38:1.0 39:1.0 40:0.0 41:1.0 42:0.0 43:0.0 44:0.0 45:0.0 46:0.0 47:1.0 48:0.0 49:1.0 50:0.0 51:0.0 52:0.0 53:0.0 54:0.0 55:1.0 56:0.0 57:1.0 58:0.0 59:0.0 60:0.0 61:0.0 62:0.0 63:1.0 64:1.0 65:1.0 66:0.0 67:0.0 68:0.0 69:0.0 70:0.0 71:0.0 72:1.0 73:1.0 74:0.0 75:0.0 76:0.0 77:0.0 78:0.0 79:0.0 80:1.0 81:1.0 82:0.0 83:0.0 84:0.0 85:0.0 86:0.0 87:0.0 88:1.0 89:1.0 90:0.0 91:0.0 92:0.0 93:0.0 94:0.0 95:0.0 96:1.0 97:1.0 98:0.0 99:0.0 100:0.0 101:0.0 102:0.0 103:0.0 104:1.0 105:1.0 106:0.0 107:0.0 108:0.0 109:0.0 110:0.0 111:0.0 112:1.0 113:1.0 114:1.0 115:0.0 116:0.0 117:0.0 118:0.0 119:0.0 120:1.0 121:0.0 122:1.0 123:1.0 124:1.0 125:1.0 126:1.0 127:1.0 128:1.0 
0.005550023181248848 0.0 0.01 0.0 0.0 0.0 0.0 0.0 0.0 0.01 0.0 0.0 0.0 0.0 0.0 0.0 0.0 0.0 0.0 0.0 0.0 0.0 0.006978565073311505 0.0 0.0 1:0.0 2:0.0 3:0.0 4:0.0 5:0.0 6:0.0 7:0.0 8:0.0 9:0.0 10:0.0 11:0.0 12:0.0 13:0.0 14:0.0 15:0.0 16:0.0 17:0.0 18:0.0 19:0.0 20:0.0 21:0.0 22:0.0 23:0.0 24:0.0 25:0.0 26:0.0 27:0.0 28:0.0 29:0.0 30:0.0 31:0.0 32:0.0 33:0.0 34:0.0 35:0.0 36:0.0 37:0.0 38:0.0 39:0.0 40:0.0 41:1.0 42:1.0 43:1.0 44:0.0 45:1.0 46:1.0 47:1.0 48:1.0 49:1.0 50:0.0 51:1.0 52:1.0 53:1.0 54:0.0 55:0.0 56:1.0 57:1.0 58:0.0 59:0.0 60:0.0 61:0.0 62:0.0 63:0.0 64:1.0 65:1.0 66:0.0 67:0.0 68:0.0 69:0.0 70:0.0 71:0.0 72:1.0 73:1.0 74:0.0 75:0.0 76:0.0 77:0.0 78:1.0 79:1.0 80:1.0 81:1.0 82:1.0 83:1.0 84:1.0 85:1.0 86:1.0 87:0.0 88:0.0 89:0.0 90:0.0 91:0.0 92:0.0 93:0.0 94:0.0 95:0.0 96:0.0 97:0.0 98:0.0 99:0.0 100:0.0 101:0.0 102:0.0 103:0.0 104:0.0 105:0.0 106:0.0 107:0.0 108:0.0 109:0.0 110:0.0 111:0.0 112:0.0 113:0.0 114:0.0 115:0.0 116:0.0 117:0.0 118:0.0 119:0.0 120:0.0 121:0.0 122:0.0 123:0.0 124:0.0 125:0.0 126:0.0 127:0.0 128:0.0 
0.0 0.0 0.01 0.0 0.0 0.01 0.0 0.0 0.0 0.0 0.0 0.0 0.0 0.0 0.0 0.0 0.01 0.0 0.0 0.0 0.0 0.0 0.0 0.0 0.0 1:0.0 2:0.0 3:0.0 4:0.0 5:0.0 6:0.0 7:0.0 8:0.0 9:0.0 10:0.0 11:0.0 12:0.0 13:0.0 14:0.0 15:0.0 16:0.0 17:0.0 18:1.0 19:1.0 20:0.0 21:0.0 22:0.0 23:0.0 24:0.0 25:0.0 26:0.0 27:1.0 28:1.0 29:0.0 30:0.0 31:0.0 32:0.0 33:1.0 34:0.0 35:0.0 36:1.0 37:1.0 38:1.0 39:0.0 40:0.0 41:1.0 42:0.0 43:0.0 44:0.0 45:0.0 46:1.0 47:1.0 48:0.0 49:1.0 50:0.0 51:0.0 52:0.0 53:0.0 54:0.0 55:1.0 56:1.0 57:1.0 58:0.0 59:0.0 60:0.0 61:0.0 62:0.0 63:0.0 64:1.0 65:1.0 66:0.0 67:0.0 68:0.0 69:0.0 70:0.0 71:0.0 72:1.0 73:1.0 74:0.0 75:0.0 76:0.0 77:0.0 78:0.0 79:0.0 80:1.0 81:1.0 82:0.0 83:0.0 84:0.0 85:0.0 86:0.0 87:0.0 88:1.0 89:1.0 90:0.0 91:0.0 92:0.0 93:0.0 94:0.0 95:0.0 96:1.0 97:0.0 98:1.0 99:0.0 100:0.0 101:0.0 102:0.0 103:1.0 104:1.0 105:0.0 106:1.0 107:1.0 108:1.0 109:1.0 110:1.0 111:1.0 112:0.0 113:0.0 114:0.0 115:0.0 116:0.0 117:0.0 118:0.0 119:0.0 120:0.0 121:0.0 122:0.0 123:0.0 124:0.0 125:0.0 126:0.0 127:0.0 128:0.0 
0.0014816437712833212 0.01 0.01 0.0 0.0 0.0 0.0016781829950828402 0.0 0.00926170233817839 0.0 0.0 0.0 0.0 0.0 0.0 0.0 0.01 0.0 0.0 0.0 0.0 0.0 0.0 0.0 0.0 1:0.0 2:0.0 3:0.0 4:0.0 5:0.0 6:0.0 7:0.0 8:0.0 9:0.0 10:0.0 11:0.0 12:0.0 13:0.0 14:0.0 15:0.0 16:0.0 17:0.0 18:0.0 19:0.0 20:0.0 21:0.0 22:0.0 23:0.0 24:0.0 25:0.0 26:1.0 27:0.0 28:0.0 29:0.0 30:0.0 31:0.0 32:0.0 33:1.0 34:1.0 35:0.0 36:0.0 37:0.0 38:0.0 39:0.0 40:0.0 41:1.0 42:0.0 43:1.0 44:1.0 45:1.0 46:1.0 47:0.0 48:0.0 49:1.0 50:0.0 51:1.0 52:0.0 53:0.0 54:1.0 55:1.0 56:0.0 57:1.0 58:0.0 59:0.0 60:0.0 61:0.0 62:0.0 63:1.0 64:1.0 65:1.0 66:0.0 67:0.0 68:0.0 69:0.0 70:0.0 71:0.0 72:1.0 73:1.0 74:0.0 75:0.0 76:0.0 77:0.0 78:0.0 79:0.0 80:1.0 81:1.0 82:0.0 83:0.0 84:0.0 85:0.0 86:0.0 87:1.0 88:1.0 89:1.0 90:1.0 91:0.0 92:0.0 93:0.0 94:1.0 95:1.0 96:0.0 97:0.0 98:1.0 99:1.0 100:1.0 101:1.0 102:1.0 103:0.0 104:0.0 105:0.0 106:0.0 107:0.0 108:0.0 109:0.0 110:0.0 111:0.0 112:0.0 113:0.0 114:0.0 115:0.0 116:0.0 117:0.0 118:0.0 119:0.0 120:0.0 121:0.0 122:0.0 123:0.0 124:0.0 125:0.0 126:0.0 127:0.0 128:0.0 
0.0 0.0 0.0 0.0 0.0 0.0 0.0 0.01 0.01 0.0 0.0 0.0 0.0 0.0 0.0 0.0 0.0 0.0 0.0 0.0 0.0 0.0 0.0 0.0 0.0 1:0.0 2:0.0 3:0.0 4:0.0 5:0.0 6:0.0 7:0.0 8:0.0 9:0.0 10:0.0 11:0.0 12:0.0 13:0.0 14:0.0 15:0.0 16:0.0 17:0.0 18:0.0 19:0.0 20:0.0 21:0.0 22:0.0 23:0.0 24:0.0 25:0.0 26:0.0 27:0.0 28:0.0 29:0.0 30:0.0 31:0.0 32:0.0 33:1.0 34:1.0 35:1.0 36:1.0 37:1.0 38:1.0 39:0.0 40:0.0 41:1.0 42:0.0 43:1.0 44:0.0 45:0.0 46:1.0 47:1.0 48:0.0 49:1.0 50:0.0 51:0.0 52:0.0 53:0.0 54:0.0 55:1.0 56:1.0 57:1.0 58:0.0 59:0.0 60:0.0 61:0.0 62:0.0 63:0.0 64:1.0 65:1.0 66:0.0 67:0.0 68:0.0 69:0.0 70:0.0 71:0.0 72:1.0 73:1.0 74:0.0 75:0.0 76:0.0 77:0.0 78:0.0 79:1.0 80:0.0 81:1.0 82:0.0 83:0.0 84:0.0 85:0.0 86:1.0 87:1.0 88:0.0 89:1.0 90:1.0 91:0.0 92:0.0 93:1.0 94:1.0 95:0.0 96:0.0 97:0.0 98:0.0 99:1.0 100:1.0 101:0.0 102:0.0 103:0.0 104:0.0 105:0.0 106:0.0 107:0.0 108:0.0 109:0.0 110:0.0 111:0.0 112:0.0 113:0.0 114:0.0 115:0.0 116:0.0 117:0.0 118:0.0 119:0.0 120:0.0 121:0.0 122:0.0 123:0.0 124:0.0 125:0.0 126:0.0 127:0.0 128:0.0 
0.0 0.0 0.0 0.01 0.0 0.01 0.0 0.0 1.6601149126004678E-4 0.0 0.0 0.0 0.0 0.0 0.01 0.0 0.01 0.0 0.0 0.0 0.0 0.0 0.0 0.0 0.0 1:0.0 2:0.0 3:0.0 4:0.0 5:0.0 6:0.0 7:0.0 8:0.0 9:0.0 10:0.0 11:0.0 12:0.0 13:0.0 14:1.0 15:1.0 16:0.0 17:0.0 18:0.0 19:0.0 20:0.0 21:1.0 22:0.0 23:1.0 24:1.0 25:0.0 26:0.0 27:1.0 28:1.0 29:0.0 30:0.0 31:0.0 32:1.0 33:0.0 34:0.0 35:1.0 36:0.0 37:0.0 38:0.0 39:0.0 40:1.0 41:0.0 42:1.0 43:0.0 44:0.0 45:0.0 46:0.0 47:0.0 48:1.0 49:0.0 50:1.0 51:0.0 52:0.0 53:0.0 54:0.0 55:0.0 56:1.0 57:0.0 58:1.0 59:0.0 60:0.0 61:0.0 62:0.0 63:0.0 64:1.0 65:1.0 66:0.0 67:0.0 68:0.0 69:0.0 70:0.0 71:0.0 72:1.0 73:1.0 74:0.0 75:0.0 76:0.0 77:0.0 78:0.0 79:0.0 80:1.0 81:1.0 82:0.0 83:0.0 84:0.0 85:0.0 86:0.0 87:0.0 88:1.0 89:0.0 90:0.0 91:0.0 92:0.0 93:0.0 94:0.0 95:1.0 96:1.0 97:1.0 98:0.0 99:0.0 100:0.0 101:0.0 102:0.0 103:1.0 104:0.0 105:1.0 106:1.0 107:0.0 108:0.0 109:0.0 110:1.0 111:1.0 112:0.0 113:0.0 114:1.0 115:1.0 116:1.0 117:1.0 118:1.0 119:0.0 120:0.0 121:0.0 122:0.0 123:0.0 124:0.0 125:0.0 126:0.0 127:0.0 128:0.0 
0.0 0.01 0.01 0.0 0.0 0.01 0.0 0.0 0.0 0.0 0.0 0.0 0.0 0.0 0.0 0.0 0.0 0.0 0.0 0.0 0.0 0.0 0.0 0.0 0.0 1:0.0 2:0.0 3:0.0 4:0.0 5:0.0 6:0.0 7:0.0 8:0.0 9:0.0 10:0.0 11:0.0 12:0.0 13:0.0 14:0.0 15:0.0 16:0.0 17:0.0 18:0.0 19:0.0 20:1.0 21:1.0 22:1.0 23:0.0 24:0.0 25:0.0 26:0.0 27:1.0 28:1.0 29:1.0 30:1.0 31:1.0 32:0.0 33:0.0 34:1.0 35:1.0 36:0.0 37:0.0 38:1.0 39:1.0 40:1.0 41:1.0 42:1.0 43:0.0 44:0.0 45:0.0 46:0.0 47:0.0 48:1.0 49:1.0 50:0.0 51:0.0 52:0.0 53:0.0 54:0.0 55:0.0 56:1.0 57:1.0 58:0.0 59:0.0 60:0.0 61:0.0 62:0.0 63:0.0 64:1.0 65:1.0 66:0.0 67:0.0 68:0.0 69:0.0 70:0.0 71:0.0 72:1.0 73:1.0 74:0.0 75:0.0 76:0.0 77:0.0 78:0.0 79:0.0 80:1.0 81:1.0 82:0.0 83:0.0 84:0.0 85:0.0 86:0.0 87:0.0 88:1.0 89:1.0 90:0.0 91:0.0 92:0.0 93:0.0 94:0.0 95:0.0 96:1.0 97:1.0 98:1.0 99:1.0 100:0.0 101:0.0 102:1.0 103:1.0 104:1.0 105:0.0 106:0.0 107:1.0 108:1.0 109:1.0 110:1.0 111:0.0 112:0.0 113:0.0 114:0.0 115:0.0 116:0.0 117:0.0 118:0.0 119:0.0 120:0.0 121:0.0 122:0.0 123:0.0 124:0.0 125:0.0 126:0.0 127:0.0 128:0.0 
0.01 0.01 0.01 0.0 0.0 0.009819633624957328 0.0 0.0 0.0 0.01 0.0 0.0 0.0 0.0 0.0 0.0 0.0 0.0 0.0 0.0 0.0 0.0 0.0 0.0 0.0 1:0.0 2:0.0 3:0.0 4:0.0 5:0.0 6:0.0 7:0.0 8:0.0 9:0.0 10:0.0 11:0.0 12:0.0 13:0.0 14:0.0 15:0.0 16:0.0 17:0.0 18:0.0 19:0.0 20:0.0 21:0.0 22:0.0 23:0.0 24:0.0 25:0.0 26:0.0 27:0.0 28:0.0 29:0.0 30:1.0 31:0.0 32:0.0 33:0.0 34:0.0 35:1.0 36:1.0 37:1.0 38:1.0 39:1.0 40:0.0 41:0.0 42:0.0 43:0.0 44:1.0 45:1.0 46:0.0 47:1.0 48:0.0 49:0.0 50:0.0 51:1.0 52:1.0 53:0.0 54:0.0 55:1.0 56:1.0 57:0.0 58:1.0 59:1.0 60:0.0 61:0.0 62:0.0 63:0.0 64:1.0 65:1.0 66:1.0 67:0.0 68:0.0 69:0.0 70:0.0 71:0.0 72:1.0 73:1.0 74:0.0 75:0.0 76:0.0 77:0.0 78:0.0 79:0.0 80:1.0 81:1.0 82:0.0 83:0.0 84:0.0 85:0.0 86:0.0 87:1.0 88:1.0 89:1.0 90:0.0 91:0.0 92:0.0 93:0.0 94:0.0 95:1.0 96:0.0 97:1.0 98:1.0 99:1.0 100:1.0 101:1.0 102:1.0 103:0.0 104:0.0 105:0.0 106:0.0 107:0.0 108:0.0 109:0.0 110:0.0 111:0.0 112:0.0 113:0.0 114:0.0 115:0.0 116:0.0 117:0.0 118:0.0 119:0.0 120:0.0 121:0.0 122:0.0 123:0.0 124:0.0 125:0.0 126:0.0 127:0.0 128:0.0 
0.0 0.0 0.01 0.0 0.0 0.0 0.0 0.0 0.01 0.01 0.0 0.0 0.0 0.0 0.0 0.0 0.0 0.0 0.0 0.0 0.0 0.0 0.0 0.0 0.0 1:0.0 2:0.0 3:0.0 4:0.0 5:0.0 6:0.0 7:0.0 8:0.0 9:0.0 10:0.0 11:0.0 12:0.0 13:0.0 14:0.0 15:0.0 16:0.0 17:0.0 18:0.0 19:0.0 20:0.0 21:0.0 22:0.0 23:0.0 24:0.0 25:0.0 26:0.0 27:0.0 28:0.0 29:0.0 30:0.0 31:0.0 32:0.0 33:0.0 34:0.0 35:1.0 36:1.0 37:1.0 38:1.0 39:1.0 40:0.0 41:1.0 42:1.0 43:1.0 44:0.0 45:0.0 46:0.0 47:0.0 48:0.0 49:1.0 50:0.0 51:0.0 52:0.0 53:0.0 54:1.0 55:1.0 56:1.0 57:1.0 58:0.0 59:0.0 60:0.0 61:0.0 62:0.0 63:0.0 64:1.0 65:1.0 66:0.0 67:0.0 68:0.0 69:0.0 70:0.0 71:0.0 72:1.0 73:1.0 74:0.0 75:0.0 76:0.0 77:0.0 78:0.0 79:0.0 80:1.0 81:1.0 82:1.0 83:1.0 84:0.0 85:0.0 86:0.0 87:1.0 88:1.0 89:0.0 90:0.0 91:1.0 92:1.0 93:1.0 94:1.0 95:1.0 96:0.0 97:0.0 98:0.0 99:0.0 100:0.0 101:0.0 102:0.0 103:0.0 104:0.0 105:0.0 106:0.0 107:0.0 108:0.0 109:0.0 110:0.0 111:0.0 112:0.0 113:0.0 114:0.0 115:0.0 116:0.0 117:0.0 118:0.0 119:0.0 120:0.0 121:0.0 122:0.0 123:0.0 124:0.0 125:0.0 126:0.0 127:0.0 128:0.0 
0.0 0.0 0.01 0.0 0.0 0.01 0.0 0.01 0.0 0.0 0.0 0.0 0.0 0.0 0.0 0.0 0.01 0.0 0.0 0.0 0.0 0.0 0.0 0.0 0.0 1:0.0 2:0.0 3:0.0 4:0.0 5:0.0 6:0.0 7:0.0 8:0.0 9:0.0 10:1.0 11:1.0 12:1.0 13:1.0 14:1.0 15:0.0 16:0.0 17:0.0 18:1.0 19:0.0 20:0.0 21:0.0 22:1.0 23:0.0 24:0.0 25:1.0 26:1.0 27:0.0 28:0.0 29:0.0 30:1.0 31:1.0 32:0.0 33:1.0 34:0.0 35:0.0 36:0.0 37:0.0 38:0.0 39:1.0 40:1.0 41:1.0 42:0.0 43:0.0 44:0.0 45:0.0 46:0.0 47:0.0 48:1.0 49:1.0 50:0.0 51:0.0 52:0.0 53:0.0 54:0.0 55:0.0 56:1.0 57:1.0 58:0.0 59:0.0 60:0.0 61:0.0 62:0.0 63:0.0 64:1.0 65:1.0 66:0.0 67:0.0 68:0.0 69:0.0 70:0.0 71:0.0 72:1.0 73:1.0 74:0.0 75:0.0 76:0.0 77:0.0 78:0.0 79:0.0 80:1.0 81:1.0 82:0.0 83:0.0 84:0.0 85:0.0 86:0.0 87:0.0 88:1.0 89:1.0 90:0.0 91:0.0 92:0.0 93:0.0 94:0.0 95:0.0 96:1.0 97:1.0 98:1.0 99:0.0 100:0.0 101:0.0 102:0.0 103:0.0 104:1.0 105:0.0 106:1.0 107:0.0 108:0.0 109:0.0 110:0.0 111:1.0 112:1.0 113:0.0 114:1.0 115:1.0 116:1.0 117:1.0 118:1.0 119:1.0 120:0.0 121:0.0 122:0.0 123:0.0 124:0.0 125:0.0 126:0.0 127:0.0 128:0.0 
0.0 0.0 0.01 0.0 0.0 0.0 0.0 0.0 0.0 0.0 0.0 0.0 0.0 0.0 0.0 0.0 0.01 0.0 0.0 0.0 0.0 0.0 0.0 0.0 0.0 1:0.0 2:0.0 3:0.0 4:0.0 5:0.0 6:0.0 7:0.0 8:0.0 9:0.0 10:0.0 11:0.0 12:0.0 13:0.0 14:0.0 15:0.0 16:0.0 17:0.0 18:0.0 19:0.0 20:0.0 21:0.0 22:0.0 23:0.0 24:0.0 25:0.0 26:0.0 27:0.0 28:0.0 29:0.0 30:0.0 31:0.0 32:0.0 33:1.0 34:0.0 35:1.0 36:1.0 37:1.0 38:1.0 39:1.0 40:1.0 41:1.0 42:1.0 43:1.0 44:0.0 45:0.0 46:0.0 47:0.0 48:1.0 49:1.0 50:0.0 51:0.0 52:0.0 53:0.0 54:0.0 55:0.0 56:1.0 57:1.0 58:0.0 59:0.0 60:0.0 61:0.0 62:0.0 63:0.0 64:1.0 65:1.0 66:0.0 67:0.0 68:0.0 69:0.0 70:0.0 71:0.0 72:1.0 73:1.0 74:0.0 75:0.0 76:0.0 77:0.0 78:0.0 79:1.0 80:1.0 81:1.0 82:0.0 83:0.0 84:0.0 85:0.0 86:1.0 87:1.0 88:0.0 89:1.0 90:1.0 91:1.0 92:1.0 93:1.0 94:1.0 95:0.0 96:0.0 97:0.0 98:0.0 99:0.0 100:0.0 101:0.0 102:0.0 103:0.0 104:0.0 105:0.0 106:0.0 107:0.0 108:0.0 109:0.0 110:0.0 111:0.0 112:0.0 113:0.0 114:0.0 115:0.0 116:0.0 117:0.0 118:0.0 119:0.0 120:0.0 121:0.0 122:0.0 123:0.0 124:0.0 125:0.0 126:0.0 127:0.0 128:0.0 
0.0 0.0 0.0 0.0 0.0 0.0 0.0 0.0 0.0 0.0 0.0 0.0 0.0 0.0 0.0 0.0 0.01 0.0 0.0 0.0 0.0 0.0 0.0 0.0 0.0 1:0.0 2:0.0 3:0.0 4:0.0 5:0.0 6:0.0 7:0.0 8:0.0 9:0.0 10:0.0 11:0.0 12:0.0 13:0.0 14:0.0 15:0.0 16:0.0 17:0.0 18:0.0 19:0.0 20:0.0 21:0.0 22:0.0 23:0.0 24:0.0 25:0.0 26:0.0 27:0.0 28:0.0 29:0.0 30:0.0 31:0.0 32:0.0 33:0.0 34:0.0 35:0.0 36:1.0 37:1.0 38:1.0 39:1.0 40:1.0 41:0.0 42:1.0 43:1.0 44:0.0 45:0.0 46:0.0 47:0.0 48:1.0 49:1.0 50:1.0 51:0.0 52:0.0 53:0.0 54:0.0 55:0.0 56:1.0 57:1.0 58:0.0 59:0.0 60:0.0 61:0.0 62:0.0 63:0.0 64:1.0 65:1.0 66:0.0 67:0.0 68:0.0 69:0.0 70:0.0 71:0.0 72:1.0 73:1.0 74:0.0 75:0.0 76:0.0 77:0.0 78:0.0 79:1.0 80:1.0 81:1.0 82:0.0 83:0.0 84:0.0 85:0.0 86:1.0 87:1.0 88:0.0 89:1.0 90:1.0 91:1.0 92:1.0 93:1.0 94:1.0 95:0.0 96:0.0 97:0.0 98:0.0 99:0.0 100:0.0 101:0.0 102:0.0 103:0.0 104:0.0 105:0.0 106:0.0 107:0.0 108:0.0 109:0.0 110:0.0 111:0.0 112:0.0 113:0.0 114:0.0 115:0.0 116:0.0 117:0.0 118:0.0 119:0.0 120:0.0 121:0.0 122:0.0 123:0.0 124:0.0 125:0.0 126:0.0 127:0.0 128:0.0 
0.01 0.01 0.01 0.0 0.0 0.0 0.0 0.0 0.0 0.01 0.0 0.0 0.0 0.0029670485491327986 0.0 0.0 0.01 0.0 0.0 0.0 0.0 0.0 0.0 0.0 0.0 1:0.0 2:0.0 3:0.0 4:0.0 5:0.0 6:0.0 7:0.0 8:0.0 9:0.0 10:0.0 11:0.0 12:0.0 13:0.0 14:0.0 15:0.0 16:0.0 17:0.0 18:0.0 19:0.0 20:0.0 21:0.0 22:0.0 23:0.0 24:0.0 25:0.0 26:0.0 27:0.0 28:0.0 29:0.0 30:0.0 31:0.0 32:0.0 33:0.0 34:0.0 35:0.0 36:0.0 37:0.0 38:0.0 39:0.0 40:0.0 41:0.0 42:0.0 43:0.0 44:1.0 45:1.0 46:1.0 47:0.0 48:0.0 49:0.0 50:1.0 51:1.0 52:1.0 53:1.0 54:1.0 55:1.0 56:1.0 57:1.0 58:1.0 59:0.0 60:0.0 61:0.0 62:0.0 63:0.0 64:1.0 65:1.0 66:0.0 67:0.0 68:0.0 69:0.0 70:0.0 71:0.0 72:1.0 73:1.0 74:1.0 75:0.0 76:0.0 77:0.0 78:1.0 79:1.0 80:1.0 81:0.0 82:1.0 83:1.0 84:1.0 85:1.0 86:1.0 87:0.0 88:0.0 89:0.0 90:0.0 91:0.0 92:0.0 93:0.0 94:0.0 95:0.0 96:0.0 97:0.0 98:0.0 99:0.0 100:0.0 101:0.0 102:0.0 103:0.0 104:0.0 105:0.0 106:0.0 107:0.0 108:0.0 109:0.0 110:0.0 111:0.0 112:0.0 113:0.0 114:0.0 115:0.0 116:0.0 117:0.0 118:0.0 119:0.0 120:0.0 121:0.0 122:0.0 123:0.0 124:0.0 125:0.0 126:0.0 127:0.0 128:0.0 
0.01 0.01 0.01 0.0011117934813004756 0.0012101442555844963 0.01 0.01 0.0030041915474650236 0.01 0.01 0.01 0.01 0.009311552088279202 0.01 0.0 0.0 0.0 0.01 0.0 0.01 0.0 0.0 0.01 0.0 0.01 1:0.0 2:0.0 3:0.0 4:0.0 5:0.0 6:0.0 7:0.0 8:0.0 9:0.0 10:0.0 11:0.0 12:0.0 13:0.0 14:0.0 15:0.0 16:0.0 17:0.0 18:0.0 19:0.0 20:0.0 21:1.0 22:1.0 23:0.0 24:0.0 25:0.0 26:0.0 27:0.0 28:1.0 29:1.0 30:0.0 31:0.0 32:0.0 33:0.0 34:0.0 35:0.0 36:1.0 37:0.0 38:0.0 39:0.0 40:0.0 41:0.0 42:0.0 43:1.0 44:1.0 45:0.0 46:0.0 47:0.0 48:0.0 49:0.0 50:1.0 51:1.0 52:0.0 53:0.0 54:0.0 55:0.0 56:0.0 57:0.0 58:1.0 59:1.0 60:1.0 61:1.0 62:1.0 63:1.0 64:1.0 65:0.0 66:1.0 67:0.0 68:0.0 69:0.0 70:0.0 71:0.0 72:1.0 73:1.0 74:1.0 75:0.0 76:0.0 77:0.0 78:0.0 79:0.0 80:1.0 81:1.0 82:0.0 83:0.0 84:0.0 85:0.0 86:0.0 87:1.0 88:1.0 89:1.0 90:0.0 91:0.0 92:0.0 93:0.0 94:1.0 95:1.0 96:0.0 97:1.0 98:0.0 99:0.0 100:0.0 101:1.0 102:1.0 103:0.0 104:0.0 105:1.0 106:1.0 107:1.0 108:1.0 109:0.0 110:0.0 111:0.0 112:0.0 113:0.0 114:1.0 115:0.0 116:0.0 117:0.0 118:0.0 119:0.0 120:0.0 121:0.0 122:0.0 123:0.0 124:0.0 125:0.0 126:0.0 127:0.0 128:0.0 
0.0 0.007219158413397625 0.01 0.0 0.0 0.0 0.0 0.0 0.0 0.0 0.0 0.0 0.0 0.0 0.0 0.0 0.0 0.0 0.0 0.0 0.0 0.0 0.0 0.0 0.0 1:0.0 2:0.0 3:0.0 4:0.0 5:0.0 6:0.0 7:0.0 8:0.0 9:0.0 10:0.0 11:0.0 12:0.0 13:0.0 14:0.0 15:0.0 16:0.0 17:0.0 18:0.0 19:0.0 20:0.0 21:0.0 22:0.0 23:0.0 24:0.0 25:0.0 26:0.0 27:1.0 28:1.0 29:0.0 30:0.0 31:0.0 32:0.0 33:1.0 34:1.0 35:1.0 36:1.0 37:1.0 38:0.0 39:0.0 40:0.0 41:0.0 42:1.0 43:0.0 44:0.0 45:0.0 46:1.0 47:1.0 48:0.0 49:0.0 50:1.0 51:0.0 52:0.0 53:0.0 54:0.0 55:1.0 56:1.0 57:1.0 58:1.0 59:0.0 60:0.0 61:0.0 62:0.0 63:0.0 64:1.0 65:1.0 66:0.0 67:0.0 68:0.0 69:0.0 70:0.0 71:0.0 72:1.0 73:1.0 74:0.0 75:0.0 76:0.0 77:0.0 78:0.0 79:0.0 80:1.0 81:1.0 82:0.0 83:0.0 84:0.0 85:0.0 86:0.0 87:0.0 88:1.0 89:1.0 90:0.0 91:0.0 92:0.0 93:0.0 94:0.0 95:1.0 96:1.0 97:1.0 98:1.0 99:1.0 100:1.0 101:1.0 102:1.0 103:1.0 104:0.0 105:0.0 106:0.0 107:0.0 108:0.0 109:0.0 110:0.0 111:0.0 112:0.0 113:0.0 114:0.0 115:0.0 116:0.0 117:0.0 118:0.0 119:0.0 120:0.0 121:0.0 122:0.0 123:0.0 124:0.0 125:0.0 126:0.0 127:0.0 128:0.0 
0.0 0.0 0.0 0.0 0.0 0.0 0.0 0.0 0.0018561579290360686 0.0 0.0 0.0 0.0 0.0 0.0 0.0 0.0 0.0 0.0 0.0 0.0 0.0 0.0 0.0 0.0 1:0.0 2:0.0 3:0.0 4:0.0 5:0.0 6:0.0 7:0.0 8:0.0 9:0.0 10:0.0 11:0.0 12:0.0 13:0.0 14:0.0 15:0.0 16:0.0 17:0.0 18:0.0 19:0.0 20:0.0 21:0.0 22:0.0 23:0.0 24:0.0 25:0.0 26:0.0 27:0.0 28:0.0 29:0.0 30:0.0 31:0.0 32:0.0 33:0.0 34:1.0 35:1.0 36:1.0 37:1.0 38:0.0 39:0.0 40:0.0 41:0.0 42:1.0 43:0.0 44:0.0 45:1.0 46:1.0 47:1.0 48:0.0 49:1.0 50:1.0 51:0.0 52:0.0 53:0.0 54:0.0 55:1.0 56:1.0 57:1.0 58:0.0 59:0.0 60:0.0 61:0.0 62:0.0 63:0.0 64:1.0 65:1.0 66:0.0 67:0.0 68:0.0 69:0.0 70:0.0 71:0.0 72:1.0 73:1.0 74:0.0 75:0.0 76:0.0 77:0.0 78:0.0 79:0.0 80:1.0 81:1.0 82:1.0 83:0.0 84:0.0 85:0.0 86:0.0 87:0.0 88:1.0 89:0.0 90:1.0 91:1.0 92:1.0 93:1.0 94:1.0 95:1.0 96:1.0 97:0.0 98:0.0 99:0.0 100:0.0 101:0.0 102:0.0 103:0.0 104:0.0 105:0.0 106:0.0 107:0.0 108:0.0 109:0.0 110:0.0 111:0.0 112:0.0 113:0.0 114:0.0 115:0.0 116:0.0 117:0.0 118:0.0 119:0.0 120:0.0 121:0.0 122:0.0 123:0.0 124:0.0 125:0.0 126:0.0 127:0.0 128:0.0 
0.0 0.0 0.01 0.008962668485716934 0.0 0.01 0.008817534302722458 0.0 0.0 0.003519012939489197 0.008944350488596904 0.0 0.003957894387802663 0.0 0.01 0.0019759473693281744 0.01 0.0 0.01 0.004070462127085903 0.0 0.001074008155105837 0.0 0.0 0.01 1:0.0 2:0.0 3:0.0 4:0.0 5:0.0 6:0.0 7:0.0 8:0.0 9:1.0 10:1.0 11:1.0 12:1.0 13:1.0 14:1.0 15:1.0 16:0.0 17:1.0 18:0.0 19:0.0 20:0.0 21:0.0 22:0.0 23:1.0 24:1.0 25:1.0 26:0.0 27:0.0 28:0.0 29:0.0 30:0.0 31:0.0 32:1.0 33:1.0 34:1.0 35:0.0 36:0.0 37:0.0 38:0.0 39:0.0 40:1.0 41:0.0 42:1.0 43:1.0 44:0.0 45:0.0 46:0.0 47:0.0 48:1.0 49:0.0 50:0.0 51:1.0 52:1.0 53:1.0 54:0.0 55:0.0 56:1.0 57:0.0 58:1.0 59:0.0 60:0.0 61:1.0 62:0.0 63:0.0 64:1.0 65:0.0 66:1.0 67:0.0 68:0.0 69:0.0 70:0.0 71:0.0 72:1.0 73:0.0 74:1.0 75:0.0 76:0.0 77:0.0 78:0.0 79:1.0 80:1.0 81:1.0 82:1.0 83:0.0 84:0.0 85:0.0 86:0.0 87:1.0 88:0.0 89:1.0 90:0.0 91:0.0 92:0.0 93:0.0 94:1.0 95:1.0 96:0.0 97:1.0 98:0.0 99:0.0 100:0.0 101:0.0 102:1.0 103:0.0 104:0.0 105:1.0 106:0.0 107:0.0 108:0.0 109:1.0 110:1.0 111:0.0 112:0.0 113:1.0 114:1.0 115:1.0 116:1.0 117:1.0 118:0.0 119:0.0 120:0.0 121:0.0 122:0.0 123:0.0 124:0.0 125:0.0 126:0.0 127:0.0 128:0.0 
0.0 0.0 0.008650436437250752 0.0 0.0 0.0 0.0 0.0 0.0 0.0 0.0 0.0 0.0 0.0 0.0 0.0 0.0 0.0 0.0 0.0 0.0 0.0 0.0 0.0 0.0 1:0.0 2:0.0 3:0.0 4:0.0 5:0.0 6:0.0 7:0.0 8:0.0 9:0.0 10:0.0 11:0.0 12:0.0 13:0.0 14:0.0 15:0.0 16:0.0 17:0.0 18:0.0 19:0.0 20:0.0 21:0.0 22:0.0 23:0.0 24:0.0 25:0.0 26:0.0 27:1.0 28:1.0 29:1.0 30:1.0 31:0.0 32:0.0 33:0.0 34:0.0 35:1.0 36:0.0 37:0.0 38:1.0 39:1.0 40:0.0 41:0.0 42:0.0 43:0.0 44:1.0 45:0.0 46:0.0 47:1.0 48:1.0 49:0.0 50:1.0 51:1.0 52:1.0 53:0.0 54:0.0 55:0.0 56:1.0 57:1.0 58:1.0 59:0.0 60:0.0 61:0.0 62:0.0 63:0.0 64:1.0 65:1.0 66:0.0 67:0.0 68:0.0 69:0.0 70:0.0 71:0.0 72:1.0 73:1.0 74:0.0 75:0.0 76:0.0 77:0.0 78:0.0 79:0.0 80:1.0 81:1.0 82:0.0 83:0.0 84:0.0 85:0.0 86:0.0 87:0.0 88:1.0 89:1.0 90:1.0 91:0.0 92:0.0 93:0.0 94:1.0 95:1.0 96:1.0 97:0.0 98:1.0 99:1.0 100:1.0 101:1.0 102:1.0 103:0.0 104:0.0 105:0.0 106:0.0 107:0.0 108:0.0 109:0.0 110:0.0 111:0.0 112:0.0 113:0.0 114:0.0 115:0.0 116:0.0 117:0.0 118:0.0 119:0.0 120:0.0 121:0.0 122:0.0 123:0.0 124:0.0 125:0.0 126:0.0 127:0.0 128:0.0 
0.0 0.0 0.0 0.0 0.0 0.0 0.0 0.0 0.0 0.0 0.0 0.0 0.0 0.0 0.0 0.01 0.01 0.0 0.0 0.0 0.0 0.0 0.0 0.001405396664479113 0.0 1:0.0 2:0.0 3:0.0 4:0.0 5:0.0 6:0.0 7:0.0 8:0.0 9:0.0 10:1.0 11:1.0 12:1.0 13:1.0 14:0.0 15:0.0 16:0.0 17:1.0 18:0.0 19:0.0 20:0.0 21:1.0 22:1.0 23:1.0 24:0.0 25:1.0 26:0.0 27:0.0 28:0.0 29:0.0 30:0.0 31:1.0 32:1.0 33:1.0 34:0.0 35:0.0 36:0.0 37:0.0 38:0.0 39:0.0 40:1.0 41:1.0 42:0.0 43:0.0 44:0.0 45:0.0 46:0.0 47:0.0 48:1.0 49:1.0 50:0.0 51:0.0 52:0.0 53:0.0 54:0.0 55:0.0 56:1.0 57:1.0 58:0.0 59:0.0 60:0.0 61:0.0 62:0.0 63:0.0 64:1.0 65:1.0 66:0.0 67:0.0 68:0.0 69:0.0 70:0.0 71:0.0 72:1.0 73:1.0 74:0.0 75:0.0 76:0.0 77:0.0 78:0.0 79:0.0 80:1.0 81:1.0 82:0.0 83:0.0 84:0.0 85:0.0 86:0.0 87:0.0 88:1.0 89:1.0 90:0.0 91:0.0 92:0.0 93:0.0 94:0.0 95:1.0 96:1.0 97:1.0 98:0.0 99:0.0 100:0.0 101:1.0 102:1.0 103:1.0 104:0.0 105:1.0 106:1.0 107:1.0 108:1.0 109:1.0 110:0.0 111:0.0 112:0.0 113:0.0 114:0.0 115:1.0 116:0.0 117:0.0 118:0.0 119:0.0 120:0.0 121:0.0 122:0.0 123:0.0 124:0.0 125:0.0 126:0.0 127:0.0 128:0.0 
0.0 0.0 0.0 0.0 0.0 0.0 0.0 0.0 0.006823721810560668 0.0 0.0 0.0 0.0 0.0 0.0 0.0 0.0 0.0 0.0 0.0 0.0 0.0 0.0 0.0 0.0 1:0.0 2:0.0 3:0.0 4:0.0 5:0.0 6:0.0 7:0.0 8:0.0 9:0.0 10:0.0 11:0.0 12:0.0 13:0.0 14:0.0 15:0.0 16:0.0 17:0.0 18:0.0 19:0.0 20:0.0 21:0.0 22:0.0 23:0.0 24:0.0 25:0.0 26:0.0 27:1.0 28:1.0 29:1.0 30:1.0 31:1.0 32:0.0 33:0.0 34:1.0 35:1.0 36:0.0 37:0.0 38:0.0 39:1.0 40:1.0 41:0.0 42:1.0 43:0.0 44:0.0 45:0.0 46:0.0 47:0.0 48:1.0 49:0.0 50:1.0 51:0.0 52:0.0 53:0.0 54:0.0 55:0.0 56:1.0 57:1.0 58:1.0 59:0.0 60:0.0 61:0.0 62:0.0 63:0.0 64:1.0 65:1.0 66:0.0 67:0.0 68:0.0 69:0.0 70:0.0 71:0.0 72:1.0 73:1.0 74:0.0 75:0.0 76:0.0 77:0.0 78:0.0 79:0.0 80:1.0 81:1.0 82:0.0 83:1.0 84:0.0 85:0.0 86:0.0 87:1.0 88:1.0 89:1.0 90:0.0 91:1.0 92:0.0 93:0.0 94:1.0 95:1.0 96:0.0 97:1.0 98:0.0 99:1.0 100:1.0 101:1.0 102:1.0 103:0.0 104:0.0 105:0.0 106:0.0 107:0.0 108:0.0 109:0.0 110:0.0 111:0.0 112:0.0 113:0.0 114:0.0 115:0.0 116:0.0 117:0.0 118:0.0 119:0.0 120:0.0 121:0.0 122:0.0 123:0.0 124:0.0 125:0.0 126:0.0 127:0.0 128:0.0 
0.0 0.0 0.00899182776356792 0.0 0.0 0.0 0.0 0.0 0.0 0.005028398790030977 0.0 0.0 0.0 0.0 0.0 0.0 0.0 0.0 0.01 0.0 0.0 0.0 0.0 0.0 0.0 1:0.0 2:0.0 3:0.0 4:0.0 5:0.0 6:0.0 7:0.0 8:0.0 9:0.0 10:0.0 11:0.0 12:1.0 13:1.0 14:0.0 15:0.0 16:0.0 17:0.0 18:0.0 19:1.0 20:1.0 21:1.0 22:1.0 23:1.0 24:0.0 25:0.0 26:1.0 27:1.0 28:1.0 29:1.0 30:0.0 31:1.0 32:1.0 33:1.0 34:1.0 35:0.0 36:1.0 37:0.0 38:0.0 39:0.0 40:1.0 41:1.0 42:0.0 43:1.0 44:1.0 45:0.0 46:0.0 47:0.0 48:1.0 49:1.0 50:0.0 51:1.0 52:0.0 53:0.0 54:0.0 55:0.0 56:1.0 57:1.0 58:1.0 59:1.0 60:0.0 61:0.0 62:0.0 63:0.0 64:1.0 65:1.0 66:1.0 67:0.0 68:0.0 69:0.0 70:0.0 71:1.0 72:1.0 73:1.0 74:0.0 75:0.0 76:0.0 77:0.0 78:1.0 79:1.0 80:0.0 81:1.0 82:0.0 83:0.0 84:0.0 85:0.0 86:1.0 87:0.0 88:0.0 89:1.0 90:0.0 91:0.0 92:0.0 93:1.0 94:0.0 95:0.0 96:0.0 97:1.0 98:0.0 99:0.0 100:1.0 101:1.0 102:0.0 103:0.0 104:0.0 105:1.0 106:1.0 107:1.0 108:1.0 109:0.0 110:0.0 111:0.0 112:0.0 113:1.0 114:1.0 115:0.0 116:0.0 117:0.0 118:0.0 119:0.0 120:0.0 121:0.0 122:0.0 123:0.0 124:0.0 125:0.0 126:0.0 127:0.0 128:0.0 
0.0 0.01 0.01 0.0 0.0 0.001771013643474258 0.0 0.01 0.01 0.01 0.0 0.0 0.0035585910380948335 0.0 0.0 0.01 0.01 0.0 0.01 0.0 0.0 0.0 0.0 0.0 0.01 1:0.0 2:0.0 3:0.0 4:0.0 5:0.0 6:1.0 7:0.0 8:0.0 9:0.0 10:0.0 11:0.0 12:0.0 13:1.0 14:1.0 15:1.0 16:0.0 17:0.0 18:0.0 19:1.0 20:1.0 21:0.0 22:0.0 23:1.0 24:0.0 25:1.0 26:1.0 27:0.0 28:1.0 29:0.0 30:0.0 31:0.0 32:1.0 33:1.0 34:0.0 35:0.0 36:1.0 37:0.0 38:0.0 39:0.0 40:1.0 41:1.0 42:0.0 43:0.0 44:1.0 45:0.0 46:0.0 47:1.0 48:1.0 49:1.0 50:0.0 51:1.0 52:0.0 53:0.0 54:0.0 55:1.0 56:0.0 57:1.0 58:0.0 59:1.0 60:0.0 61:0.0 62:0.0 63:1.0 64:0.0 65:1.0 66:1.0 67:1.0 68:0.0 69:0.0 70:0.0 71:1.0 72:0.0 73:0.0 74:1.0 75:0.0 76:0.0 77:0.0 78:0.0 79:1.0 80:0.0 81:1.0 82:1.0 83:0.0 84:0.0 85:0.0 86:0.0 87:1.0 88:0.0 89:1.0 90:0.0 91:0.0 92:0.0 93:0.0 94:1.0 95:1.0 96:0.0 97:1.0 98:0.0 99:0.0 100:0.0 101:1.0 102:1.0 103:0.0 104:0.0 105:1.0 106:0.0 107:0.0 108:1.0 109:1.0 110:0.0 111:0.0 112:0.0 113:1.0 114:0.0 115:1.0 116:1.0 117:0.0 118:0.0 119:0.0 120:0.0 121:1.0 122:1.0 123:1.0 124:0.0 125:0.0 126:0.0 127:0.0 128:0.0 
0.0 0.0 0.01 0.0 0.0 0.01 0.0 0.0 0.0 0.0 0.006678009643438842 0.0 0.0 0.01 0.01 0.01 0.01 0.0 0.0 0.0 0.0 0.0 0.0 0.0 0.0 1:0.0 2:0.0 3:0.0 4:0.0 5:0.0 6:0.0 7:0.0 8:0.0 9:0.0 10:0.0 11:0.0 12:0.0 13:0.0 14:0.0 15:0.0 16:0.0 17:0.0 18:0.0 19:0.0 20:0.0 21:0.0 22:0.0 23:0.0 24:0.0 25:0.0 26:0.0 27:0.0 28:0.0 29:0.0 30:0.0 31:0.0 32:0.0 33:0.0 34:0.0 35:0.0 36:0.0 37:0.0 38:0.0 39:0.0 40:0.0 41:0.0 42:0.0 43:0.0 44:1.0 45:1.0 46:1.0 47:1.0 48:0.0 49:0.0 50:1.0 51:1.0 52:1.0 53:0.0 54:0.0 55:1.0 56:1.0 57:1.0 58:1.0 59:0.0 60:0.0 61:0.0 62:0.0 63:0.0 64:1.0 65:0.0 66:1.0 67:0.0 68:0.0 69:0.0 70:0.0 71:0.0 72:1.0 73:0.0 74:1.0 75:0.0 76:0.0 77:0.0 78:0.0 79:1.0 80:1.0 81:0.0 82:1.0 83:1.0 84:1.0 85:1.0 86:1.0 87:1.0 88:0.0 89:0.0 90:0.0 91:0.0 92:0.0 93:0.0 94:0.0 95:0.0 96:0.0 97:0.0 98:0.0 99:0.0 100:0.0 101:0.0 102:0.0 103:0.0 104:0.0 105:0.0 106:0.0 107:0.0 108:0.0 109:0.0 110:0.0 111:0.0 112:0.0 113:0.0 114:0.0 115:0.0 116:0.0 117:0.0 118:0.0 119:0.0 120:0.0 121:0.0 122:0.0 123:0.0 124:0.0 125:0.0 126:0.0 127:0.0 128:0.0 
0.01 0.01 0.01 0.0 0.01 0.01 3.120994024966527E-4 0.01 0.0 0.0 0.01 0.006506294849121123 0.01 0.01 0.01 0.01 0.01 0.01 0.0 0.004464727372249597 0.0 0.0 0.001062364150076996 0.01 0.0 1:0.0 2:0.0 3:0.0 4:0.0 5:0.0 6:0.0 7:0.0 8:0.0 9:0.0 10:0.0 11:0.0 12:0.0 13:0.0 14:0.0 15:0.0 16:0.0 17:0.0 18:0.0 19:0.0 20:0.0 21:0.0 22:0.0 23:0.0 24:0.0 25:0.0 26:0.0 27:0.0 28:0.0 29:0.0 30:0.0 31:0.0 32:0.0 33:0.0 34:0.0 35:0.0 36:0.0 37:0.0 38:0.0 39:0.0 40:0.0 41:0.0 42:1.0 43:1.0 44:1.0 45:1.0 46:1.0 47:1.0 48:0.0 49:1.0 50:0.0 51:0.0 52:0.0 53:0.0 54:0.0 55:1.0 56:1.0 57:1.0 58:0.0 59:0.0 60:0.0 61:0.0 62:0.0 63:0.0 64:1.0 65:1.0 66:1.0 67:0.0 68:0.0 69:0.0 70:0.0 71:0.0 72:1.0 73:0.0 74:1.0 75:1.0 76:0.0 77:0.0 78:0.0 79:0.0 80:1.0 81:0.0 82:0.0 83:1.0 84:1.0 85:1.0 86:1.0 87:1.0 88:1.0 89:0.0 90:0.0 91:0.0 92:0.0 93:0.0 94:0.0 95:0.0 96:0.0 97:0.0 98:0.0 99:0.0 100:0.0 101:0.0 102:0.0 103:0.0 104:0.0 105:0.0 106:0.0 107:0.0 108:0.0 109:0.0 110:0.0 111:0.0 112:0.0 113:0.0 114:0.0 115:0.0 116:0.0 117:0.0 118:0.0 119:0.0 120:0.0 121:0.0 122:0.0 123:0.0 124:0.0 125:0.0 126:0.0 127:0.0 128:0.0 
0.0 0.01 0.01 0.0 0.0 0.01 0.0 0.0 0.0 0.01 0.0 0.0 0.0 0.0 0.0 0.0 0.0 0.0 0.0 0.0 0.0 0.0 0.0 0.0 0.0 1:0.0 2:0.0 3:0.0 4:0.0 5:0.0 6:0.0 7:0.0 8:0.0 9:0.0 10:0.0 11:0.0 12:0.0 13:0.0 14:0.0 15:0.0 16:0.0 17:0.0 18:0.0 19:0.0 20:0.0 21:0.0 22:0.0 23:0.0 24:0.0 25:0.0 26:0.0 27:0.0 28:1.0 29:1.0 30:1.0 31:1.0 32:0.0 33:0.0 34:0.0 35:0.0 36:1.0 37:1.0 38:1.0 39:1.0 40:1.0 41:0.0 42:0.0 43:1.0 44:1.0 45:0.0 46:0.0 47:0.0 48:1.0 49:0.0 50:0.0 51:1.0 52:0.0 53:0.0 54:0.0 55:0.0 56:1.0 57:0.0 58:1.0 59:1.0 60:0.0 61:0.0 62:0.0 63:0.0 64:1.0 65:0.0 66:1.0 67:0.0 68:0.0 69:0.0 70:0.0 71:0.0 72:1.0 73:1.0 74:1.0 75:0.0 76:0.0 77:0.0 78:0.0 79:0.0 80:1.0 81:1.0 82:0.0 83:0.0 84:0.0 85:0.0 86:0.0 87:0.0 88:1.0 89:1.0 90:1.0 91:1.0 92:1.0 93:0.0 94:1.0 95:1.0 96:1.0 97:0.0 98:0.0 99:0.0 100:1.0 101:1.0 102:0.0 103:0.0 104:0.0 105:0.0 106:0.0 107:0.0 108:0.0 109:0.0 110:0.0 111:0.0 112:0.0 113:0.0 114:0.0 115:0.0 116:0.0 117:0.0 118:0.0 119:0.0 120:0.0 121:0.0 122:0.0 123:0.0 124:0.0 125:0.0 126:0.0 127:0.0 128:0.0 
0.01 0.01 0.01 0.0 0.0 0.0 0.0 0.0 0.01 0.01 0.00912899472173801 0.0 0.0 0.0 0.0 0.0 0.0 0.001047493863369832 0.0 0.0 0.0 0.0 0.0 0.0 0.0 1:0.0 2:0.0 3:0.0 4:0.0 5:0.0 6:0.0 7:0.0 8:0.0 9:0.0 10:0.0 11:0.0 12:0.0 13:0.0 14:0.0 15:0.0 16:0.0 17:0.0 18:0.0 19:0.0 20:0.0 21:0.0 22:0.0 23:0.0 24:0.0 25:0.0 26:0.0 27:0.0 28:0.0 29:0.0 30:0.0 31:0.0 32:0.0 33:0.0 34:1.0 35:1.0 36:1.0 37:1.0 38:0.0 39:0.0 40:0.0 41:0.0 42:1.0 43:1.0 44:0.0 45:1.0 46:1.0 47:0.0 48:0.0 49:0.0 50:0.0 51:1.0 52:0.0 53:0.0 54:1.0 55:1.0 56:0.0 57:1.0 58:1.0 59:1.0 60:0.0 61:0.0 62:0.0 63:1.0 64:1.0 65:1.0 66:0.0 67:0.0 68:0.0 69:0.0 70:0.0 71:0.0 72:1.0 73:1.0 74:0.0 75:0.0 76:0.0 77:0.0 78:0.0 79:0.0 80:1.0 81:1.0 82:0.0 83:0.0 84:0.0 85:0.0 86:0.0 87:0.0 88:1.0 89:1.0 90:1.0 91:1.0 92:1.0 93:1.0 94:1.0 95:1.0 96:1.0 97:0.0 98:0.0 99:0.0 100:0.0 101:0.0 102:0.0 103:0.0 104:0.0 105:0.0 106:0.0 107:0.0 108:0.0 109:0.0 110:0.0 111:0.0 112:0.0 113:0.0 114:0.0 115:0.0 116:0.0 117:0.0 118:0.0 119:0.0 120:0.0 121:0.0 122:0.0 123:0.0 124:0.0 125:0.0 126:0.0 127:0.0 128:0.0 
0.0 0.0 0.0 0.0 0.0 0.0 0.0 0.0 0.0 0.0 0.0 0.0 0.0 0.0 0.0 0.0 0.009740406960329124 0.0 0.0 0.0 0.0 0.0 0.0 0.0 0.0 1:0.0 2:0.0 3:0.0 4:0.0 5:0.0 6:0.0 7:0.0 8:0.0 9:0.0 10:0.0 11:0.0 12:0.0 13:0.0 14:0.0 15:0.0 16:0.0 17:0.0 18:1.0 19:0.0 20:0.0 21:0.0 22:0.0 23:0.0 24:0.0 25:0.0 26:1.0 27:1.0 28:1.0 29:1.0 30:0.0 31:0.0 32:0.0 33:1.0 34:0.0 35:0.0 36:0.0 37:1.0 38:1.0 39:0.0 40:0.0 41:1.0 42:0.0 43:0.0 44:0.0 45:0.0 46:0.0 47:1.0 48:0.0 49:1.0 50:0.0 51:0.0 52:0.0 53:0.0 54:0.0 55:1.0 56:1.0 57:1.0 58:0.0 59:0.0 60:0.0 61:0.0 62:0.0 63:0.0 64:1.0 65:1.0 66:0.0 67:0.0 68:0.0 69:0.0 70:0.0 71:0.0 72:1.0 73:1.0 74:0.0 75:0.0 76:0.0 77:0.0 78:0.0 79:0.0 80:1.0 81:1.0 82:0.0 83:0.0 84:0.0 85:0.0 86:0.0 87:1.0 88:1.0 89:1.0 90:0.0 91:0.0 92:0.0 93:0.0 94:0.0 95:1.0 96:0.0 97:1.0 98:0.0 99:0.0 100:0.0 101:0.0 102:1.0 103:0.0 104:0.0 105:1.0 106:1.0 107:1.0 108:1.0 109:1.0 110:1.0 111:0.0 112:0.0 113:0.0 114:0.0 115:0.0 116:0.0 117:0.0 118:0.0 119:0.0 120:0.0 121:0.0 122:0.0 123:0.0 124:0.0 125:0.0 126:0.0 127:0.0 128:0.0 
0.01 0.01 0.01 0.0 0.0 0.0 0.0 0.0 0.0 0.01 0.0 0.0 0.0 0.0 0.0 0.0 0.008695748537222495 0.0 0.0 0.0 0.0 0.0 0.0 0.0 0.0 1:0.0 2:0.0 3:0.0 4:0.0 5:0.0 6:0.0 7:0.0 8:0.0 9:0.0 10:0.0 11:0.0 12:0.0 13:0.0 14:0.0 15:0.0 16:0.0 17:0.0 18:0.0 19:0.0 20:0.0 21:0.0 22:0.0 23:0.0 24:0.0 25:0.0 26:0.0 27:0.0 28:0.0 29:0.0 30:0.0 31:0.0 32:0.0 33:0.0 34:0.0 35:0.0 36:0.0 37:0.0 38:0.0 39:0.0 40:0.0 41:0.0 42:0.0 43:0.0 44:0.0 45:1.0 46:1.0 47:1.0 48:0.0 49:0.0 50:1.0 51:1.0 52:1.0 53:1.0 54:1.0 55:1.0 56:1.0 57:1.0 58:1.0 59:1.0 60:0.0 61:0.0 62:0.0 63:0.0 64:1.0 65:1.0 66:0.0 67:0.0 68:0.0 69:0.0 70:0.0 71:0.0 72:1.0 73:1.0 74:0.0 75:0.0 76:0.0 77:0.0 78:1.0 79:1.0 80:1.0 81:1.0 82:1.0 83:1.0 84:1.0 85:1.0 86:1.0 87:0.0 88:0.0 89:0.0 90:0.0 91:0.0 92:0.0 93:0.0 94:0.0 95:0.0 96:0.0 97:0.0 98:0.0 99:0.0 100:0.0 101:0.0 102:0.0 103:0.0 104:0.0 105:0.0 106:0.0 107:0.0 108:0.0 109:0.0 110:0.0 111:0.0 112:0.0 113:0.0 114:0.0 115:0.0 116:0.0 117:0.0 118:0.0 119:0.0 120:0.0 121:0.0 122:0.0 123:0.0 124:0.0 125:0.0 126:0.0 127:0.0 128:0.0 
0.01 0.01 0.01 0.01 0.01 0.01 0.01 0.01 0.01 0.01 0.01 0.01 0.01 0.01 0.01 0.01 0.01 0.01 0.01 0.01 0.01 0.01 0.01 0.01 0.01 1:0.0 2:0.0 3:0.0 4:0.0 5:0.0 6:0.0 7:0.0 8:0.0 9:0.0 10:0.0 11:0.0 12:0.0 13:0.0 14:0.0 15:0.0 16:0.0 17:0.0 18:0.0 19:0.0 20:0.0 21:0.0 22:0.0 23:0.0 24:0.0 25:0.0 26:0.0 27:0.0 28:0.0 29:0.0 30:0.0 31:0.0 32:0.0 33:0.0 34:0.0 35:0.0 36:0.0 37:0.0 38:0.0 39:0.0 40:0.0 41:0.0 42:0.0 43:0.0 44:0.0 45:0.0 46:1.0 47:1.0 48:1.0 49:0.0 50:0.0 51:1.0 52:1.0 53:1.0 54:1.0 55:0.0 56:0.0 57:1.0 58:1.0 59:0.0 60:0.0 61:0.0 62:1.0 63:0.0 64:0.0 65:1.0 66:0.0 67:0.0 68:0.0 69:0.0 70:1.0 71:0.0 72:0.0 73:1.0 74:0.0 75:0.0 76:0.0 77:0.0 78:1.0 79:0.0 80:0.0 81:1.0 82:1.0 83:1.0 84:1.0 85:1.0 86:1.0 87:0.0 88:0.0 89:0.0 90:0.0 91:0.0 92:0.0 93:0.0 94:0.0 95:0.0 96:0.0 97:0.0 98:0.0 99:0.0 100:0.0 101:0.0 102:0.0 103:0.0 104:0.0 105:0.0 106:0.0 107:0.0 108:0.0 109:0.0 110:0.0 111:0.0 112:0.0 113:0.0 114:0.0 115:0.0 116:0.0 117:0.0 118:0.0 119:0.0 120:0.0 121:0.0 122:0.0 123:0.0 124:0.0 125:0.0 126:0.0 127:0.0 128:0.0 
0.01 0.01 0.01 0.0 0.01 0.0 0.0 0.01 0.01 0.01 0.0 0.004646850270692381 0.0 0.01 0.0 0.006478902576317031 0.01 0.01 0.01 0.0 0.0 0.0 0.0018682530942527042 0.0 0.0 1:0.0 2:0.0 3:0.0 4:0.0 5:0.0 6:0.0 7:0.0 8:0.0 9:0.0 10:0.0 11:0.0 12:0.0 13:0.0 14:0.0 15:0.0 16:0.0 17:0.0 18:0.0 19:0.0 20:0.0 21:0.0 22:0.0 23:0.0 24:0.0 25:0.0 26:0.0 27:0.0 28:0.0 29:0.0 30:0.0 31:0.0 32:0.0 33:0.0 34:0.0 35:0.0 36:0.0 37:0.0 38:0.0 39:0.0 40:0.0 41:1.0 42:1.0 43:1.0 44:1.0 45:1.0 46:1.0 47:1.0 48:0.0 49:1.0 50:0.0 51:0.0 52:1.0 53:0.0 54:0.0 55:1.0 56:0.0 57:1.0 58:0.0 59:0.0 60:0.0 61:0.0 62:0.0 63:1.0 64:1.0 65:1.0 66:0.0 67:0.0 68:0.0 69:0.0 70:0.0 71:1.0 72:1.0 73:1.0 74:0.0 75:0.0 76:0.0 77:0.0 78:1.0 79:0.0 80:0.0 81:1.0 82:1.0 83:1.0 84:1.0 85:1.0 86:0.0 87:0.0 88:0.0 89:0.0 90:0.0 91:0.0 92:0.0 93:0.0 94:0.0 95:0.0 96:0.0 97:0.0 98:0.0 99:0.0 100:0.0 101:0.0 102:0.0 103:0.0 104:0.0 105:0.0 106:0.0 107:0.0 108:0.0 109:0.0 110:0.0 111:0.0 112:0.0 113:0.0 114:0.0 115:0.0 116:0.0 117:0.0 118:0.0 119:0.0 120:0.0 121:0.0 122:0.0 123:0.0 124:0.0 125:0.0 126:0.0 127:0.0 128:0.0 
